tree
version=v4
num_class=1
num_tree_per_iteration=1
label_index=0
max_feature_idx=17
objective=regression
feature_names=ret1min ret2min ret3min ret4min ret5min ret6min ret7min ret8min ret9min ret10min bop cci mfi rsi stochrsi slowk slowd natr
feature_infos=[-0.048333763513084382:0.052051772407632591] [-0.075862113746326676:0.066498123642109386] [-0.096426573955105455:0.061243677575222977] [-0.095641005314654137:0.070665602692723928] [-0.10394662285527545:0.078823866671392739] [-0.10282729679170333:0.081136577641481633] [-0.10766975963351333:0.081261217593698643] [-0.12436432223962479:0.099444122825945946] [-0.12890801465423529:0.099326732673267415] [-0.14752944847447502:0.10883930035188216] [-1:1] [-580.65367046262224:538.51112238818348] [0:100] [3.3070311233440322:97.421269360825136] [0:100] [0:100] [0:100] [0.0044356831608182764:6.652818909024381]
tree_sizes=1754 1767 1740 1745 1741 1769 1744 1744 1757 1757 1742 1753 1732 1735 1751 1733 1729 1753 1735 1745 1718 1725 1747 1762 1715 1739 1761 1741 1755 1712 1747 1777 1736 1749 1746 1727 1759 1717 1757 1741 1718 1767 1732 1722 1754 1718 1744 1762 1731 1744 1736 1751

Tree=0
num_leaves=16
num_cat=0
split_feature=13 17 17 0 0 1 13 10 0 1 16 2 13 0 0
split_gain=0.000602913 0.000549178 0.000193148 0.000200088 0.000198075 0.000197842 0.000156889 0.000149812 0.000137623 0.000120896 0.000107394 8.87878e-05 9.11472e-05 8.53189e-05 7.90412e-05
threshold=26.225099087345971 0.39461531214688783 0.71872814757397774 -0.0047545096460714911 0.0033156525834872057 -0.00065076828243754148 44.006817258895104 -0.61176470588219634 -0.0019557925525632287 -0.0018015023619398216 22.389091506421931 -0.0011591582550685706 53.973619531681685 -0.0014429098808180771 0.0049304738039320792
decision_type=2 2 2 2 2 2 2 2 2 2 2 2 2 2 2
left_child=1 9 3 -2 6 7 -4 11 -9 10 -1 12 -5 -7 -15
right_child=2 -3 4 5 -6 13 -8 8 -10 -11 -12 -13 -14 14 -16
leaf_value=5.0864521681508247e-05 -3.8709542780655774e-05 0.00013348448469933705 -3.10750458726594e-05 1.2668686576554366e-05 8.1040280155778022e-05 -1.0779082809174924e-05 3.973016338208469e-05 -2.0936962341523256e-05 4.2428302293775697e-06 1.1013145842696777e-05 1.8430982360349983e-06 6.0332024001080563e-06 3.2824317311548845e-05 1.929823041665627e-06 2.520137756541956e-05
leaf_weight=2138 1158 515 508 25086 620 5281 815 2250 61534 2817 565 22781 2464 388403 1465
leaf_count=2138 1158 515 508 25086 620 5281 815 2250 61534 2817 565 22781 2464 388403 1465
internal_value=3.30095e-06 3.47238e-05 2.93083e-06 2.81104e-06 3.43999e-05 2.90545e-06 1.25427e-05 6.57318e-06 3.35461e-06 2.55097e-05 4.06177e-05 1.0652e-05 1.44714e-05 1.84625e-06 2.01727e-06
internal_weight=518400 6035 512365 510422 1943 509264 1323 114115 63784 5520 2703 50331 27550 395149 389868
internal_count=518400 6035 512365 510422 1943 509264 1323 114115 63784 5520 2703 50331 27550 395149 389868
is_linear=0
shrinkage=1


Tree=1
num_leaves=16
num_cat=0
split_feature=13 17 2 17 9 8 0 1 10 10 10 0 8 17 17
split_gain=0.000499916 0.000436638 0.000141169 0.000139793 0.00017018 0.000372233 0.000129912 0.000147046 0.00014093 0.000127399 0.000118131 0.000103056 7.68839e-05 0.000125899 7.813e-05
threshold=28.391907805868524 0.41565785025532381 -0.0028443474366071637 0.71872814757397774 0.0068717960380635388 -0.0094178567139419616 -0.0037049795851377128 -0.00065076828243754148 -0.72621457192174077 -0.61176470588219634 -0.8466998335610656 -0.0019557925525632287 0.0028844657383120258 0.59134684824423844 0.24921723853580305
decision_type=2 2 2 2 2 2 2 2 2 2 2 2 2 2 2
left_child=1 2 10 6 5 -5 8 9 -2 -8 -1 -11 13 -9 -14
right_child=3 -3 -4 4 -6 -7 7 12 -10 11 -12 -13 14 -15 -16
leaf_value=7.5364246318561839e-05 -8.3159539048945737e-06 9.7846625608001762e-05 6.4442780487358424e-06 6.7261781287927073e-05 6.3939733649809197e-05 -4.7055883638340466e-05 6.6768132908369625e-06 -8.8693412324674635e-07 -6.0391337922676113e-05 -2.2983522311279358e-05 2.4261207191372203e-05 5.4474144238832568e-07 -2.6322825460078391e-06 4.807388796639714e-05 -1.1790901180430088e-05
leaf_weight=528 1848 707 5672 504 744 655 47981 346111 723 1921 3157 60231 34306 526 12786
leaf_count=528 1848 707 5672 504 744 655 47981 346111 723 1921 3157 60231 34306 526 12786
internal_value=-8.98324e-14 2.20702e-05 1.63447e-05 -4.36944e-07 2.66156e-05 2.65603e-06 -5.38598e-07 -4.2419e-07 -2.29603e-05 2.80587e-06 3.15834e-05 -1.82472e-07 -1.3277e-06 -8.12639e-07 -5.11895e-06
internal_weight=518400 10064 9357 508336 1903 1159 506433 503862 2571 110133 3685 62152 393729 346637 47092
internal_count=518400 10064 9357 508336 1903 1159 506433 503862 2571 110133 3685 62152 393729 346637 47092
is_linear=0
shrinkage=0.1


Tree=2
num_leaves=16
num_cat=0
split_feature=13 17 17 9 9 1 3 9 16 11 1 16 13 16 16
split_gain=0.000409526 0.000381301 0.000126684 0.000126292 0.000219841 0.000117645 0.000101085 0.000107148 8.93728e-05 8.89561e-05 8.50599e-05 8.76776e-05 7.15681e-05 6.87405e-05 6.08355e-05
threshold=26.225099087345971 0.39461531214688783 0.71872814757397774 0.0068717960380635388 -0.011537058175357216 0.00064522532935218379 -0.0074216948873951907 -0.0020523000158402245 20.490457514860271 -150.8208661352696 -0.0018015023619398216 22.389091506421931 40.715643353671858 14.14385823806561 21.74640885155706
decision_type=2 2 2 2 2 2 2 2 2 2 2 2 2 2 2
left_child=1 10 5 4 -4 6 9 -8 -7 -2 11 13 14 -1 -11
right_child=2 -3 3 -5 -6 8 7 -9 -10 12 -12 -13 -14 -15 -16
leaf_value=2.6848225342875549e-05 5.0612401403622644e-06 0.00010819030527930683 5.5467070702998424e-05 5.754576381311152e-05 -3.1304112621044743e-05 -1.0600881157264564e-05 4.3759317980966925e-06 -1.5675218232487461e-07 -2.1379845898203764e-06 -2.5678753221745423e-05 6.0602331244506803e-06 -4.1424471987537584e-06 -4.3112541853213989e-06 6.4320258263121752e-05 -7.5008441308909823e-05
leaf_weight=1379 890 515 503 744 696 14130 62121 324996 106775 500 2817 565 510 759 500
leaf_count=1379 890 515 503 744 696 14130 62121 324996 106775 500 2817 565 510 759 500
internal_value=2.71926e-13 2.58976e-05 -3.0504e-07 2.51808e-05 5.09781e-06 -4.02056e-07 4.43769e-07 5.70612e-07 -3.12703e-06 -2.00158e-05 1.82199e-05 3.08925e-05 -3.47962e-05 4.0151e-05 -5.03436e-05
internal_weight=518400 6035 512365 1943 1199 510422 389517 387117 120905 2400 5520 2703 1510 2138 1000
internal_count=518400 6035 512365 1943 1199 510422 389517 387117 120905 2400 5520 2703 1510 2138 1000
is_linear=0
shrinkage=0.1


Tree=3
num_leaves=16
num_cat=0
split_feature=13 17 0 17 1 3 0 0 15 11 4 2 10 15 17
split_gain=0.000340623 0.000300004 0.000135556 0.000156265 0.000117361 0.00016301 0.000114166 0.000104658 0.0001271 0.000149807 0.000165741 0.000101316 9.57221e-05 9.15257e-05 8.42824e-05
threshold=28.391907805868524 0.41565785025532381 0.0033156525834872057 0.71872814757397774 0.00064522532935218379 0.00644147469900025 0.0013277782187446354 -0.0037049795851377128 63.435512701879865 -133.69987321562763 -0.0056638965613811645 -0.0028443474366071637 -0.8466998335610656 87.335617512584591 0.2457561791620633
decision_type=2 2 2 2 2 2 2 2 2 2 2 2 2 2 2
left_child=1 11 4 13 5 6 7 8 9 -2 -11 12 -1 -4 -6
right_child=2 -3 3 -5 14 -7 -8 -9 -10 10 -12 -13 -14 -15 -16
leaf_value=6.5791781777203474e-05 1.0407816159035223e-05 8.1028935382392186e-05 1.5605786762262226e-05 6.2557326486188281e-05 -2.1213732868494944e-06 5.0185204520020773e-05 1.334624377025624e-05 1.3504191873747074e-07 2.1707045386314347e-05 -8.4147616640925041e-05 -1.8254568265488497e-05 5.0845283283066213e-06 1.9790431339192115e-05 -1.811745079197624e-05 -9.3609927363204137e-06
leaf_weight=528 635 707 4228 613 97136 654 6512 376151 593 682 867 5672 3157 994 19271
leaf_count=528 635 707 4228 613 97136 654 6512 376151 593 682 867 5672 3157 994 19271
internal_value=-3.61128e-14 1.82177e-05 -3.60674e-07 1.47935e-05 -5.36643e-07 3.02501e-07 2.17862e-07 -7.75343e-09 -1.93497e-05 -3.04974e-05 -4.72662e-05 1.34718e-05 2.63817e-05 9.18662e-06 -3.31988e-06
internal_weight=518400 10064 508336 5835 502501 386094 385440 378928 2777 2184 1549 9357 3685 5222 116407
internal_count=518400 10064 508336 5835 502501 386094 385440 378928 2777 2184 1549 9357 3685 5222 116407
is_linear=0
shrinkage=0.1


Tree=4
num_leaves=16
num_cat=0
split_feature=13 17 8 0 10 17 0 15 8 13 10 12 1 17 13
split_gain=0.000278008 0.000264976 0.000114043 0.000122786 0.00017445 0.00012459 7.76348e-05 0.000125009 0.000145072 0.000115632 7.70612e-05 7.3823e-05 6.97535e-05 8.64134e-05 9.44416e-05
threshold=26.225099087345971 0.39461531214688783 -0.001329097624926334 -0.0037049795851377128 -0.70431102687778691 0.71872814757397774 0.0033156525834872057 87.947984477573613 0.011071225385254626 58.012070247866028 -0.71908657921741126 28.76764502069776 0.001664642479201617 0.47108015491706062 57.371773232647392
decision_type=2 2 2 2 2 2 2 2 2 2 2 2 2 2 2
left_child=1 -1 3 4 11 10 12 8 9 -8 -5 -2 -4 -14 -15
right_child=2 -3 6 5 -6 -7 7 -9 -10 -11 -12 -13 13 14 -16
leaf_value=1.49373964417614e-05 2.9207846701062581e-05 8.9938625494221365e-05 -7.9165192871667614e-07 8.1552861980180899e-06 -6.1840685341236077e-05 4.929292477387075e-05 3.3337253605389702e-05 -1.8569280570273294e-05 6.949211623847603e-05 -6.423948577160677e-06 1.4880201041318035e-06 -1.616382611440213e-05 -4.574990782900147e-06 -5.5674190322180888e-06 -6.1301272385176197e-05
leaf_weight=5520 512 515 360720 21519 700 579 1393 1029 526 1540 89174 1197 32255 649 572
leaf_count=5520 512 515 360720 21519 700 579 1393 1029 526 1540 89174 1197 32255 649 572
internal_value=-9.06269e-14 2.13377e-05 -2.5133e-07 2.5426e-06 -1.97933e-05 3.02616e-06 -1.04799e-06 1.20301e-05 2.11329e-05 1.24603e-05 2.78415e-06 -2.57091e-06 -1.19689e-06 -5.56351e-06 -3.1677e-05
internal_weight=518400 6035 512365 113681 2409 111272 398684 4488 3459 2933 110693 1709 394196 33476 1221
internal_count=518400 6035 512365 113681 2409 111272 398684 4488 3459 2933 110693 1709 394196 33476 1221
is_linear=0
shrinkage=0.1


Tree=5
num_leaves=16
num_cat=0
split_feature=13 17 0 17 1 1 3 0 16 8 0 10 8 10 9
split_gain=0.000232111 0.000207463 9.18059e-05 0.00011099 8.7015e-05 8.49066e-05 0.000132314 9.16908e-05 8.46334e-05 8.2268e-05 7.05965e-05 8.44937e-05 8.24816e-05 6.81606e-05 6.42777e-05
threshold=28.391907805868524 0.41565785025532381 0.0033156525834872057 0.71872814757397774 -0.0012984570528617454 0.00064522532935218379 0.00644147469900025 0.0013277782187446354 20.490457514860271 0.014030232468423167 -0.0037049795851377128 -0.69000000000003581 -0.0017822664188688606 -0.85475411719484307 -0.0072562768916721856
decision_type=2 2 2 2 2 2 2 2 2 2 2 2 2 2 2
left_child=1 4 5 -4 13 6 7 10 -7 14 11 -2 -12 -1 -10
right_child=2 -3 3 -5 -6 8 -8 -9 9 -11 12 -13 -14 -15 -16
leaf_value=4.7667098356820745e-05 -6.1147604664662406e-06 6.7271370411761769e-05 7.4481107077455718e-06 5.2427543346775373e-05 4.1313957184902764e-07 -1.0294597245888711e-05 4.5212560643872019e-05 1.1960320488288974e-05 3.06995122653774e-05 -3.3328601480944651e-05 3.3671432141167472e-06 -4.7009393263905039e-05 -5.6319392905431711e-07 1.5054558562802829e-05 -1.7797369895769793e-06
leaf_weight=750 2113 707 5222 613 4203 13372 654 6512 613 823 64431 664 311720 4404 101599
leaf_count=750 2113 707 5222 613 4203 13372 654 6512 613 823 64431 664 311720 4404 101599
internal_value=2.75692e-16 1.50385e-05 -2.97732e-07 1.21735e-05 1.10919e-05 -4.42546e-07 2.71202e-07 1.94947e-07 -2.80988e-06 -1.8385e-06 -7.24447e-09 -1.5893e-05 1.10035e-07 1.98003e-05 -1.58495e-06
internal_weight=518400 10064 508336 5835 9357 502501 386094 385440 116407 103035 378928 2777 376151 5154 102212
internal_count=518400 10064 508336 5835 9357 502501 386094 385440 116407 103035 378928 2777 376151 5154 102212
is_linear=0
shrinkage=0.1


Tree=6
num_leaves=16
num_cat=0
split_feature=5 16 2 10 0 9 16 3 0 4 5 8 17 4 14
split_gain=0.000172719 0.000432249 0.000106419 0.00012718 0.000156638 0.000112662 9.21297e-05 7.78014e-05 7.4138e-05 9.23975e-05 9.84831e-05 7.81706e-05 9.3586e-05 5.95952e-05 5.94e-05
threshold=-0.01168879075802076 10.257875566373576 -0.0015983716817992708 -0.67552406954127886 -0.0028246958527926576 0.002652503907578319 18.231361868847841 -0.0056206548498045064 0.0029519140591883768 0.00038034801027353465 -0.0013600597837422066 0.0028844657383120258 0.2457561791620633 -0.0012115817756886969 41.337980251284861
decision_type=2 2 2 2 2 2 2 2 2 2 2 2 2 2 2
left_child=1 -1 3 5 7 -2 -3 -5 11 10 -10 -4 -13 -7 -14
right_child=2 6 8 4 -6 13 -8 -9 9 -11 -12 12 14 -15 -16
leaf_value=0.00010868563549904563 8.5360922444237449e-06 -2.6044025055018844e-05 -3.2327193534392003e-07 -5.6589584262721466e-05 1.8150469241301127e-06 6.511950984435262e-05 2.4032430843130032e-05 -8.5916174508590807e-06 1.0612589743442313e-05 4.2707998548653623e-06 6.7769804162582547e-05 -1.918163792270038e-06 -3.7462875076917519e-05 2.0875184092899049e-05 -1.003231727019401e-05
leaf_weight=511 18154 653 402855 683 36653 528 840 668 729 5950 514 35888 844 719 12211
leaf_count=511 18154 653 402855 683 36653 528 840 668 729 5950 514 35888 844 719 12211
internal_value=-1.83618e-13 2.93008e-05 -1.13709e-07 3.94554e-06 5.82492e-07 1.05333e-05 2.13027e-06 -3.28571e-05 -6.2139e-07 9.45107e-06 3.4248e-05 -7.81752e-07 -4.55555e-06 3.96089e-05 -1.18057e-05
internal_weight=518400 2004 516396 57405 38004 19401 1493 1351 458991 7193 1243 451798 48943 1247 13055
internal_count=518400 2004 516396 57405 38004 19401 1493 1351 458991 7193 1243 451798 48943 1247 13055
is_linear=0
shrinkage=0.1


Tree=7
num_leaves=16
num_cat=0
split_feature=13 3 10 1 3 10 1 16 1 16 15 8 13 17 1
split_gain=0.000178728 0.000212614 0.000196752 7.77155e-05 0.000173126 9.73186e-05 0.000124136 0.000132621 0.00013419 6.86927e-05 7.82378e-05 6.00854e-05 0.000134337 9.73436e-05 8.56312e-05
threshold=26.225099087345971 -0.0074216948873951907 -0.50349137101398111 -0.0011160020344468389 0.0048035445826191134 -0.72621457192174077 -0.0053093421144465016 31.971404852182435 -0.0067814011012947697 86.143406951237054 13.833656918509012 0.014030232468423167 65.45609156347335 0.59134684824423844 0.0046499873096629294
decision_type=2 2 2 2 2 2 2 2 2 2 2 2 2 2 2
left_child=1 2 -1 4 5 9 7 -7 -9 10 -2 13 -13 -5 -14
right_child=3 -3 -4 11 -6 6 -8 8 -10 -11 -12 12 14 -15 -16
leaf_value=9.4793278278476555e-05 2.0844883657059267e-05 8.0456878033621809e-06 1.1552164628149931e-05 -7.0993849513327191e-07 5.8141020642437783e-05 -5.6414945595120969e-05 8.4148772704198569e-07 3.5022641140751063e-05 -3.632164518868171e-05 2.8960689031558054e-05 3.8639583145372179e-06 -5.6169311122959214e-05 -2.7804247790119654e-05 2.2969102804872704e-05 2.915023510101286e-05
leaf_weight=609 3173 4894 532 439676 563 796 43515 503 554 1428 18727 628 501 1743 558
leaf_count=609 3173 4894 532 439676 563 796 43515 503 554 1428 18727 628 501 1743 558
internal_value=-1.56653e-13 1.71086e-05 5.59815e-05 -2.01518e-07 2.91364e-06 2.46102e-06 -2.37938e-07 -2.55867e-05 -2.37067e-06 7.70992e-06 6.32425e-06 -6.88427e-07 -1.95249e-05 -6.16439e-07 2.20576e-06
internal_weight=518400 6035 1141 512365 69259 68696 45368 1853 1057 23328 21900 443106 1687 441419 1059
internal_count=518400 6035 1141 512365 69259 68696 45368 1853 1057 23328 21900 443106 1687 441419 1059
is_linear=0
shrinkage=0.1


Tree=8
num_leaves=16
num_cat=0
split_feature=17 2 7 13 0 2 10 11 1 10 0 0 16 13 13
split_gain=0.000155144 0.000258706 0.000151127 0.000100222 8.47178e-05 6.59565e-05 0.000100831 7.30312e-05 5.48337e-05 8.17234e-05 0.000117359 6.48603e-05 6.80465e-05 6.35766e-05 5.91142e-05
threshold=0.71872814757397774 -0.005547702073526505 -0.00061485149347345603 28.391907805868524 -0.0047545096460714911 -0.0028443474366071637 -0.85475411719484307 -245.02943097509981 -0.00065076828243754148 -0.61176470588219634 -0.0019557925525632287 -0.0014429098808180771 72.119920791890067 48.016320732644921 56.497657698571864
decision_type=2 2 2 2 2 2 2 2 2 2 2 2 2 2 2
left_child=3 -2 -3 5 -5 6 -1 -8 9 14 -11 12 13 -10 -6
right_child=1 2 -4 4 8 -7 7 -9 11 10 -12 -13 -14 -15 -16
leaf_value=5.9803750390009891e-05 8.2938278665623208e-05 -3.805227571238735e-05 2.897544090574281e-05 -2.8968091865320555e-05 3.6734455350925849e-06 2.8756167707232074e-06 -2.03683555179837e-05 1.935273982508353e-05 -9.1965203105756607e-06 -2.4030590141288693e-05 1.1267992124226673e-07 -6.5082416486506402e-07 3.3389982532962824e-06 -3.729963644239943e-05 1.584107781220115e-05
leaf_weight=538 596 527 930 1029 44852 5728 544 3104 2023 2083 60231 388605 1890 1337 4383
leaf_count=538 596 527 930 1029 44852 5728 544 3104 2023 2083 60231 388605 1890 1337 4383
internal_value=1.2297e-13 2.74354e-05 4.73137e-06 -1.09083e-07 -3.04011e-07 9.84834e-06 1.93896e-05 1.34294e-05 -2.45651e-07 1.71157e-06 -6.94369e-07 -7.99982e-07 -1.18407e-05 -2.03792e-05 4.75663e-06
internal_weight=518400 2053 1457 516347 506433 9914 4186 3648 505404 111549 62314 393855 5250 3360 49235
internal_count=518400 2053 1457 516347 506433 9914 4186 3648 505404 111549 62314 393855 5250 3360 49235
is_linear=0
shrinkage=0.1


Tree=9
num_leaves=16
num_cat=0
split_feature=13 17 0 11 7 8 0 14 10 17 17 1 8 10 3
split_gain=0.000125686 0.00013416 6.03653e-05 0.000109439 9.51243e-05 5.49826e-05 9.4049e-05 0.000100921 6.98981e-05 9.20785e-05 6.68759e-05 5.44489e-05 4.49214e-05 6.66123e-05 0.000106654
threshold=28.391907805868524 0.41565785025532381 0.0049304738039320792 114.42891781261299 0.0030545141271036695 0.0028844657383120258 -0.0047545096460714911 1.0000000180025095e-35 -0.51798103737648105 0.47108015491706062 0.24921723853580305 -0.0012984570528617454 -0.0022151218450726091 0.49851189158075254 0.0039303318311602062
decision_type=2 2 2 2 2 2 2 2 2 2 2 2 2 2 2
left_child=1 11 5 4 -4 6 7 -2 9 -7 -10 -1 13 14 -8
right_child=2 -3 3 -5 -6 8 12 -9 10 -11 -12 -13 -14 -15 -16
leaf_value=1.4781198345415287e-05 1.0185270658487419e-06 5.3069628790248008e-05 8.4040494935204469e-06 -1.5547087911497318e-05 6.3044372894026192e-05 2.6758001469843723e-06 3.5111962098934665e-06 -5.8619921007943273e-05 -2.2609668307897653e-06 4.6267602357374926e-05 -1.0451127585631413e-05 -5.5476258956069758e-07 -2.564080881850452e-07 -4.9416229078471571e-06 4.6995359386943294e-05
leaf_weight=5154 570 707 667 664 610 7110 54011 565 34117 520 14086 4203 384923 9923 570
leaf_count=5154 570 707 667 664 610 7110 54011 565 34117 520 14086 4203 384923 9923 570
internal_value=8.92344e-14 1.10663e-05 -2.19089e-07 1.73824e-05 3.45048e-05 -2.86555e-07 8.02504e-08 -2.86693e-05 -3.24661e-06 5.64667e-06 -4.65432e-06 7.89255e-06 1.52856e-07 2.59511e-06 3.96531e-06
internal_weight=518400 10064 508336 1941 1277 506395 450562 1135 55833 7630 48203 9357 449427 64504 54581
internal_count=518400 10064 508336 1941 1277 506395 450562 1135 55833 7630 48203 9357 449427 64504 54581
is_linear=0
shrinkage=0.1


Tree=10
num_leaves=16
num_cat=0
split_feature=8 15 7 16 0 4 1 7 0 15 11 1 7 10 0
split_gain=0.000106404 0.000228273 0.000175599 0.000130691 0.000208132 0.000122784 0.00010339 8.87259e-05 6.31694e-05 0.000201752 0.000228019 7.4418e-05 0.000103013 7.61639e-05 8.19148e-05
threshold=-0.0094178567139419616 8.842257023425546 -0.013287307758475862 31.971404852182435 -0.0047545096460714911 -0.0040132134243578968 0.00031970861188312943 -0.013287307758475862 -0.0037049795851377128 57.48349304634106 -70.683398533543325 -0.0011727065190350048 0.0089415832393006118 -0.56131962802388569 -0.0014931506679407012
decision_type=2 2 2 2 2 2 2 2 2 2 2 2 2 2 2
left_child=1 2 -1 4 -3 6 7 -6 9 10 -2 12 13 -10 -15
right_child=8 3 -4 -5 5 -7 -8 -9 11 -11 -12 -13 -14 14 -16
leaf_value=9.2843581927169082e-05 -9.5108940464794313e-06 -6.0272411464648406e-05 2.1408373292249134e-05 3.897277164219304e-05 -2.7599008657042552e-05 -2.7346399780337502e-05 5.6147756909104549e-05 1.9621545362025966e-05 6.0797115701343181e-06 2.147120159592913e-05 -8.8130449204218105e-05 -5.3054207288608062e-07 4.2602721994839826e-05 -1.8225184554166683e-05 6.6362869435800821e-07
leaf_weight=537 1049 587 958 800 570 890 509 1318 32411 921 569 447200 655 2510 26916
leaf_count=537 1049 587 958 800 570 890 509 1318 32411 921 569 447200 655 2510 26916
internal_value=-9.50162e-14 1.30548e-05 4.70677e-05 2.17565e-06 -5.42314e-06 4.37197e-06 1.61489e-05 5.36534e-06 -1.57224e-07 -1.58914e-05 -3.71589e-05 -7.88458e-08 3.15354e-06 2.73568e-06 -9.47563e-07
internal_weight=518400 6169 1495 4674 3874 3287 2397 1888 512231 2539 1618 509692 62492 61837 29426
internal_count=518400 6169 1495 4674 3874 3287 2397 1888 512231 2539 1618 509692 62492 61837 29426
is_linear=0
shrinkage=0.1


Tree=11
num_leaves=16
num_cat=0
split_feature=17 8 9 8 10 7 0 10 1 17 0 13 9 1 8
split_gain=0.000112711 0.000266006 0.000292149 6.93243e-05 5.95202e-05 0.00015177 0.000107541 4.40443e-05 9.09746e-05 6.3489e-05 6.33535e-05 5.24955e-05 4.91503e-05 4.86017e-05 3.89728e-05
threshold=0.71872814757397774 -0.01095900303105146 0.0057671266744687708 -0.0017822664188688606 -0.79318073756653773 -0.008874966503087665 -0.0047545096460714911 0.49851189158075254 0.00077968117337967613 0.21132460319969046 0.0017306158693383147 46.041859377302082 -0.0039262225282007393 0.0022100959181613482 0.003139753863338091
decision_type=2 2 2 2 2 2 2 2 2 2 2 2 2 2 2
left_child=3 -2 -3 4 5 -1 -6 10 9 -9 -8 13 -11 -10 -5
right_child=1 2 -4 14 6 -7 7 8 11 12 -12 -13 -14 -15 -16
leaf_value=5.1652500034432202e-05 7.8812075335068306e-05 -4.9496943773813659e-05 4.0876458129924181e-05 -2.8058066153830686e-07 -4.0548045603827632e-05 5.9292227377965165e-06 2.4700621523531918e-06 -1.7507184782928156e-06 -1.1351740444916054e-05 7.5622123077812795e-06 3.5900251688261661e-05 4.3966278864635153e-07 4.0428807577265612e-05 -3.4663242038031737e-05 -3.2506926480254352e-06
leaf_weight=770 609 653 791 374763 608 12692 63364 5564 2562 1307 572 1990 698 1374 50083
leaf_count=770 609 653 791 374763 608 12692 63364 5564 2562 1307 572 1990 698 1374 50083
internal_value=2.02605e-13 2.33845e-05 8.15381e-09 -9.29767e-08 2.40377e-06 8.5445e-06 1.34447e-06 1.67342e-06 -3.51785e-06 3.74714e-06 2.76914e-06 -1.27971e-05 1.9004e-05 -1.94894e-05 -6.30713e-07
internal_weight=518400 2053 1444 516347 91501 13462 78039 77431 13495 7569 63936 5926 2005 3936 424846
internal_count=518400 2053 1444 516347 91501 13462 78039 77431 13495 7569 63936 5926 2005 3936 424846
is_linear=0
shrinkage=0.1


Tree=12
num_leaves=16
num_cat=0
split_feature=13 3 10 0 15 14 15 10 8 17 2 0 15 5 16
split_gain=9.22736e-05 0.000138049 0.000159834 5.46362e-05 0.000162626 0.00020455 6.71864e-05 7.01915e-05 5.63688e-05 6.00939e-05 4.4899e-05 4.07883e-05 7.51761e-05 0.000125674 0.000104548
threshold=26.225099087345971 -0.0074216948873951907 -0.50349137101398111 -0.0037049795851377128 57.48349304634106 25.435341489263276 34.761082343487438 -0.78571428571415547 -0.0010096965838639058 0.71872814757397774 -0.0082892073958119022 0.0026681384778691757 87.947984477573613 0.011544438551633675 80.87768931069526
decision_type=2 2 2 2 2 2 2 2 2 2 2 2 2 2 2
left_child=1 2 -1 4 5 6 7 -2 9 10 -5 -10 14 -14 -13
right_child=3 -3 -4 8 -6 -7 -8 -9 11 -11 -12 12 13 -15 -16
leaf_value=7.8597810902846248e-05 2.3531644320196537e-05 4.9901904593574728e-06 3.5716319686791834e-06 -2.6890361666808245e-05 2.2265969388752366e-05 -8.151470928694708e-05 -4.1746985006607674e-05 -2.2908611451825144e-05 -8.4502349211925276e-07 3.3556651472764686e-05 1.6623387673618214e-06 7.3660714404382314e-06 5.8974998904649771e-06 -5.402989072317723e-05 5.0856361137120753e-05
leaf_weight=609 671 4894 532 553 935 533 512 632 366027 589 134463 5165 1166 500 619
leaf_count=609 671 4894 532 553 935 533 512 632 366027 589 134463 5165 1166 500 619
internal_value=1.36473e-13 1.2293e-05 4.36163e-05 -1.44795e-07 -1.30038e-05 -2.70487e-05 -1.1054e-05 1.00652e-06 -6.18692e-08 1.68443e-06 1.54539e-06 -6.9593e-07 6.62918e-06 -1.20879e-05 1.20204e-05
internal_weight=518400 6035 1141 512365 3283 2348 1815 1303 509082 135605 135016 373477 7450 1666 5784
internal_count=518400 6035 1141 512365 3283 2348 1815 1303 509082 135605 135016 373477 7450 1666 5784
is_linear=0
shrinkage=0.1


Tree=13
num_leaves=16
num_cat=0
split_feature=17 4 15 13 10 2 5 16 2 10 8 2 4 16 8
split_gain=8.58312e-05 0.000214077 0.000121108 5.06267e-05 5.4535e-05 6.30168e-05 4.34136e-05 5.7898e-05 4.25294e-05 6.77668e-05 5.55152e-05 4.99073e-05 7.91539e-05 4.81757e-05 4.0453e-05
threshold=0.71872814757397774 -0.0025663741901268407 67.684456241678404 31.634631668904508 0.28612054677095233 -0.0019576034052163345 -0.0090743497727830396 21.129050892537659 -0.0021637354015807127 -0.81625136451454039 -0.007531127017238958 -0.0082892073958119022 -0.0082716778107789751 28.090398061601473 0.0028844657383120258
decision_type=2 2 2 2 2 2 2 2 2 2 2 2 2 2 2
left_child=3 -2 -3 4 8 -6 7 -5 9 10 -1 -11 -13 -14 -8
right_child=1 2 -4 6 5 -7 14 -9 -10 11 -12 12 13 -15 -16
leaf_value=5.6138918344949555e-05 5.9763457283693913e-05 -3.9873029695923051e-05 2.3126860623601591e-05 1.9650891507510178e-06 -3.9357021196776223e-05 1.1002017038042093e-06 9.4194920773958666e-08 -3.8121569639121785e-05 2.0956231875745385e-06 -1.6879346456315431e-05 1.6018078750199668e-05 3.9421106920436969e-05 1.033646151094171e-05 -1.5563199211071585e-05 -2.7567669821402203e-06
leaf_weight=558 826 569 658 738 568 1195 438820 704 9968 742 903 823 4330 861 56137
leaf_count=558 826 569 658 738 568 1195 438820 704 9968 742 903 823 4330 861 56137
internal_value=3.06958e-16 2.04064e-05 -6.08825e-06 -8.1136e-08 4.85838e-06 -1.19342e-05 -2.79633e-07 -1.76057e-05 6.48639e-06 1.18128e-05 3.13414e-05 7.58971e-06 1.06087e-05 6.04064e-06 -2.29155e-07
internal_weight=518400 2053 1227 516347 19948 1763 496399 1442 18185 8217 1461 6756 6014 5191 494957
internal_count=518400 2053 1227 516347 19948 1763 496399 1442 18185 8217 1461 6756 6014 5191 494957
is_linear=0
shrinkage=0.1


Tree=14
num_leaves=16
num_cat=0
split_feature=17 8 9 15 0 0 11 3 4 15 9 9 3 6 11
split_gain=6.95232e-05 0.000197614 0.000232335 4.54494e-05 5.64681e-05 5.04915e-05 7.84213e-05 3.93981e-05 8.32925e-05 5.04221e-05 3.83314e-05 3.5924e-05 3.57288e-05 3.26779e-05 2.94571e-05
threshold=0.71872814757397774 -0.01095900303105146 0.0057671266744687708 10.02880472582922 -0.00067860173365308352 -0.0047545096460714911 -136.61822439660361 0.0095967128815410713 0.010670257742096402 87.335617512584591 -0.014798094048585729 -0.0098778173613067715 -0.0056206548498045064 -0.0096571059473974912 -112.83819422701754
decision_type=2 2 2 2 2 2 2 2 2 2 2 2 2 2 2
left_child=3 -2 -3 4 11 6 -5 8 10 -9 -7 -1 -6 14 -12
right_child=1 2 -4 5 12 7 -8 9 -10 -11 13 -13 -14 -15 -16
leaf_value=2.7204522687350371e-05 6.6139455000588555e-05 -4.5929944477744278e-05 3.4662741654641266e-05 1.1383027381050199e-05 -2.4508606162747868e-05 -2.3536937973398716e-05 -3.7991161184250635e-05 3.4030287362215008e-05 -3.853556128711534e-05 -2.1500114443230043e-06 1.8306678319945384e-06 8.3034859621288548e-06 1.8992772097872794e-06 -2.6247387206086436e-07 3.1463863397072926e-05
leaf_weight=1214 609 653 791 515 525 706 857 761 569 780 738 5857 21233 481977 615
leaf_count=1214 609 653 791 515 525 706 857 761 569 780 738 5857 21233 481977 615
internal_value=8.90019e-14 1.83658e-05 -1.78257e-06 -7.30223e-08 3.78508e-06 -3.01168e-07 -1.94578e-05 -2.47104e-07 -2.97869e-07 1.57171e-05 -2.52919e-07 1.15486e-05 1.26208e-06 -2.18909e-07 1.53003e-05
internal_weight=518400 2053 1444 516347 28829 487518 1372 486146 484605 1541 484036 7071 21758 483330 1353
internal_count=518400 2053 1444 516347 28829 487518 1372 486146 484605 1541 484036 7071 21758 483330 1353
is_linear=0
shrinkage=0.1


Tree=15
num_leaves=16
num_cat=0
split_feature=0 16 15 15 7 0 16 10 8 13 1 1 0 16 10
split_gain=6.04835e-05 0.000120152 0.000159616 5.81118e-05 0.00021476 6.08154e-05 0.000215764 5.7242e-05 4.97487e-05 9.51243e-05 5.17167e-05 7.64072e-05 6.24852e-05 7.42281e-05 5.7879e-05
threshold=0.0049304738039320792 27.757195215746048 67.684456241678404 10.02880472582922 -0.013287307758475862 -0.0047545096460714911 29.481972185572438 -0.80136694344180215 0.014030232468423167 67.546798767432691 0.0070444643622851197 0.0054160773091103129 0.0026681384778691757 14.456744330039362 0.72571196076153865
decision_type=2 2 2 2 2 2 2 2 2 2 2 2 2 2 2
left_child=3 -2 -3 4 -1 6 -5 -8 10 -10 11 12 -7 -14 -15
right_child=1 2 -4 5 -6 8 7 -9 9 -11 -12 -13 13 14 -16
leaf_value=6.0373132979877191e-05 5.9168925032793142e-05 -4.1356395064233716e-05 2.7722741154073122e-05 -6.470222914020039e-05 2.9643214061518511e-06 -3.030490260789455e-07 -1.3796400690277249e-05 3.2015600505303717e-05 -4.4371701622383476e-05 5.7636690190361996e-06 2.4875480296118444e-05 -2.2454113444171062e-05 -2.652483998615956e-05 2.920482108930866e-05 6.7787788037872245e-06
leaf_weight=667 512 523 928 648 28263 475675 570 523 729 787 821 1544 516 1601 4093
leaf_count=667 512 523 928 648 28263 475675 570 523 729 787 821 1544 516 1601 4093
internal_value=-1.67685e-13 1.752e-05 2.82378e-06 -6.65945e-08 4.28792e-06 -3.25003e-07 -1.89815e-05 8.12462e-06 -2.58138e-07 -1.8345e-05 -2.01515e-07 -2.44103e-07 -1.7294e-07 9.79318e-06 1.30844e-05
internal_weight=518400 1963 1451 516437 28930 487507 1741 1093 485766 1516 484250 483429 481885 6210 5694
internal_count=518400 1963 1451 516437 28930 487507 1741 1093 485766 1516 484250 483429 481885 6210 5694
is_linear=0
shrinkage=0.1


Tree=16
num_leaves=16
num_cat=0
split_feature=13 1 10 11 0 15 14 11 4 8 10 4 1 17 13
split_gain=5.67611e-05 9.77784e-05 9.25385e-05 4.33735e-05 4.27863e-05 0.000130361 0.000161339 5.33465e-05 6.23399e-05 4.02863e-05 4.81942e-05 8.6612e-05 6.202e-05 6.83705e-05 6.26845e-05
threshold=26.225099087345971 -0.004039237018344354 -0.51075603638309575 -87.636329787137043 -0.0037049795851377128 57.48349304634106 25.435341489263276 -133.69987321562763 -0.006252013730740357 -0.0022151218450726091 0.49851189158075254 0.0036029949559913681 0.001664642479201617 0.32245135499669547 46.60452199672428
decision_type=2 2 2 2 2 2 2 2 2 2 2 2 2 2 2
left_child=1 2 -1 -3 5 6 7 -2 -9 10 11 -6 13 -12 -14
right_child=4 3 -4 -5 9 -7 -8 8 -10 -11 12 -13 14 -15 -16
leaf_value=5.1373257542640721e-05 1.0154914825240743e-05 -2.0725984181500204e-06 -9.2887972206884804e-07 2.3360293990715371e-05 3.0313433738760245e-06 2.0084802857997802e-05 -7.2439803432317341e-05 -4.982495585830176e-05 -9.9220547996232755e-07 -3.8533901846744775e-07 -2.4679723328337112e-06 4.3878210734239048e-05 -2.6417565134496025e-05 2.8943648142802416e-05 5.9944923456593343e-06
leaf_weight=923 768 3762 534 816 55644 935 533 505 542 442470 6843 524 1975 771 855
leaf_count=923 768 3762 534 816 55644 935 533 505 542 442470 6843 524 1975 771 855
internal_value=-6.36257e-14 9.64149e-06 3.22042e-05 2.46066e-06 -1.13564e-07 -1.1493e-05 -2.40676e-05 -9.86248e-06 -2.45457e-05 -4.01799e-08 2.25254e-06 3.41241e-06 -3.98527e-06 7.12795e-07 -1.66252e-05
internal_weight=518400 6035 1457 4578 512365 3283 2348 1815 1047 509082 66612 56168 10444 7614 2830
internal_count=518400 6035 1457 4578 512365 3283 2348 1815 1047 509082 66612 56168 10444 7614 2830
is_linear=0
shrinkage=0.1


Tree=17
num_leaves=16
num_cat=0
split_feature=17 4 16 10 7 3 2 13 12 15 14 8 14 6 17
split_gain=5.60356e-05 0.000182824 0.000150314 3.72808e-05 0.000101388 5.31031e-05 5.10255e-05 5.01997e-05 4.52521e-05 4.44346e-05 6.63859e-05 4.01368e-05 4.82772e-05 3.73682e-05 3.63509e-05
threshold=0.71872814757397774 0.0083830616326482383 27.404339470012193 -0.72621457192174077 -0.007795368423905046 -0.0063615396134919502 -0.00090089330999992823 50.820538182154145 31.299530837630488 24.833683180894283 10.457211834242099 0.0028844657383120258 23.231109960268817 0.005839904478056158 0.2457561791620633
decision_type=2 2 2 2 2 2 2 2 2 2 2 2 2 2 2
left_child=3 2 -2 4 8 9 7 -6 -1 10 -5 13 -13 -7 -14
right_child=1 -3 -4 5 6 11 -8 -9 -10 -11 -12 12 14 -15 -16
leaf_value=4.0384000798214913e-05 7.9541416456081347e-05 -3.0169950888566199e-05 1.2109764863309562e-05 -9.3252476036615083e-06 2.9343909120051761e-06 -5.4845159301082513e-09 -5.2194207010994336e-07 1.4258363163447499e-05 4.5589843781285251e-06 7.2620168845033628e-06 -4.3317207672830584e-05 -2.4936987790032461e-05 -7.4038225522418754e-07 2.2003640731992825e-05 -6.5013632704390088e-06
leaf_weight=976 507 596 950 2414 23734 379611 49093 4688 552 948 754 976 36106 773 15722
leaf_count=976 507 596 950 2414 23734 379611 49093 4688 552 948 754 976 36106 773 15722
internal_value=-2.06704e-13 1.64883e-05 3.55743e-05 -6.55578e-08 1.93307e-06 -4.26811e-07 1.43023e-06 4.8022e-06 2.7442e-05 -1.17318e-05 -1.74155e-05 -3.19396e-07 -2.90291e-06 3.92415e-08 -2.48797e-06
internal_weight=518400 2053 1457 516347 79043 437304 77515 28422 1528 4116 3168 433188 52804 380384 51828
internal_count=518400 2053 1457 516347 79043 437304 77515 28422 1528 4116 3168 433188 52804 380384 51828
is_linear=0
shrinkage=0.1


Tree=18
num_leaves=16
num_cat=0
split_feature=0 1 15 1 6 2 15 5 15 7 6 16 1 3 10
split_gain=5.22047e-05 8.83204e-05 7.17259e-05 6.76438e-05 0.000112913 0.000109539 5.36596e-05 4.88674e-05 4.62501e-05 0.000185777 6.74115e-05 0.000154533 4.06222e-05 6.81653e-05 6.74847e-05
threshold=0.0033156525834872057 0.0028238219973827365 87.947984477573613 0.0037006578125842187 0.0084512164529613205 0.0032326801986133362 60.351608332322101 -0.0012446969329212851 10.02880472582922 -0.013287307758475862 -0.012358725524745704 18.86886542802754 0.001664642479201617 0.0075360839171744196 0.28612054677095233
decision_type=2 2 2 2 2 2 2 2 2 2 2 2 2 2 2
left_child=8 7 3 -3 5 -5 -7 -2 9 -1 11 -10 13 -12 -14
right_child=1 2 -4 4 -6 6 -8 -9 10 -11 12 -13 14 -15 -16
leaf_value=5.6719073275579842e-05 8.8011466490069563e-06 -2.2609886667733376e-05 -2.2473683100849425e-05 4.4921623389173655e-05 5.1432643837217479e-05 -2.3816713197026424e-05 1.156782788707385e-05 4.5690759972616445e-05 -6.1159710987798721e-05 2.5645355801724221e-06 -5.1399017921267025e-08 9.1983287465576987e-06 3.9364245926445594e-06 3.3345514105808347e-05 -5.6931576280595659e-06
leaf_weight=648 611 571 926 513 659 941 787 871 583 28243 442228 672 9617 612 29918
leaf_count=648 611 571 926 513 659 941 787 871 583 28243 442228 672 9617 612 29918
internal_value=-1.66613e-13 9.36971e-06 2.2539e-06 8.85077e-06 1.50453e-05 4.345e-06 -7.70118e-06 3.04819e-05 -1.07478e-07 3.77917e-06 -3.39658e-07 -2.34859e-05 -2.79438e-07 -5.24485e-09 -3.35073e-06
internal_weight=518400 5879 4397 3471 2900 2241 1728 1482 512521 28891 483630 1255 482375 442840 39535
internal_count=518400 5879 4397 3471 2900 2241 1728 1482 512521 28891 483630 1255 482375 442840 39535
is_linear=0
shrinkage=0.1


Tree=19
num_leaves=16
num_cat=0
split_feature=0 4 16 1 0 7 10 17 13 7 13 8 17 8 17
split_gain=4.43414e-05 0.00010962 6.15114e-05 3.88027e-05 9.33035e-05 8.06128e-05 6.86538e-05 0.000151341 0.000167876 0.000118949 6.85913e-05 6.54947e-05 9.25167e-05 0.000103912 6.48855e-05
threshold=0.0049304738039320792 0.0057818101757646243 72.79150525715626 -0.0011727065190350048 -0.0014429098808180771 0.0089415832393006118 -0.60473882988079686 0.51577856378739406 35.691281494870253 -0.013287307758475862 55.6787865003581 0.014030232468423167 0.59134684824423844 0.00050398843109256141 0.2457561791620633
decision_type=2 2 2 2 2 2 2 2 2 2 2 2 2 2 2
left_child=3 -2 -3 5 14 6 9 -8 -9 -1 -11 12 -6 -14 -5
right_child=1 2 -4 4 11 -7 7 8 -10 10 -12 -13 13 -15 -16
leaf_value=4.880409210889228e-05 4.0735880275670433e-05 -3.1910942045441083e-05 1.6209696262139066e-05 -2.5741630806996045e-06 -2.0565965607350835e-07 3.4345812906487184e-05 8.1611208409325048e-08 -7.8983189199497309e-05 -8.0713378944589451e-06 2.836966667424175e-06 1.9346417613441865e-05 -2.4734701003031946e-05 6.09454324446796e-05 -2.7532249233900079e-06 -2.004004904564901e-05
leaf_weight=610 898 507 558 4545 436739 769 33683 511 963 29760 2749 1085 525 500 3998
leaf_count=610 898 507 558 4545 436739 769 33683 511 963 29760 2749 1085 525 500 3998
internal_value=-9.4211e-14 1.5001e-05 -6.69844e-06 -5.70196e-08 -3.97541e-07 2.14946e-06 1.78683e-06 -1.2909e-06 -3.26548e-05 5.05395e-06 4.23303e-06 -1.96051e-07 -1.35232e-07 2.98729e-05 -1.07479e-05
internal_weight=518400 1963 1065 516437 447392 69045 68276 35157 1474 33119 32509 438849 437764 1025 8543
internal_count=518400 1963 1065 516437 447392 69045 68276 35157 1474 33119 32509 438849 437764 1025 8543
is_linear=0
shrinkage=0.1


Tree=20
num_leaves=16
num_cat=0
split_feature=13 2 16 16 4 16 5 0 15 2 13 14 4 14 15
split_gain=4.14841e-05 4.516e-05 0.000113596 0.000195955 7.2171e-05 4.48501e-05 3.21479e-05 3.11603e-05 8.42958e-05 0.000128519 9.63197e-05 6.28737e-05 8.07876e-05 0.000151501 3.82989e-05
threshold=28.391907805868524 -0.0028443474366071637 11.395053855598405 14.456744330039362 -0.006252013730740357 27.757195215746048 -0.0061838667290396989 -0.0025758587787268468 63.435512701879865 -0.0035352018012716475 48.016320732644921 1.0000000180025095e-35 -0.0048214022231086165 47.54428024782019 34.761082343487438
decision_type=2 2 2 2 2 2 2 2 2 2 2 2 2 2 2
left_child=1 2 4 -4 -1 6 -5 8 10 -10 11 14 -13 -14 -2
right_child=7 -3 3 5 -6 -7 -8 -9 9 -11 -12 12 13 -15 -16
leaf_value=5.338532757208036e-05 8.8137351660011247e-06 5.4716113870473214e-07 -4.5712579580970943e-05 3.7558171661026948e-05 8.7829976959568222e-06 -8.092651162558039e-06 8.9113616804102272e-06 -2.5121976053542988e-08 5.4422727977946643e-05 -2.6668860480881787e-06 -4.9390274684470929e-05 -4.4762722162033362e-05 -2.8100407810143224e-05 3.5208238379619991e-05 -1.7772166228590732e-05
leaf_weight=932 2145 5743 656 908 594 542 689 500056 511 1727 629 845 1130 568 725
leaf_count=932 2145 5743 656 908 594 542 689 500056 511 1727 629 845 1130 568 725
internal_value=6.78998e-14 6.35768e-06 1.40804e-05 2.09985e-06 3.60237e-05 1.67632e-05 2.5199e-05 -1.25869e-07 -6.21029e-06 1.03683e-05 -1.23511e-05 -8.04712e-06 -1.94965e-05 -6.92296e-06 2.09778e-06
internal_weight=518400 10064 4321 2795 1526 2139 1597 508336 8280 2238 6042 5413 2543 1698 2870
internal_count=518400 10064 4321 2795 1526 2139 1597 508336 8280 2238 6042 5413 2543 1698 2870
is_linear=0
shrinkage=0.1


Tree=21
num_leaves=16
num_cat=0
split_feature=0 13 4 11 13 15 4 0 12 2 0 12 10 14 12
split_gain=3.75104e-05 7.32506e-05 9.91836e-05 9.33358e-05 8.49569e-05 0.000110267 0.000179451 6.64919e-05 6.58358e-05 3.72124e-05 6.53393e-05 7.03036e-05 8.74549e-05 6.85444e-05 6.40186e-05
threshold=0.0033156525834872057 59.862630331713284 0.0071612498793132149 -75.178217865225676 65.45609156347335 88.554210952548814 0.0063891062292554821 0.0049304738039320792 42.473647360810993 -0.0015983716817992708 -0.0014931506679407012 75.605717252578231 -0.50349137101398111 70.394906138633033 77.274485730559618
decision_type=2 2 2 2 2 2 2 2 2 2 2 2 2 2 2
left_child=9 2 3 -2 -3 6 -6 8 -5 14 11 12 13 -11 -1
right_child=1 4 -4 7 5 -7 -8 -9 -10 10 -12 -13 -14 -15 -16
leaf_value=1.8722193143565359e-06 -1.2228599884720827e-05 -3.0603822160843893e-05 -2.1365220707546324e-05 2.242559037436758e-06 -1.2276914316144435e-05 -2.1227793166584284e-05 7.136863038133109e-05 6.3787940109156406e-05 4.2751148929769102e-05 -1.0890397767933321e-05 -2.0263870164038533e-07 1.6527215763073013e-05 -3.9204487306027378e-05 1.2969083155066563e-05 2.9201788985701324e-05
leaf_weight=57885 524 845 536 736 517 750 509 580 882 8244 442082 1080 950 1410 870
leaf_count=57885 524 845 536 736 517 750 509 580 882 8244 442082 1080 950 1410 870
internal_value=7.34135e-14 7.94232e-06 1.79541e-05 2.56966e-05 -4.50271e-06 7.91589e-06 2.92198e-05 3.4738e-05 2.43245e-05 -9.11043e-08 -3.9772e-07 -7.77892e-06 -1.02545e-05 -7.40564e-06 2.2769e-06
internal_weight=518400 5879 3258 2722 2621 1776 1026 2198 1618 512521 453766 11684 10604 9654 58755
internal_count=518400 5879 3258 2722 2621 1776 1026 2198 1618 512521 453766 11684 10604 9654 58755
is_linear=0
shrinkage=0.1


Tree=22
num_leaves=16
num_cat=0
split_feature=17 4 1 0 11 12 9 17 13 0 12 0 1 8 9
split_gain=3.86385e-05 0.000141246 0.000164569 3.24573e-05 8.99179e-05 3.38466e-05 6.37264e-05 6.84628e-05 5.81131e-05 8.65096e-05 5.87199e-05 5.08754e-05 4.62259e-05 4.30284e-05 4.19638e-05
threshold=0.71872814757397774 -0.0025663741901268407 0.0022100959181613482 -0.0047545096460714911 -136.61822439660361 25.590572548365994 -0.014798094048585729 0.30061338435143026 29.220438615030051 -0.00013578285947379862 21.534792047123407 0.00079564481433369594 -0.0067814011012947697 -0.0059771443914471414 -0.0055963809918853627
decision_type=2 2 2 2 2 2 2 2 2 2 2 2 2 2 2
left_child=3 -2 -3 4 -1 6 -5 11 -9 -10 -11 -8 -7 -13 -14
right_child=1 2 -4 5 -6 12 7 8 9 10 -12 13 14 -15 -16
leaf_value=1.3111365158402949e-05 4.5660313094788668e-05 3.5160170888724851e-05 -3.9028438324145236e-05 -2.6026962547899477e-05 -3.4588150543565191e-05 2.9723848896884278e-05 3.0776724574178788e-06 4.8281704676508477e-05 -9.5024500948359119e-06 5.305856217078977e-05 7.3221918644465101e-06 -3.1842469688672563e-05 -6.8557142253124964e-06 -4.0729574985392047e-06 -1.726092811625822e-07
leaf_weight=690 826 516 711 774 925 513 42553 524 1047 568 555 651 9594 3905 454048
leaf_count=690 826 516 711 774 925 513 42553 524 1047 568 555 651 9594 3905 454048
internal_value=-5.54893e-14 1.36916e-05 -7.82932e-06 -5.4438e-08 -1.42088e-05 -1.00279e-08 2.4465e-06 2.88901e-06 1.83933e-05 1.1176e-05 3.04551e-05 2.00237e-06 -2.77705e-07 -8.0409e-06 -3.10901e-07
internal_weight=518400 2053 1227 516347 1615 514732 50577 49803 2694 2170 1123 47109 464155 4556 463642
internal_count=518400 2053 1227 516347 1615 514732 50577 49803 2694 2170 1123 47109 464155 4556 463642
is_linear=0
shrinkage=0.1


Tree=23
num_leaves=16
num_cat=0
split_feature=8 9 10 0 17 14 17 9 8 2 0 14 1 17 1
split_gain=3.25621e-05 8.23011e-05 5.49553e-05 0.00012159 0.000108435 8.05364e-05 0.000117126 7.56586e-05 4.96072e-05 4.57842e-05 4.66725e-05 4.11967e-05 3.93793e-05 7.03058e-05 3.73479e-05
threshold=-0.0026576441866132945 -0.0052922833783393677 -0.79318073756653773 -0.0037049795851377128 0.71872814757397774 1.0000000180025095e-35 0.35090765932674844 -0.011537058175357216 -0.013965268136470308 -0.0064920185806346389 -0.0025758587787268468 1.884329176415614 -0.003372498227087017 0.36275627378569536 -0.0015366084716341153
decision_type=2 2 2 2 2 2 2 2 2 2 2 2 2 2 2
left_child=2 -2 7 5 8 6 -4 -1 -5 -3 14 -9 13 -12 -11
right_child=1 9 3 4 -6 -7 -8 11 -10 10 12 -13 -14 -15 -16
leaf_value=4.5732841137305846e-05 -3.5308487189766639e-05 2.8392328944453861e-05 -4.4202411444194654e-05 -2.0601220008793103e-05 4.5981812052063605e-05 -5.7666146191014982e-05 2.3640255432752943e-05 1.2182641627332175e-05 1.7923667841873452e-06 -5.0258587609658538e-06 2.0857354491318631e-06 -3.2064224743776085e-06 -2.439850521105099e-07 4.4875001131954176e-05 -2.8131455550907203e-05
leaf_weight=544 670 558 504 1010 550 542 514 5353 48104 2266 1354 2577 452306 536 1012
leaf_count=544 670 558 504 1010 550 542 514 5353 48104 2266 1354 2577 452306 536 1012
internal_value=-3.09074e-14 -2.85916e-07 2.19689e-06 9.62846e-07 1.82633e-06 -2.65269e-05 -9.94786e-06 9.65653e-06 1.33186e-06 -2.34686e-07 -2.69603e-07 7.18168e-06 -1.83795e-07 1.42207e-05 -1.21591e-05
internal_weight=518400 458702 59698 51224 49664 1560 1018 8474 49114 458032 457474 7930 454196 1890 3278
internal_count=518400 458702 59698 51224 49664 1560 1018 8474 49114 458032 457474 7930 454196 1890 3278
is_linear=0
shrinkage=0.1


Tree=24
num_leaves=16
num_cat=0
split_feature=0 10 10 1 13 13 15 17 13 6 6 15 15 15 1
split_gain=3.084e-05 0.000103687 9.17392e-05 0.000116049 5.26042e-05 4.93562e-05 4.90644e-05 4.12224e-05 0.000114208 5.53882e-05 3.47296e-05 5.36307e-05 4.87568e-05 3.44159e-05 3.26608e-05
threshold=0.0024485554142585912 0.49086780016766401 0.56655169572315034 0.00047143579665476226 45.68220275915359 72.103922022375428 26.245859704172169 0.39461531214688783 56.252896629603804 0.0075185026862610868 0.0023579396549671121 39.031079085824565 55.016914571758242 91.417063657158351 0.00087444463525432347
decision_type=2 2 2 2 2 2 2 2 2 2 2 2 2 2 2
left_child=14 -2 -3 -4 6 7 -5 9 -9 10 11 -6 -13 -7 -1
right_child=1 2 3 4 5 13 -8 8 -10 -11 -12 12 -14 -15 -16
leaf_value=2.4142265287373284e-07 4.3294751721687735e-05 -3.4023702920400471e-05 4.0587121884622251e-05 -1.6163940158376051e-06 -7.8671848610115907e-06 8.5313772630148969e-08 -4.0506585463968899e-05 4.8919661613734309e-05 -4.2824174734785135e-06 3.3106291308719922e-05 -6.5924125140810577e-06 4.6098859063452547e-05 4.4794791027553906e-06 -3.1456792469823038e-05 -1.9093204095309396e-06
leaf_weight=421576 668 640 842 868 878 921 518 809 805 589 2794 558 568 554 84812
leaf_count=421576 668 640 842 868 878 921 518 809 805 589 2794 558 568 554 84812
internal_value=9.39401e-14 5.00794e-06 2.75339e-06 4.95232e-06 1.90988e-06 4.86323e-06 -1.61511e-05 8.36583e-06 2.23845e-05 4.16568e-06 6.12947e-07 1.06587e-05 2.51044e-05 -1.17617e-05 -1.18793e-07
internal_weight=518400 12012 11344 10704 9862 8476 1386 7001 1614 5387 4798 2004 1126 1475 506388
internal_count=518400 12012 11344 10704 9862 8476 1386 7001 1614 5387 4798 2004 1126 1475 506388
is_linear=0
shrinkage=0.1


Tree=25
num_leaves=16
num_cat=0
split_feature=13 17 3 5 10 1 17 5 15 1 0 1 4 17 17
split_gain=2.88789e-05 7.40249e-05 4.74566e-05 8.81324e-05 0.000136926 9.79918e-05 3.80305e-05 3.17286e-05 0.000133505 3.99816e-05 2.83923e-05 0.000109984 5.73869e-05 0.00017786 3.79936e-05
threshold=26.225099087345971 0.39461531214688783 -0.0074216948873951907 -0.01168879075802076 -0.72621457192174077 -0.0053093421144465016 0.37724101227090134 -0.0090743497727830396 17.134941073967251 -0.0067814011012947697 0.0026681384778691757 0.00047143579665476226 0.010670257742096402 0.59134684824423844 0.44025402679278258
decision_type=2 2 2 2 2 2 2 2 2 2 2 2 2 2 2
left_child=1 -1 3 -2 -5 -6 -7 8 -4 -9 14 -12 13 -13 -11
right_child=2 -3 7 4 5 6 -8 9 -10 10 11 12 -14 -15 -16
leaf_value=3.4942899590025003e-06 1.4063993983192059e-05 4.3136186363395631e-05 1.2177438199271365e-05 2.0601833901505399e-05 -7.4371409729601413e-05 -1.4215818444115467e-06 -3.9386770111573184e-05 2.7432489468992502e-05 -5.1839923405658981e-05 -8.9991417116446108e-09 4.489569922927879e-05 1.1949904835578511e-06 -2.0435951288395831e-05 6.016182247549296e-05 -8.5523287750714093e-06
leaf_weight=5520 869 515 755 521 514 508 549 532 573 492793 657 7311 972 550 5261
leaf_count=5520 869 515 755 521 514 508 549 532 573 492793 657 7311 972 550 5261
internal_value=-1.0852e-13 6.87715e-06 -8.10041e-08 -1.27042e-05 -2.38235e-05 -3.85566e-05 -2.11405e-05 -7.62937e-09 -1.54445e-05 3.27193e-08 3.99924e-09 5.42237e-06 2.48634e-06 5.32064e-06 -9.92433e-08
internal_weight=518400 6035 512365 2961 2092 1571 1057 509404 1328 508076 507544 9490 8833 7861 498054
internal_count=518400 6035 512365 2961 2092 1571 1057 509404 1328 508076 507544 9490 8833 7861 498054
is_linear=0
shrinkage=0.1


Tree=26
num_leaves=16
num_cat=0
split_feature=8 4 7 10 1 12 1 15 17 7 9 1 1 10 0
split_gain=2.59765e-05 7.242e-05 4.90055e-05 3.59048e-05 9.82108e-05 0.000168061 6.84427e-05 0.000112165 6.49961e-05 0.000169931 6.72795e-05 2.94219e-05 2.84013e-05 5.66788e-05 4.37547e-05
threshold=-0.001329097624926334 0.0053258193062946111 -0.0039855533436358162 -0.81625136451454039 -0.0067814011012947697 26.27922460552789 -0.0045439755998054601 19.415075406792244 0.59134684824423844 -0.008874966503087665 -0.014798094048585729 -0.0053093421144465016 0.00076246987687811363 0.43690647807824995 0.0017306158693383147
decision_type=2 2 2 2 2 2 2 2 2 2 2 2 2 2 2
left_child=1 3 -2 6 5 -5 7 -1 10 -10 -6 -4 14 -14 -12
right_child=2 -3 11 4 8 -7 -8 -9 9 -11 12 -13 13 -15 -16
leaf_value=6.4141517250462657e-05 -2.9661773482458075e-05 3.6979986350254402e-05 2.2663314736771164e-05 -6.0917768928514007e-05 -2.9079226878152527e-05 1.0020878211708666e-05 3.6759235708522079e-06 2.2799208551469652e-06 5.7273192487221338e-05 -1.8887254911944116e-05 1.1330949200624657e-06 -3.7715591611398843e-07 3.2889365688335677e-06 -8.9660022343341812e-06 1.7134109879160416e-05
leaf_weight=509 571 566 555 688 762 649 14609 691 671 520 82725 397979 7087 8073 1745
leaf_count=509 571 566 555 688 762 649 14609 691 671 520 82725 397979 7087 8073 1745
internal_value=-3.8425e-14 1.29476e-06 -3.87013e-07 1.12465e-06 4.43093e-07 -2.64831e-05 5.56171e-06 2.85195e-05 7.97486e-07 2.40209e-05 5.21975e-07 -3.4507e-07 7.48374e-07 -3.23706e-06 1.46365e-06
internal_weight=518400 119295 399105 118729 102920 1337 15809 1200 101583 1191 100392 398534 99630 15160 84470
internal_count=518400 119295 399105 118729 102920 1337 15809 1200 101583 1191 100392 398534 99630 15160 84470
is_linear=0
shrinkage=0.1


Tree=27
num_leaves=16
num_cat=0
split_feature=12 9 9 12 12 0 17 15 17 0 3 0 11 4 12
split_gain=2.34183e-05 7.13711e-05 6.23916e-05 6.55911e-05 9.09057e-05 4.37117e-05 4.83026e-05 0.000133067 4.10143e-05 3.37668e-05 3.27982e-05 2.75586e-05 9.42153e-05 3.73255e-05 7.15817e-05
threshold=25.590572548365994 -0.014798094048585729 -0.0098778173613067715 32.353666574254241 39.082892437166613 0.0029519140591883768 0.39461531214688783 12.839472206648734 0.35090765932674844 0.00079564481433369594 -0.0034354504976272788 0.0049304738039320792 114.42891781261299 0.0083830616326482383 87.037536168075306
decision_type=2 2 2 2 2 2 2 2 2 2 2 2 2 2 2
left_child=5 -2 3 -3 -5 6 8 -8 9 -1 -11 13 -13 -4 -15
right_child=1 2 11 4 -6 -7 7 -9 -10 10 -12 12 -14 14 -16
leaf_value=2.7480029825455085e-06 2.9508380427917025e-05 -4.2006681651163172e-05 -1.7293661645233478e-07 2.7784732964711718e-05 -2.9411009119633115e-05 2.8351363078598569e-05 1.759893891373985e-05 -4.2838315659462279e-05 2.6129629568882683e-05 -2.9376519071872834e-05 -3.1618157461082607e-06 3.2170541769832642e-05 -1.6488472950923317e-05 -1.7558644670923012e-05 2.3383799144740328e-05
leaf_weight=43987 806 727 459401 509 612 623 653 824 708 539 4167 993 664 2679 508
leaf_count=43987 806 727 459401 509 612 623 653 824 708 539 4167 993 664 2679 508
internal_value=1.6589e-13 -2.23224e-07 -2.74638e-07 -1.86125e-05 -3.44077e-06 2.02371e-06 1.70133e-06 -1.61183e-05 2.2341e-06 1.88666e-06 -6.16431e-06 -2.01641e-07 1.26717e-05 -2.47754e-07 -1.10325e-05
internal_weight=518400 466899 466093 1848 1121 51501 50878 1477 49401 48693 4706 464245 1657 462588 3187
internal_count=518400 466899 466093 1848 1121 51501 50878 1477 49401 48693 4706 464245 1657 462588 3187
is_linear=0
shrinkage=0.1


Tree=28
num_leaves=16
num_cat=0
split_feature=13 17 3 13 11 14 17 2 5 13 11 2 8 4 0
split_gain=2.30446e-05 6.04207e-05 2.79816e-05 0.000106345 8.82665e-05 7.48772e-05 4.30629e-05 4.12399e-05 5.80849e-05 5.26205e-05 2.95551e-05 2.36758e-05 2.31352e-05 5.73698e-05 3.60994e-05
threshold=28.391907805868524 0.41565785025532381 -0.0063615396134919502 42.057410600613601 -150.8208661352696 4.5635669935130219 0.47108015491706062 -0.005547702073526505 -0.0090743497727830396 41.178922321473266 -116.78812230682389 -0.0005963010968372261 -0.0010096965838639058 0.0053258193062946111 -0.0025758587787268468
decision_type=2 2 2 2 2 2 2 2 2 2 2 2 2 2 2
left_child=1 11 3 4 -2 -5 10 9 -9 -4 -6 -1 13 -10 -14
right_child=2 -3 7 5 6 -7 -8 8 12 -11 -12 -13 14 -15 -16
leaf_value=4.7513039375727407e-06 4.2538986374496577e-06 3.2926625067729194e-05 -3.173248165410615e-07 -7.5684116667681852e-06 -3.6278127127908583e-05 4.625168753019692e-05 -5.0738727239613616e-05 -2.7981679950854544e-05 9.7351391879964141e-07 3.4949963952568443e-05 -4.8207272847733239e-06 -9.2004818920554089e-06 -1.2945985317409242e-05 3.2097072948044647e-05 -3.6002155322680825e-07
leaf_weight=7920 1136 707 945 517 560 517 698 745 128142 766 640 1437 2293 595 370782
leaf_count=7920 1136 707 945 517 560 517 698 745 128142 766 640 1437 2293 595 370782
internal_value=-6.78739e-14 4.73851e-06 -9.38127e-08 -8.35422e-06 -1.77931e-05 1.93416e-05 -3.09888e-05 -2.71749e-08 -7.99416e-08 1.54715e-05 -1.95008e-05 2.60866e-06 -3.85182e-08 1.11736e-06 -4.37378e-07
internal_weight=518400 10064 508336 4068 3034 1034 1898 504268 502557 1711 1200 9357 501812 128737 373075
internal_count=518400 10064 508336 4068 3034 1034 1898 504268 502557 1711 1200 9357 501812 128737 373075
is_linear=0
shrinkage=0.1


Tree=29
num_leaves=16
num_cat=0
split_feature=9 11 15 14 7 12 17 13 16 2 10 3 12 13 9
split_gain=2.04098e-05 0.000131803 0.00022801 7.39698e-05 6.24123e-05 4.98179e-05 3.89637e-05 0.000103866 0.00027139 0.000153394 0.000150073 0.000143087 0.000121513 9.58839e-05 7.91761e-05
threshold=-0.011537058175357216 -68.363579017616516 15.503516672671678 5.4542351926685573 -0.013287307758475862 21.988189019585658 0.44025402679278258 57.371773232647392 56.778789373085722 0.0036407890575133055 0.66843677573432847 -0.0016942745842957738 76.004770567133164 45.800330899537578 0.014900078151904196
decision_type=2 2 2 2 2 2 2 2 2 2 2 2 2 2 2
left_child=1 2 3 4 -1 -4 -2 8 10 11 13 -10 14 -8 -9
right_child=6 -3 5 -5 -6 -7 7 12 9 -11 -12 -13 -14 -15 -16
leaf_value=5.0893613587567076e-05 5.3955286391841327e-08 4.9387888253606566e-05 -1.1558815525144642e-05 -7.1153145737655235e-06 1.0525726358419821e-05 -5.2669784799103125e-05 -4.1239679501422227e-05 -2.2491745438124434e-05 4.2123041960684605e-05 7.4559313291899803e-05 2.8363363147132807e-05 -1.3167754928908638e-05 1.8329090213412915e-05 -3.5000423301952779e-06 -6.7396250689893625e-05
leaf_weight=765 506118 623 504 782 767 710 1804 1186 883 512 586 996 503 1074 587
leaf_count=765 506118 623 504 782 767 710 1804 1186 883 512 586 996 503 1074 587
internal_value=6.46298e-14 6.98389e-06 -5.04116e-07 1.79095e-05 3.06833e-05 -3.56023e-05 -5.63737e-08 -6.92385e-06 1.22875e-07 2.60368e-05 -1.7764e-05 1.28151e-05 -2.50515e-05 -2.71562e-05 -3.73586e-05
internal_weight=518400 4151 3528 2314 1532 1214 514249 8131 5855 2391 3464 1879 2276 2878 1773
internal_count=518400 4151 3528 2314 1532 1214 514249 8131 5855 2391 3464 1879 2276 2878 1773
is_linear=0
shrinkage=0.1


Tree=30
num_leaves=16
num_cat=0
split_feature=1 3 10 17 13 7 16 3 3 6 17 3 11 13 15
split_gain=2.04216e-05 0.000133083 5.90645e-05 0.000212803 0.000112181 8.31474e-05 6.06536e-05 7.73425e-05 5.20223e-05 4.95271e-05 5.126e-05 4.63708e-05 4.18246e-05 3.9237e-05 4.78265e-05
threshold=-0.0011727065190350048 0.0048035445826191134 -0.51798103737648105 0.51577856378739406 41.915784205355017 -0.013287307758475862 85.557118780674003 -0.001494043976901893 -0.0094698751637429784 -0.0082952246464079154 0.30768395792302516 -0.0056206548498045064 8.5361086272348512 55.6787865003581 18.110378036894311
decision_type=2 2 2 2 2 2 2 2 2 2 2 2 2 2 2
left_child=1 2 5 9 -5 -1 8 -8 -7 10 -4 -11 -13 14 -10
right_child=-2 -3 3 4 -6 6 7 -9 13 11 -12 12 -14 -15 -16
leaf_value=3.6327364942395266e-05 -2.4620409743087968e-07 5.0729651448441478e-05 -4.5501283682209717e-06 -6.8067964620704966e-05 -1.0827894533981131e-05 -2.9937171012603084e-05 5.2615659261056021e-05 9.2179993429711546e-06 7.9783087191730966e-06 -1.8609108325464454e-05 3.0450088211331951e-05 1.8006022315405209e-06 -8.2638639145572697e-06 1.5731027997795348e-05 -5.9669032294257083e-07
leaf_weight=767 449269 547 710 715 657 502 515 2027 8815 1477 1019 19204 5260 2103 24813
leaf_count=767 449269 547 710 715 657 502 515 2027 8815 1477 1019 19204 5260 2103 24813
internal_value=2.04475e-14 1.60003e-06 1.20819e-06 -2.21608e-06 -4.06578e-05 3.72318e-06 3.07825e-06 1.80102e-05 2.03066e-06 -3.09966e-07 1.60775e-05 -1.40221e-06 -3.63357e-07 2.47979e-06 1.6511e-06
internal_weight=518400 69131 68584 29042 1372 39542 38775 2542 36233 27670 1729 25941 24464 35731 33628
internal_count=518400 69131 68584 29042 1372 39542 38775 2542 36233 27670 1729 25941 24464 35731 33628
is_linear=0
shrinkage=0.1


Tree=31
num_leaves=16
num_cat=0
split_feature=14 17 0 8 0 6 10 3 17 0 11 14 7 8 0
split_gain=1.94907e-05 3.65785e-05 3.69054e-05 3.51213e-05 4.34666e-05 7.40274e-05 3.9449e-05 3.54805e-05 3.58356e-05 3.2407e-05 6.72722e-05 3.14223e-05 8.82944e-05 4.40385e-05 4.03629e-05
threshold=61.104934233729239 0.71872814757397774 0.0038678919047391296 -0.0010096965838639058 0.0033156525834872057 -0.0047304184673681018 -0.65454778166928784 -0.0011249143906308377 0.37724101227090134 -0.0047545096460714911 -136.61822439660361 1.0000000180025095e-35 -0.013287307758475862 -0.0094178567139419616 -0.0014429098808180771
decision_type=2 2 2 2 2 2 2 2 2 2 2 2 2 2 2
left_child=1 2 9 4 5 -2 -7 8 -5 10 -1 13 -13 -11 -14
right_child=3 -3 -4 7 -6 6 -8 -9 -10 11 -12 12 14 -15 -16
leaf_value=8.211204952111575e-06 -3.228876648721607e-05 1.9277182950498821e-05 -2.702556723101401e-05 5.3733656641599986e-06 2.9725053471388996e-05 2.4487720507998883e-05 4.2131791929688732e-06 2.2487138346244401e-07 3.0382684983705517e-05 1.6148294674914886e-05 -3.37952046253145e-05 -4.0286152549091564e-05 -6.355062263942776e-06 9.3942940905161206e-07 -6.1373306087030339e-07
leaf_weight=690 525 930 527 3177 720 1060 10142 202584 699 1957 852 572 13000 70138 210827
leaf_count=690 525 930 527 3177 720 1060 10142 202584 699 1957 852 572 13000 70138 210827
internal_value=-8.83101e-14 -5.24224e-07 -5.85904e-07 7.17206e-07 5.87591e-06 4.41165e-06 6.13168e-06 4.062e-07 9.88356e-06 -5.39153e-07 -1.49986e-05 -4.63952e-07 -1.04747e-06 1.35227e-06 -9.47193e-07
internal_weight=518400 299493 298563 218907 12447 11727 11202 206460 3876 298036 1542 296494 224399 72095 223827
internal_count=518400 299493 298563 218907 12447 11727 11202 206460 3876 298036 1542 296494 224399 72095 223827
is_linear=0
shrinkage=0.1


Tree=32
num_leaves=16
num_cat=0
split_feature=0 1 17 4 17 15 8 7 7 3 4 8 17 15 13
split_gain=1.82641e-05 7.23024e-05 5.03101e-05 3.49788e-05 0.000107485 5.60478e-05 3.73539e-05 3.15688e-05 2.91048e-05 2.61009e-05 4.58572e-05 3.13967e-05 4.26434e-05 9.83067e-05 0.000220472
threshold=0.0024485554142585912 0.0028238219973827365 0.51577856378739406 0.010670257742096402 0.59134684824423844 40.198138310069275 0.0020760110616079301 -0.0045587553199460942 0.0030545141271036695 0.0095967128815410713 0.0083830616326482383 0.014030232468423167 0.51577856378739406 12.839472206648734 35.691281494870253
decision_type=2 2 2 2 2 2 2 2 2 2 2 2 2 2 2
left_child=9 2 7 4 5 -3 -7 -2 -9 10 11 12 -1 -14 -15
right_child=1 3 -4 -5 -6 6 -8 8 -10 -11 -12 -13 13 14 -16
leaf_value=-1.8967024368696205e-08 -1.117251052157253e-05 -2.1573799414531511e-05 4.079022980729912e-05 -2.0289243388337606e-05 4.2609849935018265e-05 2.3169408708478317e-05 -2.102396832733032e-06 2.076542687682743e-05 1.6812587848149938e-06 1.7234468682943578e-05 -1.7396052836445442e-05 2.3533141024386145e-05 2.8491952601072811e-05 -7.7368274635873066e-05 -5.5186620621421753e-06
leaf_weight=500008 615 1338 597 939 551 688 3902 2087 1295 868 1532 563 527 521 2369
leaf_count=500008 615 1338 597 939 551 688 3902 2087 1295 868 1532 563 527 521 2369
internal_value=-5.40002e-14 3.8539e-06 1.37125e-05 -2.25159e-06 3.626e-07 -3.56423e-06 1.68562e-06 9.66815e-06 1.34579e-05 -9.14182e-08 -1.21167e-07 -6.86561e-08 -9.50509e-08 -1.12284e-05 -1.84715e-05
internal_weight=518400 12012 4594 7418 6479 5928 4590 3997 3382 506388 505520 503988 503425 3417 2890
internal_count=518400 12012 4594 7418 6479 5928 4590 3997 3382 506388 505520 503988 503425 3417 2890
is_linear=0
shrinkage=0.1


Tree=33
num_leaves=16
num_cat=0
split_feature=1 3 3 16 17 0 17 10 2 0 4 13 9 3 17
split_gain=1.82792e-05 0.000125011 0.000102004 6.78738e-05 6.73377e-05 6.65909e-05 5.73885e-05 0.000200895 0.00022543 6.84554e-05 5.5252e-05 6.03768e-05 0.000106524 5.29504e-05 7.88194e-05
threshold=0.00061558827051544373 0.00644147469900025 -0.0050866517568669547 20.490457514860271 0.47108015491706062 0.0011746547638215035 0.51577856378739406 -0.51798103737648105 -0.0064920185806346389 -0.0014931506679407012 0.010670257742096402 59.120856769836251 0.0011535828148396823 -0.0056206548498045064 0.22404274397351592
decision_type=2 2 2 2 2 2 2 2 2 2 2 2 2 2 2
left_child=1 5 -2 -4 -5 6 -1 8 -8 -9 11 12 -6 -7 -15
right_child=2 -3 3 4 10 13 7 9 -10 -11 -12 -13 -14 14 -16
leaf_value=1.5938615496632936e-07 4.0189540770333953e-05 4.3081474153029221e-05 -7.6426107347099302e-06 1.2529511854530387e-08 -2.4261942146083636e-05 -2.0546283907526845e-05 5.9937924693944203e-05 -6.6881033975635197e-05 -2.5424148079928191e-05 -2.1438929348024325e-05 -3.626445720843017e-05 -3.6598401521127969e-05 2.7288702071079482e-05 1.8346791917968733e-06 2.0886240814820934e-05
leaf_weight=379783 597 683 14643 107781 757 584 577 596 667 747 879 505 852 4745 4004
leaf_count=379783 597 683 14643 107781 757 584 577 596 667 747 879 505 852 4745 4004
internal_value=2.48933e-14 3.36511e-07 -1.04784e-06 -1.24413e-06 -3.98329e-07 2.61978e-07 5.82746e-08 -1.47854e-05 1.4169e-05 -4.16053e-05 -1.51938e-05 -6.4326e-06 3.03523e-06 8.60763e-06 1.05537e-05
internal_weight=518400 392386 126014 125417 110774 391703 382370 2587 1244 1343 2993 2114 1609 9333 8749
internal_count=518400 392386 126014 125417 110774 391703 382370 2587 1244 1343 2993 2114 1609 9333 8749
is_linear=0
shrinkage=0.1


Tree=34
num_leaves=16
num_cat=0
split_feature=8 9 15 10 1 3 0 0 14 7 17 3 2 0 15
split_gain=1.87784e-05 6.47133e-05 4.39289e-05 3.8998e-05 0.000135792 7.44154e-05 5.79405e-05 4.59726e-05 0.0001231 0.000128167 9.0299e-05 3.31037e-05 3.11173e-05 3.20135e-05 4.42268e-05
threshold=-0.0026576441866132945 -0.0052922833783393677 57.87748681945542 0.49851189158075254 0.0034342975173762284 0.0033637184163270999 0.0017306158693383147 -0.0037049795851377128 17.542493340156945 -0.013287307758475862 0.31484464159961995 0.0032138689652262413 -0.0064920185806346389 -0.0025758587787268468 63.830285468607173
decision_type=2 2 2 2 2 2 2 2 2 2 2 2 2 2 2
left_child=2 -2 3 4 6 -5 7 8 9 -1 -11 -9 -3 14 -14
right_child=1 12 -4 5 -6 -7 -8 11 -10 10 -12 -13 13 -15 -16
leaf_value=3.7007419658977836e-05 -3.1272860675397069e-05 2.3428707782355494e-05 2.2461837029939179e-05 -2.6428081686646472e-06 5.2182412853287171e-05 -4.2237092881927663e-05 3.5050313712159255e-05 1.9364808808006826e-06 -5.2568809754423767e-05 4.7737821861315166e-06 -4.278609255294646e-05 2.7529499127961622e-05 -2.4158366809295355e-05 -1.2941793381524036e-07 -4.8603039592839599e-07
leaf_weight=651 670 558 999 7668 541 506 519 46103 567 938 695 511 1324 454196 1954
leaf_count=651 670 558 999 7668 541 506 519 46103 567 938 695 511 1324 454196 1954
internal_value=1.01018e-14 -2.17126e-07 1.66833e-06 1.31445e-06 2.35119e-06 -5.09384e-06 1.81184e-06 1.46309e-06 -1.0864e-05 -5.10813e-07 -1.54676e-05 2.21704e-06 -1.71698e-07 -2.00485e-07 -1.00474e-05
internal_weight=518400 458702 59698 58699 50525 8174 49984 49465 2851 2284 1633 46614 458032 457474 3278
internal_count=518400 458702 59698 58699 50525 8174 49984 49465 2851 2284 1633 46614 458032 457474 3278
is_linear=0
shrinkage=0.1


Tree=35
num_leaves=16
num_cat=0
split_feature=0 10 4 4 1 13 15 1 8 15 2 17 13 15 5
split_gain=1.85174e-05 5.29625e-05 4.893e-05 7.68063e-05 5.20966e-05 5.60451e-05 3.59222e-05 9.01535e-05 2.22798e-05 4.1188e-05 5.32212e-05 4.83552e-05 5.27194e-05 4.15281e-05 4.13579e-05
threshold=0.0033156525834872057 0.55920808424177426 -0.0022667362882489157 0.00066474652117887178 0.002670985945071203 53.761000857131926 86.45884786892212 0.0070444643622851197 0.003139753863338091 64.975936768773494 -0.0035352018012716475 0.36275627378569536 56.019076208991756 84.025690155269885 -0.0015651716309831862
decision_type=2 2 2 2 2 2 2 2 2 2 2 2 2 2 2
left_child=8 -2 -3 -4 -5 -6 7 -7 -1 14 -11 -12 13 -13 -10
right_child=1 2 3 4 5 6 -8 -9 9 10 11 12 -14 -15 -16
leaf_value=1.4699498707622948e-07 3.5364239391695407e-05 -2.5243747739777203e-05 3.8806124979225991e-05 2.9339203910855159e-05 -2.8820570218581498e-05 -2.8671504857091264e-06 -1.2709468573712512e-05 4.5591583624318338e-05 -3.6062595764005784e-05 2.9684386599745434e-05 -5.470652466960281e-07 1.7469854336989738e-05 -2.0521598442698143e-05 -1.7723185170522097e-05 -7.5660694826508876e-06
leaf_weight=464905 542 566 616 560 701 1366 994 534 597 550 39001 847 2599 555 3467
leaf_count=464905 542 566 616 560 701 1366 994 534 597 550 39001 847 2599 555 3467
internal_value=-2.38095e-14 5.58036e-06 2.55565e-06 5.85359e-06 9.68207e-07 -3.4512e-06 2.69391e-06 1.07523e-05 -6.40109e-08 -2.12419e-06 -1.22577e-06 -1.62111e-06 -1.20907e-05 3.53823e-06 -1.17522e-05
internal_weight=518400 5879 5337 4771 4155 3595 2894 1900 512521 47616 43552 43002 4001 1402 4064
internal_count=518400 5879 5337 4771 4155 3595 2894 1900 512521 47616 43552 43002 4001 1402 4064
is_linear=0
shrinkage=0.1


Tree=36
num_leaves=16
num_cat=0
split_feature=10 1 9 11 5 13 11 3 4 9 10 2 17 3 16
split_gain=1.76104e-05 4.30153e-05 3.64315e-05 8.29233e-05 5.4085e-05 4.83133e-05 4.38962e-05 3.9454e-05 3.24386e-05 3.94179e-05 3.21982e-05 0.000185535 6.67931e-05 9.05805e-05 0.000100757
threshold=-0.74117306447772635 -0.00059476257519436293 -0.0048139164654636959 -179.61888971116005 -0.0077200594804098235 50.078831334709243 -67.263723564382602 -0.0050866517568669547 -0.00078548266142575141 0.002652503907578319 -1.0000000180025095e-35 0.0066179607466565491 0.47108015491706062 -0.0094698751637429784 66.086577616189246
decision_type=2 2 2 2 2 2 2 2 2 2 2 2 2 2 2
left_child=1 2 3 -1 -5 7 -6 -4 9 -7 11 12 -2 -14 -15
right_child=10 -3 5 4 6 8 -8 -9 -10 -11 -12 -13 13 14 -16
leaf_value=4.1416772570331789e-05 -1.1811852143009633e-06 -1.0490116522542858e-06 -2.5090083633770877e-05 -1.8867155181485657e-05 5.9815263346573876e-06 1.2298740448313852e-05 3.865573264047772e-05 1.0718928085905753e-06 4.9753053687042999e-06 4.2960155213450865e-05 4.7839678465441356e-07 5.5763237323629025e-05 1.7866570923611628e-05 -4.1697592777480406e-05 1.3372995053666819e-07
leaf_weight=804 180514 36475 590 709 2157 2237 508 25070 6120 516 259110 569 621 1441 959
leaf_count=804 180514 36475 590 709 2157 2237 508 25070 6120 516 259110 569 621 1441 959
internal_value=-1.38938e-14 1.41511e-06 3.73691e-06 1.25566e-05 5.67945e-06 2.66985e-06 1.22099e-05 4.70351e-07 9.03061e-06 1.80457e-05 -2.40057e-07 -1.25122e-06 -1.42797e-06 -1.61744e-05 -2.49825e-05
internal_weight=518400 75186 38711 4178 3374 34533 2665 25660 8873 2753 443214 184104 183535 3021 2400
internal_count=518400 75186 38711 4178 3374 34533 2665 25660 8873 2753 443214 184104 183535 3021 2400
is_linear=0
shrinkage=0.1


Tree=37
num_leaves=16
num_cat=0
split_feature=9 11 15 0 1 11 10 17 13 13 0 1 15 15 15
split_gain=1.69848e-05 0.000115406 0.000161371 6.82889e-05 6.41921e-05 6.62088e-05 4.3206e-05 2.4153e-05 8.12076e-05 0.000149421 9.07086e-05 0.000105638 7.13274e-05 0.000106442 5.97872e-05
threshold=-0.011537058175357216 -68.363579017616516 15.503516672671678 -0.0028246958527926576 -0.0020886124469196572 -118.79375349988317 -0.58283513128529829 0.44025402679278258 57.371773232647392 45.800330899537578 -0.00029146364784199402 0.0025302220445572181 47.538463524169138 35.152928462325157 70.990405518472741
decision_type=2 2 2 2 2 2 2 2 2 2 2 2 2 2 2
left_child=1 2 4 -4 5 6 -1 -2 9 12 -11 -12 13 -9 -10
right_child=7 -3 3 -5 -6 -7 -8 8 14 10 11 -13 -14 -15 -16
leaf_value=3.2608902223937565e-05 3.5438533099152145e-08 4.6049815141610853e-05 -5.7981284746717436e-05 -9.9420380329475586e-06 -1.3232392213008112e-05 5.290005532103566e-05 -6.3710149408056809e-06 -1.3127995282942771e-05 -5.1761846611683856e-05 -3.8111985012571829e-06 5.4689181310122905e-05 7.1217741779064116e-06 1.0838206162660518e-05 -6.716650637458987e-05 -1.2810512513212599e-05
leaf_weight=513 506118 623 511 703 602 561 638 1317 507 1520 866 1013 635 504 1769
leaf_count=513 506118 623 511 703 602 561 638 1317 507 1520 866 1013 635 504 1769
internal_value=1.72998e-15 6.371e-06 -6.35771e-07 -3.01628e-05 1.48551e-05 2.47317e-05 1.10023e-05 -5.14265e-08 -5.45838e-06 7.72492e-07 1.43519e-05 2.90448e-05 -1.80209e-05 -2.80843e-05 -2.14873e-05
internal_weight=518400 4151 3528 1214 2314 1712 1151 514249 8131 5855 3399 1879 2456 1821 2276
internal_count=518400 4151 3528 1214 2314 1712 1151 514249 8131 5855 3399 1879 2456 1821 2276
is_linear=0
shrinkage=0.1


Tree=38
num_leaves=16
num_cat=0
split_feature=14 9 1 11 5 13 1 2 5 8 17 4 1 1 8
split_gain=1.65407e-05 6.33088e-05 6.45919e-05 9.41064e-05 4.44555e-05 3.42634e-05 3.23161e-05 4.75324e-05 4.70524e-05 3.84887e-05 0.000135328 0.000124083 3.83106e-05 4.28982e-05 3.18742e-05
threshold=66.565913989640094 0.01150265277920859 0.0031948086016138082 -55.672552197241245 -0.0031101425978301007 52.662281438975519 -0.0018015023619398216 -3.4401076705214966e-05 0.0021196034796856504 0.014030232468423167 0.37724101227090134 0.010670257742096402 0.0070444643622851197 0.0054160773091103129 0.002964125964007303
decision_type=2 2 2 2 2 2 2 2 2 2 2 2 2 2 2
left_child=1 2 14 -4 -2 -5 7 8 -6 12 -11 -12 13 -8 -1
right_child=4 -3 3 5 6 -7 9 -9 -10 10 11 -13 -14 -15 -16
leaf_value=-2.1753135559793481e-07 2.2637174591324671e-05 3.2338361816583734e-05 1.7591824670124088e-05 -5.1988505547717679e-05 2.0642696727371133e-05 -2.0130543323430136e-05 6.4846003986396048e-07 3.8971422920151099e-05 -1.8798705318284851e-05 2.5646568442475424e-05 9.1347010261713909e-07 -6.7065094400062565e-05 1.8647950462456826e-05 -1.5943953735456289e-05 -6.1629110120102224e-06
leaf_weight=308370 921 588 535 521 686 959 191085 535 541 548 503 576 1172 1571 9289
leaf_count=308370 921 588 535 521 686 959 191085 535 541 548 503 576 1172 1571 9289
internal_value=5.66477e-14 -4.44299e-07 -5.04598e-07 -1.83521e-05 7.18146e-07 -3.13454e-05 6.15785e-07 1.40979e-05 3.25248e-06 4.94245e-07 -1.48222e-05 -3.53754e-05 6.22812e-07 5.13158e-07 -3.91386e-07
internal_weight=518400 320262 319674 2015 198138 1480 197217 1762 1227 195455 1627 1079 193828 192656 317659
internal_count=518400 320262 319674 2015 198138 1480 197217 1762 1227 195455 1627 1079 193828 192656 317659
is_linear=0
shrinkage=0.1


Tree=39
num_leaves=16
num_cat=0
split_feature=0 16 16 1 3 16 9 8 0 17 11 13 10 17 10
split_gain=1.667e-05 5.88064e-05 7.86228e-05 1.76786e-05 7.3932e-05 6.9811e-05 9.4321e-05 9.20475e-05 5.29651e-05 4.08385e-05 5.35531e-05 6.75874e-05 7.26246e-05 4.04737e-05 0.000164546
threshold=0.0049304738039320792 27.757195215746048 71.457472858494455 0.00061558827051544373 0.00644147469900025 12.484846352764885 -0.0067386972281995852 -0.0094178567139419616 0.0011746547638215035 0.22404274397351592 -100.5031194095135 54.201640471849331 0.48272269007862961 0.51577856378739406 -0.51798103737648105
decision_type=2 2 2 2 2 2 2 2 2 2 2 2 2 2 2
left_child=3 -2 -3 4 8 6 -5 -7 13 -10 -11 12 -12 -1 -15
right_child=1 2 -4 5 -6 7 -8 -9 9 10 11 -13 -14 14 -16
leaf_value=1.4203891304745459e-07 3.8335214716589409e-05 -2.3619165371946801e-05 2.2960717603691361e-05 -4.6686561332723521e-05 3.3609029117617601e-05 3.8138092612227003e-05 -6.8551538240728425e-06 -8.3822396457056105e-07 1.3238734076640458e-06 -8.0319484748139389e-06 5.8686956185810801e-05 -6.8274829111110337e-08 1.9230670030854391e-05 1.3795843133715947e-05 -3.6681185180626269e-05
leaf_weight=379783 512 749 702 725 665 609 3303 119550 4785 843 628 1145 1814 1244 1343
leaf_count=379783 512 749 702 725 665 609 3303 119550 4785 843 628 1145 1814 1244 1343
internal_value=5.6306e-14 9.19781e-06 -1.08362e-06 -3.49612e-08 2.94248e-07 -1.07478e-06 -1.40244e-05 -6.40681e-07 2.37672e-07 7.7293e-06 1.4648e-05 1.99782e-05 2.93775e-05 5.71257e-08 -1.24085e-05
internal_weight=518400 1963 1451 516437 392250 124187 4028 120159 391585 9215 4430 3587 2442 382370 2587
internal_count=518400 1963 1451 516437 392250 124187 4028 120159 391585 9215 4430 3587 2442 382370 2587
is_linear=0
shrinkage=0.1


Tree=40
num_leaves=16
num_cat=0
split_feature=2 11 14 9 9 4 16 7 7 16 10 11 17 6 7
split_gain=1.57081e-05 0.000111467 8.16763e-05 8.89942e-05 7.79713e-05 6.46718e-05 0.000102108 8.60276e-05 6.21956e-05 7.31561e-05 9.10783e-05 4.64658e-05 4.39531e-05 4.01793e-05 3.43329e-05
threshold=-0.00377463785585691 -95.923744025935079 5.4542351926685573 -0.0098778173613067715 -0.0079201326749910855 -0.0012957965724644247 76.119660861067146 -8.8030299411900867e-05 -0.01036673184478498 11.02120757802407 -0.5328467153282882 -36.731644016767767 0.32245135499669547 0.001241538764021999 -0.0047888365487425135
decision_type=2 2 2 2 2 2 2 2 2 2 2 2 2 2 2
left_child=1 2 8 -4 -3 6 7 11 9 -1 -11 -6 14 -7 -10
right_child=-2 4 3 -5 5 13 -8 -9 12 10 -12 -13 -14 -15 -16
leaf_value=4.4110594491937201e-05 -9.2842571537883311e-08 4.0866180034413448e-05 -5.1256108290491366e-05 -5.80135098563331e-06 9.4342123443770179e-06 -3.183393190460669e-05 5.5343897138316986e-05 -2.5426090575727044e-05 5.7785704082553223e-06 2.9061403632180561e-05 -2.9479915429691032e-05 4.2701825073484032e-05 -2.5903744942680881e-05 7.2270334881722966e-06 -1.3258700536067983e-05
leaf_weight=651 504061 920 679 1178 1964 540 543 607 2952 566 501 534 795 514 1395
leaf_count=651 504061 920 679 1178 1964 540 543 607 2952 566 501 534 795 514 1395
internal_value=9.99569e-15 3.26371e-06 -3.81698e-06 -2.24216e-05 1.42424e-05 9.03319e-06 1.53371e-05 8.34072e-06 1.21928e-06 1.76923e-05 1.57387e-06 1.65459e-05 -4.28452e-06 -1.27852e-05 -3.30699e-07
internal_weight=518400 14339 8717 1857 5622 4702 3648 3105 6860 1718 1067 2498 5142 1054 4347
internal_count=518400 14339 8717 1857 5622 4702 3648 3105 6860 1718 1067 2498 5142 1054 4347
is_linear=0
shrinkage=0.1


Tree=41
num_leaves=16
num_cat=0
split_feature=8 4 4 17 16 6 14 11 13 16 8 7 11 11 17
split_gain=1.40943e-05 5.41782e-05 4.36134e-05 2.58137e-05 6.40355e-05 8.84432e-05 2.75256e-05 3.52583e-05 4.0776e-05 3.45575e-05 6.17814e-05 5.40669e-05 4.18689e-05 3.92461e-05 4.46491e-05
threshold=-0.0010096965838639058 0.0053258193062946111 -0.0056638965613811645 0.11671630886646635 32.690846381117979 0.0031494627044998951 68.076748820386527 37.002191685955246 55.6787865003581 82.04042663584606 0.0070503267916014476 0.0072557799639481066 47.291341118739638 19.609001214566188 0.22680112471167521
decision_type=2 2 2 2 2 2 2 2 2 2 2 2 2 2 2
left_child=1 -1 -2 -4 5 -5 9 8 -8 10 13 12 -11 -6 -15
right_child=2 -3 3 4 6 -7 7 -9 -10 11 -12 -13 -14 14 -16
leaf_value=7.135907333426769e-07 2.4776650165072192e-05 3.0314555510630007e-05 2.8623339015177984e-07 -6.3016953942770748e-06 -5.8317421853328956e-07 -4.7887114005891625e-05 3.8752112871309392e-06 -5.2824028282661902e-07 3.006592617247146e-05 7.9830966106798101e-06 -3.2112061670392338e-05 3.0042525772888122e-05 -5.94220034812301e-06 -3.8405666015194798e-06 -1.5253263576053098e-05
leaf_weight=143228 691 621 230379 13224 26340 532 13417 60356 622 4289 745 691 4348 14420 4497
leaf_count=143228 691 621 230379 13224 26340 532 13417 60356 622 4289 745 691 4348 14420 4497
internal_value=5.56465e-14 8.41379e-07 -3.23138e-07 -3.69529e-07 -1.42245e-06 -7.90997e-06 -7.34513e-07 5.21705e-07 5.03559e-06 -2.42359e-06 -3.54896e-06 3.12631e-06 9.72886e-07 -3.07877e-06 -6.55362e-06
internal_weight=518400 143849 374551 373860 143481 13756 129725 74395 14039 55330 46002 9328 8637 45257 18917
internal_count=518400 143849 374551 373860 143481 13756 129725 74395 14039 55330 46002 9328 8637 45257 18917
is_linear=0
shrinkage=0.1


Tree=42
num_leaves=16
num_cat=0
split_feature=0 10 12 15 5 4 17 1 12 11 12 17 10 5 13
split_gain=1.70985e-05 6.65892e-05 7.05607e-05 8.02452e-05 9.12339e-05 4.57638e-05 0.000198436 9.18389e-05 4.41428e-05 4.23912e-05 3.60969e-05 2.46877e-05 0.000113807 8.66508e-05 7.75148e-05
threshold=-0.0037049795851377128 -0.87121021605714255 26.27922460552789 37.099207404030125 -0.0017172148482994529 -0.0082716778107789751 0.59134684824423844 -0.0015792648616925751 41.625206888102262 -160.03043464389512 19.439106483499092 0.47108015491706062 0.66843677573432847 -0.0028146984365332024 56.748795264820565
decision_type=2 2 2 2 2 2 2 2 2 2 2 2 2 2 2
left_child=1 8 9 -4 -5 6 7 10 -1 -3 -2 -7 13 -13 -15
right_child=5 2 3 4 -6 11 -8 -9 -10 -11 -12 12 -14 14 -16
leaf_value=2.9363358348649504e-05 -8.6057376949895854e-06 -1.4890988808722713e-05 2.1495182772452487e-05 -5.1278757939977232e-05 7.5380519564983312e-06 5.6515854733582275e-08 6.6336274795659097e-05 -3.7036356491690045e-05 -8.8958019787621609e-06 -5.5440697046576117e-05 2.2119924491820997e-05 -3.7407089394250509e-05 2.1497769733630697e-05 5.8187198927032301e-06 -2.5092967686113904e-05
leaf_weight=705 601 502 772 511 545 505799 555 526 527 530 1051 1145 1159 2180 1292
leaf_count=705 601 502 772 511 545 505799 555 526 527 530 1051 1145 1159 2180 1292
internal_value=-6.70184e-14 -6.43859e-06 -1.48111e-05 -3.00926e-06 -2.09235e-05 5.12274e-08 1.2957e-05 -6.45147e-07 1.29976e-05 -3.57159e-05 1.09419e-05 -1.77195e-08 -6.51844e-06 -1.35513e-05 -5.68413e-06
internal_weight=518400 4092 2860 1828 1056 514308 2733 2178 1232 1032 1652 511575 5776 4617 3472
internal_count=518400 4092 2860 1828 1056 514308 2733 2178 1232 1032 1652 511575 5776 4617 3472
is_linear=0
shrinkage=0.1


Tree=43
num_leaves=16
num_cat=0
split_feature=0 10 10 1 13 4 8 15 6 10 13 8 3 17 2
split_gain=1.47841e-05 6.92111e-05 7.72674e-05 5.984e-05 5.09541e-05 5.23446e-05 4.42505e-05 3.78143e-05 4.36019e-05 3.01984e-05 3.46423e-05 6.74303e-05 3.38397e-05 2.78175e-05 2.02358e-05
threshold=0.0024485554142585912 0.49086780016766401 0.56655169572315034 0.00047143579665476226 46.041859377302082 -0.0002795008626817474 -0.0010096965838639058 39.031079085824565 0.0021277476227216101 0.95691151869090163 72.103922022375428 0.011071225385254626 0.0037176558041110979 0.21595378725570102 0.0066179607466565491
decision_type=2 2 2 2 2 2 2 2 2 2 2 2 2 2 2
left_child=14 -2 -3 -4 5 -5 -6 -8 -9 10 11 12 -10 -12 -1
right_child=1 2 3 4 6 -7 7 8 9 -11 13 -13 -14 -15 -16
leaf_value=-1.1950710026747194e-07 3.4747966557785087e-05 -3.212652120168968e-05 2.9232182315341335e-05 5.0159364043809635e-07 2.7379426906900696e-05 -3.7861974493663073e-05 -1.9076274772773848e-05 2.3015822684094509e-05 -9.9571723152680586e-06 -1.8428203111820904e-05 4.1272868585087863e-06 4.0854107352546908e-05 1.1131738192785466e-05 -2.4734613661772677e-05 1.0643210497232546e-05
leaf_weight=504635 668 640 842 836 765 619 756 1072 1230 699 677 554 1995 659 1753
leaf_count=504635 668 640 842 836 765 619 756 1072 1230 699 677 554 1995 659 1753
internal_value=-3.95635e-15 3.46736e-06 1.62538e-06 3.64343e-06 1.45871e-06 -1.58194e-05 4.44903e-06 2.15359e-06 4.48437e-06 1.0675e-06 3.73172e-06 8.62495e-06 3.08853e-06 -1.01092e-05 -8.2249e-08
internal_weight=518400 12012 11344 10704 9862 1455 8407 7642 6886 5814 5115 3779 3225 1336 506388
internal_count=518400 12012 11344 10704 9862 1455 8407 7642 6886 5814 5115 3779 3225 1336 506388
is_linear=0
shrinkage=0.1


Tree=44
num_leaves=16
num_cat=0
split_feature=12 1 1 11 3 0 10 12 4 1 7 8 16 3 16
split_gain=1.42219e-05 9.08195e-05 4.82618e-05 6.11319e-05 3.90886e-05 2.43801e-05 8.4247e-05 6.03468e-05 7.36889e-05 5.52119e-05 4.44774e-05 3.7103e-05 4.20734e-05 3.41673e-05 3.14336e-05
threshold=25.590572548365994 -0.0067814011012947697 -0.0067814011012947697 -107.08815294958866 -0.0094698751637429784 -0.0014931506679407012 -0.51798103737648105 56.886064787590918 -0.0014563878255786087 -0.00029199176751265593 0.005840321560707796 -0.007531127017238958 84.697612178192813 -0.0012040174994147332 60.720919099730544
decision_type=2 2 2 2 2 2 2 2 2 2 2 2 2 2 2
left_child=1 -1 3 -2 -3 6 9 8 -8 10 11 -4 -13 -14 -11
right_child=2 4 5 -5 -6 -7 7 -9 -10 14 -12 12 13 -15 -16
leaf_value=-3.0917271718069772e-05 4.6511496328751091e-05 2.9857686096918512e-05 1.6316751071676967e-05 8.5117563869304409e-07 1.841564988205635e-06 -5.8852295474322027e-08 -1.6563083079378965e-05 1.5496011201321382e-06 -6.1659142034379308e-05 -2.5396607683832445e-05 2.5003715905363411e-05 -3.287773409897858e-06 3.5404753507990644e-05 3.96131980673681e-06 -4.4059849656026295e-06
leaf_weight=846 501 503 1243 707 50152 442168 1030 779 559 1346 721 14712 501 1114 1518
leaf_count=846 501 503 1243 707 50152 442168 1030 779 559 1346 721 14712 501 1114 1518
internal_value=-6.77609e-14 1.57707e-06 -1.73958e-07 1.97881e-05 2.11976e-06 -2.25739e-07 -3.36275e-06 -2.12501e-05 -3.24276e-05 -1.36052e-06 6.61001e-07 -3.37923e-07 -1.60587e-06 1.37156e-05 -1.4271e-05
internal_weight=518400 51501 466899 1208 50655 465691 23523 2368 1589 21155 18291 17570 16327 1615 2864
internal_count=518400 51501 466899 1208 50655 465691 23523 2368 1589 21155 18291 17570 16327 1615 2864
is_linear=0
shrinkage=0.1


Tree=45
num_leaves=16
num_cat=0
split_feature=0 10 2 13 3 5 11 1 3 11 11 7 1 13 15
split_gain=1.48056e-05 5.35601e-05 4.40403e-05 5.49986e-05 6.39325e-05 2.9364e-05 0.000107283 2.76107e-05 2.1283e-05 6.09543e-05 9.11843e-05 2.63111e-05 8.2181e-05 8.17323e-05 6.06371e-05
threshold=-0.0037049795851377128 -0.87121021605714255 -0.00377463785585691 35.691281494870253 -0.0094698751637429784 -0.01168879075802076 -130.9022500190118 -0.0053093421144465016 -0.0074216948873951907 -150.8208661352696 -87.636329787137043 -0.007795368423905046 0.0017773836147204627 41.029660641053269 17.134941073967251
decision_type=2 2 2 2 2 2 2 2 2 2 2 2 2 2 2
left_child=1 7 3 4 -3 6 -2 -1 9 -7 -11 12 13 14 -10
right_child=5 2 -4 -5 -6 8 -8 -9 11 10 -12 -13 -14 -15 -16
leaf_value=2.8386836160795994e-05 -1.5484529128040068e-05 -4.1899872538362932e-05 -3.2361272029588251e-05 1.7450769051047353e-05 2.6063795505665141e-06 1.2490983199494756e-05 4.5371048064166548e-05 -1.7844567936284706e-06 1.5722575340635505e-05 -4.9691582234198092e-05 7.1681338145936025e-06 -1.6756848573365592e-08 -2.6922412814541296e-05 4.8958954667371558e-05 -1.4169821506995215e-05
leaf_weight=540 561 587 864 692 717 703 599 692 2363 647 500 506845 594 544 952
leaf_count=540 561 587 864 692 717 703 599 692 2363 647 500 506845 594 544 952
internal_value=1.84048e-14 -5.99135e-06 -1.35002e-05 -5.33593e-06 -1.74283e-05 4.76691e-08 1.594e-05 1.144e-05 1.17436e-08 -1.06947e-05 -2.49053e-05 5.04821e-08 7.70369e-06 1.30335e-05 7.13809e-06
internal_weight=518400 4092 2860 1996 1304 514308 1160 1232 513148 1850 1147 511298 4453 3859 3315
internal_count=518400 4092 2860 1996 1304 514308 1160 1232 513148 1850 1147 511298 4453 3859 3315
is_linear=0
shrinkage=0.1


Tree=46
num_leaves=16
num_cat=0
split_feature=14 6 3 0 10 14 8 17 5 13 17 5 15 0 5
split_gain=1.38105e-05 3.71507e-05 3.79042e-05 3.5626e-05 3.31004e-05 3.24823e-05 3.11085e-05 4.39941e-05 2.78375e-05 2.60667e-05 2.40726e-05 7.05431e-05 3.99415e-05 3.47505e-05 6.98343e-05
threshold=61.104934233729239 -0.0050002562453518853 -0.0011249143906308377 0.00058418803500159832 -0.68270483240406676 75.306441459877988 -0.001242781540397697 0.36275627378569536 0.00066079265379903618 43.382063787550713 0.2457561791620633 0.0090947574213529076 94.922604636870545 0.0026681384778691757 0.011544438551633675
decision_type=2 2 2 2 2 2 2 2 2 2 2 2 2 2 2
left_child=-1 -2 3 4 -3 8 7 9 -6 -4 11 -8 13 -12 -15
right_child=1 2 6 -5 5 -7 10 -9 -10 -11 12 -13 -14 14 -16
leaf_value=-4.412751788715722e-07 -2.2529873646687465e-05 1.999460809178479e-05 -1.076325504502804e-06 2.120197409915201e-05 -5.4309597942736419e-07 1.5738042968453276e-05 4.7011324842954708e-07 2.637320619660191e-05 -2.5990691482779144e-05 1.1064085206607931e-05 -4.2377259968082041e-06 3.4560819387049464e-05 -2.298461456009095e-05 1.2609389396560346e-05 -2.2345883642324436e-05
leaf_weight=299493 692 909 4396 1656 1322 743 184039 979 637 2959 15115 609 959 3196 696
leaf_count=299493 692 909 4396 1656 1322 743 184039 979 637 2959 15115 609 959 3196 696
internal_value=-5.47425e-14 6.03721e-07 6.77082e-07 9.05732e-06 3.48779e-06 -2.06539e-06 4.69808e-07 6.45866e-06 -8.81779e-06 3.8079e-06 2.2588e-07 5.8255e-07 -3.07265e-06 -2.06799e-06 6.3584e-06
internal_weight=518400 218907 218215 5267 3611 2702 212948 8334 1959 7355 204614 184648 19966 19007 3892
internal_count=518400 218907 218215 5267 3611 2702 212948 8334 1959 7355 204614 184648 19966 19007 3892
is_linear=0
shrinkage=0.1


Tree=47
num_leaves=16
num_cat=0
split_feature=10 5 17 2 5 2 15 4 4 12 16 10 2 17 4
split_gain=1.38926e-05 3.8804e-05 0.000109945 3.92224e-05 7.73432e-05 3.24055e-05 4.5362e-05 8.90534e-05 4.21799e-05 3.2317e-05 3.1669e-05 2.74563e-05 0.000113001 0.000112281 6.54058e-05
threshold=-0.66864233718941191 -0.01168879075802076 0.59134684824423844 -0.0064920185806346389 -0.0061838667290396989 -0.001107310179399523 57.48349304634106 -0.0029461332309173578 -0.0034586951853096677 25.938434337350568 60.720919099730544 -1.0000000180025095e-35 0.0066179607466565491 0.51577856378739406 -0.00026656348376113964
decision_type=2 2 2 2 2 2 2 2 2 2 2 2 2 2 2
left_child=5 2 -2 4 9 6 10 -8 -7 -3 -1 12 13 -5 -15
right_child=1 3 -4 11 -6 8 7 -9 -10 -11 -12 -13 -14 14 -16
leaf_value=3.0543018514546853e-06 -6.3752951161939361e-06 -1.6572653531485113e-05 4.9379525262030271e-05 -1.1827296259207383e-06 -4.2342062163004306e-05 -2.7398105064968143e-05 4.4325779262573611e-05 7.0479609533393276e-06 6.8802798350844123e-08 1.8425530525744901e-05 -8.1112543280884413e-06 3.9912556397221007e-07 4.4880133880755268e-05 -5.8157963693558953e-05 -1.1516072921300034e-05
leaf_weight=20377 883 515 590 159936 657 564 713 6332 64297 541 2902 258337 529 527 700
leaf_count=20377 883 515 590 159936 657 564 713 6332 64297 541 2902 258337 529 527 700
internal_value=-1.0878e-13 -2.45506e-07 1.59569e-05 -3.02096e-07 -1.54031e-05 1.09158e-06 3.79009e-06 1.08207e-05 -1.70036e-07 1.35729e-06 1.66238e-06 -2.4051e-07 -1.26246e-06 -1.41392e-06 -3.15489e-05
internal_weight=518400 423215 1473 421742 1713 95185 30324 7045 64861 1056 23279 420029 161692 161163 1227
internal_count=518400 423215 1473 421742 1713 95185 30324 7045 64861 1056 23279 420029 161692 161163 1227
is_linear=0
shrinkage=0.1


Tree=48
num_leaves=16
num_cat=0
split_feature=0 3 10 11 9 6 4 17 8 14 17 9 12 0 11
split_gain=1.35444e-05 5.66892e-05 9.92317e-05 9.39006e-05 0.00011988 3.9132e-05 3.18537e-05 0.000140029 6.39188e-05 6.24696e-05 4.23362e-05 2.2682e-05 2.78286e-05 1.96901e-05 5.91595e-05
threshold=-0.0037049795851377128 -0.00061857174134105619 -0.59010037832580153 -160.03043464389512 -0.0098778173613067715 -0.0025051510184481147 -0.0082716778107789751 0.59134684824423844 -0.013965268136470308 2.7577811369260412 0.30768395792302516 -0.011537058175357216 26.27922460552789 0.0049304738039320792 114.42891781261299
decision_type=2 2 2 2 2 2 2 2 2 2 2 2 2 2 2
left_child=1 2 3 -1 -5 -6 7 9 -8 10 -2 12 -10 -13 -15
right_child=6 -3 -4 4 5 -7 8 -9 11 -11 -12 13 -14 14 -16
leaf_value=2.5252554413493516e-05 -8.0678916934128004e-06 2.2202487490342868e-05 -5.1766112738835837e-05 -5.00747768693595e-05 -1.0415604492572857e-05 2.3858929438574706e-05 -3.4526649849781349e-05 5.5653356687282606e-05 2.7492465432848716e-05 -2.1045310183110384e-05 2.8682585493487034e-05 -4.4423871369363827e-08 -3.0350347451664732e-06 2.5194513308556335e-05 -1.2810313691883895e-05
leaf_weight=812 536 617 503 662 998 500 536 555 662 887 755 508100 544 1069 664
leaf_count=812 536 617 503 662 998 500 536 555 662 887 755 508100 544 1069 664
internal_value=2.82082e-14 -5.73049e-06 -1.06901e-05 -3.73813e-06 -1.46365e-05 1.02449e-06 4.55936e-08 1.08128e-05 -1.19283e-08 -6.13511e-07 1.34244e-05 2.42723e-08 1.37222e-05 -8.12988e-09 1.06329e-05
internal_weight=518400 4092 3475 2972 2160 1498 514308 2733 511575 2178 1291 511039 1206 509833 1733
internal_count=518400 4092 3475 2972 2160 1498 514308 2733 511575 2178 1291 511039 1206 509833 1733
is_linear=0
shrinkage=0.1


Tree=49
num_leaves=16
num_cat=0
split_feature=8 9 1 13 4 4 15 2 4 0 15 4 9 11 4
split_gain=1.33016e-05 4.66451e-05 4.53013e-05 4.18317e-05 0.000123651 4.19146e-05 5.73883e-05 3.78707e-05 3.93335e-05 3.40858e-05 0.000112246 0.000167599 3.35736e-05 0.000116888 8.02409e-05
threshold=0.0052204712640443471 0.0064621996730827034 -0.003372498227087017 65.45609156347335 0.010670257742096402 0.010670257742096402 91.103044293381316 0.0009419269261132791 0.0037588258091848519 -0.0047545096460714911 15.503516672671678 -0.0071071572452188194 -0.011537058175357216 -91.663373989133149 -0.0036277498833768291
decision_type=2 2 2 2 2 2 2 2 2 2 2 2 2 2 2
left_child=1 9 -2 4 7 -5 -7 8 -4 10 -1 -12 13 -11 -15
right_child=2 -3 3 5 -6 6 -8 -9 -10 12 11 -13 -14 14 -16
leaf_value=2.1157978913959771e-05 2.3407361753837157e-05 1.5672266559409316e-05 -7.8453873542196652e-06 -8.1470823551879098e-07 -4.8967180607461767e-05 4.357869719299097e-05 -3.5664690033114447e-06 -7.1421974568844855e-08 -3.4013219236783405e-05 -3.3305983172073834e-06 -7.0196165402697835e-05 4.4257259958158107e-06 2.987961230046346e-08 6.4796671171753477e-05 1.1192049040730634e-05
leaf_weight=615 661 1918 3082 9951 677 524 509 6304 706 2184 578 628 488942 527 594
leaf_count=615 661 1918 3082 9951 677 524 509 6304 706 2184 578 628 488942 527 594
internal_value=-5.41231e-15 1.07682e-07 -2.38283e-06 -3.16651e-06 -7.59531e-06 1.1756e-06 2.03484e-05 -4.81996e-06 -1.27225e-05 4.72595e-08 -1.36089e-05 -3.13383e-05 9.77787e-08 1.01428e-05 3.63924e-05
internal_weight=518400 495986 22414 21753 10769 10984 1033 10092 3788 494068 1821 1206 492247 3305 1121
internal_count=518400 495986 22414 21753 10769 10984 1033 10092 3788 494068 1821 1206 492247 3305 1121
is_linear=0
shrinkage=0.1


Tree=50
num_leaves=16
num_cat=0
split_feature=1 10 0 12 2 15 2 17 5 4 13 10 15 17 0
split_gain=1.33464e-05 8.46244e-05 9.04562e-05 7.77604e-05 6.11605e-05 5.92896e-05 6.06894e-05 4.99075e-05 9.28947e-05 0.000133278 4.74003e-05 4.08208e-05 3.98749e-05 3.88691e-05 3.86247e-05
threshold=0.001664642479201617 0.28612054677095233 0.00079564481433369594 87.037536168075306 0.0056003983645208652 27.00645232782092 0.0011895325321316099 0.47108015491706062 0.003008609780973726 0.010670257742096402 50.399437816471767 0.74769850097994872 83.403798868150218 0.33107832583764357 0.0013732602639272564
decision_type=2 2 2 2 2 2 2 2 2 2 2 2 2 2 2
left_child=4 2 3 10 14 6 -3 -7 -9 -10 -2 -8 -12 -14 -1
right_child=1 5 -4 -5 -6 7 11 8 9 -11 12 -13 13 -15 -16
leaf_value=-4.0659537792687667e-08 1.2857131351422331e-05 -3.1502002654597902e-06 4.7509254844868565e-05 4.0271053759508219e-05 3.480125317314479e-05 -1.5833240705894214e-06 -4.2979165021179274e-05 -5.3819529741878416e-05 2.6852265088873924e-05 -3.9268312347828636e-05 -1.0095213108801043e-05 -1.2648095916415655e-05 1.3464743098087755e-05 -1.5723922983708148e-05 5.2393565360379776e-06
leaf_weight=458805 2740 1799 512 565 509 29715 974 532 658 568 3409 815 1914 599 14286
leaf_count=458805 2740 1799 512 565 509 29715 974 532 658 568 3409 815 1914 599 14286
internal_value=5.02484e-14 -1.64974e-06 6.59665e-06 4.32643e-06 1.56057e-07 -3.94037e-06 -1.61196e-05 -2.5519e-06 -1.89235e-05 -3.78109e-06 1.98186e-06 -2.91615e-05 -3.04993e-06 6.50732e-06 1.18782e-07
internal_weight=518400 44800 9739 9227 473600 35061 3588 31473 1758 1226 8662 1789 5922 2513 473091
internal_count=518400 44800 9739 9227 473600 35061 3588 31473 1758 1226 8662 1789 5922 2513 473091
is_linear=0
shrinkage=0.1


Tree=51
num_leaves=16
num_cat=0
split_feature=10 10 7 2 13 4 17 16 9 3 17 2 7 16 9
split_gain=1.26557e-05 1.44387e-05 5.18221e-05 4.23876e-05 5.73837e-05 3.45099e-05 0.000161748 4.88251e-05 3.41312e-05 6.69571e-05 6.14496e-05 4.30367e-05 5.77343e-05 3.51142e-05 2.68825e-05
threshold=0.99038461538527978 -0.58283513128529829 -0.013287307758475862 -0.0082892073958119022 32.112108009847326 -0.0082716778107789751 0.51577856378739406 13.16298105023062 0.0029464631734347217 -0.0027750759276699006 0.35090765932674844 -0.0064920185806346389 -0.0071201886648369342 85.557118780674003 -0.0098778173613067715
decision_type=2 2 2 2 2 2 2 2 2 2 2 2 2 2 2
left_child=1 2 -1 4 -3 6 7 -5 11 -10 13 12 -4 -11 -13
right_child=-2 3 8 5 -6 -7 -8 -9 9 10 -12 14 -14 -15 -16
leaf_value=2.8344285702353816e-05 2.8991694667086618e-06 -4.0857788030734815e-05 -3.5699635181738395e-05 1.6184772562619587e-05 4.7663892381059866e-06 -3.8994829818757432e-07 5.9639627082449006e-05 -2.4021541680978832e-05 3.9804786198494565e-05 -1.8162151968571813e-07 -2.1575749820040862e-05 1.805559905086148e-05 6.6854376732714209e-06 1.6000955505397775e-05 3.773613575727013e-07
leaf_weight=683 14632 600 756 539 510 381838 533 687 590 2541 786 867 559 2839 109440
leaf_count=683 14632 600 756 539 510 381838 533 687 590 2541 786 867 559 2839 109440
internal_value=-3.78062e-14 -8.42068e-08 8.78134e-07 -3.82037e-07 -1.98953e-05 -3.25572e-07 1.36491e-05 -6.34519e-06 7.19664e-07 7.6216e-06 4.54211e-06 3.0192e-07 -1.7682e-05 8.35785e-06 5.1631e-07
internal_weight=518400 503768 119061 384707 1110 383597 1759 1226 118378 6756 6166 111622 1315 5380 110307
internal_count=518400 503768 119061 384707 1110 383597 1759 1226 118378 6756 6166 111622 1315 5380 110307
is_linear=0
shrinkage=0.1


end of trees

feature_importances:
natr=82
ret1min=80
bop=64
ret2min=63
rsi=61
slowk=51
ret9min=45
ret5min=44
slowd=40
ret4min=38
cci=36
ret3min=35
ret10min=35
ret8min=27
ret6min=22
mfi=22
stochrsi=22
ret7min=13

parameters:
[boosting: gbdt]
[objective: regression]
[metric: rmse]
[tree_learner: serial]
[device_type: cpu]
[data_sample_strategy: bagging]
[data: ]
[valid: ]
[num_iterations: 50]
[learning_rate: 0.1]
[num_leaves: 16]
[num_threads: 0]
[seed: 42]
[deterministic: 0]
[force_col_wise: 0]
[force_row_wise: 0]
[histogram_pool_size: -1]
[max_depth: -1]
[min_data_in_leaf: 500]
[min_sum_hessian_in_leaf: 0.001]
[bagging_fraction: 1]
[pos_bagging_fraction: 1]
[neg_bagging_fraction: 1]
[bagging_freq: 0]
[bagging_seed: 400]
[bagging_by_query: 0]
[feature_fraction: 0.8]
[feature_fraction_bynode: 1]
[feature_fraction_seed: 30056]
[extra_trees: 0]
[extra_seed: 12879]
[early_stopping_round: 0]
[early_stopping_min_delta: 0]
[first_metric_only: 0]
[max_delta_step: 0]
[lambda_l1: 0]
[lambda_l2: 0]
[linear_lambda: 0]
[min_gain_to_split: 0]
[drop_rate: 0.1]
[max_drop: 50]
[skip_drop: 0.5]
[xgboost_dart_mode: 0]
[uniform_drop: 0]
[drop_seed: 17869]
[top_rate: 0.2]
[other_rate: 0.1]
[min_data_per_group: 100]
[max_cat_threshold: 32]
[cat_l2: 10]
[cat_smooth: 10]
[max_cat_to_onehot: 4]
[top_k: 20]
[monotone_constraints: ]
[monotone_constraints_method: basic]
[monotone_penalty: 0]
[feature_contri: ]
[forcedsplits_filename: ]
[refit_decay_rate: 0.9]
[cegb_tradeoff: 1]
[cegb_penalty_split: 0]
[cegb_penalty_feature_lazy: ]
[cegb_penalty_feature_coupled: ]
[path_smooth: 0]
[interaction_constraints: ]
[verbosity: -1]
[saved_feature_importance_type: 0]
[use_quantized_grad: 0]
[num_grad_quant_bins: 4]
[quant_train_renew_leaf: 0]
[stochastic_rounding: 1]
[linear_tree: 0]
[max_bin: 255]
[max_bin_by_feature: ]
[min_data_in_bin: 3]
[bin_construct_sample_cnt: 200000]
[data_random_seed: 175]
[is_enable_sparse: 1]
[enable_bundle: 1]
[use_missing: 1]
[zero_as_missing: 0]
[feature_pre_filter: 1]
[pre_partition: 0]
[two_round: 0]
[header: 0]
[label_column: ]
[weight_column: ]
[group_column: ]
[ignore_column: ]
[categorical_feature: ]
[forcedbins_filename: ]
[precise_float_parser: 0]
[parser_config_file: ]
[objective_seed: 16083]
[num_class: 1]
[is_unbalance: 0]
[scale_pos_weight: 1]
[sigmoid: 1]
[boost_from_average: 1]
[reg_sqrt: 0]
[alpha: 0.9]
[fair_c: 1]
[poisson_max_delta_step: 0.7]
[tweedie_variance_power: 1.5]
[lambdarank_truncation_level: 30]
[lambdarank_norm: 1]
[label_gain: ]
[lambdarank_position_bias_regularization: 0]
[eval_at: ]
[multi_error_top_k: 1]
[auc_mu_weights: ]
[num_machines: 1]
[local_listen_port: 12400]
[time_out: 120]
[machine_list_filename: ]
[machines: ]
[gpu_platform_id: -1]
[gpu_device_id: -1]
[gpu_use_dp: 0]
[num_gpu: 1]

end of parameters

pandas_categorical:[]
