tree
version=v4
num_class=1
num_tree_per_iteration=1
label_index=0
max_feature_idx=17
objective=regression
feature_names=ret1min ret2min ret3min ret4min ret5min ret6min ret7min ret8min ret9min ret10min bop cci mfi rsi stochrsi slowk slowd natr
feature_infos=[-0.017936595111312736:0.015681066877631267] [-0.022157403501042228:0.023923647687072558] [-0.030454006688010349:0.023137493361248263] [-0.040109553828263755:0.032995900160006864] [-0.041404187176060203:0.031804198968844455] [-0.042915377527171117:0.031266800173615605] [-0.045911526945569769:0.033549230614502656] [-0.0492332930965933:0.038221728489614248] [-0.049315019430167806:0.041884743035301319] [-0.052609788133173407:0.041212913607563184] [-1:1] [-677.71766435533232:725.02153316685849] [0:100] [4.4785151858758638:96.271804935928571] [0:100] [0:100] [0:100] [0.0010920910369267595:1.038232168298199]
tree_sizes=1722 1738 1755 1741

Tree=0
num_leaves=16
num_cat=0
split_feature=0 7 8 10 14 13 1 1 3 12 12 3 14 0 14
split_gain=0.000144053 0.000118808 2.79087e-05 3.66512e-05 4.31718e-05 2.63719e-05 1.63672e-05 1.46163e-05 2.06161e-05 2.54031e-05 1.42312e-05 1.34323e-05 3.57739e-05 1.93255e-05 1.29133e-05
threshold=-0.0027224854345723744 -0.0059880983009585878 -0.0049456996255008425 -0.49364935326835374 1.2528865684871067 38.049112420573515 -0.00045012776635539037 -0.0026476998933535607 -0.00095602068511779759 25.691348307948903 15.965252501049507 -0.0033274514758450664 35.04168723070341 -0.00033167803978295657 2.674938688023095
decision_type=2 2 2 2 2 2 2 2 2 2 2 2 2 2 2
left_child=1 -1 3 4 -2 7 -7 -5 9 10 -9 12 13 -4 -3
right_child=2 14 11 5 -6 6 -8 8 -10 -11 -12 -13 -14 -15 -16
leaf_value=5.854939983887874e-05 2.4912332139854199e-05 -2.0339579976169152e-06 3.3191095371231394e-06 -1.7956778625574191e-05 -6.7165344772228709e-07 1.5753785367070606e-06 2.5804679163527669e-05 6.6430109658820167e-06 -1.721831799685952e-05 2.2668993344842089e-05 -1.2503873664568298e-05 1.2687821401851324e-06 -2.8624889818242593e-05 -1.3955274271935669e-05 1.8716013035448021e-05
leaf_weight=785 1919 590 2680 541 1005 510 615 855 549 566 711 505076 534 854 610
leaf_count=785 1919 590 2680 541 1005 510 615 855 549 566 711 505076 534 854 610
internal_value=1.41389e-06 2.83013e-05 1.31054e-06 7.46222e-06 1.61189e-05 1.6393e-06 1.48207e-05 -2.96316e-06 6.24073e-08 4.51228e-06 -2.05011e-06 1.22269e-06 -4.50056e-06 -8.55289e-07 8.51394e-06
internal_weight=518400 1985 516415 7271 2924 4347 1125 3222 2681 2132 1566 509144 4068 3534 1200
internal_count=518400 1985 516415 7271 2924 4347 1125 3222 2681 2132 1566 509144 4068 3534 1200
is_linear=0
shrinkage=1


Tree=1
num_leaves=16
num_cat=0
split_feature=2 0 1 8 0 3 3 14 14 2 3 3 16 7 9
split_gain=0.000123741 0.000100049 9.06042e-05 2.67351e-05 4.65922e-05 4.7202e-05 2.11003e-05 2.20159e-05 1.32385e-05 1.84073e-05 1.44724e-05 1.38384e-05 1.28894e-05 1.22926e-05 1.26683e-05
threshold=-0.0046371545477636436 -0.0027224854345723744 -0.0037723098627864822 -0.0049456996255008425 -0.0011015367013418873 -0.0023572619440630489 -0.0037093514882489127 16.368592170081762 10.110987091984292 -0.001185375029993385 -0.0022471063076224813 -0.0013239356862768668 12.109814398183653 -0.0052223783818768901 0.0087820287866992048
decision_type=2 2 2 2 2 2 2 2 2 2 2 2 2 2 2
left_child=1 -1 -3 4 5 12 7 -5 10 -10 -6 -11 -2 -8 -15
right_child=3 2 -4 6 8 -7 13 -9 9 11 -12 -13 -14 14 -16
leaf_value=5.2243832202732949e-05 1.8189538120366953e-05 -2.5395880976542256e-05 3.013763719331264e-05 -3.6532404981241693e-06 -1.3571834960419159e-07 -4.1472305486374949e-06 1.5028525029170488e-05 -2.5198267479761252e-05 -1.5722218652937925e-05 1.4988949001992075e-05 1.75501269703476e-05 -5.4208958263015691e-06 3.5600785652621991e-05 -1.210833660073622e-07 -8.310507734949096e-06
leaf_weight=799 914 510 693 1726 1361 726 534 654 965 529 701 893 795 504704 1896
leaf_count=799 914 510 693 1726 1361 726 534 654 965 529 701 893 795 504704 1896
internal_value=-6.78709e-13 2.48133e-05 6.59475e-06 -9.61984e-08 6.09402e-06 1.72144e-05 -1.79834e-07 -9.5736e-06 7.70496e-09 -5.06227e-06 5.87678e-06 2.1718e-06 2.6289e-05 -1.35749e-07 -1.51733e-07
internal_weight=518400 2002 1203 516398 6884 2435 509514 2380 4449 2387 2062 1422 1709 507134 506600
internal_count=518400 2002 1203 516398 6884 2435 509514 2380 4449 2387 2062 1422 1709 507134 506600
is_linear=0
shrinkage=0.1


Tree=2
num_leaves=16
num_cat=0
split_feature=5 0 7 8 10 10 13 17 13 0 9 17 0 10 6
split_gain=0.000104985 0.000111286 3.25046e-05 2.06775e-05 2.40593e-05 1.25717e-05 1.29735e-05 2.04907e-05 1.31176e-05 1.85394e-05 1.16504e-05 2.64098e-05 1.11119e-05 5.36807e-05 4.34595e-05
threshold=-0.0064679389071649598 -0.0027224854345723744 -0.0075098362365534346 -0.0049456996255008425 -0.65690716739800548 0.99137931034453752 37.657532203282258 0.13307905692751365 37.044690461504338 0.00050061672779955224 -0.0044304722543990196 0.22846736930053735 0.0027191980631335881 0.74948208196620192 0.0037487614704730947
decision_type=2 2 2 2 2 2 2 2 2 2 2 2 2 2 2
left_child=1 -1 -3 4 -2 6 7 -5 9 -9 11 -8 -12 -14 -15
right_child=3 2 -4 5 -6 -7 10 8 -10 -11 12 -13 13 14 -16
leaf_value=5.813126583759629e-05 1.4813547533049181e-05 -4.4326588045954921e-06 2.5527789331353854e-05 1.6164832679921702e-06 1.4941850076492571e-06 1.708679932190912e-06 -2.3066671683092867e-07 -3.7765795118010355e-06 9.0031719420159722e-06 -2.0405346879761113e-05 -4.9589595707745199e-07 -2.760975103175927e-05 3.4732414578577047e-05 1.7738086140510549e-05 -2.1587609749680328e-05
leaf_weight=613 1952 902 605 56778 4443 33558 1106 4088 614 802 410772 517 509 501 640
leaf_count=613 1952 902 605 56778 4443 33558 1106 4088 614 802 410772 517 509 501 640
internal_value=-4.49363e-14 2.22078e-05 7.59526e-06 -9.11919e-08 5.55977e-06 -1.62066e-07 -2.93864e-07 1.05175e-06 -4.77395e-06 -6.50383e-06 -4.96275e-07 -8.95216e-06 -4.62998e-07 7.72698e-06 -4.32015e-06
internal_weight=518400 2120 1507 516280 6395 509885 476327 62282 5504 4890 414045 1623 412422 1650 1141
internal_count=518400 2120 1507 516280 6395 509885 476327 62282 5504 4890 414045 1623 412422 1650 1141
is_linear=0
shrinkage=0.1


Tree=3
num_leaves=16
num_cat=0
split_feature=2 4 10 13 1 4 1 10 11 16 5 10 6 5 10
split_gain=8.5871e-05 7.85586e-05 6.38771e-05 1.46858e-05 1.14159e-05 1.1391e-05 3.26448e-05 2.80899e-05 1.44203e-05 2.70525e-05 1.99957e-05 1.00712e-05 9.24441e-06 1.90648e-05 1.43258e-05
threshold=-0.0046371545477636436 -0.0047744710583950125 -0.51669481599574796 28.066696670403825 -0.0026476998933535607 0.0048354730931028387 0.0038649805607046121 0.69072529749528511 126.96804558355963 77.338687548285421 0.0067896021843909535 0.99137931034453752 0.0035035813122789032 0.0018841310922118606 -0.67946538979419902
decision_type=2 2 2 2 2 2 2 2 2 2 2 2 2 2 2
left_child=1 2 -1 4 -2 11 8 -8 9 -7 -10 12 -5 -14 -15
right_child=3 -3 -4 5 -6 6 7 -9 10 -11 -12 -13 13 14 -16
leaf_value=4.7683451396131991e-05 1.4444106588217561e-05 -1.2131691236875405e-05 3.7017300222855178e-06 -2.5672873482905442e-07 2.5452781214234527e-06 1.8329337871495498e-05 6.2469704775853244e-06 -2.5686036795809534e-05 8.4786380596744361e-06 -7.5992767438167772e-06 3.3715593891122266e-05 1.4735939804125067e-06 -1.9355668152116364e-05 1.3829837362290578e-05 -3.069535159447057e-06
leaf_weight=965 872 535 502 457083 10703 745 557 545 797 875 518 33416 689 531 9067
leaf_count=965 872 535 502 457083 10703 745 557 545 797 875 518 33416 689 531 9067
internal_value=-1.53724e-13 2.06705e-05 3.26331e-05 -8.01367e-08 3.44167e-06 -1.60888e-07 5.12975e-06 -9.54567e-06 1.06399e-05 4.32468e-06 1.84199e-05 -2.03537e-07 -3.23449e-07 -3.28802e-06 -2.13459e-06
internal_weight=518400 2002 1467 516398 11575 504823 4037 1102 2935 1620 1315 500786 467370 10287 9598
internal_count=518400 2002 1467 516398 11575 504823 4037 1102 2935 1620 1315 500786 467370 10287 9598
is_linear=0
shrinkage=0.1


end of trees

feature_importances:
bop=8
ret1min=7
ret4min=6
ret2min=5
stochrsi=5
rsi=4
ret3min=3
ret6min=3
ret8min=3
ret9min=3
ret5min=2
ret7min=2
ret10min=2
mfi=2
slowd=2
natr=2
cci=1

parameters:
[boosting: gbdt]
[objective: regression]
[metric: rmse]
[tree_learner: serial]
[device_type: cpu]
[data_sample_strategy: bagging]
[data: ]
[valid: ]
[num_iterations: 50]
[learning_rate: 0.1]
[num_leaves: 16]
[num_threads: 0]
[seed: 42]
[deterministic: 0]
[force_col_wise: 0]
[force_row_wise: 0]
[histogram_pool_size: -1]
[max_depth: -1]
[min_data_in_leaf: 500]
[min_sum_hessian_in_leaf: 0.001]
[bagging_fraction: 1]
[pos_bagging_fraction: 1]
[neg_bagging_fraction: 1]
[bagging_freq: 0]
[bagging_seed: 400]
[bagging_by_query: 0]
[feature_fraction: 0.8]
[feature_fraction_bynode: 1]
[feature_fraction_seed: 30056]
[extra_trees: 0]
[extra_seed: 12879]
[early_stopping_round: 0]
[early_stopping_min_delta: 0]
[first_metric_only: 0]
[max_delta_step: 0]
[lambda_l1: 0]
[lambda_l2: 0]
[linear_lambda: 0]
[min_gain_to_split: 0]
[drop_rate: 0.1]
[max_drop: 50]
[skip_drop: 0.5]
[xgboost_dart_mode: 0]
[uniform_drop: 0]
[drop_seed: 17869]
[top_rate: 0.2]
[other_rate: 0.1]
[min_data_per_group: 100]
[max_cat_threshold: 32]
[cat_l2: 10]
[cat_smooth: 10]
[max_cat_to_onehot: 4]
[top_k: 20]
[monotone_constraints: ]
[monotone_constraints_method: basic]
[monotone_penalty: 0]
[feature_contri: ]
[forcedsplits_filename: ]
[refit_decay_rate: 0.9]
[cegb_tradeoff: 1]
[cegb_penalty_split: 0]
[cegb_penalty_feature_lazy: ]
[cegb_penalty_feature_coupled: ]
[path_smooth: 0]
[interaction_constraints: ]
[verbosity: -1]
[saved_feature_importance_type: 0]
[use_quantized_grad: 0]
[num_grad_quant_bins: 4]
[quant_train_renew_leaf: 0]
[stochastic_rounding: 1]
[linear_tree: 0]
[max_bin: 255]
[max_bin_by_feature: ]
[min_data_in_bin: 3]
[bin_construct_sample_cnt: 200000]
[data_random_seed: 175]
[is_enable_sparse: 1]
[enable_bundle: 1]
[use_missing: 1]
[zero_as_missing: 0]
[feature_pre_filter: 1]
[pre_partition: 0]
[two_round: 0]
[header: 0]
[label_column: ]
[weight_column: ]
[group_column: ]
[ignore_column: ]
[categorical_feature: ]
[forcedbins_filename: ]
[precise_float_parser: 0]
[parser_config_file: ]
[objective_seed: 16083]
[num_class: 1]
[is_unbalance: 0]
[scale_pos_weight: 1]
[sigmoid: 1]
[boost_from_average: 1]
[reg_sqrt: 0]
[alpha: 0.9]
[fair_c: 1]
[poisson_max_delta_step: 0.7]
[tweedie_variance_power: 1.5]
[lambdarank_truncation_level: 30]
[lambdarank_norm: 1]
[label_gain: ]
[lambdarank_position_bias_regularization: 0]
[eval_at: ]
[multi_error_top_k: 1]
[auc_mu_weights: ]
[num_machines: 1]
[local_listen_port: 12400]
[time_out: 120]
[machine_list_filename: ]
[machines: ]
[gpu_platform_id: -1]
[gpu_device_id: -1]
[gpu_use_dp: 0]
[num_gpu: 1]

end of parameters

pandas_categorical:[]
