tree
version=v4
num_class=1
num_tree_per_iteration=1
label_index=0
max_feature_idx=17
objective=regression
feature_names=ret1min ret2min ret3min ret4min ret5min ret6min ret7min ret8min ret9min ret10min bop cci mfi rsi stochrsi slowk slowd natr
feature_infos=[-0.077596566523605137:0.055174470623322369] [-0.087000849617672071:0.067269984917043724] [-0.1191130972842902:0.086108979278587849] [-0.14397862034407893:0.086442499616152357] [-0.14540603635150917:0.086609336609336562] [-0.15134956118562681:0.087110155169764836] [-0.15387155357437687:0.10829959514170029] [-0.15415084997524353:0.12408906882591086] [-0.15679499835472199:0.10301731833601147] [-0.14469292389853139:0.11578947368421066] [-1:1] [-612.50542232136638:636.50741591049893] [0:100] [4.0433540673273427:97.816926201371714] [0:100] [0:100] [0:100] [0.023568641334745493:2.9407930466258758]
tree_sizes=1729 1730 1744 1760 1746 1735 1763 1705 1703 1729 1708 1720

Tree=0
num_leaves=16
num_cat=0
split_feature=9 12 1 3 14 13 0 10 3 13 8 14 9 10 15
split_gain=0.000169418 0.000185838 0.000211544 6.84205e-05 0.000107013 5.71218e-05 9.96164e-05 3.12233e-05 2.99073e-05 2.88023e-05 3.99889e-05 4.95258e-05 3.4708e-05 3.85911e-05 2.7238e-05
threshold=-0.012157028368623366 20.527212719499662 -0.0021202566116814143 0.0076329545037153732 95.686298463025722 26.432668049439787 -0.0024131236839318167 0.72821969696970335 -0.0077635504223868548 64.227253930653745 0.005580329370248994 59.108371413893188 0.0049395538176101325 -0.5454545454544627 83.528101037564866
decision_type=2 2 2 2 2 2 2 2 2 2 2 2 2 2 2
left_child=1 -1 -3 5 -5 6 -2 -6 -7 12 -11 -12 -10 -14 -13
right_child=3 2 -4 4 7 8 -8 -9 9 10 11 14 13 -15 -16
leaf_value=6.4846785680691007e-05 4.0850681518594804e-05 -4.0912851709422903e-05 4.8460532718721851e-05 5.6755014584467031e-05 1.7118552687913029e-05 -1.942032223419569e-05 5.5770119316850619e-06 -1.4988078962794124e-05 1.2442919702311093e-06 -1.5293642512915044e-07 -3.3577770385803477e-05 9.3633283678335328e-06 2.5307906881004933e-05 5.0989028879822368e-06 -9.1389961511727627e-06
leaf_weight=880 912 543 517 565 766 711 6556 501 448876 44675 718 990 1121 6016 4053
leaf_count=880 912 543 517 565 766 711 6556 501 448876 44675 718 990 1121 6016 4053
internal_value=1.38204e-06 3.08781e-05 2.67775e-06 1.27125e-06 2.05624e-05 1.20257e-06 9.88467e-06 4.42288e-06 1.07473e-06 1.1035e-06 -1.16409e-06 -9.00529e-06 1.3543e-06 8.27311e-06 -5.50677e-06
internal_weight=518400 1940 1060 516460 1832 514628 7468 1267 507160 506449 50436 5761 456013 7137 5043
internal_count=518400 1940 1060 516460 1832 514628 7468 1267 507160 506449 50436 5761 456013 7137 5043
is_linear=0
shrinkage=1


Tree=1
num_leaves=16
num_cat=0
split_feature=9 12 10 13 0 7 4 17 6 0 15 1 4 2 4
split_gain=0.000137228 0.000151086 0.00020061 4.55373e-05 8.46447e-05 7.33665e-05 6.25222e-05 3.63207e-05 0.000134128 9.01972e-05 5.5438e-05 4.89507e-05 5.11112e-05 4.08533e-05 3.38084e-05
threshold=-0.012157028368623366 14.943280474714614 -0.43478260869565316 26.432668049439787 -0.0016088091257916435 -0.0064352597137428127 -0.0086816298775345118 0.3428709836938128 -0.00051251388432388401 -0.0024131236839318167 92.393346143351096 -0.0017496266580846462 -0.0040725658559606628 -0.0012888822400639597 0.0083090034190560508
decision_type=2 2 2 2 2 2 2 2 2 2 2 2 2 2 2
left_child=1 -1 -3 4 5 -2 -5 -8 11 -10 13 12 -9 -11 -15
right_child=3 2 -4 6 -6 -7 7 8 9 10 -12 -13 -14 14 -16
leaf_value=7.0742857466690975e-05 4.8098260545104662e-05 5.3852047778730163e-05 -2.3268497887437491e-05 -3.1473801239888485e-05 1.7450632737329722e-06 7.208561394669169e-06 -2.8287528758312316e-07 -5.0267857753887378e-06 5.6061076785304315e-05 -6.7251922855973508e-06 -1.8132830186409088e-05 3.2812521334189795e-08 -4.6064089614180156e-05 1.5552081238879399e-05 4.092060083054933e-05
leaf_weight=553 844 579 808 639 5710 914 500081 607 516 663 540 1950 607 2739 650
leaf_count=553 844 579 808 639 5710 914 500081 607 516 663 540 1950 607 2739 650
internal_value=1.7577e-13 2.65465e-05 8.9253e-06 -9.97175e-08 7.65237e-06 2.68393e-05 -2.13457e-07 -1.74163e-07 6.39801e-06 1.64198e-05 1.19654e-05 -9.78135e-06 -2.55454e-05 1.59765e-05 2.04177e-05
internal_weight=518400 1940 1387 516460 7468 1758 508992 508353 8272 5108 4592 3164 1214 4052 3389
internal_count=518400 1940 1387 516460 7468 1758 508992 508353 8272 5108 4592 3164 1214 4052 3389
is_linear=0
shrinkage=0.1


Tree=2
num_leaves=16
num_cat=0
split_feature=9 16 15 3 15 14 1 2 17 15 10 2 17 9 10
split_gain=0.000111155 0.000158066 0.000373698 4.85659e-05 9.72379e-05 3.81451e-05 5.4079e-05 4.80545e-05 6.26337e-05 7.5825e-05 0.000105093 5.98539e-05 3.73865e-05 3.90993e-05 3.94882e-05
threshold=-0.012157028368623366 30.128205128214486 13.690476190481137 0.0076329545037153732 76.666666666671276 1.0000000180025095e-35 -0.0055870512249647777 -0.0021816240142626948 0.27736392546011485 69.511388566272373 -0.52941176470588702 -0.0045129412462442389 0.3428709836938128 -0.0071759873771131679 -0.66528354080208973
decision_type=2 2 2 2 2 2 2 2 2 2 2 2 2 2 2
left_child=1 2 -1 5 -5 6 -2 8 -7 10 -10 -12 13 14 -8
right_child=3 -3 -4 4 -6 7 12 -9 9 -11 11 -13 -14 -15 -16
leaf_value=-5.6997074090183145e-06 2.9328412132861758e-05 -2.4160900881469723e-05 9.6833261871697828e-05 5.0269840918344408e-05 6.0097897222904608e-07 -2.5139179827011078e-06 3.5182602973634981e-05 -3.3592274287428327e-07 -5.9827603533030798e-05 1.5528465117993221e-05 1.2760318116264674e-05 -2.6600075833653941e-05 -2.2717705064824493e-05 1.4930694379491039e-06 5.1636156141484214e-06
leaf_weight=783 713 506 651 574 1258 8386 687 427058 690 513 573 1186 624 72988 1210
leaf_count=783 713 506 651 574 1258 8386 687 427058 690 513 573 1186 624 72988 1210
internal_value=-4.05654e-13 2.38918e-05 4.08477e-05 -8.97463e-08 1.61632e-05 -1.47604e-07 1.91716e-06 -5.06588e-07 -6.92921e-06 -1.94298e-05 -2.67526e-05 -1.37783e-05 1.65833e-06 1.86145e-06 1.6035e-05
internal_weight=518400 1940 1434 516460 1832 514628 76222 438406 11348 2962 2449 1759 75509 74885 1897
internal_count=518400 1940 1434 516460 1832 514628 76222 438406 11348 2962 2449 1759 75509 74885 1897
is_linear=0
shrinkage=0.1


Tree=3
num_leaves=16
num_cat=0
split_feature=9 12 1 10 1 13 9 12 6 0 0 8 1 2 5
split_gain=9.00356e-05 0.000123529 0.000180199 3.70154e-05 5.29228e-05 4.11127e-05 4.64656e-05 9.7974e-05 4.83051e-05 3.86583e-05 3.6111e-05 3.75648e-05 2.55946e-05 6.40667e-05 5.144e-05
threshold=-0.012157028368623366 20.527212719499662 -0.0021202566116814143 -0.42857142857149649 -0.0055870512249647777 79.840725176768629 0.011669204736816098 70.87047047418595 0.0097988936608991457 0.0021577530941258032 -0.004078340850671768 -0.0089272853484408925 -0.0011418473511593528 -0.0026913213047187186 0.0012943919954522267
decision_type=2 2 2 2 2 2 2 2 2 2 2 2 2 2 2
left_child=1 -1 -3 4 -2 6 8 -8 -5 -7 -6 -12 14 -14 -13
right_child=3 2 -4 5 10 9 7 -9 -10 -11 11 12 13 -15 -16
leaf_value=4.9197314880199304e-05 2.5353628735397214e-05 -4.172089573625386e-05 4.0765874807899874e-05 -6.8557633807328675e-07 -2.1656164657937056e-05 5.0628125332595712e-06 9.4102264587522849e-06 -4.492471741228811e-05 2.6578946891375301e-05 3.6480073389227966e-05 2.5915420318990247e-05 2.4139972731833914e-06 -2.9152691670588007e-05 5.2840480752444962e-07 1.7971098410520714e-05
leaf_weight=880 904 543 517 360520 695 1392 627 705 651 545 612 35199 732 111616 2262
leaf_count=880 904 543 517 360520 695 1392 627 705 651 545 612 35199 732 111616 2262
internal_value=-2.30018e-13 2.15027e-05 -1.48914e-06 -8.07715e-08 1.23003e-06 -6.27548e-07 -7.05188e-07 -1.93481e-05 -6.36433e-07 1.39025e-05 1.08571e-06 1.19079e-06 1.08978e-06 3.35019e-07 3.35338e-06
internal_weight=518400 1940 1060 516460 152020 364440 362503 1332 361171 1937 151116 150421 149809 112348 37461
internal_count=518400 1940 1060 516460 152020 364440 362503 1332 361171 1937 151116 150421 149809 112348 37461
is_linear=0
shrinkage=0.1


Tree=4
num_leaves=16
num_cat=0
split_feature=9 16 15 3 14 13 3 4 9 4 17 10 10 5 3
split_gain=7.29288e-05 0.000122166 0.000299081 3.71344e-05 8.52114e-05 3.26943e-05 6.29995e-05 5.08027e-05 3.49749e-05 3.32564e-05 2.15964e-05 2.11048e-05 2.02032e-05 4.89207e-05 1.78082e-05
threshold=-0.012157028368623366 30.128205128214486 13.690476190481137 0.0076329545037153732 97.191725063367201 26.432668049439787 -0.0059865710184290313 -0.0086816298775345118 0.011669204736816098 0.0055738031805289143 0.36544272906828307 -0.43478260869565316 -0.66666666666648144 -0.0047489164126262575 0.0012627259174220475
decision_type=2 2 2 2 2 2 2 2 2 2 2 2 2 2 2
left_child=1 2 -1 5 -5 6 -2 -7 11 -10 -6 14 13 -8 -9
right_child=3 -3 -4 4 10 7 12 8 9 -11 -12 -13 -14 -15 -16
leaf_value=-7.3829433806866476e-06 3.4349366673617223e-05 -2.289236424135395e-05 8.4344110758613602e-05 4.4552156979179292e-05 -1.2481490359086138e-05 -2.8420707443405444e-05 3.8727504332331333e-05 6.0765460986783778e-07 -2.2059085347700188e-06 -3.5771377969919076e-05 1.4486440310435e-05 -5.5671861109612423e-07 -4.2158792613578097e-07 3.2255585347519821e-06 5.5406585163593563e-06
leaf_weight=783 730 506 651 613 707 638 501 138610 657 536 512 358993 4514 1723 7726
leaf_count=783 730 506 651 613 707 638 501 138610 657 536 512 358993 4514 1723 7726
internal_value=-4.72834e-13 1.93524e-05 3.42588e-05 -7.26947e-08 1.41393e-05 -1.23287e-07 6.44511e-06 -2.20008e-07 -1.84487e-07 -1.72865e-05 -1.15452e-06 -1.44112e-07 3.42195e-06 1.12231e-05 8.68099e-07
internal_weight=518400 1940 1434 516460 1832 514628 7468 507160 506522 1193 1219 505329 6738 2224 146336
internal_count=518400 1940 1434 516460 1832 514628 7468 507160 506522 1193 1219 505329 6738 2224 146336
is_linear=0
shrinkage=0.1


Tree=5
num_leaves=16
num_cat=0
split_feature=9 10 11 3 10 0 13 0 7 4 7 10 13 9 10
split_gain=5.90724e-05 8.67809e-05 0.000127078 3.00788e-05 7.67988e-05 3.36497e-05 2.64824e-05 5.18674e-05 4.82731e-05 4.11502e-05 2.86905e-05 4.59752e-05 1.75641e-05 3.49173e-05 2.56774e-05
threshold=-0.012157028368623366 -0.6250000000000433 -134.07224454652723 0.0076329545037153732 0.3333333333333402 0.0040349462217168517 26.432668049439787 -0.0016088091257916435 -0.0064352597137428127 -0.0086816298775345118 0.010573519198004535 0.3333333333333402 63.994842061422666 0.0077570975651043437 -0.061684782608692902
decision_type=2 2 2 2 2 2 2 2 2 2 2 2 2 2 2
left_child=1 -1 -3 6 -5 -6 7 8 -2 -8 12 -12 13 -11 -15
right_child=3 2 -4 4 5 -7 9 -9 -10 10 11 -13 -14 14 -16
leaf_value=5.236767938990502e-05 3.8064313969587301e-05 -3.5219837392475033e-05 2.708219867859013e-05 4.2173675452870533e-05 -1.6668105304980505e-05 1.6465046893381846e-05 -2.5578637919252546e-05 1.1764049853038492e-06 4.8964342785990203e-06 1.5845285063116401e-08 -3.7513705817142645e-05 4.4380279431568425e-06 -1.8763528151864277e-06 3.1298526589127213e-05 4.8973037247840036e-06
leaf_weight=520 844 512 908 597 670 565 638 5710 914 452120 527 518 51798 597 962
leaf_count=520 844 512 908 597 670 565 638 5710 914 452120 527 518 51798 597 962
internal_value=9.78895e-14 1.74172e-05 4.61837e-06 -6.54247e-08 1.27253e-05 -1.51002e-06 -1.10958e-07 5.8006e-06 2.082e-05 -1.98006e-07 -1.66038e-07 -1.67185e-05 -1.31818e-07 6.73613e-08 1.50073e-05
internal_weight=518400 1940 1420 516460 1832 1235 514628 7468 1758 507160 506522 1045 505477 453679 1559
internal_count=518400 1940 1420 516460 1832 1235 514628 7468 1758 507160 506522 1045 505477 453679 1559
is_linear=0
shrinkage=0.1


Tree=6
num_leaves=16
num_cat=0
split_feature=9 12 10 13 0 10 1 1 0 8 9 12 4 1 2
split_gain=4.78486e-05 0.00010463 0.000174934 2.82527e-05 3.2914e-05 2.57405e-05 4.12908e-05 3.72075e-05 3.07718e-05 2.59909e-05 2.40953e-05 6.98858e-05 2.78413e-05 1.89457e-05 5.21476e-05
threshold=-0.012157028368623366 14.943280474714614 -0.43478260869565316 79.840725176768629 0.0021577530941258032 -0.42857142857149649 -0.0055870512249647777 -0.0043681512285345106 -0.004078340850671768 -0.0089272853484408925 0.011669204736816098 70.87047047418595 0.0083090034190560508 -0.0011418473511593528 -0.0025689251854602575
decision_type=2 2 2 2 2 2 2 2 2 2 2 2 2 2 2
left_child=1 -1 -3 5 -5 6 -2 -7 -8 -10 12 -12 -9 -11 -15
right_child=3 2 -4 4 -6 7 8 10 9 13 11 -13 -14 14 -16
leaf_value=5.2454672806650388e-05 2.2295881709734825e-05 4.296469948912403e-05 -2.9051547731922813e-05 3.9125674994421812e-06 3.2787690114999167e-05 -2.4652981403079368e-05 -2.0194179618735525e-05 -5.1366884281130213e-07 2.1522903969462573e-05 2.8203484194749448e-06 1.0969697112706578e-05 -3.6000798914564686e-05 1.7888884938433742e-05 -2.4024199429236023e-05 4.1482422487154759e-07
leaf_weight=553 904 579 808 1432 545 640 691 359765 612 37460 590 684 824 880 111433
leaf_count=553 904 579 808 1432 545 640 691 359765 612 37460 590 684 824 880 111433
internal_value=-2.90719e-13 1.56754e-05 1.01147e-06 -5.88826e-08 1.18726e-05 -1.04732e-07 9.87679e-07 -5.62726e-07 8.60176e-07 9.56918e-07 -5.2012e-07 -1.42484e-05 -4.71616e-07 8.72881e-07 2.23338e-07
internal_weight=518400 1940 1387 516460 1977 514483 151980 362503 151076 150385 361863 1274 360589 149773 112313
internal_count=518400 1940 1387 516460 1977 514483 151980 362503 151076 150385 361863 1274 360589 149773 112313
is_linear=0
shrinkage=0.1


Tree=7
num_leaves=16
num_cat=0
split_feature=17 12 12 5 7 12 0 0 10 13 11 16 8 0 2
split_gain=4.3823e-05 0.000106451 0.000194916 4.71688e-05 0.00013987 9.94844e-05 8.2592e-05 3.98537e-05 6.75817e-05 3.54718e-05 3.94838e-05 3.36607e-05 3.1221e-05 2.65845e-05 2.58354e-05
threshold=0.3428709836938128 19.544859012163652 24.173783603663946 -0.0024630541871921703 -0.002969757965534225 37.062956770244327 -0.0027016394715567711 -0.00068781704575154856 -0.43478260869565316 52.725584687025119 70.730853922907556 37.233948483953611 0.0035483918395590179 0.0023588880197898958 0.00052553210528438765
decision_type=2 2 2 2 2 2 2 2 2 2 2 2 2 2 2
left_child=-1 -2 -3 4 5 -4 -5 8 -8 14 12 -7 -11 -12 -9
right_child=1 2 3 6 -6 11 7 9 -10 10 13 -13 -14 -15 -16
leaf_value=-1.2998295745661747e-07 4.1563232699909379e-05 -5.4578355094413256e-05 3.2108443194336318e-05 4.8388212200084434e-05 -4.3079616217113969e-05 -3.0388666358425288e-05 1.2822805267655478e-05 3.9996998151696626e-05 -3.4935718003872913e-05 8.0484665917920484e-06 3.0131006778183771e-05 5.0840190933643195e-06 -2.5232588564310592e-05 8.8965843308853868e-07 1.5027046024235337e-05
leaf_weight=508242 798 544 987 566 681 513 687 605 521 552 684 559 576 570 1315
leaf_count=508242 798 544 987 566 681 513 687 605 521 552 684 559 576 570 1315
internal_value=3.16389e-13 6.50354e-06 3.51448e-06 7.09915e-06 -3.79329e-06 9.2004e-06 1.20111e-05 8.27441e-06 -7.77503e-06 1.27811e-05 4.62867e-06 -1.18912e-05 -8.94611e-06 1.68395e-05 2.28952e-05
internal_weight=518400 10158 9360 8816 2740 2059 6076 5510 1208 4302 2382 1072 1128 1254 1920
internal_count=518400 10158 9360 8816 2740 2059 6076 5510 1208 4302 2382 1072 1128 1254 1920
is_linear=0
shrinkage=0.1


Tree=8
num_leaves=16
num_cat=0
split_feature=17 6 7 11 16 16 4 0 16 11 14 16 16 10 10
split_gain=3.54967e-05 0.000103277 0.000142742 0.000160653 0.000113464 0.000161991 0.000148383 7.20781e-05 5.31097e-05 4.34973e-05 4.15542e-05 5.40063e-05 3.91063e-05 3.49621e-05 4.51484e-05
threshold=0.3428709836938128 -0.00051251388432388401 -0.0028008589544853408 -14.150362997385892 30.50914243943485 46.031746031745328 -0.0086816298775345118 -0.0024131236839318167 91.111111111116841 -73.731020969028222 89.073707386376412 52.583733513972597 80.737239008479094 0.46490147783254004 0.099999999999994468
decision_type=2 2 2 2 2 2 2 2 2 2 2 2 2 2 2
left_child=-1 2 4 -4 6 -6 -2 -3 10 -8 13 -12 -13 14 -9
right_child=1 7 3 -5 5 -7 9 8 -10 -11 11 12 -14 -15 -16
leaf_value=-1.1698515082601316e-07 5.5941501751736288e-05 4.9423911583995684e-05 -7.7387026149207538e-05 -2.3266889767490705e-06 -4.7643079106279488e-05 1.739610291102301e-05 1.7051946616189599e-05 1.3254758590834557e-06 -1.9111859884512499e-05 -1.7239922894481782e-05 5.2837535029392117e-05 3.2574679144970161e-06 3.6394527890097037e-05 -1.5322207305862103e-05 3.7677088281135432e-05
leaf_weight=508242 739 563 508 650 788 745 796 1031 504 691 532 941 573 586 511
leaf_count=508242 739 563 508 650 788 745 796 1031 504 691 532 941 573 586 511
internal_value=-1.9623e-13 5.85319e-06 -4.5569e-06 -3.52547e-05 4.89989e-06 -1.60356e-05 1.93178e-05 1.56197e-05 1.15514e-05 1.11672e-06 1.52539e-05 2.54296e-05 1.57988e-05 5.47027e-06 1.3372e-05
internal_weight=518400 10158 4917 1158 3759 1533 2226 5241 4678 1487 4174 2046 1514 2128 1542
internal_count=518400 10158 4917 1158 3759 1533 2226 5241 4678 1487 4174 2046 1514 2128 1542
is_linear=0
shrinkage=0.1


Tree=9
num_leaves=16
num_cat=0
split_feature=11 17 3 16 9 13 13 16 10 13 1 6 9 4 1
split_gain=2.9641e-05 0.00015208 3.1526e-05 0.000259136 4.04038e-05 7.43907e-05 2.27053e-05 3.96019e-05 3.26062e-05 2.2088e-05 3.10515e-05 3.92395e-05 2.61438e-05 2.20478e-05 5.89109e-05
threshold=-215.76515848409039 0.2026695531567913 -0.0077635504223868548 30.50914243943485 -0.012157028368623366 32.912677822676528 79.840725176768629 91.420975277707285 0.62731481481482276 64.227253930653745 0.0032353536446304569 0.0076226469441622599 0.0063524982712958042 0.0039556191626678458 -0.00084896850938742652
decision_type=2 2 2 2 2 2 2 2 2 2 2 2 2 2 2
left_child=1 -1 3 -2 5 -4 9 -8 -9 13 -11 12 -12 -6 -15
right_child=2 -3 4 -5 6 -7 7 8 -10 10 11 -13 -14 14 -16
leaf_value=1.0282762266782071e-06 1.6311419072193282e-05 5.7696833881467693e-05 4.6992393465088541e-05 -7.0599752443638165e-05 2.568396983906107e-08 -6.8381970820342907e-06 2.7113476900805179e-05 -1.7049260132369274e-05 1.6930889109272147e-05 -1.5308937494361425e-06 -1.3532248159214219e-05 -3.0737992842002995e-05 1.2188341550791526e-05 3.7508950449928648e-05 3.026409641802975e-06
leaf_weight=3658 966 544 508 532 453556 519 839 618 520 47054 1093 829 619 540 6005
leaf_count=3658 966 544 508 532 453556 519 839 618 520 47054 1093 829 619 540 6005
internal_value=2.32018e-13 8.36471e-06 -6.83558e-08 -1.45542e-05 -2.60311e-08 1.97888e-05 -6.58023e-08 1.06302e-05 -1.5223e-06 -1.0729e-07 -2.11236e-06 -1.288e-05 -4.23257e-06 1.0884e-07 5.87142e-06
internal_weight=518400 4202 514198 1498 512700 1027 511673 1977 1138 509696 49595 2541 1712 460101 6545
internal_count=518400 4202 514198 1498 512700 1027 511673 1977 1138 509696 49595 2541 1712 460101 6545
is_linear=0
shrinkage=0.1


Tree=10
num_leaves=16
num_cat=0
split_feature=17 6 12 1 16 11 1 17 11 10 0 13 10 15 16
split_gain=2.81813e-05 8.44068e-05 0.000122821 0.000194555 0.000170249 9.88471e-05 6.2525e-05 7.55895e-05 6.25245e-05 4.53635e-05 4.96225e-05 4.98666e-05 3.14019e-05 2.69297e-05 2.62042e-05
threshold=0.3428709836938128 -0.00051251388432388401 19.544859012163652 -0.0030343577806198336 46.031746031745328 -64.795448805510958 -0.0011258393585026336 0.44908647753443248 -43.303619385128066 -0.090909090909079435 0.00066338659056197635 53.282494320369899 0.49999999999998213 55.555555555560773 77.919576036063162
decision_type=2 2 2 2 2 2 2 2 2 2 2 2 2 2 2
left_child=-1 2 -2 4 -4 -5 7 -3 -7 -8 -11 -12 -13 -10 -14
right_child=1 6 3 5 -6 8 9 -9 13 10 11 12 14 -15 -16
leaf_value=-1.0423578455380717e-07 3.2999153804207421e-05 1.0463510708001481e-05 -7.1410199683922306e-05 2.9402009272946615e-05 2.0598341554453437e-06 -3.9423053893166668e-05 -1.010830656127384e-05 6.2762919329312078e-05 1.273420643454343e-05 4.0309789892107651e-05 2.5490087902718306e-05 -2.3074560048653754e-05 -8.959847020295047e-06 -1.6434527122832778e-05 2.3351053497587752e-05
leaf_weight=508242 752 586 804 987 519 514 1004 523 829 595 1007 522 503 512 501
leaf_count=508242 752 586 804 987 519 514 1004 523 829 595 1007 522 503 512 501
internal_value=1.60748e-14 5.2153e-06 -4.19582e-06 -1.09115e-05 -4.25886e-05 3.8348e-06 1.40446e-05 3.51277e-05 -9.76888e-06 8.38607e-06 1.43222e-05 8.21779e-06 -3.18011e-06 1.59745e-06 7.16342e-06
internal_weight=518400 10158 4917 4165 1323 2842 5241 1109 1855 4132 3128 2533 1526 1341 1004
internal_count=518400 10158 4917 4165 1323 2842 5241 1109 1855 4132 3128 2533 1526 1341 1004
is_linear=0
shrinkage=0.1


Tree=11
num_leaves=16
num_cat=0
split_feature=14 1 10 1 17 13 11 11 13 15 3 17 10 6 10
split_gain=2.78843e-05 9.92039e-05 0.000109912 9.85319e-05 4.368e-05 7.02552e-05 8.01624e-05 7.99137e-05 0.000137043 4.82311e-05 8.37352e-05 3.56207e-05 3.18153e-05 4.37816e-05 4.49104e-05
threshold=1.0000000180025095e-35 -0.0055870512249647777 -0.66528354080208973 -0.0055870512249647777 0.3428709836938128 33.277415028621505 -31.681240890193212 -70.35888606262705 40.893948530794567 92.707479452208062 0.0076329545037153732 0.36544272906828307 0.7147009966777631 0.0046232587130633504 0.25143678160930577
decision_type=2 2 2 2 2 2 2 2 2 2 2 2 2 2 2
left_child=1 2 -1 -2 -5 -6 7 -7 -9 10 12 -3 13 -8 -15
right_child=3 11 -4 4 5 6 9 8 -10 -11 -12 -13 -14 14 -16
leaf_value=5.9233364760429848e-05 -3.9515125127564943e-05 1.4985036970943877e-06 -2.0380465647659466e-06 -3.8797512306712747e-07 3.9437156773919552e-05 1.0987795448409386e-05 1.8545177217565495e-05 -6.8451304130744879e-05 2.4931884343281925e-06 -1.9151948998543916e-05 4.3633658594509367e-05 -2.3464421135699356e-05 -1.350097075373924e-05 -1.9039873899236675e-05 1.7452489390049418e-05
leaf_weight=626 640 75257 550 432374 615 765 2642 518 574 517 758 576 610 789 589
leaf_count=626 640 75257 550 432374 615 765 2642 518 574 517 758 576 610 789 589
internal_value=-1.58418e-13 1.75585e-06 3.05775e-05 -3.06342e-07 -2.49408e-07 6.90264e-06 4.32486e-06 -1.3797e-05 -3.116e-05 1.00238e-05 1.28233e-05 1.30889e-06 7.77923e-06 1.10083e-05 -3.4419e-06
internal_weight=518400 77009 1176 441391 440751 8377 7762 1857 1092 5905 5388 75833 4630 4020 1378
internal_count=518400 77009 1176 441391 440751 8377 7762 1857 1092 5905 5388 75833 4630 4020 1378
is_linear=0
shrinkage=0.1


end of trees

feature_importances:
bop=23
ret2min=15
ret10min=15
rsi=15
ret1min=14
slowd=12
natr=11
mfi=10
ret4min=9
ret5min=9
cci=9
slowk=8
ret3min=6
ret7min=6
stochrsi=6
ret8min=5
ret9min=4
ret6min=3

parameters:
[boosting: gbdt]
[objective: regression]
[metric: rmse]
[tree_learner: serial]
[device_type: cpu]
[data_sample_strategy: bagging]
[data: ]
[valid: ]
[num_iterations: 50]
[learning_rate: 0.1]
[num_leaves: 16]
[num_threads: 0]
[seed: 42]
[deterministic: 0]
[force_col_wise: 0]
[force_row_wise: 0]
[histogram_pool_size: -1]
[max_depth: -1]
[min_data_in_leaf: 500]
[min_sum_hessian_in_leaf: 0.001]
[bagging_fraction: 1]
[pos_bagging_fraction: 1]
[neg_bagging_fraction: 1]
[bagging_freq: 0]
[bagging_seed: 400]
[bagging_by_query: 0]
[feature_fraction: 0.8]
[feature_fraction_bynode: 1]
[feature_fraction_seed: 30056]
[extra_trees: 0]
[extra_seed: 12879]
[early_stopping_round: 0]
[early_stopping_min_delta: 0]
[first_metric_only: 0]
[max_delta_step: 0]
[lambda_l1: 0]
[lambda_l2: 0]
[linear_lambda: 0]
[min_gain_to_split: 0]
[drop_rate: 0.1]
[max_drop: 50]
[skip_drop: 0.5]
[xgboost_dart_mode: 0]
[uniform_drop: 0]
[drop_seed: 17869]
[top_rate: 0.2]
[other_rate: 0.1]
[min_data_per_group: 100]
[max_cat_threshold: 32]
[cat_l2: 10]
[cat_smooth: 10]
[max_cat_to_onehot: 4]
[top_k: 20]
[monotone_constraints: ]
[monotone_constraints_method: basic]
[monotone_penalty: 0]
[feature_contri: ]
[forcedsplits_filename: ]
[refit_decay_rate: 0.9]
[cegb_tradeoff: 1]
[cegb_penalty_split: 0]
[cegb_penalty_feature_lazy: ]
[cegb_penalty_feature_coupled: ]
[path_smooth: 0]
[interaction_constraints: ]
[verbosity: -1]
[saved_feature_importance_type: 0]
[use_quantized_grad: 0]
[num_grad_quant_bins: 4]
[quant_train_renew_leaf: 0]
[stochastic_rounding: 1]
[linear_tree: 0]
[max_bin: 255]
[max_bin_by_feature: ]
[min_data_in_bin: 3]
[bin_construct_sample_cnt: 200000]
[data_random_seed: 175]
[is_enable_sparse: 1]
[enable_bundle: 1]
[use_missing: 1]
[zero_as_missing: 0]
[feature_pre_filter: 1]
[pre_partition: 0]
[two_round: 0]
[header: 0]
[label_column: ]
[weight_column: ]
[group_column: ]
[ignore_column: ]
[categorical_feature: ]
[forcedbins_filename: ]
[precise_float_parser: 0]
[parser_config_file: ]
[objective_seed: 16083]
[num_class: 1]
[is_unbalance: 0]
[scale_pos_weight: 1]
[sigmoid: 1]
[boost_from_average: 1]
[reg_sqrt: 0]
[alpha: 0.9]
[fair_c: 1]
[poisson_max_delta_step: 0.7]
[tweedie_variance_power: 1.5]
[lambdarank_truncation_level: 30]
[lambdarank_norm: 1]
[label_gain: ]
[lambdarank_position_bias_regularization: 0]
[eval_at: ]
[multi_error_top_k: 1]
[auc_mu_weights: ]
[num_machines: 1]
[local_listen_port: 12400]
[time_out: 120]
[machine_list_filename: ]
[machines: ]
[gpu_platform_id: -1]
[gpu_device_id: -1]
[gpu_use_dp: 0]
[num_gpu: 1]

end of parameters

pandas_categorical:[]
