tree
version=v4
num_class=1
num_tree_per_iteration=1
label_index=0
max_feature_idx=17
objective=regression
feature_names=ret1min ret2min ret3min ret4min ret5min ret6min ret7min ret8min ret9min ret10min bop cci mfi rsi stochrsi slowk slowd natr
feature_infos=[-0.080715410990640279:0.095497630331753625] [-0.10459453737031543:0.12788592123132636] [-0.19901289603566308:0.16607071911005167] [-0.14641034985422741:0.13175516363293394] [-0.18053004460771449:0.19130348456269219] [-0.18181818181818188:0.18211495861023663] [-0.18579843973889509:0.19130348456269219] [-0.19692366122293958:0.17670131398313393] [-0.18601216333622939:0.18647419418627642] [-0.25839834421270502:0.20264582080577265] [-1:1] [-685.60006662779824:767.93248945129199] [0:100] [3.5656960024769688:95.423932901989204] [0:100] [0:100] [0:100] [0.04033136165018076:8.3135709104820101]
tree_sizes=1724 1751 1754 1734 1728 1741 1727 1732 1737 1733 1753 1755 1737 1737 1756 1730 1732 1746 1733 1736 1740 1716

Tree=0
num_leaves=16
num_cat=0
split_feature=0 17 1 16 1 3 12 1 14 17 15 13 2 13 0
split_gain=0.00099159 0.00166903 0.00163511 0.000976109 0.000686857 0.000665159 0.000645839 0.000888465 0.000672481 0.000426972 0.000606897 0.000843235 0.000443189 0.000426642 0.000393103
threshold=0.0050017077632055216 1.6406002465966065 -0.0095202180529546637 86.873394517377108 -0.00018617352518657257 0.011108538573850748 59.353104898600243 -0.0021529888637495938 57.38841015813248 0.90174481636504922 11.111111111113813 33.850608337962584 -0.013522975111479206 70.813896013246605 0.010855762446373431
decision_type=2 2 2 2 2 2 2 2 2 2 2 2 2 2 2
left_child=1 4 -3 6 5 9 7 -2 -9 -1 -11 -12 -13 -5 -8
right_child=3 2 -4 13 -6 -7 14 8 -10 10 11 12 -14 -15 -16
leaf_value=1.056216230378663e-05 0.00015336875938332494 0.00025558296859263559 2.4903880543765739e-05 -0.00010598864859514245 2.7338587409077737e-06 0.00011478093606111212 6.7916218495274599e-05 -3.5101524570127104e-05 3.8312241722529988e-05 7.9383203257364724e-05 -0.00013462177449999625 5.9468907230338048e-05 -2.7364925240074129e-05 2.1043515171481612e-06 0.00016174586051385283
leaf_weight=218159 534 527 737 582 281018 606 2806 1688 4784 575 657 706 3510 980 531
leaf_count=218159 534 527 737 582 281018 606 2806 1688 4784 575 657 706 3510 980 531
internal_value=6.98496e-06 6.31444e-06 0.000121081 3.5512e-05 6.02731e-06 1.01552e-05 4.66396e-05 2.93938e-05 1.91648e-05 9.87162e-06 -1.77803e-05 -2.92453e-05 -1.2824e-05 -3.8171e-05 8.28469e-05
internal_weight=518400 506495 1264 11905 505231 224213 10343 7006 6472 223607 5448 4873 4216 1562 3337
internal_count=518400 506495 1264 11905 505231 224213 10343 7006 6472 223607 5448 4873 4216 1562 3337
is_linear=0
shrinkage=1


Tree=1
num_leaves=16
num_cat=0
split_feature=0 17 0 4 1 4 1 1 10 13 6 0 6 9 10
split_gain=0.000813351 0.00094539 0.00192369 0.000852846 0.000840127 0.000585514 0.000547313 0.000378844 0.00104184 0.00036915 0.00034433 0.00038272 0.000340935 0.0003136 0.000293961
threshold=0.0064202022547478208 1.6406002465966065 -0.0068083978906996459 0.024300901102174536 0.0008562376978606957 0.024300901102174536 1.0000000180025095e-35 -0.015027132613173398 -0.63636363636366933 27.749695333056795 0.013411329867373147 -0.008056513974351363 -0.010135050587538717 -0.020288629987626535 -0.66666666666660046
decision_type=2 2 2 2 2 2 2 2 2 2 2 2 2 2 2
left_child=1 5 -3 4 -2 6 7 8 -1 13 11 -11 -6 -9 -13
right_child=3 2 -4 -5 12 -7 -8 9 -10 10 -12 14 -14 -15 -16
leaf_value=3.4294689131206392e-05 0.00016011753894326831 0.00021243952195707818 -2.7146611063931684e-05 -5.6283826463126122e-05 -4.2097111678224082e-05 9.117572526323374e-05 -4.5228736707017032e-06 7.8815861393312131e-05 -0.00014255757520846115 -4.9603388117305316e-05 4.5713055631652741e-05 7.1944329994081708e-06 4.3550378522165856e-05 1.667208939209666e-05 -2.135972567441328e-07
leaf_weight=690 600 621 728 905 514 693 222809 936 644 1459 1771 72873 4853 6132 202172
leaf_count=690 600 621 728 905 514 693 222809 936 644 1459 1771 72873 4853 6132 202172
internal_value=-1.44109e-13 -4.59106e-07 8.31447e-05 3.41743e-05 4.78938e-05 -6.80169e-07 -8.05111e-07 2.08438e-06 -5.10823e-05 2.33294e-06 1.75971e-06 1.47819e-06 3.53479e-05 2.49017e-05 1.74916e-06
internal_weight=518400 511528 1349 6872 5967 510179 509486 286677 1334 285343 278275 276504 5367 7068 275045
internal_count=518400 511528 1349 6872 5967 510179 509486 286677 1334 285343 278275 276504 5367 7068 275045
is_linear=0
shrinkage=0.1


Tree=2
num_leaves=16
num_cat=0
split_feature=4 15 13 10 6 1 16 2 17 14 15 11 13 3 6
split_gain=0.000749228 0.00263912 0.00142551 0.000396805 0.00125919 0.000303206 0.000510461 0.000327173 0.000387408 0.000303639 0.000258534 0.000437567 0.000245455 0.000620707 0.000414646
threshold=-0.023313305023326344 11.111111111113813 31.567765443886085 -0.46938775510203823 0.018503525435093374 -0.011288666000322132 46.804199065635196 -0.0052983965379264078 0.47624317009752909 46.017135654825594 13.223427851298903 -25.111729747616398 33.023964205073341 -0.011694532713566739 -0.0066327094622947716
decision_type=2 2 2 2 2 2 2 2 2 2 2 2 2 2 2
left_child=1 -1 -3 4 5 6 -2 10 -9 -10 -7 -12 -5 14 -14
right_child=3 2 -4 12 -6 7 -8 8 9 -11 11 -13 13 -15 -16
leaf_value=0.00023211666137881449 -8.4404114730855201e-05 -0.00011486600617192584 9.9267438240995735e-05 1.2128547116254856e-05 0.00016095596541420291 4.8841604634635371e-05 2.6476441027863293e-05 4.3593796404883568e-06 -3.2827256204772705e-05 2.6906978188454793e-06 -1.7063366339413421e-06 4.9333224103353872e-05 -3.1313892180316682e-05 -2.1093342516811798e-06 -0.00013769876305732613
leaf_weight=619 996 702 558 12003 511 2530 712 119679 5215 4470 6086 2320 1356 360141 502
leaf_count=619 996 702 558 12003 511 2530 712 119679 5215 4470 6086 2320 1356 360141 502
internal_value=1.09981e-12 6.30311e-05 -2.00355e-05 -2.29294e-07 4.2607e-06 3.69685e-06 -3.81822e-05 4.20668e-06 2.80263e-06 -1.64344e-05 2.08154e-05 1.23802e-05 -1.94027e-06 -2.40676e-06 -6.00573e-05
internal_weight=518400 1879 1260 516521 142519 142008 1708 140300 129364 9685 10936 8406 374002 361999 1858
internal_count=518400 1879 1260 516521 142519 142008 1708 140300 129364 9685 10936 8406 374002 361999 1858
is_linear=0
shrinkage=0.1


Tree=3
num_leaves=16
num_cat=0
split_feature=0 17 10 4 4 17 1 1 3 10 1 0 1 10 3
split_gain=0.000700891 0.00107088 0.00116561 0.00075367 0.00065063 0.000643571 0.00058028 0.000454029 0.000446808 0.000747448 0.000380237 0.000383943 0.00032488 0.000876519 0.000324511
threshold=0.0050017077632055216 1.6406002465966065 -0.35714285714285171 0.024300901102174536 0.024300901102174536 1.0756226139552547 -0.0020592754523692798 0.00032271077257239883 -0.0070101835937622639 0.54826762246113747 0.0016885474300848415 0.010855762446373431 -0.015027132613173398 -0.60000000000003983 0.011108538573850748
decision_type=2 2 2 2 2 2 2 2 2 2 2 2 2 2 2
left_child=1 4 -3 6 7 -5 -2 12 -8 -10 -11 -12 13 -1 -14
right_child=3 2 -4 5 -6 -7 8 -9 9 10 11 -13 14 -15 -16
leaf_value=2.2549184068815891e-05 0.00012696753521221948 0.00018469771734859163 -7.4384689401159846e-06 2.0791032798970193e-05 0.00010433600325742272 -0.00013761148725333281 -6.3395528233366267e-05 -4.4771095307586208e-06 0.00012976463547538131 9.6403996818718407e-05 9.9987211793831879e-06 7.8897302478228486e-05 1.678776443773763e-06 -0.00014183590843984788 7.335598065829882e-05
leaf_weight=758 604 650 614 516 588 510 529 209452 710 658 7471 907 293233 567 633
leaf_count=758 604 650 614 516 588 510 529 209452 710 658 7471 907 293233 567 633
internal_value=2.36477e-13 -5.63728e-07 9.13657e-05 2.39837e-05 -7.93719e-07 -5.79471e-05 3.17106e-05 -9.16215e-07 2.6111e-05 3.09693e-05 2.32065e-05 1.74577e-05 1.61041e-06 -4.77952e-05 1.83317e-06
internal_weight=518400 506495 1264 11905 505231 1026 10879 504643 10275 9746 9036 8378 295191 1325 293866
internal_count=518400 506495 1264 11905 505231 1026 10879 504643 10275 9746 9036 8378 295191 1325 293866
is_linear=0
shrinkage=0.1


Tree=4
num_leaves=16
num_cat=0
split_feature=0 13 17 1 4 11 14 0 15 8 14 10 14 4 8
split_gain=0.000581514 0.000669294 0.000558996 0.00145053 0.000531638 0.000694248 0.000411756 0.000572046 0.000976934 0.00040563 0.000394127 0.000393209 0.000382253 0.000332906 0.000276673
threshold=0.0064202022547478208 44.063285036431701 1.6406002465966065 -0.0095202180529546637 0.024300901102174536 3.020496224377863 0.86883288485146504 -0.0068083978906996459 31.118595539484566 0.0041650758441068589 63.347520962224486 0.81250000000002287 97.504679829060379 0.024300901102174536 -0.019262921649171812
decision_type=2 2 2 2 2 2 2 2 2 2 2 2 2 2 2
left_child=2 10 6 -4 5 -3 14 8 -8 -7 -2 -11 -13 -9 -1
right_child=1 4 3 -5 -6 9 7 13 -10 11 -12 12 -14 -15 -16
leaf_value=3.9218326206876476e-05 3.8141636566358503e-05 -4.9775229064940515e-05 0.00019240200836313814 -1.9777286799348248e-05 -5.6836381246247506e-05 0.00012583858987274814 -0.00015996761402014832 -1.6155059147619613e-06 -9.7634158535533219e-06 6.8317727475673603e-05 0.00015487119416474765 7.2435157363346942e-05 -3.0809716803867336e-05 6.9949143171232998e-05 5.075967227169255e-06
leaf_weight=2451 562 931 532 817 876 551 614 429981 1469 1638 596 510 1208 651 75013
leaf_count=2451 562 931 532 817 876 551 614 429981 1469 1638 596 510 1208 651 75013
internal_value=-6.57652e-13 2.88962e-05 -3.882e-07 6.38991e-05 1.4847e-05 2.78265e-05 -5.58186e-07 -1.76019e-06 -5.40387e-05 4.63182e-05 9.82201e-05 3.32623e-05 -1.60773e-07 -1.50732e-06 6.15625e-06
internal_weight=518400 6872 511528 1349 5714 4838 510179 432715 2083 3907 1158 3356 1718 430632 77464
internal_count=518400 6872 511528 1349 5714 4838 510179 432715 2083 3907 1158 3356 1718 430632 77464
is_linear=0
shrinkage=0.1


Tree=5
num_leaves=16
num_cat=0
split_feature=13 3 0 16 7 10 12 9 16 10 7 2 10 17 0
split_gain=0.000536076 0.00100502 0.000437806 0.000760832 0.000608689 0.00056113 0.000407538 0.000499161 0.000477029 0.000338504 0.000434032 0.000390838 0.000421062 0.000732068 0.000302805
threshold=26.405379682523016 -0.020790962951277799 0.0064202022547478208 90.12345679012661 0.030413189454680415 0.54826762246113747 57.475247565362423 0.0126327059619068 75.705841030703041 -0.49999999999979178 0.015518058123352054 -0.0084686682310492461 -0.071008403361338207 0.90174481636504922 -0.0060555914091996446
decision_type=2 2 2 2 2 2 2 2 2 2 2 2 2 2 2
left_child=1 -1 4 5 9 -4 7 -7 -8 10 -2 12 -11 -14 -3
right_child=2 14 3 -5 -6 6 8 -9 -10 11 -12 -13 13 -15 -16
leaf_value=0.00013771761360124204 2.9583757947250373e-06 -5.2279254940923724e-05 0.00012839751398981405 -8.3731049956872611e-05 7.6517238331283121e-05 2.0142097322181121e-05 0.00010348863574994377 -8.4453651211850028e-05 1.2944013133472625e-05 -8.643769627227913e-06 7.8987401305655557e-05 -2.0886469697172893e-06 -1.7764459304645845e-05 -0.00015903402712599306 2.2675493646390443e-05
leaf_weight=751 137150 607 584 590 1019 2776 1146 546 1182 2615 755 362346 909 615 4809
leaf_count=751 137150 607 584 590 1019 2776 1146 546 1182 2615 755 362346 909 615 4809
internal_value=-1.77775e-13 2.93074e-05 -3.52845e-07 2.48071e-05 -6.92553e-07 3.50794e-05 2.54337e-05 2.95086e-06 5.75162e-05 -8.48537e-07 3.37462e-06 -2.43767e-06 -3.29928e-05 -7.47728e-05 1.42749e-05
internal_weight=518400 6167 512233 6824 505409 6234 5650 3322 2328 504390 137905 366485 4139 1524 5416
internal_count=518400 6167 512233 6824 505409 6234 5650 3322 2328 504390 137905 366485 4139 1524 5416
is_linear=0
shrinkage=0.1


Tree=6
num_leaves=16
num_cat=0
split_feature=3 16 14 2 0 16 7 10 6 0 16 14 8 2 11
split_gain=0.00043164 0.0021961 0.000955852 0.000597069 0.000446232 0.000719098 0.000457432 0.000390213 0.000299568 0.000381887 0.000428652 0.000298162 0.000268075 0.000319527 0.000288164
threshold=-0.020790962951277799 12.679641035772795 0.1768690790918139 -0.018015937415475466 0.0058390397887672094 90.12345679012661 0.030413189454680415 0.54826762246113747 0.021849939511854325 0.010855762446373431 32.16412291412653 0.1768690790918139 -0.019262921649171812 -0.011498603473464262 -148.62896356020397
decision_type=2 2 2 2 2 2 2 2 2 2 2 2 2 2 2
left_child=1 -1 -3 -2 6 7 11 -6 9 10 -9 12 -5 14 -14
right_child=3 2 -4 4 5 -7 -8 8 -10 -11 -12 -13 13 -15 -16
leaf_value=0.00022391882403842032 -0.00010157695115931974 5.3868743033885335e-05 -0.00011649690726977093 4.7137300780374666e-05 0.00010157046472609972 -7.3657398391728613e-05 6.9482280662725411e-05 -2.1063090935424025e-05 -3.2756792454228522e-05 9.225574560486236e-05 4.0979375660743576e-05 -1.5751248178255235e-06 -9.4538508302231681e-05 5.3250410141139858e-06 -3.0670844990144606e-06
leaf_weight=514 580 769 576 1498 726 706 934 1617 807 899 3577 431789 610 72007 791
leaf_count=514 580 769 576 1498 726 706 934 1617 807 899 3577 431789 610 72007 791
internal_value=2.82492e-13 4.80996e-05 -1.90908e-05 -1.73107e-07 -5.91175e-08 2.28955e-05 -4.35885e-07 3.18342e-05 2.44967e-05 3.20798e-05 2.16643e-05 -5.64766e-07 5.25936e-06 4.40477e-06 -4.2894e-05
internal_weight=518400 1859 1345 516541 515961 8332 507629 7626 6900 6093 5194 506695 74906 73408 1401
internal_count=518400 1859 1345 516541 515961 8332 507629 7626 6900 6093 5194 506695 74906 73408 1401
is_linear=0
shrinkage=0.1


Tree=7
num_leaves=16
num_cat=0
split_feature=13 3 1 7 16 7 9 4 11 3 17 13 3 16 1
split_gain=0.000393633 0.000682738 0.000235053 0.000796317 0.000331582 0.000680778 0.000472715 0.000353946 0.000348903 0.0003178 0.000309989 0.000464146 0.000239674 0.000239016 0.000188527
threshold=26.405379682523016 -0.020790962951277799 -0.0016964967464505041 0.023282078041394486 17.777777777779594 -0.02175371232354056 -0.024214941107559392 0.0046307325590960744 15.202756965218002 -0.01327031506343229 0.68934270251755214 34.583989963272643 -0.015686245538957252 87.160493827163108 -0.0049348869107341811
decision_type=2 2 2 2 2 2 2 2 2 2 2 2 2 2 2
left_child=1 -1 3 4 6 -6 -2 10 -9 -4 -7 -12 -13 14 -10
right_child=2 -3 9 -5 5 7 -8 8 13 -11 11 12 -14 -15 -16
leaf_value=0.00011446670541433526 9.1907687819580005e-05 1.2723683359525877e-05 -7.5526210559108067e-05 0.00012822347333329507 -8.171364082663188e-05 3.3140077296315566e-06 1.4099643855246193e-05 9.9689082028065899e-05 5.0882890683870237e-05 -1.1331070060394768e-06 -0.00010775790213282221 4.265172507768425e-05 -1.7714692960600424e-05 5.8971661523619142e-05 -1.938365950109349e-05
leaf_weight=751 849 5416 575 518 973 58022 9723 644 514 430423 538 735 6254 980 1485
leaf_count=751 849 5416 575 518 973 58022 9723 644 514 430423 538 735 6254 980 1485
internal_value=-1.35794e-13 2.51137e-05 -3.02355e-07 4.63183e-06 3.83868e-06 1.35044e-06 2.03481e-05 2.51885e-06 3.29454e-05 -1.23236e-06 8.37128e-07 -1.82559e-05 -1.13662e-05 1.85167e-05 -1.31612e-06
internal_weight=518400 6167 512233 81235 80717 70145 10572 69172 3623 430998 65549 7527 6989 2979 1999
internal_count=518400 6167 512233 81235 80717 70145 10572 69172 3623 430998 65549 7527 6989 2979 1999
is_linear=0
shrinkage=0.1


Tree=8
num_leaves=16
num_cat=0
split_feature=0 17 1 15 4 1 10 12 1 17 1 15 1 0 10
split_gain=0.000355858 0.000668895 0.000840947 0.000551476 0.000382808 0.000356901 0.000737434 0.000352554 0.00085965 0.000451633 0.000378281 0.000366314 0.000322342 0.000271487 0.000320658
threshold=0.0050017077632055216 1.6406002465966065 -0.0038050845463742928 94.444444444447115 0.024300901102174536 -0.015027132613173398 -0.63636363636366933 59.353104898600243 0.015270157215615089 1.1825262781799528 -0.0020592754523692798 71.785933382131489 0.00073841612263525491 0.0024302039655810241 0.44444444444454728
decision_type=2 2 2 2 2 2 2 2 2 2 2 2 2 2 2
left_child=1 4 -3 7 5 6 -1 8 10 11 -2 -9 13 -7 -15
right_child=3 2 -4 -5 -6 12 -8 9 -10 -11 -12 -13 -14 14 -16
leaf_value=1.9058483768684962e-05 9.8722980892654801e-05 0.00014372614996560273 -2.083167642766766e-05 -7.8977111420095968e-05 8.0056244055382194e-05 7.4933435547972068e-07 -0.00013027529937547537 8.8867725024359751e-05 -0.00010018547540721077 0.00013008301470984374 1.1983697947768751e-05 1.4870160250839532e-05 -4.4959826509032634e-06 7.6626155008386438e-05 1.1988222983373683e-05
leaf_weight=690 550 715 549 569 588 352095 635 874 663 540 5857 2852 146210 946 4067
leaf_count=690 550 715 549 569 588 352095 635 874 663 540 5857 2852 146210 946 4067
internal_value=9.16504e-14 -4.01682e-07 7.22529e-05 1.70895e-05 -5.83451e-07 -6.77411e-07 -5.2509e-05 2.19114e-05 8.21262e-06 4.46144e-05 1.94297e-05 3.22276e-05 -5.40963e-07 1.07833e-06 2.4186e-05
internal_weight=518400 506495 1264 11905 505231 504643 1325 11336 7070 4266 6407 3726 503318 357108 5013
internal_count=518400 506495 1264 11905 505231 504643 1325 11336 7070 4266 6407 3726 503318 357108 5013
is_linear=0
shrinkage=0.1


Tree=9
num_leaves=16
num_cat=0
split_feature=15 3 7 11 0 3 14 8 13 17 15 15 3 17 13
split_gain=0.00033098 0.00196154 0.000468489 0.000854318 0.000246626 0.000903479 0.000625597 0.000547601 0.00129633 0.000562962 0.000978663 0.000483131 0.00040619 0.000403159 0.000422568
threshold=11.111111111113813 -0.020790962951277799 -0.028844172926373198 -126.56235931028239 0.0024302039655810241 0.016674850612572904 92.164994630039416 0.020833333333333374 63.160219034611721 1.1825262781799528 50.476190476192379 94.444444444447115 0.016674850612572904 0.74783288812437931 61.062119355099618
decision_type=2 2 2 2 2 2 2 2 2 2 2 2 2 2 2
left_child=1 -1 3 -2 5 13 -7 9 -9 -6 -11 12 -10 -4 -15
right_child=2 -3 4 -5 7 6 -8 8 11 10 -12 -13 -14 14 -16
leaf_value=0.00018781659286715743 2.6806096794917551e-05 6.4370348503667275e-06 -8.3977945958745305e-07 -0.00013363213907501535 8.1627724573157692e-06 0.00016537347003941583 1.2778258060004164e-05 -0.00013884312541544445 -1.2879801347585922e-05 1.0678343351899462e-06 0.00017066215573530304 -7.7946962357180804e-05 8.4493989123807321e-05 -1.2480609271444129e-05 -7.0921492450771588e-05
leaf_weight=608 615 30826 432938 721 34082 547 528 844 929 802 591 520 795 11670 1384
leaf_count=608 615 30826 432938 721 34082 547 528 844 929 802 591 520 795 11670 1384
internal_value=-1.33775e-13 9.9453e-06 -6.41976e-07 -5.97777e-05 -4.7929e-07 -1.14115e-06 9.04244e-05 7.19375e-06 -3.31958e-05 1.07096e-05 7.30206e-05 6.53965e-06 3.20228e-05 -1.36186e-06 -1.86766e-05
internal_weight=518400 31434 486966 1336 485630 447067 1075 38563 3088 35475 1393 2244 1724 445992 13054
internal_count=518400 31434 486966 1336 485630 447067 1075 38563 3088 35475 1393 2244 1724 445992 13054
is_linear=0
shrinkage=0.1


Tree=10
num_leaves=16
num_cat=0
split_feature=0 15 12 10 2 5 0 2 15 0 2 11 0 2 1
split_gain=0.000307347 0.000925869 0.000998129 0.000304667 0.00070661 0.000318439 0.0004327 0.000360896 0.000313698 0.000276663 0.000241972 0.000536615 0.000193837 0.000604873 0.000546243
threshold=0.010855762446373431 38.095238095237868 66.414483545524547 -0.66666666666660046 -0.018015937415475466 0.011472852643149569 -0.008056513974351363 -0.0050704616669944294 35.126191834196014 -0.0035505689797978297 -0.018015937415475466 -129.24131525344151 0.0024302039655810241 0.010894149873490579 0.0016885474300848415
decision_type=2 2 2 2 2 2 2 2 2 2 2 2 2 2 2
left_child=3 -2 -3 4 -1 6 8 -8 -6 -9 11 -5 13 -12 -14
right_child=1 2 -4 10 5 -7 7 9 -10 -11 12 -13 14 -15 -16
leaf_value=0.00010788768937050624 0.00015646023373165914 -9.7567413150817698e-05 8.4774207133058994e-05 1.4893166187086036e-05 -8.6821497241525083e-05 8.3816691958906432e-05 2.7570528138364349e-05 -1.7412338383142851e-05 2.5071382918032719e-07 4.8574054301648409e-06 -2.0485754360625754e-06 -0.00012368693595071029 2.7212802038510004e-05 5.2733551535743872e-05 -1.0058968850742488e-06
leaf_weight=666 502 593 608 621 893 503 6542 6055 771 70895 389517 508 9016 2026 28684
leaf_count=666 502 593 608 621 893 503 6542 6055 771 70895 389517 508 9016 2026 28684
internal_value=-3.64842e-13 4.24124e-05 -5.25792e-06 -1.39789e-07 5.28208e-06 4.48432e-06 4.01571e-06 5.02204e-06 -4.64773e-05 3.10506e-06 -1.22732e-06 -4.74617e-05 -1.10571e-06 -1.76511e-06 5.74264e-06
internal_weight=518400 1703 1201 516697 86325 85659 85156 83492 1664 76950 430372 1129 429243 391543 37700
internal_count=518400 1703 1201 516697 86325 85659 85156 83492 1664 76950 430372 1129 429243 391543 37700
is_linear=0
shrinkage=0.1


Tree=11
num_leaves=16
num_cat=0
split_feature=1 17 1 10 2 0 11 16 16 13 2 1 7 1 0
split_gain=0.000278716 0.000875419 0.000447814 0.000562454 0.00044001 0.00036183 0.000732012 0.000342099 0.000360193 0.00028718 0.000323088 0.000282617 0.000235882 0.000286372 0.000220193
threshold=-0.0016964967464505041 1.6406002465966065 -0.015027132613173398 -0.68181818181818443 -0.0078787333201238412 0.010855762446373431 110.76465772057523 89.015814409371714 24.081281469258734 41.335718777019913 -0.013522975111479206 -0.0095202180529546637 -0.014427879417707344 -0.0034195862919197402 -0.0027027027027027302
decision_type=2 2 2 2 2 2 2 2 2 2 2 2 2 2 2
left_child=1 2 3 -1 -2 14 -7 8 12 11 -11 -10 13 -4 -6
right_child=4 -3 7 -5 5 6 -8 -9 9 10 -12 -13 -14 -15 -16
leaf_value=1.977986085422956e-05 -7.175169029995916e-05 0.00010128796414446427 5.021761421928465e-05 -0.00010982174840203038 -1.8719306537970634e-05 0.00010356860225175938 -3.9698741251807397e-05 4.2227772550710708e-05 -6.0710488712156227e-05 8.2031438703367837e-05 3.4721664511807868e-06 -7.5462220610980891e-06 1.0301964796403845e-05 -2.2974353924932256e-05 -7.6915488365190092e-07
leaf_weight=598 878 938 3170 761 6946 921 582 2407 1066 530 42761 16127 16653 643 423419
leaf_count=598 878 938 3170 761 6946 921 582 2407 1066 530 42761 16127 16653 643 423419
internal_value=-1.60719e-13 5.21184e-06 4.14806e-06 -5.27932e-05 -1.03159e-06 -8.87811e-07 4.80918e-05 5.07639e-06 3.97172e-06 9.15063e-08 4.43395e-06 -1.08425e-05 1.54391e-05 3.7875e-05 -1.05887e-06
internal_weight=518400 85654 84716 1359 432746 431868 1503 83357 80950 60484 43291 17193 20466 3813 430365
internal_count=518400 85654 84716 1359 432746 431868 1503 83357 80950 60484 43291 17193 20466 3813 430365
is_linear=0
shrinkage=0.1


Tree=12
num_leaves=16
num_cat=0
split_feature=13 3 0 2 0 6 3 14 0 10 17 16 15 0 8
split_gain=0.000264568 0.000443067 0.000218721 0.00024129 0.000185806 0.000447067 0.00040758 0.000388241 0.000419531 0.000395448 0.000242272 0.000340089 0.000314559 0.000645221 0.000360716
threshold=26.405379682523016 -0.020790962951277799 -0.0060555914091996446 -0.0050704616669944294 0.0050017077632055216 0.028234723233163565 0.021851102318120822 35.827744182028098 0.010855762446373431 0.81818181818184577 0.79729799735954077 13.802253932404417 50.000000000001144 -0.008056513974351363 0.0087816744033819578
decision_type=2 2 2 2 2 2 2 2 2 2 2 2 2 2 2
left_child=1 -1 -3 -4 6 7 10 -6 -9 -10 -2 -12 -13 -14 -15
right_child=4 2 3 -5 5 -7 -8 8 9 -11 11 12 13 14 -16
leaf_value=9.2569776191033377e-05 -2.6520038952296809e-07 -4.5956102763826086e-05 4.7847399697118588e-05 1.0780815740702203e-06 -4.2851111779024601e-05 -5.3726719414366411e-05 7.69978698343259e-05 1.6289790200387908e-05 0.00013896693896776552 2.1889954708660415e-05 4.9128480840055497e-05 -3.3386135896490799e-05 8.4107953319521224e-05 1.2133815780068701e-05 -3.4933388244536027e-05
leaf_weight=751 485225 607 1714 3095 960 948 677 8771 577 577 821 6367 762 3035 3513
leaf_count=751 485225 607 1714 3095 960 948 677 8771 577 577 821 6367 762 3035 3513
internal_value=-2.19738e-13 2.05889e-05 1.06078e-05 1.77474e-05 -2.47879e-07 1.21374e-05 -5.40755e-07 1.78737e-05 2.37473e-05 8.04284e-05 -6.45801e-07 -1.33839e-05 -1.71364e-05 -2.98285e-06 -1.31177e-05
internal_weight=518400 6167 5416 4809 512233 11833 500400 10885 9925 1154 499723 14498 13677 7310 6548
internal_count=518400 6167 5416 4809 512233 11833 500400 10885 9925 1154 499723 14498 13677 7310 6548
is_linear=0
shrinkage=0.1


Tree=13
num_leaves=16
num_cat=0
split_feature=15 9 5 14 8 10 2 17 15 8 8 5 17 9 7
split_gain=0.000232497 0.0017037 0.000607183 0.00143221 0.000193674 0.000169143 0.000316838 0.00022972 0.00024194 0.00024523 0.000241027 0.000212295 0.00019126 0.000821751 0.000232012
threshold=11.111111111113813 -0.032189564365736882 -0.025409761013698625 4.2195985861630811 -0.030669242199762855 -0.66666666666660046 -0.013522975111479206 0.77177251814568715 64.378094672213095 -0.009649712334606762 0.012124916327750592 -0.018977361978443571 1.6406002465966065 0.0126327059619068 0.030413189454680415
decision_type=2 2 2 2 2 2 2 2 2 2 2 2 2 2 2
left_child=1 -1 3 -2 -4 6 -6 10 9 -9 -8 -7 14 -14 -13
right_child=2 -3 4 -5 5 11 7 8 -10 -11 -12 12 13 -15 -16
leaf_value=0.00017099467594455496 4.138475754099213e-05 5.0033033931253235e-06 -6.0944752271274006e-05 -0.00016910385083693401 7.3710371227766393e-05 4.6108342925818811e-05 3.7776754387216987e-06 -1.4823390272878458e-05 9.904700596820926e-06 -0.00010905053972704774 7.0459624880357877e-05 -1.2449523116813997e-06 4.6492209321596794e-05 -0.00012317668075362598 3.9549221663809646e-05
leaf_weight=631 617 30803 527 679 646 950 75143 560 840 545 546 403370 547 597 1399
leaf_count=631 617 30803 527 679 646 950 75143 560 840 545 546 403370 547 597 1399
internal_value=9.73712e-14 8.33538e-06 -5.38055e-07 -6.88944e-05 -3.55647e-07 -2.89831e-07 3.96704e-06 3.3867e-06 -3.05469e-05 -6.12974e-05 4.2587e-06 -1.10885e-06 -1.21936e-06 -4.205e-05 -1.10396e-06
internal_weight=518400 31434 486966 1296 485670 485143 78280 77634 1945 1105 75689 406863 405913 1144 404769
internal_count=518400 31434 486966 1296 485670 485143 78280 77634 1945 1105 75689 406863 405913 1144 404769
is_linear=0
shrinkage=0.1


Tree=14
num_leaves=16
num_cat=0
split_feature=14 8 5 0 0 6 11 16 4 0 3 4 12 10 17
split_gain=0.000192297 0.000981128 0.000648502 0.000399792 0.000273082 0.000204279 0.000188429 0.000195716 0.0002649 0.000187298 0.000693351 0.00063227 0.000566587 0.000422855 0.000381254
threshold=0.1768690790918139 -0.030669242199762855 -0.025409761013698625 -0.010748301947806347 -0.010748301947806347 -0.0095431446875274255 -117.34634778578764 19.631315881318454 -0.012998938726373253 0.0027866322735251585 0.016674850612572904 0.024300901102174536 67.286568412573786 0.4425824175824149 0.58168533664419253
decision_type=2 2 2 2 2 2 2 2 2 2 2 2 2 2 2
left_child=1 -1 -2 -4 -3 6 7 -6 -9 10 14 13 -13 -11 -5
right_child=2 4 3 9 5 -7 -8 8 -10 11 -12 12 -14 -15 -16
leaf_value=0.00011296408870387298 -8.5038643205106589e-05 -6.8422065946270732e-05 8.6920910493169765e-05 -7.5520776839218134e-07 2.2650377385767406e-05 2.1646065624637093e-06 3.8373388681701726e-05 -7.0498960607066088e-05 9.2197777787000548e-06 5.4033630342373122e-05 7.7689654224844825e-05 -0.00014535740645050938 -7.6855844029635115e-06 6.357538900627597e-06 -1.3707690845370279e-05
leaf_weight=827 912 525 521 383178 2943 67107 3103 646 1175 1988 1108 502 739 28968 24158
leaf_count=827 912 525 521 383178 2943 67107 3103 646 1175 1988 1108 502 739 28968 24158
internal_value=-3.17526e-13 4.63516e-06 -8.00282e-07 -6.26138e-07 3.44855e-06 3.95182e-06 1.91971e-05 6.70675e-06 -1.90605e-05 -7.29651e-07 -1.3085e-06 6.6135e-06 -6.33756e-05 9.41931e-06 -1.52338e-06
internal_weight=518400 76326 442074 441162 75499 74974 7867 4764 1821 440641 408444 32197 1241 30956 407336
internal_count=518400 76326 442074 441162 75499 74974 7867 4764 1821 440641 408444 32197 1241 30956 407336
is_linear=0
shrinkage=0.1


Tree=15
num_leaves=16
num_cat=0
split_feature=0 13 16 12 2 13 0 7 12 10 2 5 0 0 2
split_gain=0.000193312 0.000521293 0.000353428 0.000528245 0.000462845 0.00028976 0.000274061 0.000257684 0.000240661 0.000215254 0.000322463 0.000321236 0.000402741 0.000311032 0.000429193
threshold=0.0064202022547478208 38.26363241126689 90.12345679012661 57.475247565362423 0.014603716684457481 59.527334131860037 0.010855762446373431 0.030413189454680415 73.595515440915378 -0.66666666666660046 -0.018015937415475466 0.010661902508863676 -0.008056513974351363 -0.0027027027027027302 0.0082993042123090683
decision_type=2 2 2 2 2 2 2 2 2 2 2 2 2 2 2
left_child=7 -2 3 4 -3 -5 -7 9 -9 10 -1 12 -12 14 -11
right_child=1 2 -4 5 -6 6 -8 8 -10 13 11 -13 -14 -15 -16
leaf_value=7.396754778785241e-05 0.00011087921843203001 7.165688375016145e-06 -6.5093095158078799e-05 0.00011831051575684165 -9.1251603999521592e-05 1.0453504700948783e-05 9.2212571765560398e-05 9.8754205314112984e-05 1.5583611439461065e-06 -2.0272786853409386e-05 -4.5755969486875625e-05 8.1676553408518279e-05 4.1798539536704178e-06 -7.7013472463185885e-07 7.229302177354707e-05
leaf_weight=658 541 2629 590 503 584 1454 571 508 511 12392 1647 525 83409 411356 522
leaf_count=658 541 2629 590 503 584 1454 571 508 511 12392 1647 525 83409 411356 522
internal_value=9.2915e-14 1.66606e-05 8.60933e-06 1.61837e-05 -1.07228e-05 5.03809e-05 3.35075e-05 -2.23822e-07 5.00132e-05 -3.24098e-07 4.23043e-06 3.69425e-06 3.21291e-06 -1.24987e-06 -1.65312e-05
internal_weight=518400 6872 6331 5741 3213 2528 2025 511528 1019 510509 86239 85581 85056 424270 12914
internal_count=518400 6872 6331 5741 3213 2528 2025 511528 1019 510509 86239 85581 85056 424270 12914
is_linear=0
shrinkage=0.1


Tree=16
num_leaves=16
num_cat=0
split_feature=1 17 1 12 2 16 16 14 0 2 13 0 2 1 5
split_gain=0.000199115 0.000670139 0.000488833 0.000474087 0.000334407 0.000272965 0.000244909 0.000248752 0.000243574 0.000307087 0.000283705 0.000243177 0.000596961 0.000214029 0.000204436
threshold=-0.0016964967464505041 1.6406002465966065 -0.015027132613173398 29.504444711178852 -0.0078787333201238412 89.015814409371714 24.081281469258734 34.348266092769371 -0.0060555914091996446 -0.004062351237702321 38.853421086662955 0.010855762446373431 0.018971942630163666 -0.0076470742589996301 0.0067014755964662784
decision_type=2 2 2 2 2 2 2 2 2 2 2 2 2 2 2
left_child=1 2 3 -1 -2 6 7 -4 9 10 -8 -6 -13 -12 -7
right_child=4 -3 5 -5 11 14 8 -9 -10 -11 13 12 -14 -15 -16
leaf_value=-0.00010759752994951214 -6.2524267348967983e-05 8.8465261661427701e-05 1.0576502282054009e-05 1.1615233471711321e-05 -8.8681125818663714e-07 1.769980024685693e-05 -5.2802743925844036e-05 6.4924745693236804e-05 1.731485223360098e-06 -8.11044274349167e-05 5.0262890814708844e-05 9.1854514043056106e-05 -3.6322029633837948e-05 -2.9470332152451801e-05 8.0245432185753116e-05
leaf_weight=771 878 938 19586 588 430365 1640 894 880 57390 785 863 888 615 552 767
leaf_count=771 878 938 19586 588 430365 1640 894 880 57390 785 863 888 615 552 767
internal_value=6.19163e-14 4.40517e-06 3.47443e-06 -5.60176e-05 -8.7192e-07 4.44435e-06 3.45759e-06 1.29134e-05 2.58028e-07 -2.70728e-05 -8.70351e-06 -7.46579e-07 3.9407e-05 1.91585e-05 3.76302e-05
internal_weight=518400 85654 84716 1359 432746 83357 80950 20466 60484 3094 2309 431868 1503 1415 2407
internal_count=518400 85654 84716 1359 432746 83357 80950 20466 60484 3094 2309 431868 1503 1415 2407
is_linear=0
shrinkage=0.1


Tree=17
num_leaves=16
num_cat=0
split_feature=13 16 2 17 9 2 8 6 10 3 9 17 2 9 17
split_gain=0.00018712 0.000236348 0.000893896 0.000700805 0.000419326 0.00013601 0.00055 0.000147004 0.000131715 0.000506158 0.000321391 0.000270141 0.000189312 0.000412866 0.000564648
threshold=27.749695333056795 8.6767943679557824 -0.0050704616669944294 0.90174481636504922 -0.020288629987626535 -0.018015937415475466 -0.02306296343102748 -0.026948237833874119 -0.46938775510203823 0.011108538573850748 -0.020288629987626535 1.1825262781799528 -0.0052983965379264078 -0.020288629987626535 1.1825262781799528
decision_type=2 2 2 2 2 2 2 2 2 2 2 2 2 2 2
left_child=1 2 -1 4 -3 6 -2 -7 9 10 -9 -12 13 -10 -15
right_child=5 3 -4 -5 -6 7 -8 8 12 -11 11 -13 -14 14 -16
leaf_value=0.00014740168981972962 3.8195952663500071e-05 8.1405598410391034e-05 -3.3759907298124766e-06 -9.7138402155025539e-05 5.6371406268703827e-06 4.7321471601460903e-05 -0.00010633700858155816 -5.5902550763808103e-05 5.4194402272087714e-05 0.00010021986638760108 2.1321704410040212e-06 6.8131953226316323e-05 -8.3164149063056029e-07 -1.4352761161930144e-05 -0.00011798008886664276
leaf_weight=593 512 853 1167 597 5083 651 542 951 803 527 136212 623 359871 8856 559
leaf_count=593 512 853 1167 597 5083 651 542 951 803 527 136212 623 359871 8856 559
internal_value=-4.21347e-13 1.49006e-05 4.74258e-05 6.13821e-06 1.6525e-05 -2.42244e-07 -3.61274e-05 -1.67944e-07 -2.28753e-07 2.40416e-06 2.03003e-06 2.43266e-06 -1.21275e-06 -1.4635e-05 -2.05055e-05
internal_weight=518400 8293 1760 6533 5936 510107 1054 509053 508402 138313 137786 136835 370089 10218 9415
internal_count=518400 8293 1760 6533 5936 510107 1054 509053 508402 138313 137786 136835 370089 10218 9415
is_linear=0
shrinkage=0.1


Tree=18
num_leaves=16
num_cat=0
split_feature=1 17 1 10 5 13 15 0 16 13 5 17 17 14 1
split_gain=0.000159204 0.000467849 0.000372712 0.000398497 0.000213331 0.000233417 0.000276151 0.00020459 0.000392375 0.000341646 0.00037862 0.000311047 0.000289691 0.0002624 0.000348926
threshold=-0.00067810018984432164 1.6406002465966065 -0.015027132613173398 -0.60000000000003983 -0.0088930221819421545 41.335718777019913 25.71409143252939 0.0050017077632055216 86.873394517377108 63.672938157244658 0.017228038337466448 0.70878293642294132 0.77177251814568715 57.38841015813248 0.0042502034032181344
decision_type=2 2 2 2 2 2 2 2 2 2 2 2 2 2 2
left_child=1 2 3 -1 5 6 -2 -6 9 10 13 -10 -11 14 -9
right_child=4 -3 -4 -5 7 -7 -8 8 11 12 -12 -13 -14 -15 -16
leaf_value=-1.774769537892662e-06 -2.5653191676949452e-05 7.1354342083600224e-05 2.5962215090844922e-06 -0.00011080592913547817 -1.3519066780583854e-06 -5.4297072587267183e-05 4.9854863875917721e-05 3.7213916726761909e-05 5.1425542588775935e-06 3.3226158604494945e-05 -6.6623047192533344e-05 -8.6057060682280875e-05 0.00011280522259458967 2.7707761219706007e-05 -7.3643789722452877e-05
leaf_weight=758 1748 983 161965 601 339853 1565 670 500 877 1905 604 652 602 4460 657
leaf_count=758 1748 983 161965 601 339853 1565 670 500 877 1905 604 652 602 4460 657
internal_value=-2.06655e-13 2.57262e-06 2.15864e-06 -4.99924e-05 -1.19375e-06 -2.42064e-05 -4.73078e-06 -9.3195e-07 1.29828e-05 2.11691e-05 8.60943e-06 -3.3747e-05 5.23353e-05 1.66992e-05 -2.57364e-05
internal_weight=518400 164307 163324 1359 354093 3983 2418 350110 10257 8728 6221 1529 2507 5617 1157
internal_count=518400 164307 163324 1359 354093 3983 2418 350110 10257 8728 6221 1529 2507 5617 1157
is_linear=0
shrinkage=0.1


Tree=19
num_leaves=16
num_cat=0
split_feature=13 1 16 7 12 7 1 7 3 0 16 14 6 8 14
split_gain=0.000154174 0.000284839 0.000979288 0.000383902 0.000365156 0.00024844 0.000118279 0.000403023 0.000373055 0.000302041 0.00044407 0.000421062 0.000608987 0.000424429 0.00036346
threshold=27.749695333056795 -0.0070260253143170628 12.679641035772795 -0.018394472888619558 17.545677294224195 -0.012251208295217751 0.00073841612263525491 0.023282078041394486 0.012333297228050434 -0.0041419537960757915 69.248035914705284 1.0000000180025095e-35 -0.012464767128946284 -0.02306296343102748 58.133879293248626
decision_type=2 2 2 2 2 2 2 2 2 2 2 2 2 2 2
left_child=1 2 -1 -3 -4 -5 7 8 9 10 11 13 -13 -2 -14
right_child=6 3 4 5 -6 -7 -8 -9 -10 -11 -12 12 14 -15 -16
leaf_value=0.00014338650384194349 6.9882629234150996e-05 -8.032887915440041e-05 5.3068704140728852e-05 6.7695047513944827e-05 -5.1880889727940904e-05 2.8368914013395132e-06 -2.4987279462172189e-06 7.2553593860600569e-05 8.4235901740578348e-05 1.0709760427127783e-06 1.5396641320840336e-05 -0.00013141321234719271 -4.8382298039407822e-05 -1.8465646544783146e-05 3.789959289157943e-05
leaf_weight=685 622 508 613 668 722 5097 157457 781 533 338994 3483 763 2547 4323 604
leaf_count=685 622 508 613 668 722 5097 157457 781 533 338994 3483 763 2547 4323 604
internal_value=-1.3332e-13 1.35253e-05 4.61846e-05 3.00859e-06 -3.69055e-06 1.03521e-05 -2.19887e-07 7.97608e-07 6.3834e-07 5.11517e-07 -1.4855e-05 -2.67487e-05 -5.12536e-05 -7.35288e-06 -3.18433e-05
internal_weight=518400 8293 2020 6273 1335 5765 510107 352650 351869 351336 12342 8859 3914 4945 3151
internal_count=518400 8293 2020 6273 1335 5765 510107 352650 351869 351336 12342 8859 3914 4945 3151
is_linear=0
shrinkage=0.1


Tree=20
num_leaves=16
num_cat=0
split_feature=15 9 5 14 8 5 6 0 1 4 13 1 15 14 2
split_gain=0.000134867 0.00118088 0.000458153 0.00105066 0.000179419 0.000150844 0.0004192 0.000124912 0.000511035 0.000353437 0.00039268 0.000369981 0.000284994 0.000320726 0.000218445
threshold=11.111111111113813 -0.032189564365736882 -0.025409761013698625 13.267458297240198 -0.030669242199762855 -0.018977361978443571 -0.020234836168694977 0.0024302039655810241 0.010272619696155229 0.024300901102174536 70.813896013246605 0.0016885474300848415 41.666666666664447 98.059895854497043 0.0031650208570863651
decision_type=2 2 2 2 2 2 2 2 2 2 2 2 2 2 2
left_child=1 -1 3 -2 -4 6 -6 8 -7 11 -11 14 -13 -14 -9
right_child=2 -3 4 -5 5 7 -8 9 -10 10 -12 12 13 -15 -16
leaf_value=0.0001417692442574012 1.8874460787826765e-05 3.574396445623377e-06 -5.8568139263462767e-05 -0.00016284752548305999 -1.9791796752368831e-05 -8.8074937967970611e-07 9.6940052340763834e-05 1.8396236485630247e-05 8.5433380625246213e-05 -0.00010340897663654308 8.6008714892419189e-06 -1.4554205990654496e-05 2.54457256481678e-05 -1.0534388797547532e-06 6.2483129950873241e-05
leaf_weight=631 735 30803 527 561 659 444987 577 7107 687 622 630 7943 6837 13759 1335
leaf_count=631 735 30803 527 561 659 444987 577 7107 687 622 630 7943 6837 13759 1335
internal_value=1.54924e-14 6.34849e-06 -4.098e-07 -5.97876e-05 -2.51351e-07 -1.88003e-07 3.4702e-05 -2.77119e-07 -7.47697e-07 5.20831e-06 -4.70462e-05 6.9774e-06 1.53734e-06 7.74316e-06 2.5368e-05
internal_weight=518400 31434 486966 1296 485670 485143 1236 483907 445674 38233 1252 36981 28539 20596 8442
internal_count=518400 31434 486966 1296 485670 485143 1236 483907 445674 38233 1252 36981 28539 20596 8442
is_linear=0
shrinkage=0.1


Tree=21
num_leaves=16
num_cat=0
split_feature=10 9 0 8 0 12 0 13 17 15 15 10 13 14 13
split_gain=0.000139412 0.00129439 0.000455657 0.000220606 0.000245474 0.000180166 0.000146809 0.000454928 0.000348896 0.000289877 0.000342573 0.000286075 0.000250329 0.00023228 0.000223793
threshold=-0.81395348837210568 -0.020288629987626535 -0.010748301947806347 0.0080774328967129234 -0.008056513974351363 31.212566680134461 0.0064202022547478208 38.26363241126689 1.6406002465966065 41.666666666664447 82.051282051283223 0.80000000000002391 77.026618031090706 95.47261328927145 44.882051088141729
decision_type=2 2 2 2 2 2 2 2 2 2 2 2 2 2 2
left_child=1 -1 5 4 -3 -2 -4 -8 9 14 11 -11 -12 -13 -9
right_child=2 3 6 -5 -6 -7 7 8 -10 10 12 13 -14 -15 -16
leaf_value=0.00015424554511881308 -0.0001094417894089965 -5.6228256895544128e-05 -5.9877727413343885e-07 6.037899434521753e-05 3.3903499891821717e-06 -2.496698618542723e-05 0.00010214290600902678 2.3697519891796226e-05 -6.9202292149716073e-05 8.7382847005578113e-05 -2.8824873086612827e-05 7.3877211956144582e-05 5.3462034953846286e-05 -1.1689366165123277e-05 -5.7690363427678656e-05
leaf_weight=575 510 701 461912 668 46662 500 541 559 554 1150 1337 501 511 865 854
leaf_count=575 510 701 461912 668 46662 500 541 559 554 1150 1337 501 511 865 854
internal_value=-1.3224e-13 5.09832e-06 -5.27484e-07 3.31281e-06 2.50796e-06 -6.76226e-05 -3.82927e-07 1.41258e-05 6.60448e-06 1.38742e-05 2.66205e-05 5.06325e-05 -6.0713e-06 1.96934e-05 -2.54923e-05
internal_weight=518400 48606 469794 48031 47363 1010 468784 6872 6331 5777 4364 2516 1848 1366 1413
internal_count=518400 48606 469794 48031 47363 1010 468784 6872 6331 5777 4364 2516 1848 1366 1413
is_linear=0
shrinkage=0.1


end of trees

feature_importances:
ret1min=41
ret2min=34
natr=26
rsi=24
ret3min=23
bop=23
slowd=20
slowk=19
stochrsi=18
ret4min=17
ret9min=13
ret5min=12
ret8min=12
ret6min=10
ret7min=10
ret10min=10
mfi=10
cci=8

parameters:
[boosting: gbdt]
[objective: regression]
[metric: rmse]
[tree_learner: serial]
[device_type: cpu]
[data_sample_strategy: bagging]
[data: ]
[valid: ]
[num_iterations: 50]
[learning_rate: 0.1]
[num_leaves: 16]
[num_threads: 0]
[seed: 42]
[deterministic: 0]
[force_col_wise: 0]
[force_row_wise: 0]
[histogram_pool_size: -1]
[max_depth: -1]
[min_data_in_leaf: 500]
[min_sum_hessian_in_leaf: 0.001]
[bagging_fraction: 1]
[pos_bagging_fraction: 1]
[neg_bagging_fraction: 1]
[bagging_freq: 0]
[bagging_seed: 400]
[bagging_by_query: 0]
[feature_fraction: 0.8]
[feature_fraction_bynode: 1]
[feature_fraction_seed: 30056]
[extra_trees: 0]
[extra_seed: 12879]
[early_stopping_round: 0]
[early_stopping_min_delta: 0]
[first_metric_only: 0]
[max_delta_step: 0]
[lambda_l1: 0]
[lambda_l2: 0]
[linear_lambda: 0]
[min_gain_to_split: 0]
[drop_rate: 0.1]
[max_drop: 50]
[skip_drop: 0.5]
[xgboost_dart_mode: 0]
[uniform_drop: 0]
[drop_seed: 17869]
[top_rate: 0.2]
[other_rate: 0.1]
[min_data_per_group: 100]
[max_cat_threshold: 32]
[cat_l2: 10]
[cat_smooth: 10]
[max_cat_to_onehot: 4]
[top_k: 20]
[monotone_constraints: ]
[monotone_constraints_method: basic]
[monotone_penalty: 0]
[feature_contri: ]
[forcedsplits_filename: ]
[refit_decay_rate: 0.9]
[cegb_tradeoff: 1]
[cegb_penalty_split: 0]
[cegb_penalty_feature_lazy: ]
[cegb_penalty_feature_coupled: ]
[path_smooth: 0]
[interaction_constraints: ]
[verbosity: -1]
[saved_feature_importance_type: 0]
[use_quantized_grad: 0]
[num_grad_quant_bins: 4]
[quant_train_renew_leaf: 0]
[stochastic_rounding: 1]
[linear_tree: 0]
[max_bin: 255]
[max_bin_by_feature: ]
[min_data_in_bin: 3]
[bin_construct_sample_cnt: 200000]
[data_random_seed: 175]
[is_enable_sparse: 1]
[enable_bundle: 1]
[use_missing: 1]
[zero_as_missing: 0]
[feature_pre_filter: 1]
[pre_partition: 0]
[two_round: 0]
[header: 0]
[label_column: ]
[weight_column: ]
[group_column: ]
[ignore_column: ]
[categorical_feature: ]
[forcedbins_filename: ]
[precise_float_parser: 0]
[parser_config_file: ]
[objective_seed: 16083]
[num_class: 1]
[is_unbalance: 0]
[scale_pos_weight: 1]
[sigmoid: 1]
[boost_from_average: 1]
[reg_sqrt: 0]
[alpha: 0.9]
[fair_c: 1]
[poisson_max_delta_step: 0.7]
[tweedie_variance_power: 1.5]
[lambdarank_truncation_level: 30]
[lambdarank_norm: 1]
[label_gain: ]
[lambdarank_position_bias_regularization: 0]
[eval_at: ]
[multi_error_top_k: 1]
[auc_mu_weights: ]
[num_machines: 1]
[local_listen_port: 12400]
[time_out: 120]
[machine_list_filename: ]
[machines: ]
[gpu_platform_id: -1]
[gpu_device_id: -1]
[gpu_use_dp: 0]
[num_gpu: 1]

end of parameters

pandas_categorical:[]
