tree
version=v4
num_class=1
num_tree_per_iteration=1
label_index=0
max_feature_idx=17
objective=regression
feature_names=ret1min ret2min ret3min ret4min ret5min ret6min ret7min ret8min ret9min ret10min bop cci mfi rsi stochrsi slowk slowd natr
feature_infos=[-0.032681824225501921:0.022547749218971846] [-0.033383858529450916:0.032735579668760728] [-0.030134208490087855:0.040656372213038861] [-0.028277827381748111:0.058253175209951991] [-0.032873422596796376:0.064588778455392903] [-0.055682791017582889:0.057486592259747837] [-0.063620302483937907:0.080964149612692493] [-0.063654271006780005:0.076868825157501153] [-0.06342663483239841:0.079085397293885418] [-0.065112589689631184:0.078415684322197032] [-1:1] [-615.26869930697171:663.60823186998152] [0:100] [0.68391974871387617:97.199558346029505] [0:100] [0:100] [0:100] [0.00055194644055702108:1.7423239004733886]
tree_sizes=1725 1764

Tree=0
num_leaves=16
num_cat=0
split_feature=13 0 10 13 3 17 0 15 17 10 0 10 0 10 0
split_gain=2.98512e-05 2.79439e-05 3.42182e-05 3.33316e-05 2.05124e-05 5.99599e-05 3.17587e-05 3.85849e-05 2.79036e-05 4.44605e-05 2.05498e-05 2.90046e-05 2.34737e-05 2.10179e-05 1.5749e-05
threshold=34.825130658015539 -0.0018958256745422173 -0.83443708609271916 50.923492828840857 0.0038728153691439675 0.26594406114266983 0.0016651779670456837 85.321458317792931 0.24264882112421404 0.66019417475728759 0.00061016947896075379 0.44642857142862952 -0.00018865740509249604 -0.3898077273554541 0.0012295985394387145
decision_type=2 2 2 2 2 2 2 2 2 2 2 2 2 2 2
left_child=14 2 -2 -4 8 6 -6 -8 -3 10 12 -12 13 -10 -1
right_child=1 4 3 -5 5 -7 7 -9 9 -11 11 -13 -14 -15 -16
leaf_value=3.1616741592564228e-06 4.1559008221398402e-06 6.2092574381733042e-07 -3.5955132935660747e-05 -2.8464022633019027e-06 -8.3057638086690241e-06 -2.7667994876196319e-05 3.1414963054822793e-05 -5.1652186253226054e-06 1.2380617021789111e-05 3.1221297252625148e-05 -2.4846125426428835e-05 7.0364293431776943e-06 2.1801585583540391e-05 -9.5028949912652029e-06 1.9311924502970261e-05
leaf_weight=40238 885 467117 701 537 1573 1002 590 564 943 723 508 651 934 821 613
leaf_count=40238 885 467117 701 537 1573 1002 590 564 943 723 508 651 934 821 613
internal_value=8.09507e-07 5.87564e-07 -1.08597e-05 -2.15938e-05 6.38682e-07 -6.7489e-06 9.37543e-07 1.3537e-05 6.97084e-07 8.46454e-06 4.19876e-06 -6.93798e-06 8.98285e-06 2.1956e-06 3.40402e-06
internal_weight=518400 477549 2123 1238 475426 3729 2727 1154 471697 4580 3857 1159 2698 1764 40851
internal_count=518400 477549 2123 1238 475426 3729 2727 1154 471697 4580 3857 1159 2698 1764 40851
is_linear=0
shrinkage=1


Tree=1
num_leaves=16
num_cat=0
split_feature=13 0 13 10 0 3 3 8 10 0 17 17 14 2 10
split_gain=2.44742e-05 2.68873e-05 3.34169e-05 3.15266e-05 1.6302e-05 2.75166e-05 1.69673e-05 1.49875e-05 1.51206e-05 6.34377e-05 2.77255e-05 2.76995e-05 1.27668e-05 1.27519e-05 1.24187e-05
threshold=35.676044795099706 -0.0018958256745422173 50.923492828840857 -0.83443708609271916 -4.8231821443422965e-06 0.0038728153691439675 -0.0028337692457638393 -0.0015271945205350133 -0.61003144654098451 -0.0014251092615929493 0.2050607408142078 0.26594406114266983 27.91397088688532 -0.00051759069711482242 -0.67241379310362659
decision_type=2 2 2 2 2 2 2 2 2 2 2 2 2 2 2
left_child=7 2 3 -2 5 6 14 8 10 -10 -1 12 -11 -8 -3
right_child=1 4 -4 -5 -6 -7 13 -9 9 11 -12 -13 -14 -15 -16
leaf_value=5.9450080654743992e-06 -4.3549698021280444e-06 2.1917502596005121e-05 3.3360978776790739e-06 -3.7200293598555335e-05 3.624948189723157e-07 -2.083261601014418e-05 5.1200331464799808e-07 5.1044826792429673e-07 -2.3953881908476306e-05 4.9082153040009405e-06 2.8935373071459433e-05 2.5801975485070669e-05 -2.1637799168558217e-06 -1.2959054876442224e-06 3.5935030517290812e-06
leaf_weight=7327 527 522 860 656 259733 685 52129 25098 875 8958 565 551 3570 155075 1269
leaf_count=7327 527 522 860 656 259733 685 52129 25098 875 8958 565 551 3570 155075 1269
internal_value=1.36577e-14 -2.16816e-07 -1.16639e-05 -2.25684e-05 -1.66995e-07 -8.2288e-07 -7.57297e-07 2.17747e-06 4.09264e-06 2.11411e-06 7.59092e-06 3.85809e-06 2.89297e-06 -8.41066e-07 8.93417e-06
internal_weight=518400 471456 2043 1183 469413 209680 208995 46944 21846 13954 7892 13079 12528 207204 1791
internal_count=518400 471456 2043 1183 469413 209680 208995 46944 21846 13954 7892 13079 12528 207204 1791
is_linear=0
shrinkage=0.1


end of trees

feature_importances:
ret1min=8
bop=7
rsi=4
natr=4
ret4min=3
ret3min=1
ret9min=1
stochrsi=1
slowk=1

parameters:
[boosting: gbdt]
[objective: regression]
[metric: rmse]
[tree_learner: serial]
[device_type: cpu]
[data_sample_strategy: bagging]
[data: ]
[valid: ]
[num_iterations: 50]
[learning_rate: 0.1]
[num_leaves: 16]
[num_threads: 0]
[seed: 42]
[deterministic: 0]
[force_col_wise: 0]
[force_row_wise: 0]
[histogram_pool_size: -1]
[max_depth: -1]
[min_data_in_leaf: 500]
[min_sum_hessian_in_leaf: 0.001]
[bagging_fraction: 1]
[pos_bagging_fraction: 1]
[neg_bagging_fraction: 1]
[bagging_freq: 0]
[bagging_seed: 400]
[bagging_by_query: 0]
[feature_fraction: 0.8]
[feature_fraction_bynode: 1]
[feature_fraction_seed: 30056]
[extra_trees: 0]
[extra_seed: 12879]
[early_stopping_round: 0]
[early_stopping_min_delta: 0]
[first_metric_only: 0]
[max_delta_step: 0]
[lambda_l1: 0]
[lambda_l2: 0]
[linear_lambda: 0]
[min_gain_to_split: 0]
[drop_rate: 0.1]
[max_drop: 50]
[skip_drop: 0.5]
[xgboost_dart_mode: 0]
[uniform_drop: 0]
[drop_seed: 17869]
[top_rate: 0.2]
[other_rate: 0.1]
[min_data_per_group: 100]
[max_cat_threshold: 32]
[cat_l2: 10]
[cat_smooth: 10]
[max_cat_to_onehot: 4]
[top_k: 20]
[monotone_constraints: ]
[monotone_constraints_method: basic]
[monotone_penalty: 0]
[feature_contri: ]
[forcedsplits_filename: ]
[refit_decay_rate: 0.9]
[cegb_tradeoff: 1]
[cegb_penalty_split: 0]
[cegb_penalty_feature_lazy: ]
[cegb_penalty_feature_coupled: ]
[path_smooth: 0]
[interaction_constraints: ]
[verbosity: -1]
[saved_feature_importance_type: 0]
[use_quantized_grad: 0]
[num_grad_quant_bins: 4]
[quant_train_renew_leaf: 0]
[stochastic_rounding: 1]
[linear_tree: 0]
[max_bin: 255]
[max_bin_by_feature: ]
[min_data_in_bin: 3]
[bin_construct_sample_cnt: 200000]
[data_random_seed: 175]
[is_enable_sparse: 1]
[enable_bundle: 1]
[use_missing: 1]
[zero_as_missing: 0]
[feature_pre_filter: 1]
[pre_partition: 0]
[two_round: 0]
[header: 0]
[label_column: ]
[weight_column: ]
[group_column: ]
[ignore_column: ]
[categorical_feature: ]
[forcedbins_filename: ]
[precise_float_parser: 0]
[parser_config_file: ]
[objective_seed: 16083]
[num_class: 1]
[is_unbalance: 0]
[scale_pos_weight: 1]
[sigmoid: 1]
[boost_from_average: 1]
[reg_sqrt: 0]
[alpha: 0.9]
[fair_c: 1]
[poisson_max_delta_step: 0.7]
[tweedie_variance_power: 1.5]
[lambdarank_truncation_level: 30]
[lambdarank_norm: 1]
[label_gain: ]
[lambdarank_position_bias_regularization: 0]
[eval_at: ]
[multi_error_top_k: 1]
[auc_mu_weights: ]
[num_machines: 1]
[local_listen_port: 12400]
[time_out: 120]
[machine_list_filename: ]
[machines: ]
[gpu_platform_id: -1]
[gpu_device_id: -1]
[gpu_use_dp: 0]
[num_gpu: 1]

end of parameters

pandas_categorical:[]
