tree
version=v4
num_class=1
num_tree_per_iteration=1
label_index=0
max_feature_idx=17
objective=regression
feature_names=ret1min ret2min ret3min ret4min ret5min ret6min ret7min ret8min ret9min ret10min bop cci mfi rsi stochrsi slowk slowd natr
feature_infos=[-0.015703862487132403:0.016505662107974217] [-0.028611469263319811:0.024441300640612118] [-0.030190708844143876:0.025490405713077813] [-0.030750590834314306:0.031636327064266334] [-0.037514535773303104:0.031744136559100466] [-0.039597928176299146:0.036155201070735554] [-0.042941675830375226:0.033150974362844199] [-0.043023942980963792:0.049554460424419133] [-0.046340514533721566:0.047550597168044328] [-0.045435951848894485:0.04532186880838518] [-1:1] [-467.74386594852888:560.51824859751514] [0:100] [4.2158218777075263:96.271804935928571] [0:100] [0:100] [0:100] [0.00079810564550763271:1.0212911226421864]
tree_sizes=1728 1743 1743 1725 1781 1724 1726 1750 1749 1768 1755 1765 1750 1746 1716 1737 1738 1725 1757 1747 1738 1746 1756 1775 1732 1735 1756 1746 1734 1759 1737

Tree=0
num_leaves=16
num_cat=0
split_feature=0 2 7 10 15 13 17 12 3 15 9 17 14 9 13
split_gain=0.000154251 0.000141983 2.69603e-05 3.13393e-05 4.71463e-05 3.71861e-05 4.21754e-05 2.59401e-05 2.41728e-05 1.69961e-05 1.50764e-05 4.17333e-05 2.18844e-05 1.49707e-05 4.37131e-05
threshold=-0.0027985900392389902 -0.0048218791907992378 -0.0049239183323712124 -0.49305555555590991 26.726689509367656 36.415724206216446 0.23420262747010465 33.893219035826029 -0.0044818686502376406 9.3382284691363626 -0.0043639314793350583 0.22447012300674679 33.411804822291977 0.0092397166766772249 67.73190123053962
decision_type=2 2 2 2 2 2 2 2 2 2 2 2 2 2 2
left_child=1 -1 3 8 5 6 -5 -3 -2 -4 11 -11 -13 -12 -15
right_child=2 7 9 4 -6 -7 -8 -9 -10 10 13 12 -14 14 -16
leaf_value=6.0704982120457131e-05 2.8671366260636424e-05 2.4316961242849131e-05 2.6621342334981836e-06 -1.4116920067056487e-06 2.9847610962184796e-05 1.4042895444334406e-05 -3.0254094172386274e-05 -5.25628587553948e-06 8.7580484572939786e-06 -1.4508563639439959e-08 5.5348617935614477e-07 -7.3152193570726692e-06 -3.5541353645627821e-05 -3.0539097029583959e-05 2.4870687357169813e-06
leaf_weight=812 886 501 37900 2010 510 983 678 727 1954 3682 464857 521 581 603 1195
leaf_count=812 886 501 37900 2010 510 983 678 727 1954 3682 464857 521 581 603 1195
internal_value=8.18048e-07 2.82617e-05 7.09626e-07 6.86408e-06 1.35773e-06 -2.60028e-06 -8.68667e-06 6.80902e-06 1.49704e-05 6.24789e-07 4.61003e-07 -5.1242e-06 -2.21967e-05 5.18261e-07 -8.589e-06
internal_weight=518400 2040 516360 7021 4181 3671 2688 1228 2840 509339 471439 4784 1102 466655 1798
internal_count=518400 2040 516360 7021 4181 3671 2688 1228 2840 509339 471439 4784 1102 466655 1798
is_linear=0
shrinkage=1


Tree=1
num_leaves=16
num_cat=0
split_feature=5 0 9 7 17 10 8 9 1 13 7 17 13 0 17
split_gain=0.000157198 0.00012294 4.17656e-05 2.046e-05 2.83924e-05 3.38657e-05 2.11787e-05 1.48271e-05 4.0986e-05 6.09053e-05 1.90752e-05 2.56409e-05 1.39058e-05 3.49276e-05 1.5819e-05
threshold=-0.006897035768055392 -0.0027985900392389902 -0.0090281240270835266 -0.0049239183323712124 0.31404265421205702 -0.55688622754484218 -0.0052189868143693299 0.0092397166766772249 0.0032612591279160834 68.135086737391077 0.0063560852866021431 0.26193595397229036 37.501435975689496 0.00071347807503974192 0.17993463839236853
decision_type=2 2 2 2 2 2 2 2 2 2 2 2 2 2 2
left_child=1 -1 -3 4 5 6 -2 10 9 -9 12 -12 13 14 -5
right_child=3 2 -4 7 -6 -7 -8 8 -10 -11 11 -13 -14 -15 -16
leaf_value=6.5826955196030213e-05 1.8398332710191174e-05 -5.4289870728253139e-06 2.9004719919014453e-05 2.0149770929875274e-06 2.7403257696745424e-05 -3.0950599220968967e-06 -2.7970857133518503e-06 -2.3838978700078985e-05 -2.8950626134796218e-05 2.1513432230575938e-05 3.0062201199885734e-06 2.7595479793879522e-05 -3.7822046592930499e-07 -1.1688736363236699e-05 -7.1013285596891579e-06
leaf_weight=600 1723 705 704 55535 545 3271 649 521 667 686 1777 557 446473 2016 1971
leaf_count=600 1723 705 704 55535 545 3271 649 521 667 686 1777 557 446473 2016 1971
internal_value=6.1231e-15 2.79184e-05 1.17756e-05 -1.08615e-07 5.60696e-06 3.50187e-06 1.25991e-05 -1.77937e-07 -9.05654e-06 1.93712e-06 -1.45205e-07 8.87435e-06 -1.8681e-07 1.24896e-06 1.70252e-06
internal_weight=518400 2009 1409 516391 6188 5643 2372 510203 1874 1207 508329 2334 505995 59522 57506
internal_count=518400 2009 1409 516391 6188 5643 2372 510203 1874 1207 508329 2334 505995 59522 57506
is_linear=0
shrinkage=0.1


Tree=2
num_leaves=16
num_cat=0
split_feature=4 10 1 13 14 1 6 10 3 17 5 6 2 9 10
split_gain=0.000131671 7.35931e-05 6.79592e-05 1.78628e-05 1.18153e-05 1.16706e-05 2.5552e-05 5.05579e-05 2.45492e-05 2.00072e-05 1.48092e-05 1.62652e-05 1.43968e-05 1.03266e-05 1.38438e-05
threshold=-0.0062492498232169505 -0.48523206751055842 -0.0039508473121906409 30.834818675209508 66.434255639307537 0.0040999818300687671 0.004245640785874639 0.71354166666654251 0.0057254236011550228 0.24685360552194444 0.0055021325001829444 0.004245640785874639 0.0013481777106987283 0.0072626836943628934 0.75580171358621084
decision_type=2 2 2 2 2 2 2 2 2 2 2 2 2 2 2
left_child=1 2 -1 4 -2 8 -7 -8 10 -10 11 -5 -12 14 -13
right_child=3 -3 -4 5 -6 6 7 -9 9 -11 12 13 -14 -15 -16
leaf_value=6.355984886649426e-05 3.3107681144121043e-06 3.1965823115729953e-06 1.5277366880146963e-05 -1.9268760347136378e-07 -1.208772891208021e-05 7.4900169196801356e-06 3.2723328972248587e-06 -3.8152946480437031e-05 4.8768344827445339e-07 2.7675350559972146e-05 -5.8764986096633876e-06 -8.8268126930656596e-07 1.2637230240735373e-05 -1.5188601459807455e-05 -1.3760688528140234e-05
leaf_weight=642 18616 864 534 486243 512 667 602 577 513 573 563 3848 1654 926 1066
leaf_count=642 18616 864 534 486243 512 667 602 577 513 573 563 3848 1654 926 1066
internal_value=-3.19545e-13 2.53556e-05 4.16357e-05 -1.00173e-07 2.8986e-06 -2.15533e-07 -8.15193e-06 -1.70011e-05 -1.85959e-07 1.48326e-05 -2.18955e-07 -2.55695e-07 7.93573e-06 -5.50173e-06 -3.67632e-06
internal_weight=518400 2040 1176 516360 19128 497232 1846 1179 495386 1086 494300 492083 2217 5840 4914
internal_count=518400 2040 1176 516360 19128 497232 1846 1179 495386 1086 494300 492083 2217 5840 4914
is_linear=0
shrinkage=0.1


Tree=3
num_leaves=16
num_cat=0
split_feature=5 0 9 7 17 0 6 13 3 9 13 1 7 0 15
split_gain=0.000108084 8.59754e-05 3.38624e-05 1.47722e-05 2.2664e-05 2.66811e-05 1.62388e-05 1.32492e-05 1.19277e-05 1.17393e-05 3.48014e-05 4.30861e-05 1.59206e-05 2.37049e-05 1.74726e-05
threshold=-0.006897035768055392 -0.0027985900392389902 -0.0090281240270835266 -0.0049239183323712124 0.31404265421205702 -0.0011957547456898363 -0.00592619499216429 25.147990222192394 -0.0016053029568088848 0.0092397166766772249 64.921257457066318 0.0032612591279160834 0.0063560852866021431 0.00022311071370095806 91.877167146506324
decision_type=2 2 2 2 2 2 2 2 2 2 2 2 2 2 2
left_child=1 -1 -3 4 5 7 -7 -2 -8 12 -11 -12 -5 -14 -15
right_child=3 2 -4 9 -6 6 8 -9 -10 10 11 -13 13 14 -16
leaf_value=5.4851151634466086e-05 2.4430220021213547e-05 -5.8411765701052036e-06 2.5163939227791264e-05 -1.5785057342845877e-07 2.4240256117507572e-05 -1.369108477413464e-05 6.4357476760930201e-06 6.793645953427765e-06 -7.7141257631420177e-06 -3.0425745305357951e-05 1.4905273027672675e-05 -2.1256731201081015e-05 2.2680199018641217e-05 9.9052918288681667e-06 -1.149440532902369e-05
leaf_weight=600 604 705 704 505995 545 929 1766 1445 899 507 813 554 756 932 646
leaf_count=600 604 705 704 505995 545 929 1766 1445 899 507 813 554 756 932 646
internal_value=1.54107e-13 2.31499e-05 9.65038e-06 -9.00635e-08 4.7665e-06 2.88573e-06 -2.3062e-06 1.19925e-05 1.66249e-06 -1.48966e-07 -8.04914e-06 2.50006e-07 -1.19842e-07 8.12021e-06 1.14471e-06
internal_weight=518400 2009 1409 516391 6188 5643 3594 2049 2665 510203 1874 1367 508329 2334 1578
internal_count=518400 2009 1409 516391 6188 5643 3594 2049 2665 510203 1874 1367 508329 2334 1578
is_linear=0
shrinkage=0.1


Tree=4
num_leaves=16
num_cat=0
split_feature=4 0 1 15 0 4 0 17 2 0 4 0 15 1 0
split_gain=8.97666e-05 5.51753e-05 4.47532e-05 1.59821e-05 1.71632e-05 1.09319e-05 1.94424e-05 1.44346e-05 1.24807e-05 2.74509e-05 1.12266e-05 1.40792e-05 1.09341e-05 2.09745e-05 1.24111e-05
threshold=-0.0062492498232169505 -0.0027985900392389902 -0.0031594444378827964 9.3382284691363626 -0.0014066071394581157 0.00011437751865639446 -0.00047239770525375752 0.10786798960341872 -0.0010314013795892916 0.00047513698013501587 0.0027935170854895834 -0.0011957547456898363 90.660262095058187 0.0032612591279160834 0.0022934593713092037
decision_type=2 2 2 2 2 2 2 2 2 2 2 2 2 2 2
left_child=1 -1 -3 4 -2 7 10 -5 9 -8 -7 -12 14 -14 -10
right_child=3 2 -4 5 -6 6 8 -9 12 -11 11 -13 13 -15 -16
leaf_value=4.5121658234151711e-05 1.2637206881094673e-05 -1.1859584516671507e-05 2.4596693803814801e-05 -3.0858424569294942e-07 1.4363338411729374e-06 2.2713928766035025e-06 -1.0664080859217869e-06 -2.181104152202011e-06 2.7531461805668722e-07 -2.6656767197924381e-05 1.9487591097435797e-05 3.5674352135013877e-06 -1.1262291764940265e-06 -1.75299453209857e-05 7.4797028216701527e-06
leaf_weight=645 1418 568 827 188910 38818 20112 1667 52638 166709 560 890 1478 39939 795 2426
leaf_count=645 1418 568 827 188910 38818 20112 1667 52638 166709 560 890 1478 39939 795 2426
internal_value=8.5959e-14 2.09356e-05 9.75285e-06 -8.2711e-08 1.83108e-06 -2.4444e-07 2.41797e-07 -7.16643e-07 -5.45936e-08 -7.50134e-06 3.03821e-06 9.55094e-06 2.44267e-08 -1.44638e-06 3.78651e-07
internal_weight=518400 2040 1395 516360 40236 476124 234576 241548 212096 2227 22480 2368 209869 40734 169135
internal_count=518400 2040 1395 516360 40236 476124 234576 241548 212096 2227 22480 2368 209869 40734 169135
is_linear=0
shrinkage=0.1


Tree=5
num_leaves=16
num_cat=0
split_feature=5 10 16 7 13 3 17 10 5 0 13 13 9 16 0
split_gain=7.46909e-05 7.10891e-05 3.19137e-05 1.10188e-05 1.90404e-05 2.39346e-05 2.24325e-05 1.71532e-05 1.78583e-05 2.14406e-05 1.74217e-05 1.36678e-05 9.37629e-06 2.97268e-05 1.33013e-05
threshold=-0.006897035768055392 -0.74146518589360089 10.255665174261983 -0.0049239183323712124 39.147171763736289 -0.00068729461750560706 0.24685360552194444 -0.61729620663356044 -0.0047640765701209556 -0.00031215029962622371 29.730533158481872 25.147990222192394 0.0092397166766772249 89.935046375161761 0.0028955979991385221
decision_type=2 2 2 2 2 2 2 2 2 2 2 2 2 2 2
left_child=1 -1 -3 4 5 7 -6 11 10 -10 -9 -2 14 -14 -5
right_child=3 2 -4 12 6 -7 -8 8 9 -11 -12 -13 13 -15 -16
leaf_value=5.120010225450369e-05 2.402458305421823e-05 -1.0777767728993519e-05 1.9459289694027506e-05 -1.2575355877857208e-07 3.5159630360254703e-06 -1.8688496709615666e-05 3.0747455051536317e-05 -1.920224371044068e-05 -6.3593085089731165e-06 1.8227146011094308e-05 4.6029974866684701e-06 5.1811748084386256e-06 -1.8611760637897484e-05 6.6973832055691989e-06 9.9484766907022433e-06
leaf_weight=517 583 557 935 507015 703 532 531 774 677 745 510 1133 1028 846 1314
leaf_count=517 583 557 935 507015 703 532 531 774 677 745 510 1133 1028 846 1314
internal_value=6.4637e-14 1.92442e-05 8.17106e-06 -7.48689e-08 4.11957e-06 1.35109e-06 1.52339e-05 3.762e-06 -1.19772e-06 6.52178e-06 -9.74689e-06 1.15831e-05 -1.25741e-07 -7.18618e-06 -9.97123e-08
internal_weight=518400 2009 1492 516391 6188 4954 1234 4422 2706 1422 1284 1716 510203 1874 508329
internal_count=518400 2009 1492 516391 6188 4954 1234 4422 2706 1422 1284 1716 510203 1874 508329
is_linear=0
shrinkage=0.1


Tree=6
num_leaves=16
num_cat=0
split_feature=4 16 10 8 10 6 3 14 5 7 3 10 3 3 8
split_gain=6.17297e-05 6.097e-05 4.4533e-05 1.04286e-05 3.42506e-05 1.80087e-05 1.60741e-05 1.59944e-05 2.10009e-05 1.67943e-05 1.56231e-05 2.2893e-05 1.2487e-05 2.08251e-05 1.23625e-05
threshold=-0.0062492498232169505 21.109547871201148 -0.48523206751055842 -0.0047776681039217719 -0.61729620663356044 -0.00592619499216429 -0.0017005959917219535 8.15062254765955 -0.0047640765701209556 -0.0063004405371702701 -0.0038936502627426868 -0.2609012549130163 -0.0020095900284324837 -0.00016678334249281554 -0.0058063352295306117
decision_type=2 2 2 2 2 2 2 2 2 2 2 2 2 2 2
left_child=1 2 -1 4 5 -2 -7 9 -9 -6 11 -5 -10 -14 -11
right_child=3 -3 -4 10 7 6 -8 8 12 14 -12 -13 13 -15 -16
leaf_value=2.1199224408408033e-05 2.625495489576466e-05 4.2192331886072774e-05 -1.5092475753010794e-05 -2.8277414878788127e-06 -7.8051764068045208e-06 1.268709033324338e-05 -7.7658888994621964e-06 -1.9494915629463929e-05 1.0109241018617864e-05 2.1939063751572344e-05 -9.0022939497626472e-08 -2.6862030161513178e-05 -1.596362435320088e-05 6.3883881595021843e-06 4.0640703885433178e-06
leaf_weight=773 705 666 601 1656 707 1607 505 822 714 609 505775 521 906 772 1061
leaf_count=773 705 666 601 1656 707 1607 505 822 714 609 505775 521 906 772 1061
internal_value=1.43305e-14 1.7361e-05 5.32491e-06 -6.85888e-08 3.42444e-06 1.24161e-05 7.79658e-06 -1.10596e-06 -5.70567e-06 5.11342e-06 -1.26408e-07 -8.57963e-06 -9.67061e-07 -5.6801e-06 1.05826e-05
internal_weight=518400 2040 1374 516360 8408 2817 2112 5591 3214 2377 507952 2177 2392 1678 1670
internal_count=518400 2040 1374 516360 8408 2817 2112 5591 3214 2377 507952 2177 2392 1678 1670
is_linear=0
shrinkage=0.1


Tree=7
num_leaves=16
num_cat=0
split_feature=4 16 10 15 3 17 8 10 1 6 6 14 4 1 8
split_gain=5.0001e-05 4.93857e-05 3.60717e-05 1.20037e-05 1.28042e-05 3.05911e-05 1.02382e-05 1.58518e-05 9.49826e-06 2.21424e-05 9.48975e-06 2.15767e-05 8.13629e-06 1.1156e-05 5.10692e-05
threshold=-0.0062492498232169505 21.109547871201148 -0.48523206751055842 9.3382284691363626 -0.0038936502627426868 0.23420262747010465 -0.0035249432850754654 -0.60237364464475851 -0.0031594444378827964 -0.0010886106941060401 -0.005161877246862955 1.8035125709285298 6.6133467600981724e-05 0.0040999818300687671 0.0086316227227702953
decision_type=2 2 2 2 2 2 2 2 2 2 2 2 2 2 2
left_child=1 2 -1 10 5 6 7 -5 9 -6 11 -2 -10 -14 -15
right_child=3 -3 -4 4 8 -7 -8 -9 12 -11 -12 -13 13 14 -16
leaf_value=1.9079301639895436e-05 1.7004275508818374e-05 3.7973098120119862e-05 -1.3583228998676245e-05 1.8428256386831078e-05 1.6405427452507566e-05 -2.2449465177961819e-05 -8.3015612647146065e-06 -5.3394710343260467e-06 -6.1755581923252278e-07 -9.2534757418371544e-06 1.2840087390239712e-06 -7.9711377364417627e-06 2.6996427364907955e-07 3.59768829602616e-06 -3.4179124163431875e-05
leaf_weight=773 1098 666 601 549 999 875 843 574 227386 507 38633 505 242699 1178 514
leaf_count=773 1098 666 601 549 999 875 843 574 227386 507 38633 505 242699 1178 514
internal_value=5.63556e-14 1.56249e-05 4.79242e-06 -6.17299e-08 -2.01891e-07 -6.89519e-06 2.74874e-08 6.27984e-06 -1.61713e-07 7.76727e-06 1.59684e-06 9.13616e-06 -1.87024e-07 2.13552e-07 -7.87825e-06
internal_weight=518400 2040 1374 516360 476124 2841 1966 1123 473283 1506 40236 1603 471777 244391 1692
internal_count=518400 2040 1374 516360 476124 2841 1966 1123 473283 1506 40236 1603 471777 244391 1692
is_linear=0
shrinkage=0.1


Tree=8
num_leaves=16
num_cat=0
split_feature=5 10 12 10 1 17 2 17 13 10 7 13 2 0 13
split_gain=4.70856e-05 4.75175e-05 2.59759e-05 8.68937e-06 3.05419e-05 5.19001e-05 2.84914e-05 1.68045e-05 2.53346e-05 5.32498e-05 4.39427e-05 2.11432e-05 1.41977e-05 1.63643e-05 1.3435e-05
threshold=-0.006897035768055392 -0.74146518589360089 18.470227201893888 -0.38188976377978689 -0.0017756265563234617 0.20274240001161861 0.0027868220897956379 0.28259086629855407 49.242455076393661 0.55306364403885711 -0.00067698513228098267 58.300645424003598 -0.0025830590055789244 0.00028369023013608002 37.706330783017314
decision_type=2 2 2 2 2 2 2 2 2 2 2 2 2 2 2
left_child=1 -1 -3 6 5 -5 14 12 10 11 -9 -10 13 -6 -2
right_child=3 2 -4 4 7 -7 -8 8 9 -11 -12 -13 -14 -15 -16
leaf_value=4.1405755797925954e-05 2.1065111784654672e-06 2.132619963468915e-05 -5.3036225851152469e-06 -6.7399435903286128e-07 -2.2877174486580776e-06 -2.6856990218646342e-05 2.173875500411889e-05 1.090525164942799e-05 4.2101793474618817e-05 -5.4301204648816465e-06 -2.7397599987762078e-05 1.5470146488283898e-05 -2.9716104960519989e-07 -2.4877431311104818e-05 -1.5307506406191687e-08
leaf_weight=517 37529 646 846 2145 891 1170 629 747 529 861 500 683 324522 501 145684
leaf_count=517 37529 646 846 2145 891 1170 629 747 529 861 500 683 324522 501 145684
internal_value=-1.61471e-13 1.52796e-05 6.22645e-06 -5.94447e-08 -3.64444e-07 -9.91505e-06 4.92264e-07 -2.68281e-07 6.81026e-06 1.35854e-05 -4.45275e-06 2.7094e-05 -3.40388e-07 -1.04181e-05 4.19322e-07
internal_weight=518400 2009 1492 516391 332549 3315 183842 329234 3320 2073 1247 1212 325914 1392 183213
internal_count=518400 2009 1492 516391 332549 3315 183842 329234 3320 2073 1247 1212 325914 1392 183213
is_linear=0
shrinkage=0.1


Tree=9
num_leaves=16
num_cat=0
split_feature=0 2 14 1 10 2 13 2 17 10 10 1 0 17 3
split_gain=3.42228e-05 4.79252e-05 3.08239e-05 1.69643e-05 4.29891e-05 3.39372e-05 1.09062e-05 1.16719e-05 9.1146e-06 6.44987e-06 6.06689e-06 2.26671e-05 4.29285e-05 1.6861e-05 3.26839e-05
threshold=-0.0027985900392389902 -0.0048218791907992378 7.2771040628572292 -0.0039508473121906409 -0.5646791708807104 -0.0048218791907992378 30.834818675209508 -0.0038909351076937266 0.20274240001161861 0.99218749999983136 -0.38188976377978689 -0.0011749794172886683 0.00050572644527924215 0.28259086629855407 -0.00076220901055762391
decision_type=2 2 2 2 2 2 2 2 2 2 2 2 2 2 2
left_child=1 -1 -3 4 -2 -5 7 -7 -9 10 -8 12 -12 -13 -15
right_child=3 2 -4 5 -6 6 9 8 -10 -11 11 13 -14 14 -16
leaf_value=3.1775650314992008e-05 7.7884746362393715e-06 -1.4574993260488391e-05 1.7154656447819187e-05 2.1993684797227998e-05 -3.3433851805752699e-05 1.6812027216425302e-05 2.4169567020623798e-07 2.3663491416216442e-06 -8.4029331288771072e-06 1.3249802630652386e-06 -2.7454951985246284e-06 -4.4674668311131668e-07 -2.3937578380701268e-05 2.6196292607678441e-05 1.5306684708160226e-06
leaf_weight=812 502 646 582 699 510 539 170567 17431 823 28147 6295 286569 1127 687 2464
leaf_count=812 502 646 582 699 510 539 170567 17431 823 28147 6295 286569 1127 687 2464
internal_value=1.54726e-13 1.29267e-05 4.63e-07 -5.10696e-08 -1.29856e-05 -2.56698e-08 -5.55766e-08 2.30905e-06 1.88081e-06 -1.45196e-07 -2.33672e-07 -5.06545e-07 -5.96343e-06 -3.66752e-07 6.90842e-06
internal_weight=518400 2040 1228 516360 1012 515348 514649 18793 18254 495856 467709 297142 7422 289720 3151
internal_count=518400 2040 1228 516360 1012 515348 514649 18793 18254 495856 467709 297142 7422 289720 3151
is_linear=0
shrinkage=0.1


Tree=10
num_leaves=16
num_cat=0
split_feature=5 10 16 6 1 8 10 4 1 1 6 5 10 8 2
split_gain=3.40278e-05 3.4926e-05 2.45257e-05 7.08488e-06 8.60416e-06 4.04746e-05 1.58757e-05 1.58524e-05 1.22527e-05 1.30072e-05 9.0174e-06 1.77166e-05 1.82565e-05 1.42593e-05 9.46009e-06
threshold=-0.006897035768055392 -0.74146518589360089 10.255665174261983 -0.0074744718574202831 0.0040999818300687671 0.0086316227227702953 0.66328248471135243 0.0050611232914269397 0.00043585548638636068 0.0019949162534151914 0.0032997211373060335 0.0015109248714798575 -0.67683725528794869 0.0052153879815791679 -0.00076408505603386956
decision_type=2 2 2 2 2 2 2 2 2 2 2 2 2 2 2
left_child=1 -1 -3 -2 7 6 -6 10 -9 -10 13 -12 -13 -5 -14
right_child=3 2 -4 4 5 -7 -8 8 9 -11 11 12 14 -15 -16
leaf_value=3.5387994595996977e-05 1.1835491614418973e-05 -1.1383585922635045e-05 1.5123471717927903e-05 -3.3981086605114097e-08 -1.1274268929373222e-05 -3.0571765518066996e-05 1.1303765406593138e-05 -5.9688318885063851e-06 1.9874111324002977e-05 4.5784760151255263e-06 -1.859991063506185e-05 1.2943721742864951e-05 -1.5136333395100968e-05 1.1495631998704359e-05 -2.1130870158290891e-06
leaf_weight=517 501 557 935 496071 512 518 795 559 908 1434 658 791 585 1075 11984
leaf_count=517 501 557 935 496071 512 518 795 559 908 1434 658 791 585 1075 11984
internal_value=6.32423e-14 1.29892e-05 5.22774e-06 -5.05341e-08 -6.20771e-08 -6.91622e-06 2.45912e-06 -3.77439e-08 7.33356e-06 1.05086e-05 -7.95781e-08 -2.58084e-06 -1.79188e-06 -9.05011e-09 -2.71923e-06
internal_weight=518400 2009 1492 516391 515890 1825 1307 514065 2901 2342 511164 14018 13360 497146 12569
internal_count=518400 2009 1492 516391 515890 1825 1307 514065 2901 2342 511164 14018 13360 497146 12569
is_linear=0
shrinkage=0.1


Tree=11
num_leaves=16
num_cat=0
split_feature=5 17 10 15 0 8 15 2 5 0 2 2 17 7 2
split_gain=2.75625e-05 2.90503e-05 5.24045e-05 6.88066e-06 1.05547e-05 9.24139e-06 8.0162e-06 7.77371e-06 7.54397e-06 1.19364e-05 1.53556e-05 1.33822e-05 1.10498e-05 2.06927e-05 2.64624e-05
threshold=-0.006897035768055392 0.19208344157321464 -0.47680488041112984 9.3382284691363626 0.00073146192234674345 -0.0044157623640852508 3.2744222453497644 -0.0025830590055789244 -0.00022489411943288348 -0.00044466383961144768 -0.0018849687252915357 0.0030368474719676413 0.26193595397229036 0.008132054753932973 0.0011861458762744139
decision_type=2 2 2 2 2 2 2 2 2 2 2 2 2 2 2
left_child=1 -1 -3 4 5 6 -2 -7 -5 11 -11 -10 -12 14 -14
right_child=3 2 -4 8 -6 7 -8 -9 9 10 12 -13 13 -15 -16
leaf_value=-8.7642464754191009e-06 1.7097206634260832e-05 3.7134260700597354e-05 -3.4286595109733756e-07 -6.7246381029841916e-07 -1.1170421582065056e-05 -7.7571246940251542e-06 4.2012147680049025e-06 1.1933161745800843e-06 1.6485653840939457e-06 -1.4047253842547008e-05 -9.6922189632108908e-08 1.6679296126309676e-05 -5.8031319024571592e-06 -9.1241494971319397e-06 1.8854376144936629e-05
leaf_weight=516 577 761 732 175546 677 998 2928 35056 33490 784 263030 603 628 656 1418
leaf_count=516 577 761 732 175546 677 998 2928 35056 33490 784 263030 603 628 656 1418
internal_value=-1.18602e-13 1.16903e-05 1.87597e-05 -4.54809e-08 1.21024e-06 1.42212e-06 6.32418e-06 9.45562e-07 -1.51592e-07 1.52581e-07 -7.27941e-08 1.91441e-06 -3.15647e-08 6.33075e-06 1.1286e-05
internal_weight=518400 2009 1493 516391 40236 39559 3505 36054 476155 300609 266516 34093 265732 2702 2046
internal_count=518400 2009 1493 516391 40236 39559 3505 36054 476155 300609 266516 34093 265732 2702 2046
is_linear=0
shrinkage=0.1


Tree=12
num_leaves=16
num_cat=0
split_feature=5 14 10 15 0 2 9 6 8 3 5 0 0 13 17
split_gain=2.23256e-05 3.60631e-05 2.7972e-05 6.17219e-06 1.56154e-05 3.0502e-05 1.21471e-05 2.00929e-05 2.62128e-05 1.60312e-05 1.29609e-05 1.62012e-05 1.2112e-05 1.63644e-05 1.20901e-05
threshold=-0.006897035768055392 14.928087236263865 -0.47680488041112984 17.893118853783925 0.00051588883733155743 -0.0018096963191623348 -0.0043639314793350583 -0.0029743568683227024 -0.0041365740141795495 -0.0022594400205698801 -0.0028930238732623455 -0.0027985900392389902 -0.001751563863263583 31.336595374307198 0.19208344157321464
decision_type=2 2 2 2 2 2 2 2 2 2 2 2 2 2 2
left_child=1 2 -1 4 12 -6 7 9 -9 -5 -8 -12 13 -2 -11
right_child=3 -3 -4 6 5 -7 10 8 -10 14 11 -13 -14 -15 -16
leaf_value=1.2734443702001639e-05 1.9909081880366231e-06 3.2931415765857493e-05 -1.5976061045147826e-05 1.0761206219302262e-05 -2.1808251561626299e-05 -1.4489636441102677e-06 -5.236085913307798e-06 -2.7839416800481175e-05 -1.8897324441100171e-06 4.3739481063203881e-06 1.6843388970444529e-05 -1.1679824415160365e-07 9.2301851408757921e-07 2.1540608542981564e-05 -1.5572448027147143e-05
leaf_weight=953 1177 529 527 877 810 8041 4960 760 798 537 564 412268 84226 673 700
leaf_count=953 1177 529 527 877 810 8041 4960 760 798 537 564 412268 84226 673 700
internal_value=-7.15982e-14 1.05213e-05 2.51118e-06 -4.09327e-08 6.87544e-07 -3.31215e-06 -2.05009e-07 -5.93145e-06 -1.45481e-05 4.18957e-07 -1.54679e-07 -9.36277e-08 1.09882e-06 9.10277e-06 -6.91342e-06
internal_weight=518400 2009 1480 516391 94927 8851 421464 3672 1558 2114 417792 412832 86076 1850 1237
internal_count=518400 2009 1480 516391 94927 8851 421464 3672 1558 2114 417792 412832 86076 1850 1237
is_linear=0
shrinkage=0.1


Tree=13
num_leaves=16
num_cat=0
split_feature=5 14 10 6 13 17 17 5 10 8 9 2 10 7 4
split_gain=1.80838e-05 2.92304e-05 2.3417e-05 5.68731e-06 6.33166e-06 2.77746e-05 1.57795e-05 8.15388e-06 1.4842e-05 1.25498e-05 5.56335e-06 3.30633e-05 3.54772e-05 3.00923e-05 1.60075e-05
threshold=-0.006897035768055392 15.694684356231772 -0.47680488041112984 -0.0074744718574202831 29.059210888476958 0.19727687202399993 0.17024944635530384 -0.0042796034886105607 -0.59532690128514387 -0.0047776681039217719 0.0061879449462397549 -0.00054479424342046545 0.87011764590832474 0.0063560852866021431 0.0050611232914269397
decision_type=2 2 2 2 2 2 2 2 2 2 2 2 2 2 2
left_child=1 2 -1 -2 5 6 7 8 -5 -9 13 -12 -13 14 -6
right_child=3 -3 -4 4 10 -7 -8 9 -10 -11 11 12 -14 -15 -16
leaf_value=1.1796275331987377e-05 1.0612523304056859e-05 3.009459248364266e-05 -1.4259239870901493e-05 5.4507950207644986e-06 -1.2671312545834722e-07 -1.8642531502008653e-05 2.0585397298730614e-05 1.4850967904205464e-05 -1.5337990181454397e-05 2.3467478429212004e-06 -2.4846299156214265e-05 2.2690186826526105e-06 -2.4359635422440212e-05 2.0347848368019112e-05 1.0611990490869746e-05
leaf_weight=958 501 512 539 697 495064 612 500 877 677 9467 628 4695 560 721 1392
leaf_count=958 501 512 539 697 495064 612 500 877 677 9467 628 4695 560 721 1392
internal_value=-4.71926e-14 9.46916e-06 2.4149e-06 -3.68394e-08 -4.71814e-08 2.14652e-06 3.18784e-06 2.4455e-06 -4.7923e-06 3.4069e-06 -1.03129e-07 -3.16026e-06 -5.68669e-07 -6.69549e-08 -9.66032e-08
internal_weight=518400 2009 1497 516391 515890 12830 12218 11718 1374 10344 503060 5883 5255 497177 496456
internal_count=518400 2009 1497 516391 515890 12830 12218 11718 1374 10344 503060 5883 5255 497177 496456
is_linear=0
shrinkage=0.1


Tree=14
num_leaves=16
num_cat=0
split_feature=4 16 12 6 10 6 10 17 12 0 11 4 8 16 5
split_gain=1.55694e-05 4.08133e-05 6.93064e-05 6.05348e-06 1.84077e-05 1.35512e-05 1.78576e-05 1.63072e-05 1.8386e-05 1.75854e-05 1.61597e-05 1.19037e-05 1.34244e-05 2.31957e-05 1.95815e-05
threshold=-0.0062492498232169505 21.109547871201148 20.464271744994594 0.004245640785874639 -0.66222222222220595 0.005961046612639854 0.85545373205263608 0.15308623097577079 72.435010636523785 0.00085482800804770342 99.382523104908401 0.0050611232914269397 0.0052153879815791679 79.974593877470326 0.0023813479434778855
decision_type=2 2 2 2 2 2 2 2 2 2 2 2 2 2 2
left_child=1 2 -1 11 -5 -6 7 -7 10 -10 -9 12 -2 -14 -15
right_child=3 -3 -4 4 5 6 -8 8 9 -11 -12 -13 13 14 -16
leaf_value=1.6723627953198343e-05 -3.6126841673313884e-08 2.9035136723499868e-05 -2.9383510486627362e-05 1.5709159634839877e-05 -6.5842140342741738e-06 1.9300524027573567e-05 -1.6268928281469139e-05 -1.4663035956216367e-06 -1.97920252748513e-05 2.6092552485036246e-06 2.1280759447871668e-05 1.390623080707998e-05 2.4992085945683144e-05 -1.3501595897060063e-05 1.0424748148870359e-05
leaf_weight=842 503768 666 532 527 5663 567 508 649 620 806 602 616 581 551 902
leaf_count=842 503768 666 532 527 5663 567 508 649 620 806 602 616 581 551 902
internal_value=-2.62074e-16 8.71896e-06 -1.12863e-06 -3.44463e-08 -2.47812e-06 -3.49615e-06 1.16476e-06 3.89482e-06 6.31823e-07 -7.13043e-06 9.47992e-06 1.3528e-08 -3.39145e-09 8.1043e-06 1.35151e-06
internal_weight=518400 2040 1374 516360 9942 9415 3752 3244 2677 1426 1251 506418 505802 2034 1453
internal_count=518400 2040 1374 516360 9942 9415 3752 3244 2677 1426 1251 506418 505802 2034 1453
is_linear=0
shrinkage=0.1


Tree=15
num_leaves=16
num_cat=0
split_feature=0 13 15 1 2 2 13 2 4 12 10 9 11 1 16
split_gain=1.39453e-05 3.21762e-05 4.65842e-05 1.68914e-05 3.48593e-05 2.34317e-05 6.22174e-06 8.7782e-06 8.92503e-06 2.23632e-05 1.78212e-05 7.82956e-06 6.84822e-06 6.71366e-06 9.138e-06
threshold=-0.0027985900392389902 34.924954199680634 13.364403275089144 -0.0039508473121906409 -0.0048218791907992378 -0.0048218791907992378 30.834818675209508 -0.0038909351076937266 -0.0033330329347010519 16.053116070761579 -0.46874999999992301 -0.0033874852879769986 -126.86673230854728 -0.0016134767509771717 11.761093693246034
decision_type=2 2 2 2 2 2 2 2 2 2 2 2 2 2 2
left_child=1 2 -1 4 -2 -5 7 -7 9 12 -11 13 -9 14 -10
right_child=3 -3 -4 5 -6 6 -8 8 11 10 -12 -13 -14 -15 -16
leaf_value=1.1599285644871098e-07 -3.1425748632206856e-05 -4.9128287181469992e-06 4.191526046581578e-05 1.8289287970531892e-05 5.6937873579507083e-06 1.4331241534756695e-05 -9.9794767244882747e-08 -6.3608310970434322e-07 -1.0486531222973959e-05 -2.5928655703125344e-06 -2.5734122463844398e-05 9.2012415054060398e-07 1.3118695840123862e-05 8.2290681006190231e-06 7.6438132319237214e-06
leaf_weight=554 508 972 514 699 504 539 495856 977 518 728 613 10998 575 3245 600
leaf_count=554 508 972 514 699 504 539 495856 977 518 728 613 10998 575 3245 600
internal_value=5.81924e-14 8.25168e-06 2.02329e-05 -3.26001e-08 -1.29393e-05 -7.25489e-09 -3.21054e-08 1.75389e-06 1.38251e-06 -3.71269e-06 -1.31712e-05 2.34211e-06 4.45992e-06 5.92656e-06 -7.56472e-07
internal_weight=518400 2040 1068 516360 1012 515348 514649 18793 18254 2893 1341 15361 1552 4363 1118
internal_count=518400 2040 1068 516360 1012 515348 514649 18793 18254 2893 1341 15361 1552 4363 1118
is_linear=0
shrinkage=0.1


Tree=16
num_leaves=16
num_cat=0
split_feature=5 12 11 1 8 8 0 4 17 17 13 12 16 11 0
split_gain=1.21953e-05 2.75821e-05 5.11945e-05 5.18873e-06 3.43459e-05 1.60533e-05 1.27624e-05 3.60852e-05 1.84604e-05 8.7421e-06 3.45347e-05 3.4341e-05 1.85442e-05 2.46281e-05 1.93841e-05
threshold=-0.006897035768055392 26.831503672477755 -158.06507966311159 0.0040999818300687671 0.0086316227227702953 0.0025608174361266838 0.0022934593713092037 0.0035833640990836639 0.22447012300674679 0.20913108256100257 33.017864639432979 21.738120692539287 13.871095825050508 -73.135104342421002 -0.001751563863263583
decision_type=2 2 2 2 2 2 2 2 2 2 2 2 2 2 2
left_child=1 2 -1 6 5 -5 9 8 -8 -2 11 -11 -12 -14 -15
right_child=3 -3 -4 4 -6 -7 7 -9 -10 10 12 -13 13 14 -16
leaf_value=-3.9296020078375333e-06 2.4059935797515422e-08 -7.9186040697884777e-06 3.5926779886230378e-05 -1.0529955278548978e-05 -2.7159999085790656e-05 1.2027425618074983e-05 -9.3884137080303551e-06 2.3321769793906105e-05 1.2158143655335263e-05 -1.580561172374257e-06 1.547362856763357e-05 -3.5402543499242855e-05 -1.4540911627119997e-05 1.0072436567988292e-05 -1.9577856837247586e-06
leaf_weight=628 497324 719 662 518 518 807 1087 889 627 593 650 608 1364 1550 9856
leaf_count=628 497324 719 662 518 518 807 1087 889 627 593 650 608 1364 1550 9856
internal_value=-7.30948e-14 7.77614e-06 1.65238e-05 -3.02529e-08 -5.32678e-06 3.20877e-06 -1.12818e-08 6.97311e-06 -1.50645e-06 -4.67942e-08 -2.45685e-06 -1.87028e-05 -1.00295e-06 -1.84162e-06 -3.22958e-07
internal_weight=518400 2009 1290 516391 1843 1325 514548 2603 1714 511945 14621 1201 13420 12770 11406
internal_count=518400 2009 1290 516391 1843 1325 514548 2603 1714 511945 14621 1201 13420 12770 11406
is_linear=0
shrinkage=0.1


Tree=17
num_leaves=16
num_cat=0
split_feature=2 14 10 8 3 16 12 3 17 3 14 14 17 15 10
split_gain=1.11051e-05 5.33744e-05 3.13106e-05 5.65481e-06 2.48672e-05 2.62591e-05 2.55277e-05 2.34283e-05 3.23361e-05 2.1855e-05 2.12048e-05 1.38654e-05 8.98114e-06 9.98622e-06 5.24777e-06
threshold=-0.0048218791907992378 5.5555769770855887 -0.76416049194160618 -0.0052189868143693299 -0.0010853482931654221 16.935346351231221 30.996914000977593 -0.0038936502627426868 0.23420262747010465 -0.00015728445126939047 8.15062254765955 19.574977426413387 0.1292539218527429 8.3829752262535955 0.99218749999983136
decision_type=2 2 2 2 2 2 2 2 2 2 2 2 2 2 2
left_child=1 2 -1 4 5 10 -7 8 -5 -6 12 -12 -2 -14 -9
right_child=3 -3 -4 7 9 6 -8 14 -10 -11 11 -13 13 -15 -16
leaf_value=1.6530013389383992e-05 -3.1068688393497725e-06 3.3941011145233281e-05 -1.3732415418829585e-05 -3.5587608424781134e-06 -2.3012293131052566e-05 3.2765381778150864e-05 5.6064924488507507e-06 -9.9260218833003011e-08 -3.1518564255570496e-05 2.095826285236043e-06 -2.0002538733762739e-05 3.2443838724123031e-07 1.6975966961189836e-05 2.176548306108734e-06 1.3037548685819297e-06
leaf_weight=542 625 551 926 1757 619 626 774 479172 541 788 577 802 1082 788 28230
leaf_count=542 625 551 926 1757 619 626 774 479172 541 788 577 802 1082 788 28230
internal_value=1.11617e-13 7.40196e-06 -2.55923e-06 -2.89408e-08 2.86147e-06 6.01263e-06 1.77504e-05 -6.68276e-08 -1.01411e-05 -8.95032e-06 1.77079e-06 -8.18076e-06 7.27107e-06 1.07396e-05 -2.12016e-08
internal_weight=518400 2019 1468 516381 6681 5274 1400 509700 2298 1407 3874 1379 2495 1870 507402
internal_count=518400 2019 1468 516381 6681 5274 1400 509700 2298 1407 3874 1379 2495 1870 507402
is_linear=0
shrinkage=0.1


Tree=18
num_leaves=16
num_cat=0
split_feature=0 14 1 1 10 3 7 6 13 13 0 2 3 1 3
split_gain=9.4848e-06 4.153e-05 2.99922e-05 1.38661e-05 3.15514e-05 1.99415e-05 7.66846e-06 6.16356e-06 2.00094e-05 6.33231e-06 1.63475e-05 1.66387e-05 1.1611e-05 1.31732e-05 1.02632e-05
threshold=-0.0027985900392389902 5.5555769770855887 -0.0039508473121906409 -0.0039508473121906409 -0.5646791708807104 -0.0056416063009483422 -0.0080482280151043511 -0.00592619499216429 35.453079239562342 37.501435975689496 0.00051588883733155743 -0.0016267684819533665 -0.0038936502627426868 -0.001872718907618087 -0.0017562166791057485
decision_type=2 2 2 2 2 2 2 2 2 2 2 2 2 2 2
left_child=1 2 -1 4 -2 -5 -7 8 -8 10 -9 -12 13 -11 -13
right_child=3 -3 -4 5 -6 6 7 9 -10 12 11 14 -14 -15 -16
leaf_value=8.4146213594868118e-06 6.0763871219190394e-06 2.5283176802498252e-05 -2.2798138153126096e-05 1.5354686253440981e-05 -2.9238888742341653e-05 -1.0073254664771491e-05 -1.7355020461652741e-06 1.3300662797607194e-06 2.2680084079404903e-05 5.6298657510165926e-07 -2.0350224558475473e-05 1.0214268854649148e-05 -1.3851410584893872e-07 -2.1743437550092344e-05 -5.1096460084631544e-06
leaf_weight=761 502 762 517 844 510 759 1013 57919 502 528 628 527 449536 531 2561
leaf_count=761 502 762 517 844 510 759 1013 57919 502 528 628 527 449536 531 2561
internal_value=-4.75481e-14 6.80523e-06 -4.21214e-06 -2.68857e-08 -1.17208e-05 -3.92203e-09 -2.91165e-08 -1.42774e-08 6.35468e-06 -3.31146e-08 9.17551e-07 -5.51206e-06 -1.63152e-07 -1.06218e-05 -2.49446e-06
internal_weight=518400 2040 1278 516360 1012 515348 514504 513745 1515 512230 61635 3716 450595 1059 3088
internal_count=518400 2040 1278 516360 1012 515348 514504 513745 1515 512230 61635 3716 450595 1059 3088
is_linear=0
shrinkage=0.1


Tree=19
num_leaves=16
num_cat=0
split_feature=4 15 12 3 1 8 8 3 17 6 6 17 4 0 13
split_gain=9.25653e-06 3.54175e-05 2.54508e-05 6.83357e-06 5.42624e-06 2.93873e-05 1.58431e-05 1.2872e-05 1.43056e-05 5.84982e-06 7.27791e-06 1.0589e-05 2.37191e-05 9.57053e-06 8.6795e-06
threshold=-0.0062492498232169505 14.643979166329585 21.329387197941546 -0.0056416063009483422 0.0040999818300687671 0.0086316227227702953 0.0024878503088070496 0.0057254236011550228 0.24685360552194444 0.0075788978865871668 0.0032997211373060335 0.20274240001161861 0.0018521960706356924 -0.00068468269566696039 65.179173473698853
decision_type=2 2 2 2 2 2 2 2 2 2 2 2 2 2 2
left_child=1 2 -1 -2 7 6 -6 9 -9 10 -5 13 -13 -12 -14
right_child=3 -3 -4 4 5 -7 -8 8 -10 -11 11 12 14 -15 -16
leaf_value=7.9305102434129986e-06 -1.0941099598325275e-05 2.3876600492886955e-05 -2.0908452493961433e-05 3.3392170263163707e-08 -1.1190015638395497e-05 -2.5629250113528421e-05 1.1189786598153946e-05 -1.2593826481834876e-06 2.1720748297815027e-05 8.3103108395205237e-06 8.2266990865428395e-06 -2.2282146651581969e-05 1.9429606863138784e-06 -1.7963612097077406e-06 -1.3234603231809377e-05
leaf_weight=779 573 757 504 497179 519 518 810 513 574 842 1043 802 1484 10998 505
leaf_count=779 573 757 504 497179 519 518 810 513 574 842 1043 802 1484 10998 505
internal_value=-4.0238e-14 6.72284e-06 -3.39828e-06 -2.65602e-08 -1.4435e-08 -5.42493e-06 2.45004e-06 5.0093e-09 1.08755e-05 -1.80308e-08 -3.17268e-08 -2.21456e-06 -7.76439e-06 -9.28157e-07 -1.91057e-06
internal_weight=518400 2040 1283 516360 515787 1847 1329 513940 1087 512853 512011 14832 2791 12041 1989
internal_count=518400 2040 1283 516360 515787 1847 1329 513940 1087 512853 512011 14832 2791 12041 1989
is_linear=0
shrinkage=0.1


Tree=20
num_leaves=16
num_cat=0
split_feature=8 3 15 8 0 14 15 4 12 8 1 0 9 2 15
split_gain=7.84569e-06 2.28532e-05 3.71254e-05 1.82452e-05 1.91554e-05 1.73896e-05 1.69909e-05 1.64162e-05 1.48835e-05 9.37383e-06 8.14375e-06 2.8379e-05 1.62785e-05 2.56369e-05 1.72588e-05
threshold=-0.0052189868143693299 -0.0018720532595881132 24.520010970926979 -0.0067389669970394075 -0.00061002593376940906 9.8159416212600394 20.882226547809136 -0.0018462450752887436 22.162881416364723 -0.0084705227745078809 -0.0017756265563234617 0.00017452107446402912 0.00087148801087466598 -0.0006189231644609382 78.165243074507785
decision_type=2 2 2 2 2 2 2 2 2 2 2 2 2 2 2
left_child=1 2 3 4 8 -5 7 -3 9 -1 11 12 13 -2 -14
right_child=10 6 -4 5 -6 -7 -8 -9 -10 -11 -12 -13 14 -15 -16
leaf_value=1.8448761133301548e-05 -1.9313395875025317e-06 -8.6474047695468583e-06 3.1198741315730625e-05 1.5118032375875462e-05 -1.3287614197282433e-05 -4.0005314158639721e-06 -1.69557781556494e-05 1.3581300329749606e-05 -7.2118608401306266e-06 9.3783614546931764e-07 1.9183593860208288e-08 -2.1656967987258167e-05 1.1764721608348192e-05 -2.5091776219142047e-05 -6.6396237431889656e-06
leaf_weight=693 10832 746 544 1821 943 644 828 599 738 547 495843 726 1661 500 735
leaf_count=693 10832 746 544 1821 943 644 828 599 738 547 495843 726 1661 500 735
internal_value=-2.39846e-14 3.08725e-06 6.30204e-06 3.78741e-06 -1.55926e-06 1.01232e-05 -5.68576e-06 1.25222e-06 4.03217e-06 1.07242e-05 -4.90224e-08 -2.38882e-06 -1.36983e-06 -2.95324e-06 6.11898e-06
internal_weight=518400 8103 5930 5386 2921 2465 2173 1345 1978 1240 510297 14454 13728 11332 2396
internal_count=518400 8103 5930 5386 2921 2465 2173 1345 1978 1240 510297 14454 13728 11332 2396
is_linear=0
shrinkage=0.1


Tree=21
num_leaves=16
num_cat=0
split_feature=2 14 15 12 4 0 14 5 11 9 0 5 0 12 2
split_gain=6.49943e-06 4.33084e-05 2.59766e-05 4.72533e-06 1.22774e-05 2.00921e-05 1.85135e-05 1.73248e-05 2.71514e-05 8.27667e-06 1.83476e-05 2.05576e-05 9.21787e-06 8.12979e-06 7.94928e-06
threshold=-0.0048218791907992378 5.5555769770855887 9.3382284691363626 16.053116070761579 -0.0039227850587754123 -0.0022366471954183282 33.770243542962199 -0.0047640765701209556 -141.45277044696667 -0.0050532336885480414 -0.0012564240238953082 -0.0047640765701209556 -0.0011430872770423204 33.893219035826029 -0.0030334661091726551
decision_type=2 2 2 2 2 2 2 2 2 2 2 2 2 2 2
left_child=1 2 -1 9 5 -5 7 8 -7 10 -2 -12 -11 -9 -6
right_child=3 -3 -4 4 14 6 -8 13 -10 12 11 -13 -14 -15 -16
leaf_value=1.2334174400680178e-05 1.9861200068007796e-05 2.9568575255639035e-05 -1.4621112465717911e-05 -2.1468144990125512e-05 5.0440382454709758e-06 -9.3318733572877475e-06 -1.9617904199665667e-05 -1.4379620372907202e-05 1.7163071818982166e-05 -9.061901249584558e-06 -1.2076064564815892e-05 1.0069144400123743e-05 1.3204589442325481e-06 -7.8405373269087122e-07 -6.2890387104831144e-08
leaf_weight=616 761 551 852 652 3067 609 548 775 1060 909 696 1054 14433 1017 490800
leaf_count=616 761 551 852 652 3067 609 548 775 1060 909 696 1054 14433 1017 490800
internal_value=-9.08841e-14 5.66268e-06 -3.31017e-06 -2.21406e-08 -7.93862e-08 -5.18766e-06 -2.5399e-06 1.6416e-07 7.49535e-06 1.57639e-06 6.89857e-06 1.26168e-06 7.05313e-07 -6.66383e-06 -3.11755e-08
internal_weight=518400 2019 1468 516381 498528 4661 4009 3461 1669 17853 2511 1750 15342 1792 493867
internal_count=518400 2019 1468 516381 498528 4661 4009 3461 1669 17853 2511 1750 15342 1792 493867
is_linear=0
shrinkage=0.1


Tree=22
num_leaves=16
num_cat=0
split_feature=0 13 15 1 13 3 7 8 0 3 3 1 0 11 3
split_gain=6.47204e-06 2.43072e-05 3.75568e-05 1.27531e-05 3.17168e-05 1.49678e-05 6.34723e-06 5.92043e-06 1.77859e-05 8.91042e-06 1.62292e-05 7.00277e-06 2.931e-05 1.60995e-05 1.02327e-05
threshold=-0.0027985900392389902 34.924954199680634 13.364403275089144 -0.0039508473121906409 32.655315615878287 -0.0056416063009483422 -0.0080482280151043511 -0.0047776681039217719 -0.001751563863263583 -0.0010621214627039575 -0.00016678334249281554 -0.0016134767509771717 0.00017452107446402912 62.785825113364744 -0.00065941190894619462
decision_type=2 2 2 2 2 2 2 2 2 2 2 2 2 2 2
left_child=1 2 -1 4 -2 -5 -7 8 -8 -10 -11 12 13 14 -9
right_child=3 -3 -4 5 -6 6 7 11 9 10 -12 -13 -14 -15 -16
leaf_value=-2.0277753716427371e-06 -2.9010405867103105e-05 -5.8206279583534488e-06 3.550353691637749e-05 1.3305940411508223e-05 6.3964725050600396e-06 -9.1600026653167948e-06 1.5930578648481922e-05 -6.767645416124487e-07 3.1594136614983422e-06 -1.6654098365140845e-05 3.7568758447605166e-06 1.9077328105778449e-08 -2.0430727604418843e-05 1.6223950062088056e-05 -8.3500253845521379e-06
leaf_weight=554 504 972 514 844 508 759 908 12921 4604 717 853 490389 827 518 2008
leaf_count=554 504 972 514 844 508 759 908 12921 4604 717 853 490389 827 518 2008
internal_value=5.46355e-14 5.62146e-06 1.6035e-05 -2.22088e-08 -1.1237e-05 -1.86117e-10 -2.20137e-08 -8.51334e-09 2.86283e-06 9.40973e-07 -5.56457e-06 -4.86482e-08 -2.08944e-06 -1.10748e-06 -1.70884e-06
internal_weight=518400 2040 1068 516360 1012 515348 514504 513745 7082 6174 1570 506663 16274 15447 14929
internal_count=518400 2040 1068 516360 1012 515348 514504 513745 7082 6174 1570 506663 16274 15447 14929
is_linear=0
shrinkage=0.1


Tree=23
num_leaves=16
num_cat=0
split_feature=17 1 9 0 2 2 5 13 17 14 1 17 3 9 5
split_gain=6.0814e-06 5.47467e-05 3.10783e-05 4.88766e-06 2.19052e-05 1.58949e-05 1.44724e-05 1.45176e-05 1.36302e-05 1.16605e-05 1.10891e-05 1.5411e-05 1.04942e-05 1.13728e-05 1.07304e-05
threshold=0.37690063547439073 -0.00066572553803151402 0.00023384805920656507 -0.00023164777481132767 0.0033886940520290181 -0.0033715793284274649 0.00034715672801022285 61.531966754734974 0.11279207840495088 91.752778919359699 -0.0017756265563234617 0.15748353061161857 0.0018383405884286887 -0.0031306730234016973 0.0020980610035465923
decision_type=2 2 2 2 2 2 2 2 2 2 2 2 2 2 2
left_child=3 -2 -3 4 6 -5 7 -1 -9 -8 11 -7 -12 -14 -15
right_child=1 2 -4 5 -6 10 9 8 -10 -11 12 -13 13 14 -16
leaf_value=-2.4562553298491161e-08 -1.4084718198234936e-05 3.8417355335877437e-05 5.0813059682660696e-06 -1.4394368770210144e-05 2.0795674877012842e-05 1.9085449275914721e-06 2.3895375794591603e-06 -2.5317966166377011e-06 -2.1366287133835278e-05 -9.4748133099052607e-06 9.9842207448743339e-10 -1.8609432696748109e-05 -1.6879737203358145e-05 1.0337727553883895e-06 -3.1327023832609098e-06
leaf_weight=119316 822 501 633 790 527 697 35796 1044 608 848 327795 771 505 9295 18452
leaf_count=119316 822 501 633 790 527 697 35796 1044 608 848 327795 771 505 9295 18452
internal_value=4.12692e-14 5.5654e-06 1.98091e-05 -2.10786e-08 4.41991e-07 -2.25456e-07 3.73935e-07 -1.53467e-07 -9.46362e-06 2.11498e-06 -1.94147e-07 -8.86759e-06 -1.58386e-07 -2.00764e-06 -1.73697e-06
internal_weight=518400 1956 1134 516444 158139 358305 157612 120968 1652 36644 357515 1468 356047 28252 27747
internal_count=518400 1956 1134 516444 158139 358305 157612 120968 1652 36644 357515 1468 356047 28252 27747
is_linear=0
shrinkage=0.1


Tree=24
num_leaves=16
num_cat=0
split_feature=5 6 12 6 1 10 0 15 4 13 17 13 16 13 12
split_gain=6.08241e-06 2.75798e-05 3.77532e-05 4.39092e-06 5.61211e-06 1.28512e-05 8.94418e-06 3.60683e-05 2.5707e-05 1.12048e-05 6.70326e-06 2.15313e-05 1.89587e-05 2.12112e-05 1.83787e-05
threshold=-0.006897035768055392 -0.0074744718574202831 18.470227201893888 -0.0074744718574202831 0.0040999818300687671 0.73496661927275964 0.0022934593713092037 61.732342314163049 0.0043635050537484963 48.314805150519376 0.20274240001161861 31.336595374307198 13.871095825050508 45.491332777152358 49.604165037906171
decision_type=2 2 2 2 2 2 2 2 2 2 2 2 2 2 2
left_child=1 2 -1 -2 6 -6 10 9 -9 -8 -5 -12 -13 14 -14
right_child=3 -3 -4 4 5 -7 7 8 -10 -11 11 12 13 -15 -16
leaf_value=1.461384874794928e-05 9.3358852983490213e-06 2.4385594961530906e-05 -1.7650855164867615e-05 2.4978660119751287e-08 2.3732539841095651e-06 -1.4435533224874655e-05 3.5250772026828551e-06 5.7883492058359468e-06 3.482158876495029e-05 -1.4873891156543725e-05 -1.7384641248617887e-05 1.354945261428542e-05 -4.7469862090054361e-06 5.3564901806116768e-07 -2.1458361955128491e-05
leaf_weight=714 501 558 737 495340 963 862 665 722 528 659 866 827 3647 10008 803
leaf_count=714 501 558 737 495340 963 862 665 722 528 659 866 827 3647 10008 803
internal_value=2.08227e-14 5.49167e-06 -1.77422e-06 -2.13651e-08 -3.04523e-08 -5.56602e-06 -1.08003e-08 5.86918e-06 1.8052e-05 -5.63272e-06 -4.03904e-08 -2.04521e-06 -1.17613e-06 -2.01844e-06 -7.76254e-06
internal_weight=518400 2009 1451 516391 515890 1825 514065 2574 1250 1324 511491 16151 15285 14458 4450
internal_count=518400 2009 1451 516391 515890 1825 514065 2574 1250 1324 511491 16151 15285 14458 4450
is_linear=0
shrinkage=0.1


Tree=25
num_leaves=16
num_cat=0
split_feature=11 17 10 1 10 17 2 9 9 17 3 4 13 2 17
split_gain=5.92583e-06 2.36674e-05 1.18196e-05 7.09506e-06 6.03158e-05 6.40069e-05 2.38552e-05 2.32648e-05 3.32903e-05 2.52929e-05 2.01607e-05 1.51304e-05 1.46021e-05 1.33357e-05 1.16155e-05
threshold=-184.9350128522278 0.17993463839236853 -0.34482758620690673 -0.0017756265563234617 -0.22026202872019637 0.24685360552194444 -0.0030334661091726551 -0.0055130980788123942 0.000420964278661562 0.21677960655258685 -0.0044818686502376406 -0.003122437444737058 42.980818903588904 -0.0022808376087003475 0.37690063547439073
decision_type=2 2 2 2 2 2 2 2 2 2 2 2 2 2 2
left_child=1 2 -1 4 6 12 7 10 9 -9 -2 13 -6 -8 -5
right_child=3 -3 -4 14 5 -7 11 8 -10 -11 -12 -13 -14 -15 -16
leaf_value=3.5531034937903412e-06 7.4286594162860819e-06 2.3196823045784442e-05 -5.5601653174603074e-06 -1.3335638131626789e-09 -1.4164966881363895e-05 -4.3849292209451101e-05 -2.7797861791100584e-06 1.7318924319398596e-06 2.4496765370365237e-05 -2.3765733830118389e-05 3.1795169004173127e-05 -5.8908227056446737e-07 6.235676921270815e-06 -2.05985848991117e-05 9.3530497020009581e-06
leaf_weight=5653 865 526 1902 493310 905 653 906 1729 502 502 559 7701 573 783 1331
leaf_count=5653 865 526 1902 493310 905 653 906 1729 502 502 559 7701 573 783 1331
internal_value=1.20745e-14 2.68677e-06 1.2588e-06 -4.25455e-08 -2.13693e-06 -1.77756e-05 3.23098e-07 6.62995e-06 1.22994e-06 -4.00536e-06 1.69939e-05 -2.46898e-06 -6.25592e-06 -1.10404e-05 2.38376e-08
internal_weight=518400 8081 7555 510319 15678 2131 13547 4157 2733 2231 1424 9390 1478 1689 494641
internal_count=518400 8081 7555 510319 15678 2131 13547 4157 2733 2231 1424 9390 1478 1689 494641
is_linear=0
shrinkage=0.1


Tree=26
num_leaves=16
num_cat=0
split_feature=0 10 3 5 17 13 17 10 7 0 5 0 10 3 10
split_gain=4.95572e-06 5.78546e-05 4.51867e-05 6.26295e-06 1.21558e-05 9.21103e-06 1.82495e-05 1.08241e-05 6.51074e-06 1.08617e-05 6.45563e-06 1.34222e-05 9.88728e-06 1.13243e-05 7.29587e-06
threshold=0.0028955979991385221 0.74902468102373521 0.0045429731387300895 0.0029030483450540605 0.10430920895531308 50.738942645428999 0.21677960655258685 -0.6842105263158208 0.0049220659084165961 0.00012403506846514481 0.00067415209676735543 -0.00047239770525375752 -0.55688622754484218 0.0006536760892339456 -0.89077312659643548
decision_type=2 2 2 2 2 2 2 2 2 2 2 2 2 2 2
left_child=3 -2 -3 8 -5 6 -6 -7 10 -10 -1 12 14 -14 -12
right_child=1 2 -4 4 5 7 -8 -9 9 -11 11 -13 13 -15 -16
leaf_value=-1.4019435716152631e-07 3.1274249819256121e-05 9.1451411313009679e-06 -2.8843718646165066e-05 -6.9134174704237035e-06 2.3530565123486783e-06 1.1866720617562683e-05 -2.0464809572331434e-05 -4.3844455443596818e-07 -1.8021977003930563e-05 1.9992286751906771e-06 6.613456800657541e-06 3.4467239779469874e-07 1.5387072066205475e-05 2.89408129354929e-06 4.9567146546723387e-07
leaf_weight=373731 583 751 537 3735 754 756 655 13135 525 560 2735 110251 1401 1505 6786
leaf_count=373731 583 751 537 3735 754 756 655 13135 525 560 2735 110251 1401 1505 6786
internal_value=1.23387e-13 5.13726e-06 -6.69338e-06 -1.86083e-08 -1.79877e-06 -5.50194e-07 -8.25426e-06 2.31248e-07 4.95038e-08 -7.68845e-06 6.64166e-08 6.95844e-07 3.8114e-06 8.91703e-06 2.25306e-06
internal_weight=518400 1871 1288 516529 19035 15300 1409 13891 497494 1085 496409 122678 12427 2906 9521
internal_count=518400 1871 1288 516529 19035 15300 1409 13891 497494 1085 496409 122678 12427 2906 9521
is_linear=0
shrinkage=0.1


Tree=27
num_leaves=16
num_cat=0
split_feature=11 17 10 17 12 17 9 4 5 3 0 0 7 15 17
split_gain=4.84213e-06 1.90813e-05 9.57775e-06 7.04138e-06 5.03016e-06 4.19396e-05 1.12776e-05 1.12599e-05 1.11513e-05 1.06364e-05 2.10919e-05 2.81385e-05 1.00074e-05 8.77925e-06 7.99235e-06
threshold=-184.9350128522278 0.17993463839236853 -0.34482758620690673 0.097811669766919684 16.053116070761579 0.20913108256100257 -0.0090281240270835266 -0.00504027887301045 -0.006897035768055392 -0.0038936502627426868 -0.00027923289971726323 -0.001935931105670363 -0.0063004405371702701 24.149755400208978 0.13982248517519802
decision_type=2 2 2 2 2 2 2 2 2 2 2 2 2 2 2
left_child=1 2 3 -1 5 12 7 -6 -8 10 11 -10 -2 -13 -14
right_child=4 -3 -4 -5 6 -7 8 -9 9 -11 -12 13 14 -15 -16
leaf_value=1.2821398883706572e-06 -1.13331918829553e-05 2.0844736260107812e-05 -4.9917809904041991e-06 9.6667968879140059e-06 -2.1127610180081212e-05 2.5845034119980798e-05 1.3795349737558546e-05 -1.1412152891224741e-07 -1.6938893256213073e-05 -5.5978703128100077e-08 -2.2700943792471187e-05 4.0380749537254778e-07 4.7064641322659715e-07 1.6787078914996361e-05 8.8056208849441825e-06
leaf_weight=4352 670 526 1902 1301 509 688 579 511 765 489321 610 807 14056 550 1253
leaf_count=4352 670 526 1902 1301 509 688 579 511 765 489321 610 807 14056 550 1253
internal_value=-9.0548e-14 2.4287e-06 1.14653e-06 3.21181e-06 -3.84591e-08 1.67019e-06 -9.61474e-08 -1.06003e-05 -7.43986e-08 -9.07191e-08 -6.31298e-06 -1.60202e-06 6.29302e-07 7.04404e-06 1.15284e-06
internal_weight=518400 8081 7555 5653 510319 16667 493652 1020 492632 492053 2732 2122 15979 1357 15309
internal_count=518400 8081 7555 5653 510319 16667 493652 1020 492632 492053 2732 2122 15979 1357 15309
is_linear=0
shrinkage=0.1


Tree=28
num_leaves=16
num_cat=0
split_feature=17 7 2 7 14 17 0 1 14 5 17 5 0 2 13
split_gain=4.62267e-06 6.12583e-05 5.11369e-05 5.20033e-06 1.59142e-05 2.25327e-05 1.41511e-05 9.27134e-06 9.04018e-06 7.21635e-06 8.67374e-06 8.64567e-06 1.42843e-05 1.38533e-05 1.60554e-05
threshold=0.37690063547439073 -0.0049239183323712124 -9.6223184927635139e-05 0.0063560852866021431 90.514672241350866 0.19727687202399993 0.0014231068604176891 0.0022947492895472048 73.46740149136528 0.0029030483450540605 0.11587233525479979 0.0039496520366562047 0.0015202244269851841 0.0013127184099860358 54.748820005676052
decision_type=2 2 2 2 2 2 2 2 2 2 2 2 2 2 2
left_child=3 -2 -3 9 8 7 -7 -6 -5 -1 -11 13 -13 14 -12
right_child=1 2 -4 4 5 6 -8 -9 -10 10 11 12 -14 -15 -16
leaf_value=2.3365604316883865e-08 3.1977167849048139e-05 -3.2189167552496657e-05 7.9253136924837755e-06 3.5651986709832907e-06 -1.2484320136341155e-06 1.592213897509684e-06 -2.0765810351652207e-05 1.670740788522893e-05 2.1363804921179509e-05 -5.4964911163392428e-06 -4.5185083911854355e-06 -6.6801731216781899e-06 5.3963277392997635e-06 -1.9253447961254031e-06 1.3251367947736792e-05
leaf_weight=496720 584 500 872 515 512 507 641 656 640 5178 728 3788 1321 3552 1686
leaf_count=496720 584 500 872 515 512 507 641 656 640 5178 728 3788 1321 3552 1686
internal_value=-1.6754e-14 4.85223e-06 -6.69367e-06 -1.83775e-08 3.83928e-06 -9.42474e-07 -1.08917e-05 8.83635e-06 1.34276e-05 -4.44801e-08 -2.11796e-06 -5.38369e-07 -3.55763e-06 2.04719e-06 7.89243e-06
internal_weight=518400 1956 1372 516444 3471 2316 1148 1168 1155 512973 16253 11075 5109 5966 2414
internal_count=518400 1956 1372 516444 3471 2316 1148 1168 1155 512973 16253 11075 5109 5966 2414
is_linear=0
shrinkage=0.1


Tree=29
num_leaves=16
num_cat=0
split_feature=10 17 12 17 9 2 4 17 11 5 7 10 15 11 7
split_gain=4.15236e-06 5.24097e-06 4.90822e-06 3.93147e-05 1.13322e-05 7.65742e-06 1.12328e-05 7.50555e-06 1.06643e-05 9.68081e-06 1.43777e-05 1.06228e-05 1.15844e-05 7.18427e-06 6.63482e-06
threshold=0.99218749999983136 0.13824418058682716 22.162881416364723 0.28259086629855407 -0.0090281240270835266 0.0006552325964410689 -0.00077109686027215785 0.20913108256100257 -93.722314179772368 -0.0042796034886105607 -0.0049239183323712124 -0.76416049194160618 11.197537543539875 -169.28155856740929 -0.0037092055637223393
decision_type=2 2 2 2 2 2 2 2 2 2 2 2 2 2 2
left_child=2 -2 3 5 -4 7 -7 9 -9 11 -11 -1 -13 -6 -15
right_child=1 -3 4 -5 13 6 -8 8 -10 10 -12 12 -14 14 -16
leaf_value=6.3149164528266121e-06 9.8493063619501816e-07 1.0747842994280224e-05 -1.2470731044317025e-05 2.7803950141229418e-05 2.9110423101165277e-06 -1.770484916395717e-05 -1.4308110867689008e-06 1.9481943884098365e-05 -7.5111801555847679e-07 1.5269692474989868e-05 9.0064350974976516e-07 -3.3305750352140834e-06 -1.9789307403035599e-05 -3.1390572418838382e-06 -1.4498323514016474e-07
leaf_weight=606 27694 561 747 539 7569 517 2361 521 521 711 33814 1269 645 7530 432795
leaf_count=606 27694 561 747 539 7569 517 2361 521 521 711 33814 1269 645 7530 432795
internal_value=3.20294e-14 1.17877e-06 -6.79517e-08 9.72458e-07 -1.64201e-07 6.1942e-07 -4.35426e-06 9.95251e-07 9.36541e-06 7.59815e-07 1.19656e-06 -5.22372e-06 -8.87701e-06 -1.43676e-07 -1.96185e-07
internal_weight=518400 28255 490145 41504 448641 40965 2878 38087 1042 37045 34525 2520 1914 447894 440325
internal_count=518400 28255 490145 41504 448641 40965 2878 38087 1042 37045 34525 2520 1914 447894 440325
is_linear=0
shrinkage=0.1


Tree=30
num_leaves=16
num_cat=0
split_feature=9 13 17 1 1 8 13 0 1 17 8 14 10 3 17
split_gain=4.11726e-06 3.07054e-05 2.82143e-05 3.30139e-05 1.79756e-05 4.96753e-06 2.11744e-05 2.00172e-05 2.94757e-05 1.55803e-05 1.51736e-05 1.3064e-05 4.86249e-06 4.57318e-06 1.12098e-05
threshold=0.0092397166766772249 64.667561486712913 0.37690063547439073 -0.00065272263186327828 0.0032612591279160834 -0.0067389669970394075 33.368132357209497 -0.001935931105670363 -0.00093011150390714936 0.19208344157321464 -0.0058063352295306117 2.7771140801855663 0.066598639455303199 -0.0038936502627426868 0.23420262747010465
decision_type=2 2 2 2 2 2 2 2 2 2 2 2 2 2 2
left_child=2 -2 5 -4 -3 6 7 -1 9 -9 11 -7 -13 14 -12
right_child=1 4 3 -5 -6 10 -8 8 -10 -11 13 12 -14 -15 -16
leaf_value=-1.9977292806065247e-05 -2.5822893678255338e-05 1.2396066605943271e-05 -2.4703171302468914e-06 2.6568266298111241e-05 -1.0824417053033826e-05 1.6881102704713315e-05 1.0128115830540526e-05 -3.9030876558475333e-06 -2.0406833430485843e-05 1.9225712571784089e-05 -6.9718748915035354e-07 -6.2420801989609185e-06 7.5545960435429716e-06 -9.3433326245969118e-09 -1.5502806018072769e-05
leaf_weight=929 503 826 718 861 559 987 834 600 571 566 2345 504 518 506425 654
leaf_count=929 503 826 718 861 559 987 834 600 571 566 2345 504 518 506425 654
internal_value=3.94203e-15 -4.66134e-06 1.70386e-08 1.33639e-05 3.02404e-06 -2.38885e-08 -3.77842e-06 -8.12877e-06 -1.79183e-06 7.3241e-06 1.80568e-09 8.67542e-06 7.50756e-07 -3.24002e-08 -3.92589e-06
internal_weight=518400 1888 516512 1579 1385 514933 3500 2666 1737 1166 511433 2009 1022 509424 2999
internal_count=518400 1888 516512 1579 1385 514933 3500 2666 1737 1166 511433 2009 1022 509424 2999
is_linear=0
shrinkage=0.1


end of trees

feature_importances:
natr=49
ret1min=47
bop=43
rsi=33
ret2min=32
ret3min=30
ret4min=30
ret6min=28
ret9min=22
ret5min=21
ret10min=20
slowk=20
ret8min=18
stochrsi=18
ret7min=17
mfi=16
slowd=11
cci=10

parameters:
[boosting: gbdt]
[objective: regression]
[metric: rmse]
[tree_learner: serial]
[device_type: cpu]
[data_sample_strategy: bagging]
[data: ]
[valid: ]
[num_iterations: 50]
[learning_rate: 0.1]
[num_leaves: 16]
[num_threads: 0]
[seed: 42]
[deterministic: 0]
[force_col_wise: 0]
[force_row_wise: 0]
[histogram_pool_size: -1]
[max_depth: -1]
[min_data_in_leaf: 500]
[min_sum_hessian_in_leaf: 0.001]
[bagging_fraction: 1]
[pos_bagging_fraction: 1]
[neg_bagging_fraction: 1]
[bagging_freq: 0]
[bagging_seed: 400]
[bagging_by_query: 0]
[feature_fraction: 0.8]
[feature_fraction_bynode: 1]
[feature_fraction_seed: 30056]
[extra_trees: 0]
[extra_seed: 12879]
[early_stopping_round: 0]
[early_stopping_min_delta: 0]
[first_metric_only: 0]
[max_delta_step: 0]
[lambda_l1: 0]
[lambda_l2: 0]
[linear_lambda: 0]
[min_gain_to_split: 0]
[drop_rate: 0.1]
[max_drop: 50]
[skip_drop: 0.5]
[xgboost_dart_mode: 0]
[uniform_drop: 0]
[drop_seed: 17869]
[top_rate: 0.2]
[other_rate: 0.1]
[min_data_per_group: 100]
[max_cat_threshold: 32]
[cat_l2: 10]
[cat_smooth: 10]
[max_cat_to_onehot: 4]
[top_k: 20]
[monotone_constraints: ]
[monotone_constraints_method: basic]
[monotone_penalty: 0]
[feature_contri: ]
[forcedsplits_filename: ]
[refit_decay_rate: 0.9]
[cegb_tradeoff: 1]
[cegb_penalty_split: 0]
[cegb_penalty_feature_lazy: ]
[cegb_penalty_feature_coupled: ]
[path_smooth: 0]
[interaction_constraints: ]
[verbosity: -1]
[saved_feature_importance_type: 0]
[use_quantized_grad: 0]
[num_grad_quant_bins: 4]
[quant_train_renew_leaf: 0]
[stochastic_rounding: 1]
[linear_tree: 0]
[max_bin: 255]
[max_bin_by_feature: ]
[min_data_in_bin: 3]
[bin_construct_sample_cnt: 200000]
[data_random_seed: 175]
[is_enable_sparse: 1]
[enable_bundle: 1]
[use_missing: 1]
[zero_as_missing: 0]
[feature_pre_filter: 1]
[pre_partition: 0]
[two_round: 0]
[header: 0]
[label_column: ]
[weight_column: ]
[group_column: ]
[ignore_column: ]
[categorical_feature: ]
[forcedbins_filename: ]
[precise_float_parser: 0]
[parser_config_file: ]
[objective_seed: 16083]
[num_class: 1]
[is_unbalance: 0]
[scale_pos_weight: 1]
[sigmoid: 1]
[boost_from_average: 1]
[reg_sqrt: 0]
[alpha: 0.9]
[fair_c: 1]
[poisson_max_delta_step: 0.7]
[tweedie_variance_power: 1.5]
[lambdarank_truncation_level: 30]
[lambdarank_norm: 1]
[label_gain: ]
[lambdarank_position_bias_regularization: 0]
[eval_at: ]
[multi_error_top_k: 1]
[auc_mu_weights: ]
[num_machines: 1]
[local_listen_port: 12400]
[time_out: 120]
[machine_list_filename: ]
[machines: ]
[gpu_platform_id: -1]
[gpu_device_id: -1]
[gpu_use_dp: 0]
[num_gpu: 1]

end of parameters

pandas_categorical:[]
