tree
version=v4
num_class=1
num_tree_per_iteration=1
label_index=0
max_feature_idx=17
objective=regression
feature_names=ret1min ret2min ret3min ret4min ret5min ret6min ret7min ret8min ret9min ret10min bop cci mfi rsi stochrsi slowk slowd natr
feature_infos=[-0.061908856405846979:0.06582914572864329] [-0.086187845303867472:0.10903193612774453] [-0.14445399828030958:0.12026800670016757] [-0.15475010618717266:0.078684674104521513] [-0.16021944014629341:0.1509212730318259] [-0.17598343685300211:0.16063651591289774] [-0.22225117248566961:0.10492744378886942] [-0.222453764001042:0.076813249571673348] [-0.22295978133541583:0.06948383437322736] [-0.22021943573667713:0.113623018203171] [-1:1] [-553.50933676756074:683.46624136095545] [0:100] [4.8955189690268384:95.883396527398631] [0:100] [0:100] [0:100] [0.035513556533199285:4.1685486826279741]
tree_sizes=1743 1761 1747 1736 1752 1742 1742 1731 1719 1748 1722 1754 1739 1746

Tree=0
num_leaves=16
num_cat=0
split_feature=0 7 10 12 0 9 1 17 3 13 15 0 9 10 13
split_gain=0.000260718 0.00029084 0.000293511 6.53627e-05 6.00147e-05 8.0377e-05 6.44593e-05 7.07719e-05 5.03421e-05 0.000223408 0.000150793 5.16264e-05 6.90035e-05 8.22607e-05 5.42851e-05
threshold=0.0052470083863497283 0.014715283662263825 0.76470588235296055 75.482409120968171 -0.0020678322903754372 0.0079325908795845352 0.0074305339034638216 0.70878559790238349 -0.007911515004627832 33.480055948279045 11.152700592062081 -0.0039792957088302652 -0.010647125385147225 -0.5454545454544627 44.634883942809644
decision_type=2 2 2 2 2 2 2 2 2 2 2 2 2 2 2
left_child=3 2 -2 4 5 8 7 -6 9 10 -1 14 -13 -14 -10
right_child=1 -3 -4 -5 6 -7 -8 -9 11 -11 -12 12 13 -15 -16
leaf_value=-4.6423521112074193e-05 0.00012234289532703211 -2.6943004094733104e-05 2.5355835937402351e-05 -4.0189010082724761e-06 8.2189238864646956e-08 2.6573196351135469e-05 3.3023305601584185e-05 -3.1273194143438349e-05 -3.5616204344889031e-05 5.5806357961118728e-05 1.662664879762359e-05 2.2243523932701244e-05 -6.2627534431323737e-06 -3.5716597581871853e-05 1.3011466763557607e-06
leaf_weight=734 500 511 830 48360 447915 743 593 721 1317 661 785 771 12361 1027 571
leaf_count=734 500 511 830 48360 447915 743 593 721 1317 661 785 771 12361 1027 571
internal_value=-3.84946e-07 3.71803e-05 6.18171e-05 -5.18828e-07 -1.57307e-07 -5.66683e-06 7.53483e-08 3.17982e-08 -6.98105e-06 7.27755e-06 -1.384e-05 -8.91809e-06 -6.84689e-06 -8.52217e-06 -2.44511e-05
internal_weight=518400 1841 1330 516559 468199 18970 449229 448636 18227 2180 1519 16047 14159 13388 1888
internal_count=518400 1841 1330 516559 468199 18970 449229 448636 18227 2180 1519 16047 14159 13388 1888
is_linear=0
shrinkage=1


Tree=1
num_leaves=16
num_cat=0
split_feature=0 14 10 13 17 0 2 17 3 10 17 16 9 3 0
split_gain=0.000211182 0.000266426 0.000112429 5.84706e-05 5.61906e-05 5.36898e-05 0.000130981 8.10324e-05 6.186e-05 0.000134068 0.000121456 8.43621e-05 7.81253e-05 0.000118564 7.85291e-05
threshold=0.0052470083863497283 84.68489317667364 0.76470588235296055 66.977858254522957 0.43366368590941723 0.00024475310622129603 -0.0059036358458987017 0.27156974423528807 -0.0068374340271957204 -0.86666666666667891 0.60522187692618112 10.275106204778242 0.012468566108915337 0.0067510646656099302 -0.0020678322903754372
decision_type=2 2 2 2 2 2 2 2 2 2 2 2 2 2 2
left_child=3 -2 -3 5 -5 8 -7 -8 9 -1 11 -11 13 14 -10
right_child=1 2 -4 4 -6 6 7 -9 12 10 -12 -13 -14 -15 -16
leaf_value=-3.6842369826206989e-05 9.4523383161901624e-05 4.6075059581338122e-05 -1.3583707861243965e-05 -3.6250065777681725e-06 -2.7987349361770502e-05 -4.3732707844203371e-05 9.3930791327155544e-07 7.8658579273877673e-06 -7.6397160137486876e-06 3.968496921438868e-05 5.6830334315140387e-05 1.8083033492495883e-06 3.6102008207747762e-05 -4.7781331195794011e-05 -4.51105746596225e-07
leaf_weight=531 519 522 800 28721 979 638 163091 18841 16061 736 634 2925 571 539 282292
leaf_count=531 519 522 800 28721 979 638 163091 18841 16061 736 634 2925 571 539 282292
internal_value=-2.01986e-13 3.38087e-05 9.97293e-06 -1.20493e-07 -4.42806e-06 1.42282e-07 1.49801e-06 1.65663e-06 -6.71139e-07 1.05604e-05 1.64209e-05 9.42295e-06 -8.52142e-07 -9.22739e-07 -8.38084e-07
internal_weight=518400 1841 1322 516559 29700 486859 182570 181932 304289 4826 4295 3661 299463 298892 298353
internal_count=518400 1841 1322 516559 29700 486859 182570 181932 304289 4826 4295 3661 299463 298892 298353
is_linear=0
shrinkage=0.1


Tree=2
num_leaves=16
num_cat=0
split_feature=0 7 10 12 4 17 8 1 10 6 13 0 4 4 17
split_gain=0.000171057 0.000229465 0.000212751 4.85111e-05 4.60048e-05 0.000135062 0.000260804 5.40127e-05 7.98406e-05 4.26873e-05 0.00010313 3.74259e-05 7.29503e-05 8.01701e-05 8.98839e-05
threshold=0.0052470083863497283 0.014715283662263825 0.76470588235296055 75.482409120968171 0.0075649772720275408 0.70878559790238349 -0.0091288784116187443 0.0012559483109940708 0.40000000000005559 0.0078941510887256001 68.640495918359605 0.00024475310622129603 -0.008843601487654949 -0.011280685389259413 0.35123982754856325
decision_type=2 2 2 2 2 2 2 2 2 2 2 2 2 2 2
left_child=3 2 -2 4 5 11 -7 -6 -9 -5 -11 12 13 -1 -15
right_child=1 -3 -4 9 7 6 -8 8 -10 10 -12 -13 -14 14 -16
leaf_value=-2.8669172939523826e-06 0.00010384178989188513 -2.6529110669414242e-05 2.1268839698633936e-05 -2.3554934411296295e-06 3.5579299431093045e-05 2.2189541800261804e-05 -7.1093391092870198e-05 -1.9753295338007782e-05 2.0527342225368153e-05 -5.1975552837008861e-05 -5.5064961243525745e-06 1.3606381337173123e-06 -6.4472290382101656e-07 9.4601041652987426e-06 5.9176284067375936e-05
leaf_weight=1244 500 511 830 45329 767 508 731 818 1235 594 2437 176417 285007 816 656
leaf_count=1244 500 511 830 45329 767 508 731 818 1235 594 2437 176417 285007 816 656
internal_value=-1.98685e-13 3.04278e-05 5.23113e-05 -1.08444e-07 2.03006e-07 1.25843e-07 -3.28466e-05 1.2937e-05 4.47787e-06 -3.12376e-06 -1.46133e-05 2.13862e-07 -4.89283e-07 1.5822e-05 3.16162e-05
internal_weight=518400 1841 1330 516559 468199 465379 1239 2820 2053 48360 3031 464140 287723 2716 1472
internal_count=518400 1841 1330 516559 468199 465379 1239 2820 2053 48360 3031 464140 287723 2716 1472
is_linear=0
shrinkage=0.1


Tree=3
num_leaves=16
num_cat=0
split_feature=1 15 17 4 16 16 4 3 17 15 3 10 17 1 10
split_gain=0.00010832 0.000178885 0.000113781 7.59841e-05 0.000154408 0.000255544 0.000150086 0.000106706 0.000102731 0.000148014 5.45218e-05 4.12108e-05 3.8139e-05 3.56114e-05 3.24769e-05
threshold=0.0074305339034638216 57.634347484184815 0.41366429385581366 -0.008843601487654949 21.649742166051031 7.9483726098645855 -0.011280685389259413 -0.0099923048136163466 0.70878559790238349 61.606540389439203 0.0060215407846470068 0.36363636363629948 0.45739838961639617 0.0057244121992321437 0.068965517241400778
decision_type=2 2 2 2 2 2 2 2 2 2 2 2 2 2 2
left_child=3 -2 -3 4 5 -1 -7 -6 10 -10 13 12 -12 14 -5
right_child=1 2 -4 8 7 6 -8 -9 9 -11 11 -13 -14 -15 -16
leaf_value=6.0144874689800006e-05 7.4110541834458669e-05 3.5651773932275181e-05 -2.1195531866349861e-05 -7.6374861831402355e-07 7.166146648269323e-05 -4.5166526892493022e-05 1.0611097580227153e-05 1.5741182130345718e-05 -6.1102342512578452e-05 1.0235247070008532e-05 -1.2620296648517448e-05 -2.6501293943364186e-06 -4.1910036830540472e-05 2.1832790175004821e-05 8.5042970670966021e-07
leaf_weight=534 515 659 756 280574 616 991 940 765 660 520 1842 3417 586 745 224280
leaf_count=534 515 659 756 280574 616 991 940 765 660 520 1842 3417 586 745 224280
internal_value=1.56351e-13 2.36464e-05 5.27964e-06 -8.83644e-08 1.3915e-05 -1.08245e-06 -1.80143e-05 4.06846e-05 -1.93426e-07 -2.96654e-05 -1.25428e-07 -9.72821e-06 -1.96894e-05 -1.4415e-08 -4.66543e-08
internal_weight=518400 1930 1415 516470 3846 2465 1931 1381 512624 1180 511444 5845 2428 505599 504854
internal_count=518400 1930 1415 516470 3846 2465 1931 1381 512624 1180 511444 5845 2428 505599 504854
is_linear=0
shrinkage=0.1


Tree=4
num_leaves=16
num_cat=0
split_feature=0 15 15 13 4 6 6 2 0 9 0 7 15 7 9
split_gain=0.000127521 0.000183754 0.000144453 4.41314e-05 5.08408e-05 9.04715e-05 7.38123e-05 5.47787e-05 4.74527e-05 5.98999e-05 4.36498e-05 5.52123e-05 4.35661e-05 7.92182e-05 4.33457e-05
threshold=0.0052470083863497283 54.132598985543659 80.392156862747981 66.977858254522957 0.0075649772720275408 0.010549888057101111 0.0078941510887256001 0.0059104332037877025 -0.0017239093261642855 0.0042982142055947312 0.004114379931373314 -0.0086110343587147403 10.058253685708488 -0.011067081514448627 0.016282078316056551
decision_type=2 2 2 2 2 2 2 2 2 2 2 2 2 2 2
left_child=3 -2 -3 4 6 7 8 -6 9 -1 11 12 -10 -14 -5
right_child=1 2 -4 14 5 -7 -8 -9 10 -11 -12 -13 13 -15 -16
leaf_value=-5.1412321795400961e-06 6.9810887467668172e-05 -3.6136433711279457e-05 3.368349621825628e-05 -3.1103621683022742e-06 1.5616830769039195e-05 4.394973311173585e-05 -1.9356508579578715e-05 -2.3834767291011126e-05 2.7589733913253636e-05 1.2912846707539684e-05 -2.1873661801759697e-05 3.2807820227538174e-07 -1.3765655062450417e-05 2.0372091315171927e-05 -2.3950819865728892e-05
leaf_weight=25909 635 524 682 28666 962 734 1949 555 1252 1978 879 449892 1231 1518 1034
leaf_count=25909 635 524 682 28666 962 734 1949 555 1252 1978 879 449892 1231 1518 1034
internal_value=7.22843e-14 2.62719e-05 3.34714e-06 -9.36321e-08 1.3466e-07 1.51285e-05 6.50135e-08 1.18332e-06 1.43439e-07 -3.86067e-06 3.88974e-07 4.32087e-07 1.21274e-05 5.08524e-06 -3.83592e-06
internal_weight=518400 1841 1206 516559 486859 2251 484608 1517 482659 27887 454772 453893 4001 2749 29700
internal_count=518400 1841 1206 516559 486859 2251 484608 1517 482659 27887 454772 453893 4001 2749 29700
is_linear=0
shrinkage=0.1


Tree=5
num_leaves=16
num_cat=0
split_feature=0 14 5 13 9 17 0 4 15 17 10 0 9 2 11
split_gain=0.000103292 0.000193674 0.000132925 3.57464e-05 4.40754e-05 9.15215e-05 4.36402e-05 5.24522e-05 0.00017235 0.00014411 6.52435e-05 7.5555e-05 4.31002e-05 4.11822e-05 5.7515e-05
threshold=0.0052470083863497283 84.68489317667364 0.0097544632560658835 66.977858254522957 0.012468566108915337 0.53674018154772385 -0.0020678322903754372 -0.008843601487654949 11.152700592062081 0.45739838961639617 -0.62499999999997613 -0.0028691926453868195 0.0042982142055947312 -0.0021931327633684101 -116.91656897539121
decision_type=2 2 2 2 2 2 2 2 2 2 2 2 2 2 2
left_child=3 -2 -3 4 6 -6 7 8 -1 -10 12 -12 13 14 -9
right_child=1 2 -4 -5 5 -7 -8 10 9 -11 11 -13 -14 -15 -16
leaf_value=-2.4478789508681344e-05 7.541026316631327e-05 -3.1943482372529441e-05 3.1833902212116199e-05 -3.4523275255475159e-06 -7.5077499569726739e-06 4.7892199433203494e-05 2.6692624036970891e-07 -1.0581811245240183e-05 3.6600706193581757e-06 7.3106617602644727e-05 -4.2739114868337612e-05 -8.8528067756159563e-06 1.5412854151882738e-05 -1.2556128646358672e-05 6.1868395675665937e-06
leaf_weight=831 519 591 731 29700 616 578 466351 3549 669 540 969 2050 1106 4772 4828
leaf_count=831 519 591 731 29700 616 578 466351 3549 669 540 969 2050 1106 4772 4828
internal_value=-3.19221e-13 2.36447e-05 3.32223e-06 -8.42693e-08 1.21193e-07 1.93107e-05 7.40163e-08 -4.58394e-06 1.05805e-05 3.46784e-05 -6.37481e-06 -1.97292e-05 -3.54655e-06 -5.14128e-06 -9.17367e-07
internal_weight=518400 1841 1322 516559 486859 1194 485665 19314 2040 1209 17274 3019 14255 13149 8377
internal_count=518400 1841 1322 516559 486859 1194 485665 19314 2040 1209 17274 3019 14255 13149 8377
is_linear=0
shrinkage=0.1


Tree=6
num_leaves=16
num_cat=0
split_feature=0 7 10 12 0 3 1 17 3 8 12 7 1 0 13
split_gain=8.36665e-05 0.000181636 0.000164287 3.30408e-05 3.66374e-05 0.000137127 5.31372e-05 4.39092e-05 3.64133e-05 7.91367e-05 5.71578e-05 4.87286e-05 4.07888e-05 4.76145e-05 6.76594e-05
threshold=0.0052470083863497283 0.014715283662263825 0.76470588235296055 75.482409120968171 0.0026526664905552892 -0.0022698464188578012 0.0015064194010520062 0.2542925099729208 0.0067510646656099302 0.0037967982781028646 61.536678285193425 0.011254368552832907 0.0048945580956083487 -0.0039792957088302652 44.015935452764843
decision_type=2 2 2 2 2 2 2 2 2 2 2 2 2 2 2
left_child=3 2 -2 4 8 -6 -7 -8 11 -10 -11 12 13 14 -1
right_child=1 -3 -4 -5 5 6 7 -9 9 10 -12 -13 -14 -15 -16
leaf_value=-2.0157972713464856e-05 8.6032393603090908e-05 -2.9394250204165285e-05 1.3471305768722364e-05 -2.5643409417353342e-06 -3.4807497472179635e-05 3.2857293105708833e-05 -3.1571666827568227e-06 1.493348689229116e-05 -4.4226214222273675e-05 2.114908189963645e-05 -1.9826504910343837e-05 -2.6524003434331523e-05 2.1387966802205009e-05 2.1147469890271602e-07 1.3631220616544012e-05
leaf_weight=2447 500 511 830 48360 703 1002 2202 3434 588 649 716 685 904 454087 782
leaf_count=2447 500 511 830 48360 703 1002 2202 3434 588 649 716 685 904 454087 782
internal_value=-9.66077e-14 2.12802e-05 4.07499e-05 -7.58422e-08 1.81193e-07 7.19014e-06 1.16379e-05 7.86542e-06 6.95479e-08 -1.35561e-05 -3.44339e-07 1.27536e-07 1.67377e-07 1.2543e-07 -1.19749e-05
internal_weight=518400 1841 1330 516559 468199 7341 6638 5636 460858 1953 1365 458905 458220 457316 3229
internal_count=518400 1841 1330 516559 468199 7341 6638 5636 460858 1953 1365 458905 458220 457316 3229
is_linear=0
shrinkage=0.1


Tree=7
num_leaves=16
num_cat=0
split_feature=7 10 0 7 4 2 17 0 6 3 17 14 14 6 10
split_gain=8.2828e-05 9.12728e-05 3.37594e-05 0.000106561 0.000106968 4.46187e-05 3.94481e-05 3.93857e-05 9.18459e-05 0.000110385 6.26121e-05 7.54218e-05 3.90293e-05 3.31359e-05 7.69739e-05
threshold=-0.014088651956814633 -0.3076923076923323 0.0024933584697464099 0.014715283662263825 0.008945960928485543 0.0022044785031489771 0.3610410505402068 0.004114379931373314 -0.00021422451711483601 0.0060215407846470068 0.38375862253945886 54.071707702484339 99.643445718767353 0.0088521344426957266 -0.06666666666665802
decision_type=2 2 2 2 2 2 2 2 2 2 2 2 2 2 2
left_child=1 -1 5 4 7 13 -6 10 -9 -10 12 -12 -4 -2 -15
right_child=2 -3 3 -5 6 -7 -8 8 9 -11 11 -13 -14 14 -16
leaf_value=1.134579324165443e-06 1.1086984370219783e-07 4.4270129588273551e-05 1.1616903726130843e-05 -2.6839770890184503e-05 1.746319779948906e-05 -3.4554364036886327e-06 5.5881793118019687e-05 -4.1693596735027354e-05 2.5583748562175677e-05 -2.8420309657647914e-05 -1.1700154606559791e-06 4.5176959874941984e-05 -3.6711470771960406e-06 4.5056376509901981e-06 -4.6303498190651893e-05
leaf_weight=1099 463856 886 3247 964 504 38966 569 572 992 612 586 876 3438 728 505
leaf_count=1099 463856 886 3247 964 504 38966 569 572 992 612 586 876 3438 728 505
internal_value=3.38269e-14 2.0388e-05 -7.83676e-08 5.08494e-06 7.78548e-06 -2.04978e-07 3.78362e-05 4.66194e-06 -7.28993e-06 4.97871e-06 7.85419e-06 2.66001e-05 3.75448e-06 6.73516e-08 -1.63043e-05
internal_weight=518400 1985 516415 12360 11396 504055 1073 10323 2176 1604 8147 1462 6685 465089 1233
internal_count=518400 1985 516415 12360 11396 504055 1073 10323 2176 1604 8147 1462 6685 465089 1233
is_linear=0
shrinkage=0.1


Tree=8
num_leaves=16
num_cat=0
split_feature=7 14 16 16 4 17 1 9 16 1 17 11 17 11 15
split_gain=7.17807e-05 0.000175485 9.77372e-05 9.41913e-05 0.000142206 0.000173652 6.29744e-05 7.53421e-05 0.000308101 5.73564e-05 0.000154664 6.94687e-05 5.5393e-05 5.41141e-05 5.00646e-05
threshold=-0.0086110343587147403 46.105296726940608 35.413631706738691 7.9483726098645855 -0.011280685389259413 0.41366429385581366 -0.0071334904686673464 0.016282078316056551 89.293433747774046 0.0074305339034638216 0.70878559790238349 94.952588739455152 0.29440340092119832 122.91242110680527 10.058253685708488
decision_type=2 2 2 2 2 2 2 2 2 2 2 2 2 2 2
left_child=1 2 3 12 5 -5 -2 9 13 10 -8 -11 -1 -9 -6
right_child=6 -3 -4 4 14 -7 7 8 -10 11 -12 -13 -14 -15 -16
leaf_value=6.9835935347753722e-06 3.1276613690623232e-05 5.6976826903808621e-05 4.1721556324832382e-05 6.2563156216699391e-06 2.2482166787478325e-05 -7.0946657607581949e-05 -9.7245636734110974e-08 -7.1924595498207492e-05 2.9250882962395991e-05 4.9610562811963634e-05 -4.696800955295483e-05 1.1564196453470197e-06 5.1425360390912022e-05 -2.8337749946416582e-05 -2.3604284116459356e-06
leaf_weight=613 637 708 651 542 1100 630 506075 642 765 512 705 701 517 512 3090
leaf_count=613 637 708 651 542 1100 630 506075 642 765 512 705 701 517 512 3090
internal_value=3.96052e-13 9.48916e-06 4.78227e-06 1.0781e-06 -4.45148e-06 -3.52436e-05 -1.4592e-07 -1.85174e-07 -1.99623e-05 -1.10464e-07 -1.62449e-07 2.16086e-05 2.73167e-05 -5.25862e-05 4.16149e-06
internal_weight=518400 7851 7143 6492 5362 1172 510549 509912 1919 507993 506780 1213 1130 1154 4190
internal_count=518400 7851 7143 6492 5362 1172 510549 509912 1919 507993 506780 1213 1130 1154 4190
is_linear=0
shrinkage=0.1


Tree=9
num_leaves=16
num_cat=0
split_feature=0 16 15 15 0 2 4 17 10 13 13 2 17 0 13
split_gain=6.80755e-05 0.000149305 0.000169799 2.55112e-05 3.64637e-05 0.000111363 6.69652e-05 9.34554e-05 9.17968e-05 0.00015739 0.0001308 0.000129284 5.92235e-05 5.27932e-05 7.3611e-05
threshold=0.0052470083863497283 41.049382716054744 78.208178686370502 84.210526315794297 0.0001287084116275983 -0.0059036358458987017 -0.008843601487654949 0.70878559790238349 -0.8000000000000369 19.783289843996965 37.718358185056992 -0.0086945015807878261 0.15363533496741213 -0.0039792957088302652 44.388735001400292
decision_type=2 2 2 2 2 2 2 2 2 2 2 2 2 2 2
left_child=3 -2 -3 4 6 -6 8 13 -1 -10 11 -11 -7 14 -8
right_child=1 2 -4 -5 5 12 7 -9 9 10 -12 -13 -14 -15 -16
leaf_value=-2.2913974783127069e-05 6.0923286601970705e-05 -4.4416777763985339e-05 3.0362163509391514e-05 -1.8341317278489739e-06 -3.8875935750813244e-05 -6.4218017200024404e-08 -3.0740206716438326e-05 -4.0548390759116415e-05 6.869045231364217e-05 -4.8527374680346934e-05 4.8553023551821789e-05 1.5447616416763532e-05 3.5722281815146851e-06 -5.0866125337178155e-07 9.6366390298512234e-06
leaf_weight=547 585 514 742 70636 688 108898 1310 588 566 502 578 852 76071 254634 689
leaf_count=547 585 514 742 70636 688 108898 1310 588 566 502 578 852 76071 254634 689
internal_value=3.94866e-13 1.91953e-05 -2.40047e-07 -6.84112e-08 2.11286e-07 1.28195e-06 -5.52457e-07 -7.26982e-07 1.41902e-05 2.23151e-05 8.72892e-06 -8.27132e-06 1.43132e-06 -6.35742e-07 -1.68234e-05
internal_weight=518400 1841 1256 516559 445923 185657 260266 257221 3045 2498 1932 1354 184969 256633 1999
internal_count=518400 1841 1256 516559 445923 185657 260266 257221 3045 2498 1932 1354 184969 256633 1999
is_linear=0
shrinkage=0.1


Tree=10
num_leaves=16
num_cat=0
split_feature=7 13 17 4 7 0 3 11 15 6 11 15 0 17 14
split_gain=6.31019e-05 7.69381e-05 0.000176594 2.94179e-05 8.28566e-05 0.000119447 8.49071e-05 8.17405e-05 5.91767e-05 6.89448e-05 6.13436e-05 6.24015e-05 3.4744e-05 5.45549e-05 5.99558e-05
threshold=-0.014088651956814633 24.527142913330248 0.60522187692618112 0.008945960928485543 0.011254368552832907 0.001744258485503636 0.0079553763665674033 96.413969141315832 80.694444444449218 0.010549888057101111 198.01740540350715 90.598290598293161 -0.0039792957088302652 0.27557561923608881 3.6618817912154102
decision_type=2 2 2 2 2 2 2 2 2 2 2 2 2 2 2
left_child=1 -1 -3 4 6 -6 12 -5 -9 -10 11 -11 13 -2 -15
right_child=3 2 -4 7 5 -7 -8 8 9 10 -12 -13 -14 14 -16
leaf_value=-3.9754828320219778e-06 -3.2339268638040425e-05 -2.0454749566314545e-06 7.8557745675523485e-05 3.3439504254033063e-05 -4.3708917204541209e-05 1.3706607916189453e-05 -3.0581951193178636e-05 -2.7956782058319866e-05 -2.3926515429641077e-05 5.2252960680474326e-05 -1.1720052125365994e-05 7.0708412625321214e-06 5.0931119270396292e-08 1.6364099807142617e-05 -1.9927429024672041e-05
leaf_weight=893 848 582 510 988 1007 566 910 596 536 602 519 621 507401 918 903
leaf_count=893 848 582 510 988 1007 566 910 596 536 602 519 621 507401 918 903
internal_value=-2.26939e-13 1.77954e-05 3.55989e-05 -6.84023e-08 -1.33918e-07 -2.30495e-05 -6.33743e-08 8.6266e-06 9.66295e-08 7.43633e-06 1.70864e-05 2.93109e-05 -8.92706e-09 -1.13885e-05 -1.63219e-06
internal_weight=518400 1985 1092 516415 512553 1573 510980 3862 2874 2278 1742 1223 510070 2669 1821
internal_count=518400 1985 1092 516415 512553 1573 510980 3862 2874 2278 1742 1223 510070 2669 1821
is_linear=0
shrinkage=0.1


Tree=11
num_leaves=16
num_cat=0
split_feature=0 7 10 3 0 2 11 4 15 0 10 8 0 12 12
split_gain=5.26109e-05 0.000127366 0.000128536 2.71889e-05 0.000120099 6.98978e-05 5.17016e-05 0.000141375 5.81845e-05 7.40531e-05 3.75582e-05 3.81607e-05 3.50661e-05 6.92884e-05 5.11382e-05
threshold=0.0052470083863497283 0.014715283662263825 0.76470588235296055 -0.0016742098103323386 0.0031418383275748645 0.0015970352475543905 -60.931395438234375 -0.0075967167944588901 21.041035353539623 -0.0022517169345147021 -0.7894736842105069 -0.0047101441042993733 0.0031418383275748645 71.752726518575528 57.487276747672794
decision_type=2 2 2 2 2 2 2 2 2 2 2 2 2 2 2
left_child=3 2 -2 4 5 6 8 -8 -1 10 11 -10 -5 14 -14
right_child=1 -3 -4 12 -6 -7 7 -9 9 -11 -12 -13 13 -15 -16
leaf_value=2.0698462590920168e-06 7.3231864811077694e-05 -2.5559272080944753e-05 9.0498319700436043e-06 -4.8438749522387264e-07 -4.6321105961814043e-05 3.504928695464325e-05 5.1364669506244272e-05 4.1101375825591273e-06 1.0864582277146077e-05 -1.7957211632981355e-06 -2.9986959703695186e-05 -1.9973191052788383e-05 6.8356559549150748e-06 -1.0630961165053376e-05 3.2399515171630405e-05
leaf_weight=40997 500 511 830 424298 521 629 649 25874 645 15505 1506 1062 2267 1411 1195
leaf_count=40997 500 511 830 424298 521 629 649 25874 645 15505 1506 1062 2267 1411 1195
internal_value=1.87785e-13 1.68748e-05 3.31784e-05 -6.01411e-08 1.54763e-06 1.83474e-06 1.59248e-06 5.26642e-06 -3.93436e-08 -4.65899e-06 -1.84763e-05 -8.32096e-06 -3.87517e-07 8.04711e-06 1.56597e-05
internal_weight=518400 1841 1330 516559 87388 86867 86238 26523 59715 18718 3213 1707 429171 4873 3462
internal_count=518400 1841 1330 516559 87388 86867 86238 26523 59715 18718 3213 1707 429171 4873 3462
is_linear=0
shrinkage=0.1


Tree=12
num_leaves=16
num_cat=0
split_feature=7 10 1 2 1 11 3 11 0 16 9 1 17 5 11
split_gain=4.91891e-05 6.59577e-05 5.48063e-05 2.71893e-05 7.35183e-05 9.02698e-05 4.29241e-05 6.08209e-05 4.49598e-05 6.60762e-05 5.23806e-05 4.38534e-05 7.42207e-05 7.03963e-05 7.61193e-05
threshold=-0.014088651956814633 -0.3076923076923323 -0.0071334904686673464 -0.0068757457988927731 -0.0037482280129663144 -82.953387335657411 -0.007911515004627832 -119.14893617023883 -0.0039792957088302652 71.296296296302174 -0.0048136347526945835 0.0074305339034638216 0.70878559790238349 0.0097544632560658835 177.40847230207444
decision_type=2 2 2 2 2 2 2 2 2 2 2 2 2 2 2
left_child=1 2 -1 4 5 -2 7 -5 9 10 -8 12 -10 -13 -15
right_child=3 -3 -4 6 -6 -7 8 -9 11 -11 -12 13 -14 14 -16
leaf_value=-2.3252590570598199e-05 -1.5247985830114351e-05 3.6013423060753573e-05 2.1413397034226862e-05 -4.4013020802263488e-06 -4.4443736844483948e-05 2.8421796591369959e-05 -1.1737687883354383e-05 4.3074277560917278e-05 -6.5749858197787884e-10 1.2799648446042801e-05 -5.29452987184445e-05 -8.1647078899394409e-06 -3.0734099197926458e-05 5.7940122963333313e-05 4.9384704143720692e-06
leaf_weight=543 1590 886 556 527 505 674 776 553 508091 569 512 747 787 548 536
leaf_count=543 1590 886 556 527 505 674 776 553 508091 569 512 747 787 548 536
internal_value=1.40819e-14 1.57116e-05 -6.55421e-07 -6.03925e-08 -9.94297e-06 -2.24735e-06 -7.11674e-09 1.9908e-05 -4.90787e-08 -1.55807e-05 -2.81184e-05 7.39632e-09 -4.8188e-08 1.54556e-05 3.17327e-05
internal_weight=518400 1985 1099 516415 2769 2264 513646 1080 512566 1857 1288 510709 508878 1831 1084
internal_count=518400 1985 1099 516415 2769 2264 513646 1080 512566 1857 1288 510709 508878 1831 1084
is_linear=0
shrinkage=0.1


Tree=13
num_leaves=16
num_cat=0
split_feature=17 0 11 9 17 9 14 2 3 9 6 0 9 17 0
split_gain=4.60316e-05 0.000248337 7.19567e-05 4.21267e-05 0.000114457 2.28884e-05 8.75137e-05 3.80432e-05 2.79049e-05 5.57849e-05 2.20015e-05 2.8608e-05 7.60932e-05 8.05358e-05 7.02271e-05
threshold=0.70878559790238349 0.004114379931373314 -33.930220383691413 0.016282078316056551 0.41366429385581366 0.012468566108915337 82.827866824106607 0.0059104332037877025 0.0079553763665674033 0.0069488404269995039 0.0071946986717620351 0.0014709651539096538 -0.0036267697944382666 0.25732360822648798 0.003500592112038015
decision_type=2 2 2 2 2 2 2 2 2 2 2 2 2 2 2
left_child=3 2 -2 5 -5 8 -7 -8 10 -10 11 -1 14 -14 -13
right_child=1 -3 -4 4 -6 6 7 -9 9 -11 -12 12 13 -15 -16
leaf_value=-1.3568381099793646e-07 -3.2631718939440614e-05 7.6058910452815891e-05 1.1978771289834964e-05 1.7303980125030934e-05 -3.8351733944168827e-05 3.8881933108117753e-05 -2.4463189557383417e-05 1.1612184803916056e-05 -3.2493369242032263e-05 2.3710273465836579e-06 -6.5974108878348754e-06 -3.9966786276645845e-06 1.7204129687585812e-06 1.4040847780982827e-05 -3.962030182687519e-05
leaf_weight=473879 583 502 952 608 942 704 563 608 788 1099 5013 3860 20494 7159 646
leaf_count=473879 583 502 952 608 942 704 563 608 788 1099 5013 3860 20494 7159 646
internal_value=7.83885e-15 1.5003e-05 -4.9645e-06 -5.91852e-08 -1.65203e-05 -9.62399e-09 1.10188e-05 -5.73234e-06 -4.99376e-08 -1.21881e-05 -5.11857e-09 6.01871e-08 2.94644e-06 4.91001e-06 -9.10384e-06
internal_weight=518400 2037 1535 516363 1550 514813 1875 1171 512938 1887 511051 506038 32159 27653 4506
internal_count=518400 2037 1535 516363 1550 514813 1875 1171 512938 1887 511051 506038 32159 27653 4506
is_linear=0
shrinkage=0.1


end of trees

feature_importances:
ret1min=32
natr=25
bop=16
ret8min=13
ret10min=13
slowk=13
ret4min=12
ret5min=12
ret2min=11
rsi=11
cci=10
ret3min=9
slowd=8
ret7min=7
stochrsi=7
mfi=6
ret9min=3
ret6min=2

parameters:
[boosting: gbdt]
[objective: regression]
[metric: rmse]
[tree_learner: serial]
[device_type: cpu]
[data_sample_strategy: bagging]
[data: ]
[valid: ]
[num_iterations: 50]
[learning_rate: 0.1]
[num_leaves: 16]
[num_threads: 0]
[seed: 42]
[deterministic: 0]
[force_col_wise: 0]
[force_row_wise: 0]
[histogram_pool_size: -1]
[max_depth: -1]
[min_data_in_leaf: 500]
[min_sum_hessian_in_leaf: 0.001]
[bagging_fraction: 1]
[pos_bagging_fraction: 1]
[neg_bagging_fraction: 1]
[bagging_freq: 0]
[bagging_seed: 400]
[bagging_by_query: 0]
[feature_fraction: 0.8]
[feature_fraction_bynode: 1]
[feature_fraction_seed: 30056]
[extra_trees: 0]
[extra_seed: 12879]
[early_stopping_round: 0]
[early_stopping_min_delta: 0]
[first_metric_only: 0]
[max_delta_step: 0]
[lambda_l1: 0]
[lambda_l2: 0]
[linear_lambda: 0]
[min_gain_to_split: 0]
[drop_rate: 0.1]
[max_drop: 50]
[skip_drop: 0.5]
[xgboost_dart_mode: 0]
[uniform_drop: 0]
[drop_seed: 17869]
[top_rate: 0.2]
[other_rate: 0.1]
[min_data_per_group: 100]
[max_cat_threshold: 32]
[cat_l2: 10]
[cat_smooth: 10]
[max_cat_to_onehot: 4]
[top_k: 20]
[monotone_constraints: ]
[monotone_constraints_method: basic]
[monotone_penalty: 0]
[feature_contri: ]
[forcedsplits_filename: ]
[refit_decay_rate: 0.9]
[cegb_tradeoff: 1]
[cegb_penalty_split: 0]
[cegb_penalty_feature_lazy: ]
[cegb_penalty_feature_coupled: ]
[path_smooth: 0]
[interaction_constraints: ]
[verbosity: -1]
[saved_feature_importance_type: 0]
[use_quantized_grad: 0]
[num_grad_quant_bins: 4]
[quant_train_renew_leaf: 0]
[stochastic_rounding: 1]
[linear_tree: 0]
[max_bin: 255]
[max_bin_by_feature: ]
[min_data_in_bin: 3]
[bin_construct_sample_cnt: 200000]
[data_random_seed: 175]
[is_enable_sparse: 1]
[enable_bundle: 1]
[use_missing: 1]
[zero_as_missing: 0]
[feature_pre_filter: 1]
[pre_partition: 0]
[two_round: 0]
[header: 0]
[label_column: ]
[weight_column: ]
[group_column: ]
[ignore_column: ]
[categorical_feature: ]
[forcedbins_filename: ]
[precise_float_parser: 0]
[parser_config_file: ]
[objective_seed: 16083]
[num_class: 1]
[is_unbalance: 0]
[scale_pos_weight: 1]
[sigmoid: 1]
[boost_from_average: 1]
[reg_sqrt: 0]
[alpha: 0.9]
[fair_c: 1]
[poisson_max_delta_step: 0.7]
[tweedie_variance_power: 1.5]
[lambdarank_truncation_level: 30]
[lambdarank_norm: 1]
[label_gain: ]
[lambdarank_position_bias_regularization: 0]
[eval_at: ]
[multi_error_top_k: 1]
[auc_mu_weights: ]
[num_machines: 1]
[local_listen_port: 12400]
[time_out: 120]
[machine_list_filename: ]
[machines: ]
[gpu_platform_id: -1]
[gpu_device_id: -1]
[gpu_use_dp: 0]
[num_gpu: 1]

end of parameters

pandas_categorical:[]
