tree
version=v4
num_class=1
num_tree_per_iteration=1
label_index=0
max_feature_idx=17
objective=regression
feature_names=ret1min ret2min ret3min ret4min ret5min ret6min ret7min ret8min ret9min ret10min bop cci mfi rsi stochrsi slowk slowd natr
feature_infos=[-0.066962868930498298:0.030200142959256659] [-0.088994424943217076:0.044085378017155508] [-0.10324179227751396:0.068623481781376672] [-0.11240547721234417:0.06792664670658688] [-0.11745580166632796:0.079848628192999094] [-0.11825622181393014:0.084314069910416123] [-0.11972652993163246:0.10212462060346361] [-0.12584865043881432:0.092248803827751136] [-0.12844642562324582:0.12165991902834006] [-0.12873411454035311:0.11208832335329344] [-1:1] [-612.50542232136638:660.75313807537168] [0:100] [2.8118406157262683:97.816926201371714] [0:100] [0:100] [0:100] [0.022198037148179736:2.7316498346440423]
tree_sizes=1728 1747 1737 1731 1715 1716 1733

Tree=0
num_leaves=16
num_cat=0
split_feature=9 16 15 3 14 13 0 9 12 15 0 10 8 1 17
split_gain=0.000161504 0.000215462 0.000357794 0.00011093 0.000159099 7.27636e-05 0.000123554 5.1828e-05 6.30619e-05 3.35491e-05 2.26624e-05 2.21026e-05 2.82198e-05 4.67007e-05 3.71552e-05
threshold=-0.01192996727514972 30.555555555559433 13.725490196081449 0.0077705163881707237 97.158442491114315 26.438161479978451 -0.0026498503093669852 0.011801944532461641 70.371195538702906 89.220295606169785 -0.0014460590118006709 -0.43669871794869114 0.003908618679681398 -0.0020823507427809025 0.24557298596791091
decision_type=2 2 2 2 2 2 2 2 2 2 2 2 2 2 2
left_child=1 2 -1 5 -5 6 -2 11 -9 -6 -8 12 14 -14 -7
right_child=3 -3 -4 4 9 7 10 8 -10 -11 -12 -13 13 -15 -16
leaf_value=4.2003882416577292e-06 5.0458235205101628e-05 -2.3865251234291417e-05 0.0001036203751208583 6.8799154195785524e-05 2.0260436055350295e-05 2.4529851829993937e-06 1.9419998672898177e-05 6.7751951672396755e-06 -4.0132393744498697e-05 -1.4144144763850337e-05 4.2166530248813027e-06 8.819707875343538e-07 3.8588165628303923e-05 6.2130692853722804e-06 -5.8982857264016351e-06
leaf_weight=786 726 542 671 592 638 138192 1199 506 661 510 5379 359257 535 2665 5541
leaf_count=786 726 542 671 592 638 138192 1199 506 661 510 5379 359257 535 2665 5541
internal_value=1.59374e-06 2.99629e-05 4.99868e-05 1.48392e-06 2.66907e-05 1.3987e-06 1.13087e-05 1.25603e-06 -1.97937e-05 4.97617e-06 6.98783e-06 1.30456e-06 2.33782e-06 1.16258e-05 2.13104e-06
internal_weight=518400 1999 1457 516401 1740 514661 7304 507357 1167 1148 6578 506190 146933 3200 143733
internal_count=518400 1999 1457 516401 1740 514661 7304 507357 1167 1148 6578 506190 146933 3200 143733
is_linear=0
shrinkage=1


Tree=1
num_leaves=16
num_cat=0
split_feature=9 12 1 13 17 13 0 4 9 6 10 13 4 7 10
split_gain=0.000130818 0.000193574 0.000216152 5.97951e-05 6.76068e-05 5.8825e-05 0.000100079 6.93495e-05 4.64688e-05 6.40047e-05 4.21684e-05 2.97001e-05 3.02159e-05 2.92057e-05 2.88381e-05
threshold=-0.01192996727514972 20.43736710732389 -0.0020823507427809025 79.637328956674835 0.18355989719717306 26.438161479978451 -0.0026498503093669852 -0.0084609189573843207 0.011801944532461641 0.0099268256287675678 0.083333333333341059 64.071685897256984 0.0056061864492096278 0.0052280071910347789 0.56294014084508393
decision_type=2 2 2 2 2 2 2 2 2 2 2 2 2 2 2
left_child=1 -1 -3 5 -5 6 -2 -7 9 11 -10 12 -9 -13 -14
right_child=3 2 -4 4 -6 7 -8 8 10 -11 -12 13 14 -15 -16
leaf_value=6.0516174203551393e-05 4.3978050984371684e-05 -4.460720523265959e-05 4.3468624052650075e-05 5.8988173034045403e-06 4.6739409398006497e-05 -3.2591582612885264e-05 4.8546830003829788e-06 -4.0091771049238094e-08 -4.0086532125640408e-05 3.0662879023444357e-05 -4.956993495306564e-06 -1.8072016268540415e-06 2.3462995044867686e-05 -1.0322056268048655e-05 -2.5650816803430596e-06
leaf_weight=883 726 578 538 1503 555 664 6578 452916 545 671 916 45131 1063 4423 710
leaf_count=883 726 578 538 1503 555 664 6578 452916 545 671 916 45131 1063 4423 710
internal_value=1.85068e-13 2.55322e-05 -2.14771e-06 -9.88357e-08 1.69127e-05 -1.66903e-07 8.74345e-06 -2.95258e-07 -2.52908e-07 -2.01378e-07 -1.80614e-05 -2.4245e-07 1.09124e-08 -2.5672e-06 1.304e-05
internal_weight=518400 1999 1116 516401 2058 514343 7304 507039 506375 504914 1461 504243 454689 49554 1773
internal_count=518400 1999 1116 516401 2058 514343 7304 507039 506375 504914 1461 504243 454689 49554 1773
is_linear=0
shrinkage=0.1


Tree=2
num_leaves=16
num_cat=0
split_feature=3 14 9 10 14 13 3 4 9 10 16 1 5 17 15
split_gain=0.000106254 0.00017171 8.24443e-05 0.000140262 0.00012113 4.77901e-05 7.27583e-05 5.34585e-05 5.10833e-05 4.59953e-05 3.03011e-05 2.01669e-05 5.86271e-05 4.4271e-05 4.28999e-05
threshold=0.0077705163881707237 92.555776174950893 -0.01192996727514972 -0.63636363636366033 7.4619709628914341 26.438161479978451 -0.0059442670558514923 -0.0084609189573843207 0.011801944532461641 0.18350168350173396 74.968227268485435 -0.0011485137693512668 0.002068644521292629 0.24557298596791091 49.122807017546748
decision_type=2 2 2 2 2 2 2 2 2 2 2 2 2 2 2
left_child=2 -2 3 -1 -5 6 -4 -7 11 -10 -3 12 13 -9 -15
right_child=1 10 5 4 -6 7 -8 8 9 -11 -12 -13 -14 14 -16
leaf_value=6.5861490035272843e-05 7.083760694466945e-05 2.1690028688517027e-05 3.8695854725800853e-05 -2.9082347413588922e-05 3.0271913304519593e-05 -2.8654878828597298e-05 4.6376841312861106e-06 2.1139869066267363e-06 -4.2970230174927096e-05 -2.7233929121012583e-06 -9.2992588763595277e-06 -4.0363146705751083e-07 1.7028744745854921e-05 -1.3409512781878728e-05 3.638452407132804e-06
leaf_weight=505 549 554 693 610 788 663 6611 41992 529 613 733 454927 2378 3868 2387
leaf_count=505 549 554 693 610 788 663 6611 41992 529 613 733 454927 2378 3868 2387
internal_value=-6.62708e-14 2.4014e-05 -8.53521e-08 2.06905e-05 4.37342e-06 -1.62173e-07 7.86911e-06 -2.77792e-07 -2.40661e-07 -2.13666e-05 4.04034e-06 -1.9294e-07 1.70038e-06 9.44878e-07 -6.90376e-06
internal_weight=518400 1836 516564 1903 1398 514661 7304 507357 506694 1142 1287 505552 50625 48247 6255
internal_count=518400 1836 516564 1903 1398 514661 7304 507357 506694 1142 1287 505552 50625 48247 6255
is_linear=0
shrinkage=0.1


Tree=3
num_leaves=16
num_cat=0
split_feature=0 1 10 10 1 9 13 9 2 13 15 10 13 6 1
split_gain=0.000101952 0.000156844 0.000116816 0.00010622 8.24399e-05 7.61548e-05 8.93191e-05 5.47153e-05 5.1292e-05 3.15403e-05 4.53782e-05 5.5964e-05 2.99851e-05 3.75086e-05 4.1959e-05
threshold=-0.0030999547982902827 -0.0054710927765975739 -0.81818181818181579 -0.72727272727274628 -0.0054710927765975739 -0.01192996727514972 31.761942452189974 -0.0032207484060045584 -0.0033504979941568198 79.637328956674835 91.287837979018789 0.65853658536583437 64.071685897256984 0.0076449816257713197 0.0032751138851262467
decision_type=2 2 2 2 2 2 2 2 2 2 2 2 2 2 2
left_child=1 3 7 -1 -2 6 -6 -3 -4 12 -11 -12 -7 -14 -15
right_child=4 2 8 -5 5 9 -8 -9 -10 10 11 -13 13 14 -16
leaf_value=7.3567477772817425e-05 -3.5490569309530515e-05 -4.5508524038211186e-05 5.0177018398706743e-06 1.4623412769755476e-05 5.6520678727465149e-05 7.6603365789556284e-08 -1.0524235673486965e-06 4.1680695450301941e-07 4.5077400112258594e-05 3.0868472169324665e-05 -1.9576311070231677e-05 2.285474394813638e-05 -1.9910104044566538e-06 -2.4130134011193463e-06 -3.4535046083259415e-05
leaf_weight=649 658 538 779 578 516 460458 564 501 542 799 662 586 48936 872 762
leaf_count=649 658 538 779 578 516 460458 564 501 542 799 662 586 48936 872 762
internal_value=-2.40613e-13 1.68006e-05 1.72287e-06 4.58008e-05 -1.17059e-07 -7.17895e-08 2.64547e-05 -2.33636e-05 2.1454e-05 -1.27627e-07 1.22605e-05 3.47245e-07 -1.77249e-07 -2.48867e-06 -1.73928e-05
internal_weight=518400 3587 2360 1227 514813 514155 1080 1039 1321 513075 2047 1248 511028 50570 1634
internal_count=518400 3587 2360 1227 514813 514155 1080 1039 1321 513075 2047 1248 511028 50570 1634
is_linear=0
shrinkage=0.1


Tree=4
num_leaves=16
num_cat=0
split_feature=0 8 15 14 12 1 9 13 17 11 15 4 12 1 12
split_gain=8.25808e-05 0.000129318 0.000129909 0.000155653 8.22802e-05 6.67764e-05 6.16854e-05 7.23485e-05 2.7573e-05 5.92335e-05 6.41725e-05 6.703e-05 4.29798e-05 2.73382e-05 2.53572e-05
threshold=-0.0030999547982902827 -0.0087412895086311764 62.69841269841762 5.465557231641359 20.43736710732389 -0.0054710927765975739 -0.01192996727514972 31.761942452189974 0.34013164226008885 -35.576696832576545 92.759906391615615 0.0084814884249732065 31.539750680239113 -0.00099637982108646806 29.05738843850764
decision_type=2 2 2 2 2 2 2 2 2 2 2 2 2 2 2
left_child=1 4 3 14 -1 -2 7 -7 -8 12 11 -11 -10 -14 -3
right_child=5 2 -4 -5 -6 6 8 -9 9 10 -12 -13 13 -15 -16
leaf_value=7.1084482432951388e-05 -3.1941513327316151e-05 2.2016013579729328e-05 3.5937277761183389e-05 -5.9924727554991369e-05 1.6881876557699404e-05 5.0868611263700418e-05 -2.0508291735141587e-07 -9.4718161401665417e-07 8.1899858597038386e-06 9.6727183177320271e-06 -2.3339951200530706e-05 4.3259896161642853e-05 -3.9705037239161123e-05 -7.4329114670951987e-06 -7.3594403506370842e-06
leaf_weight=546 658 557 784 503 575 516 505420 564 757 4661 505 681 509 542 622
leaf_count=546 658 557 784 503 575 516 505420 564 757 4661 505 681 509 542 622
internal_value=-2.26931e-13 1.51205e-05 2.31875e-06 -1.33512e-05 4.32821e-05 -1.05354e-07 -6.46106e-08 2.38093e-05 -1.14864e-07 5.84183e-06 1.07333e-05 1.39544e-05 -9.97715e-06 -2.30623e-05 6.51853e-06
internal_weight=518400 3587 2466 1682 1121 514813 514155 1080 513075 7655 5847 5342 1808 1051 1179
internal_count=518400 3587 2466 1682 1121 514813 514155 1080 513075 7655 5847 5342 1808 1051 1179
is_linear=0
shrinkage=0.1


Tree=5
num_leaves=16
num_cat=0
split_feature=3 14 7 12 13 12 7 10 15 17 9 9 12 12 1
split_gain=7.93182e-05 0.000134152 6.76612e-05 0.000107237 0.000186386 0.000105903 6.99529e-05 6.54703e-05 4.69758e-05 3.72431e-05 3.41562e-05 3.02277e-05 4.75701e-05 2.62432e-05 4.28966e-05
threshold=0.0077705163881707237 92.555776174950893 -0.0063352653144623785 22.232021985792823 20.899431721265376 24.900535463721322 -0.010695059040382702 -0.69999999999995821 14.358974358979259 0.24557298596791091 -0.009157027590097953 0.011801944532461641 70.371195538702906 29.05738843850764 -0.0029783572835479495
decision_type=2 2 2 2 2 2 2 2 2 2 2 2 2 2 2
left_child=2 -2 3 4 -1 -5 -7 -6 9 -9 -4 -12 -13 -8 -15
right_child=1 -3 10 5 7 6 13 8 -10 -11 11 12 -14 14 -16
leaf_value=6.1029738999582544e-05 6.2135267691157924e-05 3.0935211415712873e-06 -2.532801467296377e-05 -4.1450181914987358e-05 4.0807683981667099e-05 3.0595605826297163e-05 1.4860499209950782e-05 3.7782437491070987e-06 1.6805628369323791e-05 -3.2772285233461657e-05 -1.5101475900489199e-07 6.9278054579971685e-06 -3.3941033288184288e-05 -2.8115539323182337e-05 1.8502450544679923e-06
leaf_weight=912 549 1287 541 574 504 814 655 597 966 523 507150 501 660 711 1456
leaf_count=912 549 1287 541 574 504 814 655 597 966 523 507150 501 660 711 1456
internal_value=-4.37201e-13 2.07482e-05 -7.37447e-08 9.22277e-06 2.2152e-05 -1.5321e-06 4.7696e-06 8.46217e-06 6.47144e-07 -1.32895e-05 -2.1464e-07 -1.87911e-07 -1.63051e-05 -2.67986e-06 -7.98163e-06
internal_weight=518400 1836 516564 7712 3502 4210 3636 2590 2086 1120 508852 508311 1161 2822 2167
internal_count=518400 1836 516564 7712 3502 4210 3636 2590 2086 1120 508852 508311 1161 2822 2167
is_linear=0
shrinkage=0.1


Tree=6
num_leaves=16
num_cat=0
split_feature=0 1 1 17 13 6 10 10 5 5 13 6 13 15 10
split_gain=6.09277e-05 0.000137937 9.51532e-05 8.96778e-05 8.27106e-05 9.71697e-05 9.57072e-05 7.77212e-05 5.46328e-05 5.32006e-05 4.18572e-05 6.7365e-05 2.37867e-05 3.37276e-05 4.53175e-05
threshold=-0.0023636671279868011 -0.0054710927765975739 -0.0042455912301226908 0.32163253819434928 29.074559327627409 -0.0010103731690729865 -0.72727272727274628 -0.72727272727274628 -0.0061070875132024352 -0.0092810057828704422 33.683739911408232 -0.0028951912419099553 79.637328956674835 91.287837979018789 0.65853658536583437
decision_type=2 2 2 2 2 2 2 2 2 2 2 2 2 2 2
left_child=1 7 3 -2 -3 8 -7 -1 -6 -4 -10 -12 -11 -14 -15
right_child=2 4 9 -5 5 6 -8 -9 10 12 11 -13 13 14 -16
leaf_value=6.0665234983479685e-05 -4.7131009511522258e-06 2.5293362414259254e-05 2.8017716915041939e-05 -5.7236073825078482e-05 -4.1694870463207805e-05 -1.3660923144779373e-06 5.0818829896995851e-05 1.3709333814029973e-05 -3.2437334635595907e-05 -1.3922380831020104e-07 1.6220266372566044e-05 -2.2530536904621585e-05 2.6721191489629926e-05 -1.7530462600037239e-05 2.06518873719905e-05
leaf_weight=705 773 1230 674 561 596 1051 528 705 534 507171 1033 793 798 662 586
leaf_count=705 773 1230 674 561 596 1051 528 705 534 507171 1033 793 798 662 586
internal_value=-4.80835e-14 9.15103e-06 -1.28434e-07 -2.68011e-05 2.29394e-06 -3.94405e-06 1.6084e-05 3.71873e-05 -1.46424e-05 -5.86517e-08 -7.81047e-06 -6.08533e-07 -9.58136e-08 1.06649e-05 3.98109e-07
internal_weight=518400 7175 511225 1334 5765 4535 1579 1410 2956 509891 2360 1826 509217 2046 1248
internal_count=518400 7175 511225 1334 5765 4535 1579 1410 2956 509891 2360 1826 509217 2046 1248
is_linear=0
shrinkage=0.1


end of trees

feature_importances:
rsi=13
bop=12
ret2min=11
ret10min=11
mfi=9
slowk=8
ret1min=6
natr=6
stochrsi=5
ret4min=4
ret5min=4
ret7min=4
ret6min=3
ret8min=3
ret9min=2
slowd=2
ret3min=1
cci=1

parameters:
[boosting: gbdt]
[objective: regression]
[metric: rmse]
[tree_learner: serial]
[device_type: cpu]
[data_sample_strategy: bagging]
[data: ]
[valid: ]
[num_iterations: 50]
[learning_rate: 0.1]
[num_leaves: 16]
[num_threads: 0]
[seed: 42]
[deterministic: 0]
[force_col_wise: 0]
[force_row_wise: 0]
[histogram_pool_size: -1]
[max_depth: -1]
[min_data_in_leaf: 500]
[min_sum_hessian_in_leaf: 0.001]
[bagging_fraction: 1]
[pos_bagging_fraction: 1]
[neg_bagging_fraction: 1]
[bagging_freq: 0]
[bagging_seed: 400]
[bagging_by_query: 0]
[feature_fraction: 0.8]
[feature_fraction_bynode: 1]
[feature_fraction_seed: 30056]
[extra_trees: 0]
[extra_seed: 12879]
[early_stopping_round: 0]
[early_stopping_min_delta: 0]
[first_metric_only: 0]
[max_delta_step: 0]
[lambda_l1: 0]
[lambda_l2: 0]
[linear_lambda: 0]
[min_gain_to_split: 0]
[drop_rate: 0.1]
[max_drop: 50]
[skip_drop: 0.5]
[xgboost_dart_mode: 0]
[uniform_drop: 0]
[drop_seed: 17869]
[top_rate: 0.2]
[other_rate: 0.1]
[min_data_per_group: 100]
[max_cat_threshold: 32]
[cat_l2: 10]
[cat_smooth: 10]
[max_cat_to_onehot: 4]
[top_k: 20]
[monotone_constraints: ]
[monotone_constraints_method: basic]
[monotone_penalty: 0]
[feature_contri: ]
[forcedsplits_filename: ]
[refit_decay_rate: 0.9]
[cegb_tradeoff: 1]
[cegb_penalty_split: 0]
[cegb_penalty_feature_lazy: ]
[cegb_penalty_feature_coupled: ]
[path_smooth: 0]
[interaction_constraints: ]
[verbosity: -1]
[saved_feature_importance_type: 0]
[use_quantized_grad: 0]
[num_grad_quant_bins: 4]
[quant_train_renew_leaf: 0]
[stochastic_rounding: 1]
[linear_tree: 0]
[max_bin: 255]
[max_bin_by_feature: ]
[min_data_in_bin: 3]
[bin_construct_sample_cnt: 200000]
[data_random_seed: 175]
[is_enable_sparse: 1]
[enable_bundle: 1]
[use_missing: 1]
[zero_as_missing: 0]
[feature_pre_filter: 1]
[pre_partition: 0]
[two_round: 0]
[header: 0]
[label_column: ]
[weight_column: ]
[group_column: ]
[ignore_column: ]
[categorical_feature: ]
[forcedbins_filename: ]
[precise_float_parser: 0]
[parser_config_file: ]
[objective_seed: 16083]
[num_class: 1]
[is_unbalance: 0]
[scale_pos_weight: 1]
[sigmoid: 1]
[boost_from_average: 1]
[reg_sqrt: 0]
[alpha: 0.9]
[fair_c: 1]
[poisson_max_delta_step: 0.7]
[tweedie_variance_power: 1.5]
[lambdarank_truncation_level: 30]
[lambdarank_norm: 1]
[label_gain: ]
[lambdarank_position_bias_regularization: 0]
[eval_at: ]
[multi_error_top_k: 1]
[auc_mu_weights: ]
[num_machines: 1]
[local_listen_port: 12400]
[time_out: 120]
[machine_list_filename: ]
[machines: ]
[gpu_platform_id: -1]
[gpu_device_id: -1]
[gpu_use_dp: 0]
[num_gpu: 1]

end of parameters

pandas_categorical:[]
