tree
version=v4
num_class=1
num_tree_per_iteration=1
label_index=0
max_feature_idx=17
objective=regression
feature_names=ret1min ret2min ret3min ret4min ret5min ret6min ret7min ret8min ret9min ret10min bop cci mfi rsi stochrsi slowk slowd natr
feature_infos=[-0.072141873278236845:0.052827380952380931] [-0.10203496703926618:0.076381909547738713] [-0.11425414364640885:0.12026800670016757] [-0.13639301874595999:0.078443579766537042] [-0.15425195188858409:0.1509212730318259] [-0.18368942157373624:0.16063651591289774] [-0.1839020578275592:0.15477386934673376] [-0.18443316412859556:0.09934619677882317] [-0.18155694879832796:0.11237354085603113] [-0.17509215376513954:0.12092220828105416] [-1:1] [-506.60004164060337:683.46624136095545] [0:100] [5.3412323744376522:95.338415414905427] [0:100] [0:100] [0.32679738562358668:99.603174603178502] [0.035005592766700844:4.6001772490351378]
tree_sizes=1740 1762 1751 1738 1783 1756 1743 1736 1723 1726 1758

Tree=0
num_leaves=16
num_cat=0
split_feature=0 15 17 1 8 8 17 13 17 12 17 0 14 3 0
split_gain=0.000321022 0.000239721 0.000232238 0.000124754 0.00011546 9.81149e-05 0.000101656 7.28198e-05 7.14126e-05 6.41438e-05 0.000106768 7.84391e-05 6.28714e-05 0.000115449 8.012e-05
threshold=0.0058369565601302806 51.773049645394742 0.43269053644119843 0.0011476115361198638 -0.012820798792389175 -0.0027058420389101108 0.76162792005557345 68.51094395350033 0.21750303431467824 92.483575384257406 0.19563109838522119 -0.0026697227979971534 37.831592358419464 -0.0049989441960315842 0.0021661473011446168
decision_type=2 2 2 2 2 2 2 2 2 2 2 2 2 2 2
left_child=3 -2 -3 5 -5 6 12 -7 -9 11 -11 -6 14 -14 -1
right_child=1 2 -4 4 9 7 -8 8 -10 10 -12 -13 13 -15 -16
leaf_value=2.9340494666150254e-06 9.2460105794950565e-05 5.7660137879394581e-05 -2.8384262855575164e-05 4.3401133774625878e-05 -4.299642266058327e-05 -3.2784974040140708e-07 -3.8391456899434599e-05 -4.7318202275700904e-06 -2.6257451508619473e-05 -1.1167346848847344e-05 5.063860671890021e-05 -4.0909486007519029e-06 5.7193961571481625e-05 8.6852803576038052e-06 -3.5079698672428838e-05
leaf_weight=68064 609 648 608 516 521 329929 579 7068 1971 558 560 97004 520 8686 559
leaf_count=68064 609 648 608 516 521 329929 579 7068 1971 558 560 97004 520 8686 559
internal_value=-4.41016e-07 4.09728e-05 1.60081e-05 -5.90545e-07 -3.77896e-06 1.6695e-07 3.35484e-06 -5.70452e-07 -9.42559e-06 -4.02576e-06 1.97909e-05 -4.29879e-06 3.6654e-06 1.14253e-05 2.62439e-06
internal_weight=518400 1865 1256 516535 99159 417376 78408 338968 9039 98643 1118 97525 77829 9206 68623
internal_count=518400 1865 1256 516535 99159 417376 78408 338968 9039 98643 1118 97525 77829 9206 68623
is_linear=0
shrinkage=1


Tree=1
num_leaves=16
num_cat=0
split_feature=1 15 15 1 8 2 9 9 13 4 0 17 17 9 7
split_gain=0.000262999 0.000255788 0.00022389 0.000108212 8.42901e-05 6.62924e-05 6.16003e-05 6.79856e-05 5.77747e-05 8.53986e-05 6.42509e-05 6.78619e-05 5.88553e-05 5.66218e-05 6.13188e-05
threshold=0.0082435858352254438 57.378179453775665 80.589791465480218 0.0011476115361198638 -0.0027058420389101108 0.00285107767705628 -0.013543648127870898 -0.0096633921012002615 66.803990366319255 0.0085170731427121078 -0.0041708873405629223 0.64634222427930477 0.36034297805788468 -0.002470467134201348 -0.015306581843974874
decision_type=2 2 2 2 2 2 2 2 2 2 2 2 2 2 2
left_child=3 -2 -3 4 5 13 -5 -8 9 10 -6 -12 -10 14 -1
right_child=1 2 -4 6 8 -7 7 -9 12 -11 11 -13 -14 -15 -16
leaf_value=2.2127945545864743e-05 9.8071138740718624e-05 -3.6912905327212572e-05 4.5696374159892472e-05 3.1251110977232527e-05 -2.6912929884674279e-05 -3.0429075718729033e-05 -3.1202598909374375e-05 -3.0436460956140879e-06 -4.8348440640500533e-06 4.1446046984157195e-05 9.8870658471550709e-08 3.4483539257611603e-05 -3.2365990549371205e-05 1.0949546376976689e-05 2.2938148905483484e-06
leaf_weight=1596 505 521 886 519 879 571 865 97593 12714 500 323499 575 827 9625 66725
leaf_count=1596 505 521 886 519 879 571 865 97593 12714 500 323499 575 827 9625 66725
internal_value=-1.02998e-12 3.70195e-05 1.51069e-05 -1.37044e-07 5.67716e-07 3.52007e-06 -3.10991e-06 -3.29104e-06 -1.16102e-07 1.50188e-07 8.66468e-08 1.59879e-07 -6.51628e-06 3.76877e-06 2.75715e-06
internal_weight=518400 1912 1407 516488 417511 78517 98977 98458 338994 325453 324953 324074 13541 77946 68321
internal_count=518400 1912 1407 516488 417511 78517 98977 98458 338994 325453 324953 324074 13541 77946 68321
is_linear=0
shrinkage=0.1


Tree=2
num_leaves=16
num_cat=0
split_feature=1 10 17 3 6 10 2 1 13 4 17 3 17 5 4
split_gain=0.000213029 0.000223521 0.000202793 0.000106676 8.38252e-05 0.000370518 0.000147685 9.73466e-05 6.63435e-05 6.49688e-05 5.74199e-05 5.65096e-05 5.18049e-05 0.00012288 4.67422e-05
threshold=0.0082435858352254438 0.61715261360652607 0.41939753771929617 -0.001653930868974973 -0.014333544293975707 -0.4285714285714271 -0.0091082458751957623 -0.0074167994200112211 64.661678388038766 -0.002413566787015486 0.2893273735170126 0.00090257233341306542 0.44871400518016291 0.010866845909673796 0.0085170731427121078
decision_type=2 2 2 2 2 2 2 2 2 2 2 2 2 2 2
left_child=3 -2 -3 4 5 -1 7 -6 9 10 -5 -12 -10 -14 -11
right_child=1 2 -4 8 6 -7 -8 -9 12 14 11 -13 13 -15 -16
leaf_value=6.8305931135127543e-05 7.446296846693968e-05 4.9598234683595103e-05 -3.5213872121290329e-05 -3.5690945156156133e-06 -6.1874403672743951e-05 -2.3890651509084393e-05 2.8489446993320242e-06 -2.0624107636498286e-06 -3.9705440149630563e-06 -2.4121245667466708e-07 -2.608653662733149e-05 9.4869397616429771e-06 -6.0799073793466866e-05 6.1333482456454592e-06 1.5985425773888718e-05
leaf_weight=918 781 535 596 8369 586 830 96399 508 42234 360744 2472 545 527 572 1784
leaf_count=918 781 535 596 8369 586 830 96399 508 42234 360744 2472 545 527 572 1784
internal_value=1.10224e-13 3.33176e-05 4.90503e-06 -1.23339e-07 2.82348e-06 2.45284e-05 2.43432e-06 -3.41006e-05 -8.24231e-07 -3.94966e-07 -7.83289e-06 -1.96604e-05 -4.5283e-06 -2.59625e-05 -1.61361e-07
internal_weight=518400 1912 1131 516488 99241 1748 97493 1094 417247 373914 11386 3017 43333 1099 362528
internal_count=518400 1912 1131 516488 99241 1748 97493 1094 417247 373914 11386 3017 43333 1099 362528
is_linear=0
shrinkage=0.1


Tree=3
num_leaves=16
num_cat=0
split_feature=0 15 17 8 3 16 13 15 3 0 7 12 0 17 17
split_gain=0.000231532 0.000186701 0.000172929 8.44604e-05 9.16897e-05 8.27459e-05 0.00010903 7.66536e-05 7.37304e-05 0.000109158 8.97977e-05 0.000234875 0.000108245 0.000143772 6.82844e-05
threshold=0.0058369565601302806 51.773049645394742 0.43269053644119843 0.0050946770694714214 0.0089778562423449299 90.880738117933547 62.987224077813309 71.250000000003794 -0.001653930868974973 0.0034960669792130088 -0.015306581843974874 23.257314830715156 -0.0041708873405629223 0.3677937958442099 0.64634222427930477
decision_type=2 2 2 2 2 2 2 2 2 2 2 2 2 2 2
left_child=3 -2 -3 8 7 6 -6 -5 9 10 11 -1 13 -12 -14
right_child=1 2 -4 4 5 -7 -8 -9 -10 -11 12 -13 14 -15 -16
leaf_value=5.6983316159386492e-05 8.0608952760758714e-05 4.9081350966900331e-05 -2.5167497837903858e-05 -1.9462685341989334e-05 4.0780027034981512e-05 4.5329297440160161e-05 -1.2897819576032437e-05 -4.6021331093533517e-06 -4.1450244783612284e-07 -4.3889766254483813e-05 -4.0410182621108558e-05 -2.2584286549886202e-05 2.8408485393946047e-06 8.9543879660713286e-06 3.6883851718189682e-05
leaf_weight=972 609 648 608 4008 536 614 1287 25910 387077 501 1329 600 92047 1061 593
leaf_count=972 609 648 608 4008 536 614 1287 25910 387077 501 1329 600 92047 1061 593
internal_value=1.22625e-13 3.51709e-05 1.31392e-05 -1.26988e-07 -5.07362e-06 1.35785e-05 2.88459e-06 -6.59294e-06 2.03567e-07 2.66735e-06 2.90881e-06 2.6614e-05 2.51667e-06 -1.84956e-05 3.05876e-06
internal_weight=518400 1865 1256 516535 32355 2437 1823 29918 484180 97103 96602 1572 95030 2390 92640
internal_count=518400 1865 1256 516535 32355 2437 1823 29918 484180 97103 96602 1572 95030 2390 92640
is_linear=0
shrinkage=0.1


Tree=4
num_leaves=16
num_cat=0
split_feature=0 17 17 1 8 12 4 17 0 12 0 8 4 0 8
split_gain=0.000187541 0.000185062 0.000130864 7.54963e-05 7.2312e-05 5.85952e-05 6.96992e-05 6.10375e-05 5.59691e-05 5.15223e-05 4.78407e-05 4.66538e-05 5.82791e-05 6.46927e-05 4.42527e-05
threshold=0.0058369565601302806 0.64634222427930477 0.43269053644119843 0.0011884254563562238 -0.012820798792389175 71.640833415998429 0.0075052664757510055 0.76162792005557345 -0.0026697227979971534 34.000473976056604 0.0045503885143257658 -0.0027058420389101108 0.00011644154792256335 -0.0022061334012038465 0.0038806169873235601
decision_type=2 2 2 2 2 2 2 2 2 2 2 2 2 2 2
left_child=3 2 -2 5 -5 6 7 11 -6 -10 14 -1 13 -13 -11
right_child=1 -3 -4 4 8 -7 -8 -9 9 10 -12 12 -14 -15 -16
leaf_value=3.0465106253819647e-06 3.6181804301282983e-05 8.145129029809374e-05 -2.8447841960798309e-05 3.4935239702198699e-05 -3.5355678526864126e-05 -2.9438026010124506e-06 2.9157362837977514e-05 -2.6122129886733179e-05 -8.3136157533752358e-06 -4.632112546775943e-07 1.5842458403761556e-05 -1.2318187190053834e-05 1.8631840430957042e-06 -6.1296278690430984e-07 -5.5891257645074738e-06
leaf_weight=77650 828 533 504 509 527 45134 869 840 13832 54563 1524 4865 131591 160269 24362
leaf_count=77650 828 533 504 509 527 45134 869 840 13832 54563 1524 4865 131591 160269 24362
internal_value=-1.73189e-13 3.16538e-05 1.17273e-05 -1.14289e-07 -2.65574e-06 4.60812e-07 8.69402e-07 8.03887e-07 -2.85755e-06 -2.6759e-06 -1.70658e-06 8.64302e-07 2.93239e-07 -9.57809e-07 -2.04544e-06
internal_weight=518400 1865 1332 516535 95317 421218 376084 375215 94808 94281 80449 374375 296725 165134 78925
internal_count=518400 1865 1332 516535 95317 421218 376084 375215 94808 94281 80449 374375 296725 165134 78925
is_linear=0
shrinkage=0.1


Tree=5
num_leaves=16
num_cat=0
split_feature=1 10 13 10 2 10 4 17 6 6 2 9 10 10 2
split_gain=0.000140505 0.000200886 0.000118882 7.26391e-05 0.000113971 0.000363774 0.000162793 0.000300459 9.01236e-05 5.39157e-05 9.71686e-05 6.54236e-05 4.73684e-05 4.43363e-05 4.0983e-05
threshold=0.0082435858352254438 0.66666666666663765 69.515441246774188 -0.66666666666666285 -0.0091082458751957623 -0.4399999999999733 -0.0095185378302821127 0.52432356193930929 -0.014333544293975707 0.0026665555648140997 -0.0041014369748473825 -0.004300882493282975 0.75000000000000255 -0.35294117647058593 0.0098191324066228009
decision_type=2 2 2 2 2 2 2 2 2 2 2 2 2 2 2
left_child=3 -2 -3 8 5 -5 7 13 -1 12 -11 -12 -8 -6 -13
right_child=1 2 -4 4 6 -7 9 -9 -10 10 11 14 -14 -15 -16
leaf_value=4.4852255624621185e-05 6.1647137778285364e-05 -3.7289664479800422e-05 3.1057640782402363e-05 3.0978512388177217e-05 -1.6815617217678081e-05 -7.8183358778554697e-05 2.4718458547269328e-07 9.3777597065363073e-05 2.3909917499908381e-06 -4.4331892214480438e-05 -3.8526693425437239e-05 -2.824841680518734e-06 -3.3961773114958388e-06 1.9893777258532039e-05 2.1374545334330765e-05
leaf_weight=503 894 512 506 539 579 704 321710 517 80199 569 510 69052 40137 762 707
leaf_count=503 894 512 506 539 579 704 321710 517 80199 569 510 69052 40137 762 707
internal_value=3.04913e-13 2.70583e-05 -3.31743e-06 -1.00167e-07 -6.10509e-07 -3.08477e-05 -5.24016e-07 2.90128e-05 2.65564e-06 -6.5085e-07 -3.17376e-06 -2.84048e-06 -1.56946e-07 4.04386e-06 -2.57958e-06
internal_weight=518400 1912 1018 516488 435786 1243 434543 1858 80702 432685 70838 70269 361847 1341 69759
internal_count=518400 1912 1018 516488 435786 1243 434543 1858 80702 432685 70838 70269 361847 1341 69759
is_linear=0
shrinkage=0.1


Tree=6
num_leaves=16
num_cat=0
split_feature=0 15 17 3 11 17 13 10 2 2 0 2 15 17 7
split_gain=0.0001475 0.000157284 0.000133106 5.87243e-05 0.00014076 8.1944e-05 0.000218981 6.56679e-05 0.000132926 0.000127215 5.76913e-05 5.75255e-05 8.96924e-05 6.966e-05 5.4483e-05
threshold=0.0058369565601302806 51.773049645394742 0.43269053644119843 0.01154597773538857 119.93493693552236 0.76162792005557345 42.893685899677955 -0.66666666666666285 -0.0091082458751957623 -0.0091082458751957623 -0.0052271214536643287 0.0026884917050987727 23.002950943455975 0.43269053644119843 -0.0053729778574041478
decision_type=2 2 2 2 2 2 2 2 2 2 2 2 2 2 2
left_child=3 -2 -3 5 -5 7 -7 9 -9 -1 -11 -10 -13 -14 -12
right_child=1 2 -4 4 -6 6 -8 8 11 10 14 12 13 -15 -16
leaf_value=4.5862211042969561e-05 6.9777120105260555e-05 3.9383623462992861e-05 -2.5757391613611064e-05 6.2413869918897117e-05 -4.456349122002238e-06 -7.3157118869432029e-05 7.4152530551198776e-06 -3.7981097428216239e-05 -1.4178881757084552e-07 -2.3485216966724219e-05 1.20504556104377e-05 -4.4952227522955838e-05 -4.9883813942379015e-06 1.0822786528233577e-05 1.7321786578909966e-06
leaf_weight=672 609 648 608 506 833 555 860 948 395426 867 5501 534 33413 3040 73380
leaf_count=672 609 648 608 506 833 555 860 948 395426 867 5501 534 33413 3040 73380
internal_value=6.49811e-14 2.8072e-05 7.85039e-06 -1.01357e-07 2.08135e-05 -1.55715e-07 -2.41873e-05 -8.95294e-08 -5.76547e-07 2.53487e-06 2.16977e-06 -4.94543e-07 -4.26582e-06 -3.66981e-06 2.45175e-06
internal_weight=518400 1865 1256 516535 1339 515196 1415 513781 433361 80420 79748 432413 36987 36453 78881
internal_count=518400 1865 1256 516535 1339 515196 1415 513781 433361 80420 79748 432413 36987 36453 78881
is_linear=0
shrinkage=0.1


Tree=7
num_leaves=16
num_cat=0
split_feature=0 17 12 8 15 17 8 14 17 12 15 4 2 1 2
split_gain=0.000119475 0.000157316 0.000100513 6.07039e-05 7.95944e-05 0.00010648 8.11261e-05 6.90707e-05 5.90787e-05 6.33014e-05 5.76054e-05 4.51707e-05 6.12361e-05 4.93612e-05 4.26398e-05
threshold=0.0058369565601302806 0.64634222427930477 70.067077942941395 0.0066611482733159874 80.589791465480218 0.52432356193930929 0.011175656510002631 91.555442857713402 0.46676549035875015 92.483575384257406 74.358974358979665 0.0075052664757510055 0.003484494010326689 0.0044498367229924849 -0.00070030735817788725
decision_type=2 2 2 2 2 2 2 2 2 2 2 2 2 2 2
left_child=3 2 -2 11 6 8 -5 -7 9 -6 -8 14 -13 -14 -1
right_child=1 -3 -4 4 5 7 10 -9 -10 -11 -12 12 13 -15 -16
leaf_value=1.3834768427548195e-06 -1.7977483563781839e-05 7.1177811853017403e-05 3.7234448929363379e-05 -9.6016214276134285e-06 -4.8284252175298713e-06 5.2413310158439921e-05 -1.9113008737294936e-05 2.5132975616603453e-06 -3.6843103795727736e-05 2.4729342102164671e-05 -6.4360592231508206e-05 4.4716909535384213e-05 -1.5127964068541387e-05 2.6257583456312415e-05 -5.8789380803560598e-07
leaf_weight=163748 732 533 600 3891 11131 566 609 544 536 775 523 527 636 527 332522
leaf_count=163748 732 533 600 3891 11131 566 609 544 536 775 523 527 636 527 332522
internal_value=4.0058e-14 2.52648e-05 6.89276e-06 -9.12211e-08 -5.70417e-06 -1.71891e-06 -1.64564e-05 2.79578e-05 -4.36649e-06 -2.90441e-06 -4.0018e-05 1.18154e-07 1.64392e-05 3.62542e-06 6.25747e-08
internal_weight=518400 1865 1332 516535 18575 13552 5023 1110 12442 11906 1132 497960 1690 1163 496270
internal_count=518400 1865 1332 516535 18575 13552 5023 1110 12442 11906 1132 497960 1690 1163 496270
is_linear=0
shrinkage=0.1


Tree=8
num_leaves=16
num_cat=0
split_feature=0 10 10 10 13 8 16 1 16 12 17 12 10 3 17
split_gain=9.69173e-05 0.0001469 7.60013e-05 0.000163768 6.99975e-05 6.66224e-05 6.218e-05 9.30785e-05 5.40534e-05 4.89963e-05 5.81438e-05 6.80412e-05 4.51872e-05 4.20318e-05 9.32396e-05
threshold=0.0045503885143257658 0.61715261360652607 0.90909090909091905 0.85714285714289129 69.515441246774188 0.0058519114123845037 78.28863346105247 -0.0040078673005799472 39.773585021086305 92.483575384257406 0.44871400518016291 64.106178276397841 0.75000000000000255 0.0075771860226362406 0.44871400518016291
decision_type=2 2 2 2 2 2 2 2 2 2 2 2 2 2 2
left_child=5 -2 3 4 8 12 13 -8 -3 10 -9 -12 -1 14 -7
right_child=1 2 -4 -5 -6 6 7 9 -10 -11 11 -13 -14 -15 -16
leaf_value=4.5064745237567113e-07 6.6270195013969844e-05 2.1709961055688771e-05 3.6089472616032525e-05 -4.7254132383753596e-05 4.0016647646785388e-05 -1.0698993431771111e-05 3.9858767721374154e-05 -2.6969059768243355e-06 -1.9308059806453357e-05 1.920212770495177e-05 6.829829403887518e-06 -3.66667593631998e-05 -2.7590004489448582e-06 5.5493012027341144e-06 -4.3800704162897717e-05
leaf_weight=442308 503 609 754 570 665 4365 511 14182 680 902 532 1110 48692 960 1057
leaf_count=442308 503 609 754 570 665 4365 511 14182 680 902 532 1110 48692 960 1057
internal_value=1.32325e-13 1.59517e-05 8.2305e-06 -9.18776e-08 1.36658e-05 -1.172e-07 -5.30493e-06 -2.18286e-06 7.12844e-08 -3.46729e-06 -4.75949e-06 -2.25741e-05 1.3235e-07 -1.37372e-05 -1.71521e-05
internal_weight=518400 3781 3278 2524 1954 514619 23619 17237 1289 16726 15824 1642 491000 6382 5422
internal_count=518400 3781 3278 2524 1954 514619 23619 17237 1289 16726 15824 1642 491000 6382 5422
is_linear=0
shrinkage=0.1


Tree=9
num_leaves=16
num_cat=0
split_feature=5 11 3 14 11 9 4 11 17 8 11 14 14 17 17
split_gain=9.30864e-05 0.000259363 0.000301357 0.000238292 0.00012828 0.00010034 4.98462e-05 0.000141719 0.000155079 4.77504e-05 6.74004e-05 6.02603e-05 7.22494e-05 5.99146e-05 4.84456e-05
threshold=-0.010480392335104947 -134.22278354881158 -0.0084903771828694335 5.1513098780704096 -173.36749488369614 -0.016974277095357922 0.012870390143812862 115.60065813185058 0.44871400518016291 0.0066611482733159874 60.885182945458851 89.635633283390504 62.70528936016931 0.43269053644119843 0.52432356193930929
decision_type=2 2 2 2 2 2 2 2 2 2 2 2 2 2 2
left_child=1 3 -3 4 -1 -2 9 -8 -9 -7 11 12 13 -11 -12
right_child=5 2 -4 -5 -6 6 7 8 -10 10 14 -13 -14 -15 -16
leaf_value=3.1764002527865676e-05 -4.2691080318162076e-05 8.6485356740969484e-05 5.9992030571710241e-06 -6.9103565770327769e-05 -2.7776094643077751e-05 5.1507336175793285e-08 5.449760787818725e-05 2.6118907768766643e-05 -4.3761017152251851e-05 -5.8127996325346201e-06 -3.997097240065476e-06 -4.4552548023624435e-05 1.3598606856752751e-05 -4.9588379815085558e-05 2.0256516668570666e-05
leaf_weight=994 553 845 1035 502 569 494069 639 763 544 697 14274 717 758 567 874
leaf_count=994 553 845 1035 502 569 494069 639 763 544 697 14274 717 758 567 874
internal_value=-1.70572e-13 1.53024e-05 4.21752e-05 -9.16279e-06 1.00888e-05 -1.17344e-07 -7.15313e-08 1.59027e-05 -2.96654e-06 -1.32251e-07 -5.20797e-06 -1.96439e-05 -1.08113e-05 -2.54495e-05 -2.59773e-06
internal_weight=518400 3945 1880 2065 1563 514455 513902 1946 1307 511956 17887 2739 2022 1264 15148
internal_count=518400 3945 1880 2065 1563 514455 513902 1946 1307 511956 17887 2739 2022 1264 15148
is_linear=0
shrinkage=0.1


Tree=10
num_leaves=16
num_cat=0
split_feature=7 3 4 15 4 16 1 3 4 17 4 9 13 13 7
split_gain=8.1619e-05 0.000169786 6.15753e-05 6.12176e-05 4.32722e-05 0.000134035 5.62257e-05 4.27203e-05 4.91827e-05 3.96133e-05 4.88623e-05 5.41379e-05 3.94168e-05 5.80724e-05 0.00011042
threshold=-0.015306581843974874 -0.010699999601383956 -0.012038531246560345 13.043478260876039 -0.0095185378302821127 18.945452695458489 -0.0074167994200112211 -0.001653930868974973 -0.0012428764145139268 0.64634222427930477 -0.0009720028492152254 -0.0059871793384057561 64.92906369971287 79.438756051873881 0.015971711976145223
decision_type=2 2 2 2 2 2 2 2 2 2 2 2 2 2 2
left_child=1 3 -2 -1 5 -4 -6 9 -9 10 -8 -12 -10 14 -14
right_child=2 -3 4 -5 6 -7 7 8 12 -11 11 -13 13 -15 -16
leaf_value=2.3905350554739932e-05 -2.6985459014238026e-05 -1.0569185080118935e-05 -1.0680369770863449e-05 7.307410020906957e-05 -2.6982603000266127e-05 4.5394856313426993e-05 1.2841073347641947e-06 -3.355188013887993e-06 3.0384099975668579e-07 -2.1456871871443402e-05 4.0414834770415244e-05 7.0269202323643708e-06 -3.0449082496582683e-06 1.2915266140917548e-05 -3.964603155030884e-05
leaf_weight=501 849 921 901 512 776 809 84069 52027 324565 722 513 9109 39096 2188 842
leaf_count=501 849 921 901 512 776 809 84069 52027 324565 722 513 9109 39096 2188 842
internal_value=1.04587e-13 2.05048e-05 -7.67838e-08 4.87567e-05 -3.24768e-08 1.58488e-05 -8.53209e-08 -4.46446e-08 -4.77914e-07 1.87689e-06 2.0567e-06 8.80701e-06 -6.96797e-08 -2.94752e-06 -3.81656e-06
internal_weight=518400 1934 516466 1013 515617 1710 513907 513131 418718 94413 93691 9622 366691 42126 39938
internal_count=518400 1934 516466 1013 515617 1710 513907 513131 418718 94413 93691 9622 366691 42126 39938
is_linear=0
shrinkage=0.1


end of trees

feature_importances:
natr=28
ret1min=15
ret5min=12
bop=12
ret9min=11
ret2min=10
ret3min=10
ret4min=10
slowk=10
rsi=9
mfi=8
ret10min=6
ret8min=5
cci=5
stochrsi=5
slowd=4
ret7min=3
ret6min=2

parameters:
[boosting: gbdt]
[objective: regression]
[metric: rmse]
[tree_learner: serial]
[device_type: cpu]
[data_sample_strategy: bagging]
[data: ]
[valid: ]
[num_iterations: 50]
[learning_rate: 0.1]
[num_leaves: 16]
[num_threads: 0]
[seed: 42]
[deterministic: 0]
[force_col_wise: 0]
[force_row_wise: 0]
[histogram_pool_size: -1]
[max_depth: -1]
[min_data_in_leaf: 500]
[min_sum_hessian_in_leaf: 0.001]
[bagging_fraction: 1]
[pos_bagging_fraction: 1]
[neg_bagging_fraction: 1]
[bagging_freq: 0]
[bagging_seed: 400]
[bagging_by_query: 0]
[feature_fraction: 0.8]
[feature_fraction_bynode: 1]
[feature_fraction_seed: 30056]
[extra_trees: 0]
[extra_seed: 12879]
[early_stopping_round: 0]
[early_stopping_min_delta: 0]
[first_metric_only: 0]
[max_delta_step: 0]
[lambda_l1: 0]
[lambda_l2: 0]
[linear_lambda: 0]
[min_gain_to_split: 0]
[drop_rate: 0.1]
[max_drop: 50]
[skip_drop: 0.5]
[xgboost_dart_mode: 0]
[uniform_drop: 0]
[drop_seed: 17869]
[top_rate: 0.2]
[other_rate: 0.1]
[min_data_per_group: 100]
[max_cat_threshold: 32]
[cat_l2: 10]
[cat_smooth: 10]
[max_cat_to_onehot: 4]
[top_k: 20]
[monotone_constraints: ]
[monotone_constraints_method: basic]
[monotone_penalty: 0]
[feature_contri: ]
[forcedsplits_filename: ]
[refit_decay_rate: 0.9]
[cegb_tradeoff: 1]
[cegb_penalty_split: 0]
[cegb_penalty_feature_lazy: ]
[cegb_penalty_feature_coupled: ]
[path_smooth: 0]
[interaction_constraints: ]
[verbosity: -1]
[saved_feature_importance_type: 0]
[use_quantized_grad: 0]
[num_grad_quant_bins: 4]
[quant_train_renew_leaf: 0]
[stochastic_rounding: 1]
[linear_tree: 0]
[max_bin: 255]
[max_bin_by_feature: ]
[min_data_in_bin: 3]
[bin_construct_sample_cnt: 200000]
[data_random_seed: 175]
[is_enable_sparse: 1]
[enable_bundle: 1]
[use_missing: 1]
[zero_as_missing: 0]
[feature_pre_filter: 1]
[pre_partition: 0]
[two_round: 0]
[header: 0]
[label_column: ]
[weight_column: ]
[group_column: ]
[ignore_column: ]
[categorical_feature: ]
[forcedbins_filename: ]
[precise_float_parser: 0]
[parser_config_file: ]
[objective_seed: 16083]
[num_class: 1]
[is_unbalance: 0]
[scale_pos_weight: 1]
[sigmoid: 1]
[boost_from_average: 1]
[reg_sqrt: 0]
[alpha: 0.9]
[fair_c: 1]
[poisson_max_delta_step: 0.7]
[tweedie_variance_power: 1.5]
[lambdarank_truncation_level: 30]
[lambdarank_norm: 1]
[label_gain: ]
[lambdarank_position_bias_regularization: 0]
[eval_at: ]
[multi_error_top_k: 1]
[auc_mu_weights: ]
[num_machines: 1]
[local_listen_port: 12400]
[time_out: 120]
[machine_list_filename: ]
[machines: ]
[gpu_platform_id: -1]
[gpu_device_id: -1]
[gpu_use_dp: 0]
[num_gpu: 1]

end of parameters

pandas_categorical:[]
