tree
version=v4
num_class=1
num_tree_per_iteration=1
label_index=0
max_feature_idx=17
objective=regression
feature_names=ret1min ret2min ret3min ret4min ret5min ret6min ret7min ret8min ret9min ret10min bop cci mfi rsi stochrsi slowk slowd natr
feature_infos=[-0.038571167333838696:0.047680757686756836] [-0.051619680092293341:0.074508178124193636] [-0.052458982516460639:0.059781537492707981] [-0.058093329606109134:0.060092045454545495] [-0.067617863398136913:0.095330823355869843] [-0.055960902336894991:0.060189631091043694] [-0.056221029381699483:0.059097136023735342] [-0.087579731117331416:0.094498125307953096] [-0.089331213851005731:0.096187130648127894] [-0.090727715018445232:0.062192087727990897] [-1:1] [-671.70542762138473:704.06982672255208] [0:100] [3.7967105389340361:96.140158452440218] [0:100] [0:99.997050016962518] [0.44615154573484839:99.542784787744708] [0.015663442071553409:2.6763725855138429]
tree_sizes=1753 1769 1746 1746

Tree=0
num_leaves=16
num_cat=0
split_feature=3 0 16 8 10 2 12 9 1 0 10 0 7 7 17
split_gain=7.44886e-05 9.72932e-05 9.66206e-05 8.62594e-05 7.99544e-05 6.28268e-05 5.63417e-05 5.3472e-05 4.29018e-05 4.22471e-05 5.32773e-05 3.71835e-05 3.60534e-05 3.37767e-05 3.13283e-05
threshold=-0.0074160910013019157 -0.0020253375390024693 23.199855179439478 -0.011159745120358775 -0.72940910961543881 -0.004320437718959568 64.912721956432577 -0.0060031358390316694 0.00035523778834312131 0.0019272910160356151 0.53241670150686871 -0.0028028940878365711 0.011141279529997329 -0.0047265393140140657 0.13332412457067769
decision_type=2 2 2 2 2 2 2 2 2 2 2 2 2 2 2
left_child=2 4 3 -1 7 -6 13 -2 -3 -10 -11 -9 14 -7 -12
right_child=1 8 -4 -5 5 6 -8 11 9 10 12 -13 -14 -15 -16
leaf_value=5.6571035891412222e-05 1.5351538421763658e-05 -4.3855888049602233e-07 -1.0064418355296029e-05 3.2198949288108398e-06 -4.820760779862732e-05 -2.5948456119248497e-05 -4.4209301861447876e-05 -2.178340433163636e-05 -2.7824612391350752e-06 2.4957741152326453e-05 -8.7689800114727348e-06 -2.9543220429452764e-06 -2.0889074244683029e-05 1.8451936822985915e-06 5.8676817105533333e-06
leaf_weight=749 1100 333660 766 509 809 676 553 1558 162590 1058 1821 3209 679 1238 7425
leaf_count=749 1100 333660 766 509 809 676 553 1558 162590 1058 1821 3209 679 1238 7425
internal_value=-1.21112e-06 -1.28617e-06 1.79354e-05 3.49846e-05 -1.15101e-05 -2.40246e-05 -1.60943e-05 -4.52229e-06 -1.10188e-06 -2.37698e-06 3.62568e-06 -9.10824e-06 1.35169e-06 -7.97116e-06 2.98499e-06
internal_weight=518400 516376 2024 1258 9143 3276 2467 5867 507233 173573 10983 4767 9925 1914 9246
internal_count=518400 516376 2024 1258 9143 3276 2467 5867 507233 173573 10983 4767 9925 1914 9246
is_linear=0
shrinkage=1


Tree=1
num_leaves=16
num_cat=0
split_feature=3 0 16 8 10 2 1 12 1 0 10 9 3 10 3
split_gain=6.03358e-05 7.88075e-05 7.82627e-05 6.98701e-05 6.4763e-05 5.08897e-05 5.35713e-05 4.60133e-05 3.47504e-05 3.42201e-05 4.3224e-05 3.33126e-05 3.12648e-05 3.99664e-05 3.92796e-05
threshold=-0.0074160910013019157 -0.0020253375390024693 23.199855179439478 -0.011159745120358775 -0.72940910961543881 -0.004320437718959568 -0.001447356113436604 72.097265629360123 0.00035523778834312131 0.0019272910160356151 0.46909769127188056 -0.0060031358390316694 -0.00086963473460199825 -0.047355294319737042 0.0035400247200336747
decision_type=2 2 2 2 2 2 2 2 2 2 2 2 2 2 2
left_child=2 4 3 -1 7 -6 -7 11 12 -10 -11 -2 -3 -14 -15
right_child=1 8 -4 -5 5 6 -8 -9 9 10 -12 -13 13 14 -16
leaf_value=5.2003942933540659e-05 1.5495349566725389e-05 2.1001159439343628e-06 -7.9679702606022005e-06 3.9879137302428139e-06 -4.229684083973292e-05 -2.4216005950533347e-06 -3.3184047953950956e-05 -2.9415328397842159e-05 -1.414207379167154e-06 3.2130848765648394e-05 2.9363203613469911e-06 -4.0853254029467238e-06 -1.1233475848247324e-06 1.3802672564479266e-06 2.3812091823519594e-05
leaf_weight=749 1097 107420 766 509 809 1587 880 592 162590 533 10450 4178 129223 96230 787
leaf_count=749 1097 107420 766 509 809 1587 880 592 162590 533 10450 4178 129223 96230 787
internal_value=-3.07564e-13 -6.75428e-08 1.72319e-05 3.25762e-05 -9.26907e-06 -2.05321e-05 -1.33948e-05 -2.98005e-06 9.83171e-08 -1.04927e-06 4.35312e-06 -1.32874e-08 6.95305e-07 2.82925e-08 1.56223e-06
internal_weight=518400 516376 2024 1258 9143 3276 2467 5867 507233 173573 10983 5275 333660 226240 97017
internal_count=518400 516376 2024 1258 9143 3276 2467 5867 507233 173573 10983 5275 333660 226240 97017
is_linear=0
shrinkage=0.1


Tree=2
num_leaves=16
num_cat=0
split_feature=5 0 17 0 10 6 12 15 12 17 1 4 0 10 5
split_gain=6.52656e-05 7.61279e-05 6.3973e-05 5.9241e-05 5.9154e-05 5.41711e-05 4.93843e-05 4.30706e-05 3.77624e-05 3.45375e-05 2.75904e-05 3.39753e-05 3.4737e-05 4.34767e-05 4.11711e-05
threshold=-0.0090742766994563722 -0.0020253375390024693 0.36154269329982097 -0.0018883387100559477 -0.72940910961543881 -0.0047102019793346375 64.912721956432577 18.676414366007155 33.138439333600118 0.22960020400050721 0.00035523778834312131 -0.0010295091529182729 0.0020753418813285189 0.53241670150686871 0.0097827984173562994
decision_type=2 2 2 2 2 2 2 2 2 2 2 2 2 2 2
left_child=2 4 3 -1 8 7 -7 -6 9 -2 -3 -12 -13 -14 -15
right_child=1 10 -4 -5 5 6 -8 -9 -10 -11 11 12 13 14 -16
leaf_value=2.4895668112792061e-05 4.9790937934256645e-07 6.2591140873668509e-07 3.7972137238951318e-05 -2.091878321127633e-05 -2.0067431842910304e-05 -8.6096462555769559e-07 -3.4454584790708627e-05 -5.840613243443541e-05 -8.7274029727844625e-06 3.071649815653708e-05 -5.7572878117667561e-06 -8.6941515193778353e-07 2.8805404547126626e-05 5.8681644082828417e-06 -1.9260423220101883e-05
leaf_weight=568 1489 333641 891 561 673 1568 607 519 3915 507 13444 151647 745 6905 720
leaf_count=568 1489 333641 891 561 673 1568 607 519 3915 507 13444 151647 745 6905 720
internal_value=-3.11382e-14 -7.0178e-08 1.79398e-05 2.13047e-06 -9.04669e-06 -1.96264e-05 -1.02363e-05 -3.67602e-05 -3.02032e-06 8.17367e-06 9.40575e-08 -9.28929e-07 -5.23269e-07 5.74817e-06 3.49537e-06
internal_weight=518400 516380 2020 1129 9278 3367 2175 1192 5911 1996 507102 173461 160017 8370 7625
internal_count=518400 516380 2020 1129 9278 3367 2175 1192 5911 1996 507102 173461 160017 8370 7625
is_linear=0
shrinkage=0.1


Tree=3
num_leaves=16
num_cat=0
split_feature=5 15 1 2 10 10 15 13 17 1 3 17 17 5 16
split_gain=5.28651e-05 6.1175e-05 0.000124675 3.70901e-05 3.90011e-05 5.55752e-05 3.10485e-05 2.60032e-05 3.12386e-05 5.11178e-05 4.74637e-05 2.58595e-05 2.26873e-05 5.82211e-05 6.45039e-05
threshold=-0.0090742766994563722 22.590327156841436 -0.0035073211215548845 -0.004988006594165372 -0.54437845326871159 -0.32546834868817126 9.1440504647042591 65.216426842210637 0.32287590964490703 0.0036359439612023707 0.0079066730771009137 0.15496695638329491 0.43343953524524848 -0.0030193754108367994 57.2914050728264
decision_type=2 2 2 2 2 2 2 2 2 2 2 2 2 2 2
left_child=1 2 -1 4 -2 -6 11 12 10 -10 -9 -5 -8 -14 -15
right_child=3 -3 -4 6 5 -7 7 8 9 -11 -12 -13 13 14 -16
leaf_value=5.0392755574481624e-05 -1.2587117119122069e-07 -1.4075932020816e-05 -7.7575470501505458e-06 2.1180345091362292e-06 -4.5676041751978117e-05 -5.2836696058847603e-06 -1.1512027777413481e-08 -2.6254105032300118e-06 -1.227239449813848e-06 -3.8505248124315878e-05 2.1559571216886367e-05 1.1233207327063489e-05 -1.7449219693287066e-05 3.4807020721936266e-05 -1.1552898744107482e-06
leaf_weight=885 1470 503 632 19882 622 753 448661 36339 884 630 830 3690 620 1044 955
leaf_count=885 1470 503 632 19882 622 753 448661 36339 884 630 830 3690 620 1044 955
internal_value=-5.78231e-14 1.61459e-05 2.61667e-05 -6.31602e-08 -1.14496e-05 -2.35557e-05 -7.89105e-11 -1.70629e-07 -2.65888e-06 -1.67392e-05 -2.08535e-06 3.54494e-06 4.26602e-08 9.32291e-06 1.76264e-05
internal_weight=518400 2020 1517 516380 2845 1375 513535 489963 38683 1514 37169 23572 451280 2619 1999
internal_count=518400 2020 1517 516380 2845 1375 513535 489963 38683 1514 37169 23572 451280 2619 1999
is_linear=0
shrinkage=0.1


end of trees

feature_importances:
bop=9
ret1min=8
ret2min=6
natr=6
ret4min=5
ret6min=4
mfi=4
ret3min=3
slowk=3
slowd=3
ret8min=2
ret9min=2
ret10min=2
ret5min=1
ret7min=1
rsi=1

parameters:
[boosting: gbdt]
[objective: regression]
[metric: rmse]
[tree_learner: serial]
[device_type: cpu]
[data_sample_strategy: bagging]
[data: ]
[valid: ]
[num_iterations: 50]
[learning_rate: 0.1]
[num_leaves: 16]
[num_threads: 0]
[seed: 42]
[deterministic: 0]
[force_col_wise: 0]
[force_row_wise: 0]
[histogram_pool_size: -1]
[max_depth: -1]
[min_data_in_leaf: 500]
[min_sum_hessian_in_leaf: 0.001]
[bagging_fraction: 1]
[pos_bagging_fraction: 1]
[neg_bagging_fraction: 1]
[bagging_freq: 0]
[bagging_seed: 400]
[bagging_by_query: 0]
[feature_fraction: 0.8]
[feature_fraction_bynode: 1]
[feature_fraction_seed: 30056]
[extra_trees: 0]
[extra_seed: 12879]
[early_stopping_round: 0]
[early_stopping_min_delta: 0]
[first_metric_only: 0]
[max_delta_step: 0]
[lambda_l1: 0]
[lambda_l2: 0]
[linear_lambda: 0]
[min_gain_to_split: 0]
[drop_rate: 0.1]
[max_drop: 50]
[skip_drop: 0.5]
[xgboost_dart_mode: 0]
[uniform_drop: 0]
[drop_seed: 17869]
[top_rate: 0.2]
[other_rate: 0.1]
[min_data_per_group: 100]
[max_cat_threshold: 32]
[cat_l2: 10]
[cat_smooth: 10]
[max_cat_to_onehot: 4]
[top_k: 20]
[monotone_constraints: ]
[monotone_constraints_method: basic]
[monotone_penalty: 0]
[feature_contri: ]
[forcedsplits_filename: ]
[refit_decay_rate: 0.9]
[cegb_tradeoff: 1]
[cegb_penalty_split: 0]
[cegb_penalty_feature_lazy: ]
[cegb_penalty_feature_coupled: ]
[path_smooth: 0]
[interaction_constraints: ]
[verbosity: -1]
[saved_feature_importance_type: 0]
[use_quantized_grad: 0]
[num_grad_quant_bins: 4]
[quant_train_renew_leaf: 0]
[stochastic_rounding: 1]
[linear_tree: 0]
[max_bin: 255]
[max_bin_by_feature: ]
[min_data_in_bin: 3]
[bin_construct_sample_cnt: 200000]
[data_random_seed: 175]
[is_enable_sparse: 1]
[enable_bundle: 1]
[use_missing: 1]
[zero_as_missing: 0]
[feature_pre_filter: 1]
[pre_partition: 0]
[two_round: 0]
[header: 0]
[label_column: ]
[weight_column: ]
[group_column: ]
[ignore_column: ]
[categorical_feature: ]
[forcedbins_filename: ]
[precise_float_parser: 0]
[parser_config_file: ]
[objective_seed: 16083]
[num_class: 1]
[is_unbalance: 0]
[scale_pos_weight: 1]
[sigmoid: 1]
[boost_from_average: 1]
[reg_sqrt: 0]
[alpha: 0.9]
[fair_c: 1]
[poisson_max_delta_step: 0.7]
[tweedie_variance_power: 1.5]
[lambdarank_truncation_level: 30]
[lambdarank_norm: 1]
[label_gain: ]
[lambdarank_position_bias_regularization: 0]
[eval_at: ]
[multi_error_top_k: 1]
[auc_mu_weights: ]
[num_machines: 1]
[local_listen_port: 12400]
[time_out: 120]
[machine_list_filename: ]
[machines: ]
[gpu_platform_id: -1]
[gpu_device_id: -1]
[gpu_use_dp: 0]
[num_gpu: 1]

end of parameters

pandas_categorical:[]
