tree
version=v4
num_class=1
num_tree_per_iteration=1
label_index=0
max_feature_idx=17
objective=regression
feature_names=ret1min ret2min ret3min ret4min ret5min ret6min ret7min ret8min ret9min ret10min bop cci mfi rsi stochrsi slowk slowd natr
feature_infos=[-0.080715410990640279:0.095497630331753625] [-0.17226556280846994:0.12788592123132636] [-0.14445399828030958:0.16444092349479389] [-0.1604497590576478:0.19960359099918379] [-0.18053004460771449:0.15464033217371775] [-0.18181818181818188:0.16568583069262099] [-0.22225117248566961:0.20088609070770658] [-0.222453764001042:0.15587476153069235] [-0.22321286419359976:0.18807656826568264] [-0.22021943573667713:0.18730713844887892] [-1:1] [-595.84283903675168:573.17109363407371] [0:100] [5.181521666559803:96.492464334232224] [0:100] [0:100] [0.42735042735413337:100] [0.038597608846125245:8.496662746296181]
tree_sizes=1725 1742 1751 1739 1719 1750 1777 1741 1735 1722 1744 1738 1728 1738 1735 1731 1739 1725 1729 1740 1743 1713 1733 1730 1753 1755 1748 1735 1755 1738 1745 1728 1741 1762 1720

Tree=0
num_leaves=16
num_cat=0
split_feature=0 9 7 16 10 1 0 3 15 13 7 12 3 17 3
split_gain=0.00139897 0.00121178 0.000907006 0.000896138 0.000872563 0.00049529 0.000497325 0.000510575 0.00206303 0.000795038 0.000702545 0.000474564 0.000481398 0.000393487 0.000578759
threshold=0.0065018586848139001 -0.01848634921748132 0.026961447093339367 90.132278957827069 0.16666666666663807 0.0019658193169288522 0.0023207137589232878 -0.017852140229841048 11.111111111113898 31.335290913404851 -0.025860381107986271 56.773252674469511 0.012659252910769527 0.50120154867532507 -0.0076728475775849616
decision_type=2 2 2 2 2 2 2 2 2 2 2 2 2 2 2
left_child=2 -2 5 11 -4 6 7 8 -1 -10 -9 12 -3 -8 -15
right_child=1 3 4 -5 -6 -7 13 10 9 -11 -12 -13 -14 14 -16
leaf_value=0.00020632408801831976 0.00020178413916242355 4.69009909829497e-05 0.00016591935154074906 -8.0695873646398998e-05 -3.0604353229869818e-06 -2.9768155253718351e-06 1.3250626442807323e-05 -0.00010827810146800663 -0.00010861537222543112 6.2508215767993321e-05 5.2283013571788655e-06 8.7656332223742659e-05 -6.3095261762299924e-05 -2.9179144235765082e-05 7.2672078009708012e-05
leaf_weight=615 510 1862 683 548 553 74681 7008 546 542 544 423895 2233 506 686 2988
leaf_count=615 510 1862 683 548 553 74681 7008 546 542 544 423895 2233 506 686 2988
internal_value=5.30149e-06 5.47497e-05 4.75574e-06 4.01862e-05 9.03159e-05 4.54899e-06 5.83563e-06 5.30141e-06 5.9979e-05 -2.2896e-05 5.08229e-06 5.45838e-05 2.33967e-05 2.71473e-05 5.36547e-05
internal_weight=518400 5659 512741 5149 1236 511505 436824 426142 1701 1086 424441 4601 2368 10682 3674
internal_count=518400 5659 512741 5149 1236 511505 436824 426142 1701 1086 424441 4601 2368 10682 3674
is_linear=0
shrinkage=1


Tree=1
num_leaves=16
num_cat=0
split_feature=0 13 17 7 10 6 4 15 12 7 1 0 1 8 0
split_gain=0.00113316 0.0010166 0.0008165 0.000734675 0.000706776 0.000673349 0.000426305 0.00229914 0.000745434 0.000527234 0.000394068 0.000428895 0.000309068 0.000234763 0.000231592
threshold=0.0065018586848139001 46.026592556576965 0.96479115754706779 0.026961447093339367 0.16666666666663807 0.025113140824556738 -0.019992217449622315 11.111111111113898 32.198508993206069 -0.025860381107986271 0.0012471095646132693 0.0027375295761429279 0.0044841743624777228 0.002129664138635468 -0.0041408708024774912
decision_type=2 2 2 2 2 2 2 2 2 2 2 2 2 2 2
left_child=3 2 -2 6 -5 12 7 -1 -9 -8 11 13 -3 14 -11
right_child=1 5 -4 4 -6 -7 9 8 -10 10 -12 -13 -14 -15 -16
leaf_value=0.00019602165701624954 4.4390399098898434e-05 0.00011182379434655323 0.00021662322665640427 0.00014455606345336824 -7.5257405229951731e-06 -5.9885254427172188e-05 -9.0307598792651477e-05 -0.00010458973147582556 5.4549033185053842e-05 -1.418484270571157e-05 -5.8240527517265553e-06 3.0680381231377681e-05 2.9694279823109918e-05 -4.5817109674105926e-06 2.1021638653577432e-06
leaf_weight=666 549 534 552 683 553 796 658 680 519 8990 117184 4741 3228 75546 302521
leaf_count=666 549 534 552 683 553 796 658 680 519 8990 117184 4741 3228 75546 302521
internal_value=-6.32398e-13 4.45034e-05 0.000130741 -4.91174e-07 7.6513e-05 2.36723e-05 -6.77247e-07 4.70458e-05 -3.57048e-05 -8.51887e-07 -7.3624e-07 7.85488e-07 4.13522e-05 4.1931e-07 1.63213e-06
internal_weight=518400 5659 1101 512741 1236 4558 511505 1865 1199 509640 508982 391798 3762 387057 311511
internal_count=518400 5659 1101 512741 1236 4558 511505 1865 1199 509640 508982 391798 3762 387057 311511
is_linear=0
shrinkage=0.1


Tree=2
num_leaves=16
num_cat=0
split_feature=4 16 17 13 3 1 3 9 9 2 1 2 9 3 9
split_gain=0.000850339 0.00211641 0.000525085 0.000304714 0.000271478 0.000270071 0.000452653 0.000402393 0.000203177 0.000628416 0.000376288 0.000218968 0.000229369 0.000762143 0.000213466
threshold=-0.019992217449622315 20.568712953596897 1.0481488060248874 79.976932282990376 0.011214668250764894 -0.00067260480680059176 0.011214668250764894 -0.02874924215897123 0.030311906976105755 0.012900646356894698 0.010830295756758314 0.012900646356894698 -0.016267123287671156 -0.0015752579495748595 0.017511807486071954
decision_type=2 2 2 2 2 2 2 2 2 2 2 2 2 2 2
left_child=1 2 -1 5 -5 6 7 -2 10 -10 11 12 13 -7 -12
right_child=3 -3 -4 4 -6 8 -8 -9 9 -11 14 -13 -14 -15 -16
leaf_value=8.7849510866750709e-05 -8.4431018556749011e-05 -5.8885886257511311e-05 0.0002186742813908443 4.9865801642466063e-06 7.8120618457967378e-05 1.3293691346771524e-05 9.5570744966418707e-05 2.7527427693939935e-06 2.7794150619773329e-05 -0.00012116456537304051 5.1001835706900365e-05 3.8497689744657061e-05 -2.2053463258730607e-06 -0.00012809200320223677 -1.1263361509979101e-05
leaf_weight=680 531 838 559 1116 931 1014 524 175006 585 549 2071 1315 331320 611 750
leaf_count=680 531 838 559 1116 931 1014 524 175006 585 549 2071 1315 331320 611 750
internal_value=8.80776e-13 6.38566e-05 0.000146874 -2.56874e-07 3.82488e-05 -4.1014e-07 2.76605e-06 2.48901e-06 -2.06353e-06 -4.43208e-05 -1.92137e-06 -2.22831e-06 -2.38916e-06 -3.98673e-05 3.44478e-05
internal_weight=518400 2077 1239 516323 2047 514276 176061 175537 338215 1134 337081 334260 332945 1625 2821
internal_count=518400 2077 1239 516323 2047 514276 176061 175537 338215 1134 337081 334260 332945 1625 2821
is_linear=0
shrinkage=0.1


Tree=3
num_leaves=16
num_cat=0
split_feature=0 13 17 7 10 6 11 13 1 1 13 1 0 4 17
split_gain=0.000865295 0.000796938 0.000629594 0.00057441 0.000570105 0.000526631 0.000369286 0.00034392 0.00119653 0.000550307 0.000507014 0.000334882 0.000393809 0.000484335 0.000551482
threshold=0.0065018586848139001 46.026592556576965 0.96479115754706779 0.026961447093339367 0.16666666666663807 0.025113140824556738 3.8410915344100398 21.1784387454605 -0.009885258553222696 -0.012598069909261876 37.478266491642067 0.0019658193169288522 0.0023207137589232878 -0.019992217449622315 0.84968927306199904
decision_type=2 2 2 2 2 2 2 2 2 2 2 2 2 2 2
left_child=3 2 -2 7 -5 6 -3 8 -1 10 -9 12 13 -11 -15
right_child=1 5 -4 4 -6 -7 -8 9 -10 11 -12 -13 -14 14 -16
leaf_value=0.00017339150144056204 3.9417566748652104e-05 -3.9633377339255692e-05 0.00019065817456977868 0.0001287710504318215 -7.8173107015442977e-06 -5.3450235577656718e-05 4.9045778902641816e-05 -0.00010636874614053127 -3.5077693079288519e-06 8.8051996691481586e-05 6.6722139024560638e-06 -6.7573587213695066e-06 1.9523107399233749e-05 2.3630027986512189e-07 -3.7418514704632329e-05
leaf_weight=508 549 550 552 683 553 796 3212 943 1546 624 685 74668 10609 417996 3926
leaf_count=508 549 550 552 683 553 796 3212 943 1546 624 685 74668 10609 417996 3926
internal_value=4.48663e-13 3.88892e-05 0.000115244 -4.2921e-07 6.76599e-05 2.04454e-05 3.6081e-05 -5.93741e-07 4.02434e-05 -7.58387e-07 -5.88054e-05 -5.72298e-07 4.93894e-07 1.61212e-08 -1.14079e-07
internal_weight=518400 5659 1101 512741 1236 4558 3762 511505 2054 509451 1628 507823 433155 422546 421922
internal_count=518400 5659 1101 512741 1236 4558 3762 511505 2054 509451 1628 507823 433155 422546 421922
is_linear=0
shrinkage=0.1


Tree=4
num_leaves=16
num_cat=0
split_feature=0 13 5 2 12 4 15 14 17 15 12 17 1 1 2
split_gain=0.000714691 0.000545114 0.00054425 0.0004298 0.000944643 0.000376552 0.0013123 0.0011818 0.00035461 0.000701875 0.0003289 0.000312063 0.000291468 0.00027675 0.00037156
threshold=0.0052322978642652682 38.122192980090581 0.02354998119079366 0.01680451560795038 64.023622766469501 -0.019992217449622315 11.111111111113898 1.0000000180025095e-35 0.89982275099088349 34.230191621353278 35.075074778077024 1.1871431612506844 0.0019658193169288522 -0.0075727404353066454 -0.0054340248607332433
decision_type=2 2 2 2 2 2 2 2 2 2 2 2 2 2 2
left_child=2 -2 5 11 -5 6 -1 -8 12 10 -10 -3 -7 -11 -15
right_child=1 3 -4 4 -6 8 7 -9 9 13 -12 -13 -14 14 -16
leaf_value=0.00015773500184562152 0.00011339426750041908 2.30145915880967e-05 7.2108772555877515e-05 -0.00013876502285876179 4.0211684699348053e-05 4.4312781127252753e-07 6.9246322385332941e-05 -0.0001339508738631058 -3.2675734332697604e-05 4.5111048537276678e-05 -0.00011941314001008893 9.4653123744558318e-05 -6.5398024333090369e-06 -9.1463844309529438e-05 -1.9651536477413418e-06
leaf_weight=657 680 6990 1030 508 703 430474 659 506 833 930 920 666 69413 553 2878
leaf_count=657 680 6990 1030 508 703 430474 659 506 833 930 920 666 69413 553 2878
internal_value=2.9538e-13 2.71075e-05 -5.08585e-07 2.04903e-05 -3.48669e-05 -6.55873e-07 4.47234e-05 -1.90093e-05 -8.19274e-07 -2.47564e-05 -7.81968e-05 2.92465e-05 -5.26504e-07 -3.27492e-06 -1.63903e-05
internal_weight=518400 9547 508853 8867 1211 507823 1822 1165 506001 6114 1753 7656 499887 4361 3431
internal_count=518400 9547 508853 8867 1211 507823 1822 1165 506001 6114 1753 7656 499887 4361 3431
is_linear=0
shrinkage=0.1


Tree=5
num_leaves=16
num_cat=0
split_feature=0 16 10 7 10 7 13 1 0 16 5 17 1 5 12
split_gain=0.000598265 0.000749543 0.000922939 0.000413694 0.000460647 0.000258199 0.000242148 0.00090103 0.000492765 0.000593745 0.000922601 0.00041031 0.000246426 0.00025913 0.000221065
threshold=0.0065018586848139001 90.132278957827069 0.57142857142857306 0.026961447093339367 0.16666666666663807 0.0064236291928687636 21.1784387454605 -0.009885258553222696 -0.0059262063995227368 13.425826869317392 -0.021879646905336444 0.96479115754706779 -0.0012588492976194352 -0.0072072785600426062 34.619419731831023
decision_type=2 2 2 2 2 2 2 2 2 2 2 2 2 2 2
left_child=3 2 -2 5 -5 6 7 -1 9 -8 -11 14 -10 -14 -12
right_child=1 -3 -4 4 -6 -7 8 -9 12 10 11 -13 13 -15 -16
leaf_value=0.00014993632589273943 0.00016971499607048145 -7.8808755678815999e-05 2.9860315407824447e-05 0.00011235918196745383 -1.0418822519035626e-05 -8.5169343881337926e-06 6.8517692277368915e-05 -3.5724271982316526e-06 4.4012311669366466e-06 -0.00016555884618311292 -1.0149051139690575e-05 3.8333740993500995e-05 -2.1425449455862616e-05 -6.2570727967088528e-07 -6.7676328580753542e-05
leaf_weight=508 526 548 4585 683 553 37218 516 1546 111740 552 1121 764 6094 349793 1653
leaf_count=508 526 548 4585 683 553 37218 516 1546 111740 552 1121 764 6094 349793 1653
internal_value=-2.44112e-14 3.23365e-05 4.42535e-05 -3.56891e-07 5.7427e-05 -4.96519e-07 1.32854e-07 3.43937e-05 -1.61649e-08 -3.25646e-05 -4.53173e-05 -2.65571e-05 3.04428e-07 -9.8187e-07 -4.4429e-05
internal_weight=518400 5659 5111 512741 1236 511505 474287 2054 472233 4606 4090 3538 467627 355887 2774
internal_count=518400 5659 5111 512741 1236 511505 474287 2054 472233 4606 4090 3538 467627 355887 2774
is_linear=0
shrinkage=0.1


Tree=6
num_leaves=16
num_cat=0
split_feature=0 16 10 7 10 3 6 3 0 0 7 6 0 17 10
split_gain=0.000523975 0.000420325 0.000403636 0.000385567 0.000264941 0.00056303 0.000344394 0.000394396 0.00030931 0.000301878 0.000308381 0.000263876 0.000251021 0.000210748 0.000204014
threshold=0.0047925139786842994 90.132278957827069 0.55555555555544145 0.026961447093339367 -0.55348474341191711 -0.017852140229841048 -0.018340267201983559 0.0076189890023152804 -0.0059262063995227368 -0.0029534246840587359 0.0073639297429012327 -0.013725426970047026 1.0000000180025095e-35 0.80632620294568247 -0.44444444444446268
decision_type=2 2 2 2 2 2 2 2 2 2 2 2 2 2 2
left_child=3 2 -2 4 5 -1 -7 8 -8 14 -11 -10 -5 -12 -6
right_child=1 -3 -4 12 9 6 7 -9 11 10 13 -13 -14 -15 -16
leaf_value=8.1855711216489342e-05 8.3499701462015868e-05 -4.1139252244653144e-05 2.0138861021079361e-05 0.00010655308406338491 -1.0195976498571063e-05 -6.5089923263976203e-05 -2.6350283952743324e-05 7.4954176053587684e-05 6.4988640084517638e-05 -7.9861973495632844e-07 -9.9479588661236998e-06 3.6006161567353263e-06 8.9998041324218757e-06 -4.6102677831656567e-05 -5.2518385997610266e-05
leaf_weight=915 1125 994 9459 551 2904 736 3466 768 705 367813 21646 103196 506 1742 1874
leaf_count=915 1125 994 9459 551 2904 736 3466 768 705 367813 21646 103196 506 1742 1874
internal_value=-1.90243e-13 2.10346e-05 2.68736e-05 -4.8052e-07 -6.06612e-07 3.74012e-06 3.0836e-06 3.54761e-06 3.03684e-06 -1.81175e-06 -1.50661e-06 4.01715e-06 5.9853e-05 -1.26409e-05 -2.67954e-05
internal_weight=518400 11578 10584 506822 505765 109786 108871 108135 107367 395979 391201 103901 1057 23388 4778
internal_count=518400 11578 10584 506822 505765 109786 108871 108135 107367 395979 391201 103901 1057 23388 4778
is_linear=0
shrinkage=0.1


Tree=7
num_leaves=16
num_cat=0
split_feature=4 16 13 7 13 1 4 8 13 17 7 1 1 8 10
split_gain=0.000416601 0.00139942 0.000956184 0.00030524 0.000237924 0.000236018 0.000552973 0.000375042 0.00051904 0.000286944 0.000245216 0.000306557 0.000207827 0.000166278 0.00018192
threshold=-0.019992217449622315 12.767324924255339 33.878900140877796 -0.025860381107986271 79.976932282990376 -0.0017413260230640379 0.012506196656273174 0.028627099996562436 66.007649992474839 1.4547485189883036 0.017868181916097962 -0.012598069909261876 0.0073955877291093106 -0.017678276282693358 -0.66666666666653429
decision_type=2 2 2 2 2 2 2 2 2 2 2 2 2 2 2
left_child=1 -1 -3 -2 5 6 10 9 -9 -7 11 -5 -6 -13 -15
right_child=3 2 -4 4 12 7 -8 8 -10 -11 -12 13 -14 14 -16
leaf_value=0.00016470289790167873 -6.3176353389830331e-05 -7.7290118829475638e-05 9.11838086193782e-05 -5.4916372992387858e-05 9.6323900552404857e-06 -1.1535335058429904e-06 0.0001020703251997743 -0.00013263878357046199 -1.6822724227158814e-06 6.7313910789288333e-05 7.2450202249216953e-05 3.1604594758284619e-05 7.5708689716700868e-05 9.2842162095774696e-06 -2.0565392499374068e-07
leaf_weight=662 768 862 553 893 1294 420731 576 517 730 613 517 2125 753 31988 54818
leaf_count=662 768 862 553 893 1294 420731 576 517 730 613 517 2125 753 31988 54818
internal_value=-2.18687e-13 4.46961e-05 -1.14484e-05 -1.79798e-07 -8.59551e-08 -2.21589e-07 4.40048e-06 -1.21599e-06 -5.59762e-05 -1.05392e-06 3.77776e-06 3.3825e-06 3.39389e-05 3.9679e-06 3.29136e-06
internal_weight=518400 2077 1415 516323 515555 513508 90917 422591 1247 421344 90341 89824 2047 88931 86806
internal_count=518400 2077 1415 516323 515555 513508 90917 422591 1247 421344 90341 89824 2047 88931 86806
is_linear=0
shrinkage=0.1


Tree=8
num_leaves=16
num_cat=0
split_feature=0 15 17 4 1 4 15 7 17 7 0 16 16 0 2
split_gain=0.00043424 0.000772359 0.000540243 0.000344516 0.000207619 0.000638437 0.000303193 0.00136497 0.00117271 0.000253922 0.000370297 0.000562896 0.000350965 0.000241176 0.000492618
threshold=0.0076203405462873528 28.409090909094555 0.96479115754706779 0.016616885643720217 -0.0017413260230640379 0.012506196656273174 13.151574352049726 -0.025860381107986271 0.96479115754706779 0.017868181916097962 -0.0059262063995227368 56.488834066329005 35.104823320660344 -0.0029534246840587359 0.0081709961070274301
decision_type=2 2 2 2 2 2 2 2 2 2 2 2 2 2 2
left_child=4 -2 -3 -4 5 6 8 -8 -1 10 11 12 -9 14 -6
right_child=1 2 3 -5 13 -7 7 9 -10 -11 -12 -13 -14 -15 -16
leaf_value=1.0815983072697729e-05 0.00013156158964653522 4.2606417425306023e-05 1.0887397599302853e-05 -0.00010434517488278061 -3.1862177438686337e-05 0.00010816849612677047 -0.00014228249434782811 -2.665994284903164e-05 0.00015847020491120383 7.1346297117997893e-05 3.1079148891803393e-06 1.9607136189790216e-05 -0.0001081845227519215 -9.155851274069842e-07 6.9057638805120468e-05
leaf_weight=14931 666 2048 526 512 4955 585 661 1215 558 525 72184 1388 934 416176 536
leaf_count=14931 666 2048 526 512 4955 585 661 1215 558 525 72184 1388 934 416176 536
internal_value=-4.62341e-14 3.38966e-05 1.28192e-05 -4.59518e-05 -2.4712e-07 4.03014e-06 3.3708e-06 8.00036e-07 1.61353e-05 2.04046e-06 1.55994e-06 -3.00315e-05 -6.20922e-05 -1.19029e-06 -2.2011e-05
internal_weight=518400 3752 3086 1038 514648 92981 92396 76907 15489 76246 75721 3537 2149 421667 5491
internal_count=518400 3752 3086 1038 514648 92981 92396 76907 15489 76246 75721 3537 2149 421667 5491
is_linear=0
shrinkage=0.1


Tree=9
num_leaves=16
num_cat=0
split_feature=0 1 14 6 3 15 13 15 1 3 10 11 10 4 15
split_gain=0.000367947 0.00045292 0.00038432 0.000569363 0.000342814 0.00030965 0.000256791 0.000345686 0.000225167 0.000277184 0.000191738 0.000236253 0.000189758 0.000187066 0.000789239
threshold=0.0047925139786842994 0.0030306928429412188 62.329093941777096 -0.00071606166114845926 0.019414944041281194 31.251566416047911 79.976932282990376 92.90419074838573 0.00093251686391426791 0.011214668250764894 0.71428571428571519 105.85710151585612 0.59374999999998879 -0.019992217449622315 11.111111111113898
decision_type=2 2 2 2 2 2 2 2 2 2 2 2 2 2 2
left_child=4 12 5 -4 8 -3 7 10 9 13 11 -5 -2 14 -1
right_child=1 2 3 6 -6 -7 -8 -9 -10 -11 -12 -13 -14 -15 -16
leaf_value=0.00012124852051846249 0.00011245866202667981 -8.6490803589378586e-05 9.7506788227256819e-05 5.0616761967572667e-06 6.4203010127756918e-05 4.1629921126845635e-06 7.1219225273389878e-05 -7.1398619671907628e-05 -3.9510370532540315e-06 6.5878977742805849e-05 -1.4613013283482682e-06 8.1339420332871416e-05 4.2530944585673088e-05 5.1594119288173804e-07 -1.9746648320896212e-05
leaf_weight=641 511 703 792 923 820 812 592 578 138065 653 4329 725 1613 365600 1043
leaf_count=641 511 703 792 923 820 812 592 578 138065 653 4329 725 1613 365600 1043
internal_value=9.84895e-14 1.76267e-05 8.25186e-06 1.70596e-05 -4.0267e-07 -3.79028e-05 8.14473e-06 2.4483e-06 -5.07366e-07 7.8484e-07 9.5896e-06 3.86183e-05 5.93544e-05 6.69108e-07 3.39219e-05
internal_weight=518400 11578 9454 7939 506822 1515 7147 6555 506002 367937 5977 1648 2124 367284 1684
internal_count=518400 11578 9454 7939 506822 1515 7147 6555 506002 367937 5977 1648 2124 367284 1684
is_linear=0
shrinkage=0.1


Tree=10
num_leaves=16
num_cat=0
split_feature=0 15 12 16 1 10 3 2 12 0 0 7 11 5 11
split_gain=0.000312136 0.00061905 0.000446996 0.0004658 0.000392788 0.000177469 0.000379573 0.000223641 0.000343585 0.000201038 0.000410939 0.000200862 0.000220333 0.00033204 0.000277507
threshold=0.0076203405462873528 28.409090909094555 58.425385345723818 76.923076923080757 0.010830295756758314 -0.66666666666666541 -0.017852140229841048 -0.015515008639966797 24.242068013381765 -0.0069515359951483049 -0.0059262063995227368 0.0073639297429012327 80.659215402096308 0.012451626145534302 66.053104318536995
decision_type=2 2 2 2 2 2 2 2 2 2 2 2 2 2 2
left_child=5 -2 4 -4 -3 6 -1 8 -7 -9 -11 -12 13 -13 -15
right_child=1 2 3 -5 -6 7 -8 9 -10 10 11 12 -14 14 -16
leaf_value=7.9910221801592947e-05 0.00011617484132529371 1.4241298676206241e-05 0.00010320377650825731 -1.5274178585018695e-07 -9.7272636346672038e-05 -0.00010627325708429648 3.5736494368561713e-06 5.4367293880189467e-05 3.4207561286067989e-07 -8.8049544437186831e-05 -2.636678636425601e-07 -1.3957261621390058e-05 -3.0729701538706199e-06 -3.0640136008159296e-05 -0.00012472927468271726
leaf_weight=657 666 710 735 1072 569 511 76053 658 740 541 406148 7684 20353 778 525
leaf_count=657 666 710 735 1072 569 511 76053 658 740 541 406148 7684 20353 778 525
internal_value=-7.22294e-15 2.87385e-05 9.86851e-06 4.18877e-05 -3.53689e-05 -2.09515e-07 4.22745e-06 -9.86702e-07 -4.32074e-05 -8.6575e-07 -9.49101e-07 -8.40898e-07 -8.83138e-06 -2.18725e-05 -6.85502e-05
internal_weight=518400 3752 3086 1807 1279 514648 76710 437938 1251 436687 436029 435488 29340 8987 1303
internal_count=518400 3752 3086 1807 1279 514648 76710 437938 1251 436687 436029 435488 29340 8987 1303
is_linear=0
shrinkage=0.1


Tree=11
num_leaves=16
num_cat=0
split_feature=0 13 2 17 3 17 1 16 1 9 0 17 3 17 15
split_gain=0.000275804 0.000368014 0.000321262 0.000645391 0.00028477 0.000280232 0.000276285 0.000243247 0.000179933 0.000166835 0.000176557 0.000249772 0.000431646 0.000208173 0.00103103
threshold=0.0047925139786842994 38.122192980090581 0.01680451560795038 0.96479115754706779 0.019414944041281194 1.1871431612506844 0.0017298440167765607 20.861171465040666 0.0025664166060719311 0.023349352600259946 0.0023207137589232878 0.49311289498929678 -0.0076728475775849616 0.84968927306199904 13.151574352049726
decision_type=2 2 2 2 2 2 2 2 2 2 2 2 2 2 2
left_child=4 -2 5 -4 8 6 -3 -8 9 10 13 -12 -13 -1 -15
right_child=1 2 3 -5 -6 -7 7 -9 -10 -11 11 12 -14 14 -16
leaf_value=-1.5385654678425644e-08 8.1916651613015139e-05 6.8229319957927056e-05 3.1699754887609144e-05 -0.0001114467254230912 5.8534173553996931e-05 7.6885526914782673e-05 -4.432940563577966e-05 1.230084126764367e-05 -6.2506339621629718e-06 3.9461933980315648e-05 3.115435877127865e-06 -4.8162512904656908e-05 4.9890002183283649e-05 8.6355541967801566e-05 -3.7843619622317773e-05
leaf_weight=438696 773 792 657 605 820 717 848 7186 48275 1078 9133 531 2906 782 4601
leaf_count=438696 773 792 657 605 820 717 848 7186 48275 1078 9133 531 2906 782 4601
internal_value=-5.67068e-14 1.52608e-05 1.04922e-05 -3.69244e-05 -3.48624e-07 1.67628e-05 1.18786e-05 6.32344e-06 -4.44046e-07 1.68356e-07 7.55969e-08 1.17629e-05 3.47414e-05 -2.55221e-07 -1.98009e-05
internal_weight=518400 11578 10805 1262 506822 9543 8826 8034 506002 457727 456649 12570 3437 444079 5383
internal_count=518400 11578 10805 1262 506822 9543 8826 8034 506002 457727 456649 12570 3437 444079 5383
is_linear=0
shrinkage=0.1


Tree=12
num_leaves=16
num_cat=0
split_feature=0 9 13 9 15 14 13 10 17 2 14 8 3 0 6
split_gain=0.000231904 0.000716256 0.000344976 0.000858789 0.000305038 0.000212242 0.000164318 0.000416301 0.000741095 0.000262949 0.00051391 0.000149525 0.000204358 0.000436364 0.000382045
threshold=0.0076203405462873528 -0.013537125328788533 62.350023774090538 0.010552509602943074 79.852352772873559 92.438011886731161 21.1784387454605 -0.4285714285714271 0.34520469512996355 -0.015515008639966797 1.0000000180025095e-35 0.002129664138635468 0.012659252910769527 0.0029555610324757402 0.019774185377556822
decision_type=2 2 2 2 2 2 2 2 2 2 2 2 2 2 2
left_child=6 -2 3 5 -4 -3 7 8 -1 10 -8 -11 -13 14 -14
right_child=1 2 4 -5 -6 -7 9 -9 -10 11 -12 12 13 -15 -16
leaf_value=-6.7680867213331095e-07 0.00013382013981163101 -2.0405969466058076e-05 9.5532855381515774e-05 -0.00013437937533421703 6.9024121080973102e-06 7.016262099081683e-05 3.7318452479002439e-06 -2.6694967864875063e-05 0.00015701848770632214 8.7877610990623664e-07 -0.00011400160351794373 -3.6136882357824556e-06 1.7541353840615293e-05 -1.5634535726963509e-05 0.00010638320409377082
leaf_weight=715 519 516 602 502 1094 519 973 829 511 371770 599 135347 1273 1850 781
leaf_count=715 519 516 602 502 1094 519 973 829 511 371770 599 135347 1273 1850 781
internal_value=-1.21471e-13 2.47711e-05 7.26523e-06 -2.70485e-05 3.8362e-05 2.50096e-05 -1.80592e-07 2.80401e-05 6.5051e-05 -2.93729e-07 -4.11297e-05 -1.6811e-07 -2.96307e-06 1.95931e-05 5.1322e-05
internal_weight=518400 3752 3233 1537 1696 1035 514648 2055 1226 512593 1572 511021 139251 3904 2054
internal_count=518400 3752 3233 1537 1696 1035 514648 2055 1226 512593 1572 511021 139251 3904 2054
is_linear=0
shrinkage=0.1


Tree=13
num_leaves=16
num_cat=0
split_feature=4 16 12 7 13 8 12 12 17 2 13 17 9 4 12
split_gain=0.000209308 0.000965836 0.00111139 0.00026611 0.000149726 0.00016767 0.000590203 0.000547671 0.000246873 0.000140906 0.00013127 0.000194124 0.000187698 0.000352641 0.00017934
threshold=-0.019992217449622315 20.568712953596897 19.173699633966518 -0.025860381107986271 79.976932282990376 0.028627099996562436 64.766390853606552 75.593089972107023 1.4547485189883036 0.012900646356894698 32.319174866334805 0.38177760434642721 -0.016267123287671156 -0.00080204253513233004 23.073279477404878
decision_type=2 2 2 2 2 2 2 2 2 2 2 2 2 2 2
left_child=1 2 -1 -2 5 8 -7 -8 10 -6 11 -5 13 -12 -13
right_child=3 -3 -4 4 9 6 7 -9 -10 -11 12 14 -14 -15 -16
leaf_value=0.0001879028746693193 -5.8947631535725499e-05 -5.1236423045282164e-05 -1.8120395930263255e-06 2.5687726488753748e-06 1.089051488104264e-05 -0.00012088363045891869 8.3798605350392154e-05 -6.3338025538795995e-05 4.9588926998364972e-05 6.9810028778248065e-05 -1.0028029580095802e-05 4.2383656826700692e-05 -3.3992112877949727e-07 -0.00010161369384600267 3.0935950026494555e-06
leaf_weight=585 768 838 654 18350 1489 511 511 501 1000 558 2510 2671 484893 505 2056
leaf_count=585 768 838 654 18350 1489 511 511 501 1000 558 2510 2671 484893 505 2056
internal_value=-3.5373e-13 3.16813e-05 8.77628e-05 -1.27444e-07 -3.98219e-08 -1.47418e-07 -3.32783e-05 1.09572e-05 -4.88639e-08 2.69516e-05 -1.46005e-07 7.22382e-06 -4.94582e-07 -2.53682e-05 2.52945e-05
internal_weight=518400 2077 1239 516323 515555 513508 1523 1012 511985 2047 510985 23077 487908 3015 4727
internal_count=518400 2077 1239 516323 515555 513508 1523 1012 511985 2047 510985 23077 487908 3015 4727
is_linear=0
shrinkage=0.1


Tree=14
num_leaves=16
num_cat=0
split_feature=0 16 14 5 12 9 17 15 16 3 14 8 10 0 15
split_gain=0.000204452 0.000308565 0.000293789 0.000690778 0.000298722 0.000494212 0.000342799 0.000274155 0.00019721 0.000192834 0.000184643 0.000148919 0.000275814 0.000190149 0.000620783
threshold=0.0047925139786842994 90.132278957827069 31.830415830270734 -0.010663046731769375 56.773252674469511 0.014521821353999155 0.96479115754706779 72.768156145351966 43.660300100766477 0.019414944041281194 54.689187295487258 0.0067583136947307896 -0.69999999999988327 -0.0041408708024774912 13.151574352049726
decision_type=2 2 2 2 2 2 2 2 2 2 2 2 2 2 2
left_child=9 2 -2 -4 5 8 7 -6 10 11 -5 13 -13 14 -1
right_child=1 -3 3 4 6 -7 -8 -9 -10 -11 -12 12 -14 -15 -16
leaf_value=3.4827566956525866e-05 -4.7915551264116161e-05 -4.0131347369905761e-05 0.00012824897324788191 -5.1691027609090981e-05 6.5798526980951453e-05 -9.4633416441115153e-05 0.00010828717051659026 6.64277416538244e-06 3.9262842330929438e-05 4.8154250695982386e-05 8.0191735152545486e-06 2.7503245466418145e-05 -8.9210727944035767e-06 4.1487603009936958e-07 -2.3481224256882349e-05
leaf_weight=2254 633 994 580 661 1116 504 558 2629 1511 820 2392 2218 33149 458768 9613
leaf_count=2254 633 994 580 661 1116 504 558 2629 1511 820 2392 2218 33149 458768 9613
internal_value=-4.35704e-13 1.31394e-05 1.81423e-05 2.23444e-05 1.57896e-05 -6.61996e-07 3.5166e-05 2.4271e-05 9.71522e-06 -3.0016e-07 -4.90858e-06 -3.78683e-07 -6.63676e-06 9.15958e-08 -1.24061e-05
internal_weight=518400 11578 10584 9951 9371 5068 4303 3745 4564 506822 3053 506002 35367 470635 11867
internal_count=518400 11578 10584 9951 9371 5068 4303 3745 4564 506822 3053 506002 35367 470635 11867
is_linear=0
shrinkage=0.1


Tree=15
num_leaves=16
num_cat=0
split_feature=0 7 1 0 16 12 7 12 11 10 13 9 16 0 10
split_gain=0.000165606 0.000284508 0.000384482 0.000272672 0.000409596 0.00022627 0.000199679 0.000352458 0.000155463 0.000148231 0.000236996 0.000234007 0.000854595 0.000228951 0.000268921
threshold=0.0047925139786842994 0.026961447093339367 0.0030306928429412188 0.0098182916044591301 23.652317418108712 46.044723082661513 0.026961447093339367 73.101812376575609 35.654164724894116 -0.66666666666666541 21.1784387454605 -0.01848634921748132 18.418122240188364 -0.0030776400661332022 -0.44444444444446268
decision_type=2 2 2 2 2 2 2 2 2 2 2 2 2 2 2
left_child=6 2 5 4 -4 -2 9 -8 -5 10 -1 12 -12 14 -11
right_child=1 -3 3 8 -6 -7 7 -9 -10 13 11 -13 -14 -15 -16
leaf_value=6.438412435335491e-05 2.7095556498133264e-05 -3.9985003128157121e-05 -5.6384248891163641e-05 9.4122411986609234e-05 9.924612371045411e-06 9.4400242193765291e-05 0.00010352108481357606 -1.208376169929777e-05 2.0916691606312541e-05 -8.470498967597468e-06 4.7880875531483287e-05 3.8365993341097849e-06 -0.00013282883356399266 -7.5032168670078121e-07 -5.2686662098898572e-05
leaf_weight=638 1184 971 1094 500 6274 864 505 552 691 7083 516 74949 531 420341 1707
leaf_count=638 1184 971 1094 500 6274 864 505 552 691 7083 516 74949 531 420341 1707
internal_value=-3.03649e-13 1.18254e-05 1.65683e-05 7.2552e-06 7.90784e-08 5.54897e-05 -2.70144e-07 4.31484e-05 5.16496e-05 -3.60885e-07 3.69028e-06 3.18074e-06 -4.37685e-05 -1.08434e-06 -1.70572e-05
internal_weight=518400 11578 10607 8559 7368 2048 506822 1057 1191 505765 76634 75996 1047 429131 8790
internal_count=518400 11578 10607 8559 7368 2048 506822 1057 1191 505765 76634 75996 1047 429131 8790
is_linear=0
shrinkage=0.1


Tree=16
num_leaves=16
num_cat=0
split_feature=4 16 12 13 2 8 1 1 0 15 2 0 17 12 2
split_gain=0.000163156 0.000717439 0.000897308 0.000134114 0.000167417 0.000508421 0.00026919 0.000129401 0.000400553 0.0002273 0.000259693 0.000151568 0.00030015 0.000220293 0.00019564
threshold=-0.019992217449622315 20.568712953596897 19.173699633966518 79.976932282990376 0.01680451560795038 0.022166757732298484 0.013940811325575344 0.0028582451997730689 0.0047925139786842994 29.478261736194003 0.0046188859551544734 0.0022484742610725532 0.65312674015891636 38.464417165011774 -0.0012741017605585323
decision_type=2 2 2 2 2 2 2 2 2 2 2 2 2 2 2
left_child=1 2 -1 4 6 -6 7 8 11 10 -9 -2 -13 -14 -15
right_child=3 -3 -4 -5 5 -7 -8 9 -10 -11 -12 12 13 14 -16
leaf_value=0.00016628613648826549 -2.133327818156139e-07 -4.3492857224678194e-05 -4.1806159844437205e-06 2.5433090283159704e-05 1.301800445484113e-05 -0.00010211367006540797 6.0156598752114775e-05 -1.4300124336248269e-05 4.755834840815963e-05 -2.5930894905796589e-06 -7.1194426779892523e-05 4.9973052618088012e-06 0.00010379145120681915 -2.1318407776516236e-05 6.1641594135048737e-05
leaf_weight=585 447690 838 654 2047 971 634 740 4832 1787 41204 962 13779 521 504 652
leaf_count=585 447690 838 654 2047 971 634 740 4832 1787 41204 962 13779 521 504 652
internal_value=1.17584e-13 2.79712e-05 7.63061e-05 -1.12519e-07 -2.142e-07 -3.24608e-05 -1.13246e-07 -2.00367e-07 3.05117e-07 -5.20092e-06 -2.37465e-05 1.22795e-07 9.85889e-06 4.98039e-05 2.54722e-05
internal_weight=518400 2077 1239 516323 514276 1605 512671 511931 464933 46998 5794 463146 15456 1677 1156
internal_count=518400 2077 1239 516323 514276 1605 512671 511931 464933 46998 5794 463146 15456 1677 1156
is_linear=0
shrinkage=0.1


Tree=17
num_leaves=16
num_cat=0
split_feature=4 16 12 7 8 3 12 15 13 15 4 9 7 13 12
split_gain=0.000132156 0.000589823 0.0011131 0.000225806 0.000127843 0.000287517 0.000193185 0.000333703 0.000329438 0.000155752 0.000254732 0.000133348 0.000147044 0.000148178 0.000114864
threshold=-0.019992217449622315 12.767324924255339 32.198508993206069 -0.025860381107986271 -0.017678276282693358 -0.010505679633975971 51.962781507154098 19.171120319722302 38.32702520469973 29.827229261880948 -0.0059038325835472074 -0.01848634921748132 -0.013228607855634509 31.8442995641654 22.658735635594052
decision_type=2 2 2 2 2 2 2 2 2 2 2 2 2 2 2
left_child=1 -1 -3 -2 9 6 7 -6 -9 10 14 -7 13 -13 -5
right_child=3 2 -4 4 5 11 -8 8 -10 -11 -12 12 -14 -15 -16
leaf_value=0.00010308386876912736 -5.4284338954602163e-05 -9.0051314652570393e-05 8.858284509829107e-05 4.6300837604007075e-05 -8.8931847022472129e-06 -3.8871479008359657e-05 1.3414152405167432e-05 -0.00012577992073083653 -3.1070115333093139e-05 7.0573462027505234e-05 -5.3337694371363591e-05 5.7160808876128907e-05 6.1482739906111935e-09 7.5785907662722198e-06 3.82497494531317e-06
leaf_weight=662 768 791 624 1179 1852 878 971 652 841 500 521 872 503953 1952 1384
leaf_count=662 768 791 624 1179 1852 878 971 652 841 500 521 872 503953 1952 1384
internal_value=-1.83181e-13 2.51741e-05 -1.12755e-05 -1.01267e-07 -2.05533e-08 -1.52307e-07 -2.58535e-05 -3.72522e-05 -7.24303e-05 1.88003e-05 1.04065e-05 6.62003e-08 1.33661e-07 2.28887e-05 2.33642e-05
internal_weight=518400 2077 1415 516323 515555 511971 4316 3345 1493 3584 3084 507655 506777 2824 2563
internal_count=518400 2077 1415 516323 515555 511971 4316 3345 1493 3584 3084 507655 506777 2824 2563
is_linear=0
shrinkage=0.1


Tree=18
num_leaves=16
num_cat=0
split_feature=0 16 10 12 15 9 14 16 7 10 7 14 0 0 10
split_gain=0.000132188 0.000394634 0.000619863 0.000156126 0.000402698 0.000305567 0.00037324 0.000155354 0.000148329 0.000257946 0.000140956 0.00027938 0.000353218 0.000147034 0.000421685
threshold=0.0065018586848139001 90.132278957827069 0.5666666666666883 57.395103353693464 79.852352772873559 0.010552509602943074 99.460014191890181 24.279560750476595 0.026961447093339367 0.16666666666663807 0.0064236291928687636 16.95144847401756 -0.0059262063995227368 -0.0041408708024774912 -0.44186046511627936
decision_type=2 2 2 2 2 2 2 2 2 2 2 2 2 2 2
left_child=8 2 -2 5 -5 6 7 -4 10 -10 13 -12 -13 14 -1
right_child=1 -3 3 4 -6 -7 -8 -9 9 -11 11 12 -14 -15 -16
leaf_value=-6.5948063561858548e-06 0.00012936974740168592 -6.5447435585269065e-05 -4.6482885493315479e-05 7.9028124048097684e-05 -1.0577764015290426e-05 -7.1971859450059128e-05 7.217646871943144e-05 2.1626706293287486e-05 7.5538751372857983e-05 -1.63368933420498e-05 -7.9902475548756035e-05 7.3438817356417639e-05 -6.3833283043617895e-06 4.9729548950198575e-07 -9.6003369464110397e-05
leaf_weight=11444 502 548 778 983 1024 525 711 588 683 553 507 563 36148 462290 553
leaf_count=11444 502 548 778 983 1024 525 711 588 683 553 507 563 36148 462290 553
internal_value=2.46862e-14 1.51999e-05 2.38469e-05 1.23537e-05 3.33099e-05 -3.81051e-06 1.34185e-05 -1.71648e-05 -1.67758e-07 3.44326e-05 -2.51366e-07 -6.17736e-06 -5.15918e-06 2.13655e-07 -1.07161e-05
internal_weight=518400 5659 5111 4609 2007 2602 2077 1366 512741 1236 511505 37218 36711 474287 11997
internal_count=518400 5659 5111 4609 2007 2602 2077 1366 512741 1236 511505 37218 36711 474287 11997
is_linear=0
shrinkage=0.1


Tree=19
num_leaves=16
num_cat=0
split_feature=1 2 5 4 0 5 6 13 12 0 15 5 17 9 17
split_gain=0.000134118 0.000433517 0.000505119 0.000325713 0.000545864 0.000347232 0.000232426 0.000203921 0.000201919 0.000353724 0.000486331 0.000823989 0.00033666 0.00024194 0.000207229
threshold=-0.0017413260230640379 -0.0083094731502094104 -0.016835762737402168 0.0049532191803253198 -0.0048004421462863869 0.0083855572199873513 -0.013725426970047026 36.279911738804778 8.2680618749654844 -0.0059262063995227368 12.495582780057482 -0.021879646905336444 0.31017689612900573 -0.02874924215897123 0.96479115754706779
decision_type=2 2 2 2 2 2 2 2 2 2 2 2 2 2 2
left_child=3 -2 -3 5 -5 8 7 -4 12 10 -10 -12 -1 -11 -13
right_child=1 2 6 4 -6 -7 -8 -9 9 13 11 14 -14 -15 -16
leaf_value=-1.9760402304452054e-06 -8.4042776632687637e-05 9.1365350871859091e-05 1.906998015651513e-06 0.00012776432629098486 1.6616200601561141e-05 -7.720384842136959e-05 -6.3436832781932915e-07 -8.0651874667213384e-05 3.9876500044575729e-05 7.0333152690614973e-05 -0.00015749998718717743 -3.4582792852235371e-05 0.00010424269548312835 3.3029415499970023e-06 2.7547027366784995e-05
leaf_weight=702 624 596 533 525 2790 546 422780 682 945 542 518 2608 519 82814 676
leaf_count=702 624 596 533 525 2790 546 422780 682 945 542 518 2608 519 82814 676
internal_value=2.91169e-13 -7.52973e-07 -6.30566e-07 3.43591e-06 3.42188e-05 2.30043e-06 -7.59883e-07 -4.44347e-05 2.78641e-06 2.2267e-06 -2.43252e-05 -4.02828e-05 4.31734e-05 3.73879e-06 -2.17936e-05
internal_weight=518400 425215 424591 93185 3315 89870 423995 1215 89324 88103 4747 3802 1221 83356 3284
internal_count=518400 425215 424591 93185 3315 89870 423995 1215 89324 88103 4747 3802 1221 83356 3284
is_linear=0
shrinkage=0.1


Tree=20
num_leaves=16
num_cat=0
split_feature=4 14 17 13 2 9 3 9 1 2 16 1 9 10 13
split_gain=0.000118679 0.00056298 0.00116343 0.000114935 0.000146888 0.000409317 0.00029995 0.000156539 0.000148363 0.00012658 0.000291844 0.000122371 0.000112667 0.000183173 0.000111495
threshold=-0.019992217449622315 0.59962399867146943 0.96479115754706779 79.976932282990376 0.01680451560795038 0.023349352600259946 0.019414944041281194 -0.02874924215897123 0.013940811325575344 0.0028775229492241654 15.037911898016523 0.0073955877291093106 0.017511807486071954 -0.1249999999999868 64.771664319410675
decision_type=2 2 2 2 2 2 2 2 2 2 2 2 2 2 2
left_child=1 2 -1 4 6 -6 7 -2 9 14 -11 -5 -12 -14 -9
right_child=3 -3 -4 11 5 -7 -8 8 -10 10 12 -13 13 -15 -16
leaf_value=-2.3962426301974195e-05 -4.485941581953035e-05 -3.6984212136444421e-05 0.00017345645379616652 4.9012809390491868e-06 8.8849717721132044e-06 -9.5320341359687264e-05 6.83748886578815e-05 7.6962261820195595e-07 4.8308619888989368e-05 -5.8911706868641696e-05 -2.5093506658814887e-06 5.5604194045954596e-05 2.0406172847662131e-05 -3.4116177291667441e-05 -6.363852054420624e-06
leaf_weight=638 783 878 561 1294 1000 605 639 427204 632 969 55936 753 807 2606 23095
leaf_count=638 783 878 561 1294 1000 605 639 427204 632 969 55936 753 807 2606 23095
internal_value=3.91074e-13 2.3856e-05 6.84079e-05 -9.59645e-08 -1.90094e-07 -3.03949e-05 -9.55332e-08 -1.80982e-07 -1.12555e-07 -1.72487e-07 -4.47441e-06 2.35526e-05 -3.5856e-06 -2.12244e-05 4.0376e-07
internal_weight=518400 2077 1199 516323 514276 1605 512671 512032 511249 510617 60318 2047 59349 3413 450299
internal_count=518400 2077 1199 516323 514276 1605 512671 512032 511249 510617 60318 2047 59349 3413 450299
is_linear=0
shrinkage=0.1


Tree=21
num_leaves=16
num_cat=0
split_feature=0 13 17 9 3 1 10 13 15 11 17 15 13 11 13
split_gain=0.000117341 0.000196017 0.000232916 0.000155189 0.00012995 0.000127381 0.000185 0.000135404 0.000124944 0.00024379 0.000122619 0.00056114 0.000988267 0.000475646 0.000434479
threshold=0.0047925139786842994 38.122192980090581 1.4547485189883036 -0.010111491983841701 0.019414944041281194 0.0017643846361966589 0.55555555555563785 79.976932282990376 85.714285714289176 111.27094867396588 0.89982275099088349 11.111111111113898 38.122192980090581 -101.23746145611345 57.862546457057839
decision_type=2 2 2 2 2 2 2 2 2 2 2 2 2 2 2
left_child=4 -2 3 -3 10 -5 -7 8 -8 -10 -1 -12 13 -13 -14
right_child=1 2 -4 5 -6 6 7 -9 9 -11 11 12 14 -15 -16
leaf_value=-1.0604313214580404e-07 5.8600743901046314e-05 -3.7643116454329488e-05 -5.3496774246829671e-05 5.2993130329728e-05 3.9549417330551766e-05 6.4140971173844475e-05 9.5155613807846787e-06 5.5780124196841259e-05 -7.9697015522819554e-05 3.2257705224870724e-06 8.4071965876075967e-05 -3.5020864769412729e-05 1.0868300682957203e-05 -0.00016563341960401214 -5.8354472026582267e-05
leaf_weight=498894 773 639 611 744 820 587 6002 513 502 1207 546 508 4286 618 1150
leaf_count=498894 773 639 611 744 820 587 6002 513 502 1207 546 508 4286 618 1150
internal_value=2.20753e-13 9.95411e-06 6.47389e-06 1.00684e-05 -2.27395e-07 1.32591e-05 9.90398e-06 6.03273e-06 2.72312e-06 -2.11319e-05 -2.91855e-07 -1.33335e-05 -2.14383e-05 -0.000106707 -3.77596e-06
internal_weight=518400 11578 10805 10194 506822 9555 8811 8224 7711 1709 506002 7108 6562 1126 5436
internal_count=518400 11578 10805 10194 506822 9555 8811 8224 7711 1709 506002 7108 6562 1126 5436
is_linear=0
shrinkage=0.1


Tree=22
num_leaves=16
num_cat=0
split_feature=0 9 13 9 11 14 17 1 9 0 2 17 9 17 10
split_gain=0.000108228 0.000481115 0.000301957 0.000546487 0.000199489 0.000124891 0.000119373 0.000109611 0.00042983 0.000185995 0.000283991 0.000268995 0.000212622 0.000178865 0.000442087
threshold=0.0076203405462873528 -0.013537125328788533 63.220150174914018 0.010552509602943074 119.20343188692659 92.438011886731161 0.55742252390700531 -0.0017413260230640379 0.023349352600259946 -0.0027420194917684433 0.0081709961070274301 0.6072445546530284 0.0052016159124194114 1.0481488060248874 0.071428571428563417
decision_type=2 2 2 2 2 2 2 2 2 2 2 2 2 2 2
left_child=7 -2 3 5 -4 -3 -6 8 -1 10 11 -9 -13 -11 -15
right_child=1 2 4 -5 6 -7 -8 9 -10 13 -12 12 -14 14 -16
leaf_value=2.4211147213996419e-06 0.00010629656951822335 -2.0464198131475499e-05 7.8734482836132413e-05 -0.00010828992206717245 4.0269553342462227e-05 4.8188038559356154e-05 -2.8319154784825112e-05 -9.5998944066955932e-06 8.5041911418554128e-05 -4.0022294944355497e-07 4.9824407367459063e-05 -8.1157340712107205e-05 -1.2322511387282255e-05 -0.00010840112117167824 -1.151451962528467e-06
leaf_weight=92347 519 526 602 556 509 534 506 4241 634 413038 576 1175 726 533 1378
leaf_count=92347 519 526 602 556 509 534 506 4241 634 413038 576 1175 726 533 1378
internal_value=-1.50888e-14 1.69224e-05 2.57498e-06 -2.79956e-05 3.31267e-05 1.4121e-05 6.07656e-06 -1.23371e-07 2.98447e-06 -8.08676e-07 -1.73147e-05 -2.36111e-05 -5.4869e-05 -5.41444e-07 -3.10646e-05
internal_weight=518400 3752 3233 1616 1617 1060 1015 514648 92981 421667 6718 6142 1901 414949 1911
internal_count=518400 3752 3233 1616 1617 1060 1015 514648 92981 421667 6718 6142 1901 414949 1911
is_linear=0
shrinkage=0.1


Tree=23
num_leaves=16
num_cat=0
split_feature=10 2 10 11 5 12 10 11 9 10 5 3 9 17 10
split_gain=0.000100683 0.000243923 0.000699426 0.000499133 0.000480298 0.000445928 0.000271093 0.00035974 0.000578749 0.00028329 0.000285724 0.000234957 0.000239001 0.000252681 0.000203763
threshold=-0.66666666666666541 -0.0083094731502094104 -0.16666666666665073 -53.464875335469934 -0.016835762737402168 31.141046977380153 -0.61702127659573802 -118.02446303757409 -0.014741380530198965 -0.53846153846153011 -0.01429622431684485 -0.017852140229841048 -0.01848634921748132 0.96479115754706779 0.14285714285710513
decision_type=2 2 2 2 2 2 2 2 2 2 2 2 2 2 2
left_child=11 2 6 14 5 -3 -2 9 -9 -8 -11 -1 -13 -14 -4
right_child=1 4 3 -5 -6 -7 7 8 -10 10 -12 12 13 -15 -16
leaf_value=6.2888848384744778e-05 -6.0528823589896647e-05 0.00012881491138204683 -7.7427756424817669e-05 -0.00015308248296046543 -4.5197308301219198e-07 -7.1664287454897183e-07 4.5004578081531555e-05 0.00013310122376495453 1.0691461169042212e-05 -8.4258580866043503e-05 5.2811639377776181e-06 -5.086587932011044e-05 2.9121772636716798e-06 7.0217077907022205e-05 -6.9704404251642657e-06
leaf_weight=657 594 555 767 508 433843 510 507 511 1582 755 675 820 74671 562 883
leaf_count=657 594 555 767 508 433843 510 507 511 1582 755 675 820 74671 562 883
internal_value=1.01772e-13 -5.80781e-07 -1.93994e-05 -6.64077e-05 -2.87322e-07 6.67857e-05 2.53922e-06 1.18351e-05 4.05775e-05 -1.92221e-05 -4.19933e-05 3.34409e-06 2.8297e-06 3.41495e-06 -3.97224e-05
internal_weight=518400 441690 6782 2158 434908 1065 4624 4030 2093 1937 1430 76710 76053 75233 1650
internal_count=518400 441690 6782 2158 434908 1065 4624 4030 2093 1937 1430 76710 76053 75233 1650
is_linear=0
shrinkage=0.1


Tree=24
num_leaves=16
num_cat=0
split_feature=0 2 10 4 3 0 6 8 2 0 9 17 16 5 17
split_gain=9.43389e-05 0.000406989 0.000439342 0.000740386 0.00034666 0.000313586 0.000206927 0.000313938 0.000161823 0.000357919 0.000259444 0.000368441 0.000260638 0.000259814 0.00022527
threshold=0.002647311876688319 -0.0090819591489915679 0.40000000000001151 0.0027840702204666727 0.012659252910769527 -0.0028399455298162564 0.0090007611674955985 0.016660275823034757 0.0028775229492241654 0.0065018586848139001 0.017511807486071954 1.0481488060248874 30.172982615646799 0.018268653852199449 0.6913683591462999
decision_type=2 2 2 2 2 2 2 2 2 2 2 2 2 2 2
left_child=4 -2 3 -3 6 -6 7 -1 9 -4 12 13 -10 -12 -14
right_child=1 2 8 -5 5 -7 -8 -9 10 -11 11 -13 14 -15 -16
leaf_value=-3.1777674108486366e-07 -7.7684627676173214e-05 0.00015028154818614057 8.4649020477996257e-06 -3.2000970576161528e-06 0.00010742810462189669 1.8475993653492165e-05 -1.4095524502702628e-05 7.4071454981120206e-05 -2.0006789851387675e-05 7.3394401592359636e-05 -4.163780035784957e-05 -0.00010409543148715837 4.6959725180343904e-06 2.3964828059200201e-05 4.1982567604169889e-05
leaf_weight=469689 585 559 11293 718 514 1731 11012 568 3756 918 1341 530 12220 1098 1868
leaf_count=469689 585 559 11293 718 514 1731 11012 568 3756 918 1341 530 12220 1098 1868
internal_value=1.15185e-13 5.02218e-06 6.43273e-06 6.39857e-05 -3.62355e-07 3.88419e-05 -5.45233e-07 -2.27926e-07 4.20723e-06 1.33462e-05 -1.1546e-06 -2.85259e-05 3.39961e-06 -1.21045e-05 9.63999e-06
internal_weight=518400 34886 34301 1277 483514 2245 481269 470257 33024 12211 20813 2969 17844 2439 14088
internal_count=518400 34886 34301 1277 483514 2245 481269 470257 33024 12211 20813 2969 17844 2439 14088
is_linear=0
shrinkage=0.1


Tree=25
num_leaves=16
num_cat=0
split_feature=8 9 15 1 4 7 1 1 1 14 8 9 1 6 16
split_gain=9.13373e-05 0.000237873 0.000217486 0.000147603 0.000123883 0.000248247 0.000321437 0.000148326 0.000147223 0.00272021 0.000996953 0.000165207 0.000577962 0.000123749 0.000110132
threshold=0.002129664138635468 0.0078813762177425434 30.899470899474426 -0.0075727404353066454 0.0021224287666484769 -0.0095201140668333944 -0.0042918454935622621 0.0091942317789921475 -0.012598069909261876 0.59962399867146943 -0.027357968591000145 -0.02874924215897123 -0.0041234876145475599 0.0032236451229789025 44.060614273326642
decision_type=2 2 2 2 2 2 2 2 2 2 2 2 2 2 2
left_child=1 4 -2 13 8 -6 -7 14 9 10 -1 12 -10 -4 -8
right_child=2 -3 3 -5 5 6 7 -9 11 -11 -12 -13 -14 -15 -16
leaf_value=0.00015725263828234322 -5.8371752079006508e-05 6.5825337034298881e-05 6.9887745767993275e-05 -2.181622758627176e-06 -5.1974759099093196e-05 8.108602324706595e-05 -1.443096327638693e-06 5.8394923270228632e-05 0.00011616869867383355 -0.00020626248255416302 -2.4550541009152588e-05 1.7352153439651517e-07 -3.0064313642357951e-05 4.0723015435068189e-06 1.0470253746901088e-05
leaf_weight=544 685 562 520 140184 711 587 13229 540 514 582 677 339092 570 634 18769
leaf_count=544 685 562 520 140184 711 587 13229 540 514 582 677 339092 570 634 18769
internal_value=-1.20156e-14 8.15379e-07 -2.16085e-06 -1.88842e-06 7.18162e-07 6.49019e-06 7.74509e-06 6.42199e-06 1.47067e-07 -2.83528e-05 5.64494e-05 2.98122e-07 3.9275e-05 3.37292e-05 5.54489e-06
internal_weight=518400 376377 142023 141338 375815 33836 33125 32538 341979 1803 1221 340176 1084 1154 31998
internal_count=518400 376377 142023 141338 375815 33836 33125 32538 341979 1803 1221 340176 1084 1154 31998
is_linear=0
shrinkage=0.1


Tree=26
num_leaves=16
num_cat=0
split_feature=0 13 13 12 1 7 11 17 1 7 0 4 2 0 11
split_gain=9.37979e-05 0.000859453 0.00066951 8.74144e-05 0.000364596 0.000217018 0.000725008 0.000425564 9.53941e-05 0.000316979 0.000327128 0.000252325 0.000211519 0.000156055 0.000191538
threshold=0.0098182916044591301 49.094450707652236 64.212470060394807 8.2680618749654844 -0.0044818665668217563 -0.025860381107986271 -104.63347332551129 0.96479115754706779 -0.0004560587413142691 0.017868181916097962 -0.0024852789589377973 -0.0091277455071743768 -0.0035814751313424926 -0.0026528263930674085 90.610389296769753
decision_type=2 2 2 2 2 2 2 2 2 2 2 2 2 2 2
left_child=3 -2 -3 4 -1 6 7 -5 9 -7 -11 12 -10 14 -13
right_child=1 2 -4 5 -6 8 -8 -9 11 10 -12 13 -14 -15 -16
leaf_value=9.446605591721083e-05 0.00013104688893770912 -0.00011018841489631622 3.6716532358558189e-05 -5.1211963262550136e-05 -2.6852878818592488e-06 1.3834001134331534e-06 -0.00012285779764854721 7.3073137163909215e-05 1.7112905376964524e-06 0.00011502550216765714 2.1620013235044348e-06 -3.3819677043012449e-05 -7.1497175964436812e-05 -6.7144589337178274e-07 1.579096536166483e-05
leaf_weight=504 522 510 792 535 1654 197304 613 568 684 500 528 2920 933 308772 1061
leaf_count=504 522 510 792 535 1654 197304 613 568 684 500 528 2920 933 308772 1061
internal_value=5.59115e-15 2.2637e-05 -2.08269e-05 -7.99299e-08 2.00044e-05 -1.64184e-07 -3.56671e-05 1.27898e-05 -4.5357e-08 1.67197e-06 5.70567e-05 -1.12879e-06 -4.05296e-05 -9.25084e-07 -2.05976e-05
internal_weight=518400 1824 1302 516576 2158 514418 1716 1103 512702 198332 1028 314370 1617 312753 3981
internal_count=518400 1824 1302 516576 2158 514418 1716 1103 512702 198332 1028 314370 1617 312753 3981
is_linear=0
shrinkage=0.1


Tree=27
num_leaves=16
num_cat=0
split_feature=0 1 10 2 4 1 17 3 15 4 17 17 14 0 17
split_gain=8.24581e-05 0.000432322 0.000357129 0.000399233 0.000369528 0.000176141 0.000306136 0.00016856 0.000353673 0.000209054 0.000241643 0.000197077 0.000278951 0.000196421 0.000144063
threshold=0.002647311876688319 0.010830295756758314 0.37499999999997691 -0.0083094731502094104 0.0027840702204666727 0.0021097046413501856 0.84968927306199904 -0.001719561642069378 31.633325574973679 0.016616885643720217 0.96479115754706779 0.56826022444370039 56.239715458365502 0.0057650167824924168 0.84968927306199904
decision_type=2 2 2 2 2 2 2 2 2 2 2 2 2 2 2
left_child=1 14 4 -4 -2 6 -5 -7 11 -10 13 -9 -13 -11 -1
right_child=2 -3 3 5 -6 7 -8 8 9 10 -12 12 -14 -15 -16
leaf_value=-2.2412979754396751e-07 0.00012156735301097021 8.7395632230588668e-05 -8.3868590810682296e-05 1.134135386543926e-05 3.2539080877499953e-06 3.302837482666549e-05 8.1836160837054999e-05 -1.5592587863619711e-05 6.3548128174359093e-06 -5.1656893122842252e-05 -7.601184202652041e-05 -0.00012035261717974557 -1.616233422465291e-05 2.4005859298226377e-05 -1.4215426527963219e-05
leaf_weight=475478 524 561 522 7051 532 1480 675 2140 18782 543 677 520 508 932 7475
leaf_count=475478 524 561 522 7051 532 1480 675 2140 18782 543 677 520 508 932 7475
internal_value=-2.69352e-14 -3.3877e-07 4.6953e-06 2.90771e-06 6.19625e-05 4.26766e-06 1.75003e-05 2.7128e-07 -1.74019e-06 2.97219e-06 -2.65503e-05 -3.28794e-05 -6.88656e-05 -3.84829e-06 -4.40683e-07
internal_weight=518400 483514 34886 33830 1056 33308 7726 25582 24102 20934 2152 3168 1028 1475 482953
internal_count=518400 483514 34886 33830 1056 33308 7726 25582 24102 20934 2152 3168 1028 1475 482953
is_linear=0
shrinkage=0.1


Tree=28
num_leaves=16
num_cat=0
split_feature=0 8 2 10 2 3 8 0 12 0 1 2 0 3 7
split_gain=8.45403e-05 0.000631476 0.00033613 8.62168e-05 0.000435213 0.000252959 0.000431672 0.000205283 0.000448505 0.000163689 0.000388777 0.000210383 0.000204832 0.00020256 0.00017202
threshold=0.0098182916044591301 0.022166757732298484 0.008896746877369523 -0.4666666666666866 -0.015515008639966797 -0.017852140229841048 -0.027357968591000145 -0.0090990999034886149 40.17213672436106 -0.0016076176404749007 -0.0084964428105357408 -0.0083094731502094104 -0.0036904733762462834 -0.008160067687277615 -0.014596075988788591
decision_type=2 2 2 2 2 2 2 2 2 2 2 2 2 2 2
left_child=3 2 -2 5 -5 6 -1 8 -7 10 -6 -11 -12 14 -13
right_child=1 -3 -4 4 9 7 -8 -9 -10 11 12 13 -14 -15 -16
leaf_value=0.00011109176792525814 0.00012356380819489982 -6.0303459072070209e-05 1.7012481828799965e-05 -7.6951403208173964e-05 5.4031233693755833e-05 -0.00010819113773754994 -1.364387047297602e-05 2.035691363329265e-06 2.1859329782494609e-05 -3.1955229690013321e-05 -6.9537624139585618e-05 7.0661009285903176e-05 -1.5134222200315537e-05 -3.9777934939248412e-07 1.2723758643833506e-05
leaf_weight=563 528 622 674 750 774 522 547 134372 539 2097 760 671 7742 365070 2169
leaf_count=563 528 622 674 750 774 522 547 134372 539 2097 760 671 7742 365070 2169
internal_value=-5.65288e-14 2.14909e-05 6.38171e-05 -7.58831e-08 -8.50261e-07 2.0794e-06 4.96229e-05 1.68974e-06 -4.2124e-05 -6.99777e-07 -1.38204e-05 -3.70847e-07 -1.99974e-05 -1.90824e-07 2.64125e-05
internal_weight=518400 1824 1202 516576 380033 136543 1110 135433 1061 379283 9276 370007 8502 367910 2840
internal_count=518400 1824 1202 516576 380033 136543 1110 135433 1061 379283 9276 370007 8502 367910 2840
is_linear=0
shrinkage=0.1


Tree=29
num_leaves=16
num_cat=0
split_feature=13 16 0 2 17 1 1 11 15 17 15 3 13 8 0
split_gain=8.10933e-05 0.000201394 0.000310986 0.000670997 0.000253446 0.000244329 0.000201819 0.000155141 0.000124316 0.000131876 0.000117705 9.37997e-05 7.64132e-05 9.44429e-05 0.000249658
threshold=32.319174866334805 37.277385225047432 -0.0090990999034886149 -0.015515008639966797 0.38177760434642721 -0.0044818665668217563 -0.0046879652482758596 -109.96379256242382 20.141277028686684 0.56826022444370039 11.483564744437105 -0.0095421989563865255 79.976932282990376 0.0067583136947307896 0.0098182916044591301
decision_type=2 2 2 2 2 2 2 2 2 2 2 2 2 2 2
left_child=1 2 -1 -4 11 -3 7 -6 9 10 -8 -5 13 14 -2
right_child=12 5 3 4 6 -7 8 -9 -10 -11 -12 -13 -14 -15 -16
leaf_value=6.8994183572081144e-05 -3.2139017923986443e-08 -8.508091664671672e-05 -0.00010195843671351507 -3.3887784934919386e-05 3.2686769669439908e-05 1.0450305416516013e-05 4.4098516356474807e-05 8.992827190982919e-05 4.6599797140581136e-05 -4.6942227166018464e-05 -1.4774312990890514e-05 4.046439059204751e-06 1.9000836991167565e-05 -5.0107906900526629e-06 6.5060379433431334e-05
leaf_weight=795 450940 530 568 678 1472 541 635 698 669 511 730 16892 2047 40104 590
leaf_count=795 450940 530 568 678 1472 541 635 698 669 511 730 16892 2047 40104 590
internal_value=3.21396e-14 5.58943e-06 7.51034e-06 5.37147e-06 8.10709e-06 -3.68247e-05 2.86935e-05 5.1099e-05 9.58943e-06 -3.60883e-06 1.26134e-05 2.58261e-06 -2.79867e-07 -3.60146e-07 5.29153e-08
internal_weight=518400 24719 23648 22853 22285 1071 4715 2170 2545 1876 1365 17570 493681 491634 451530
internal_count=518400 24719 23648 22853 22285 1071 4715 2170 2545 1876 1365 17570 493681 491634 451530
is_linear=0
shrinkage=0.1


Tree=30
num_leaves=16
num_cat=0
split_feature=8 0 15 2 17 16 13 16 16 13 15 17 3 6 17
split_gain=7.32339e-05 0.000361165 0.000226148 0.000558162 0.000234915 0.000617085 0.000500475 0.000294187 0.000419411 0.000358087 0.00015066 0.000195243 0.000134611 0.000120912 0.000125827
threshold=0.00041983731419747988 0.0098182916044591301 59.770114942531912 -0.006315925157053536 0.89982275099088349 12.767324924255339 33.878900140877796 32.265008636634967 43.294062729817618 41.237147130276846 30.899470899474426 0.50120154867532507 0.0038697346636799028 -0.0069163630201028994 1.4547485189883036
decision_type=2 2 2 2 2 2 2 2 2 2 2 2 2 2 2
left_child=1 2 4 -4 -1 -6 -7 9 -9 -8 11 -2 -5 -12 -15
right_child=10 -3 3 12 5 6 7 8 -10 -11 13 -13 -14 14 -16
leaf_value=3.2546777911624215e-07 -1.1982419276049084e-05 8.2934343697658254e-05 0.00010187371865557206 5.4221121382855271e-06 6.9073820732575917e-05 -0.00011281047121214377 6.762244777274191e-05 -0.00011004669001165831 -5.4730701271356658e-06 -2.9866945763644502e-05 3.9668058862495343e-05 -7.7504796137845111e-05 3.4797759215168827e-05 -9.4845194907313026e-07 -3.8643188478014746e-05
leaf_weight=247225 3726 538 632 29834 628 723 641 681 878 914 730 518 1646 228197 889
leaf_count=247225 3726 538 632 29834 628 723 641 681 878 914 730 518 1646 228197 889
internal_value=-1.88619e-13 1.07837e-06 9.23197e-07 8.82613e-06 -8.51023e-08 -2.28182e-05 -3.78581e-05 -2.04559e-05 -5.11528e-05 1.032e-05 -1.31002e-06 -1.99797e-05 6.95808e-06 -9.6525e-07 -1.09473e-06
internal_weight=518400 284340 283802 32112 251690 4465 3837 3114 1559 1555 234060 4244 31480 229816 229086
internal_count=518400 284340 283802 32112 251690 4465 3837 3114 1559 1555 234060 4244 31480 229816 229086
is_linear=0
shrinkage=0.1


Tree=31
num_leaves=16
num_cat=0
split_feature=13 16 17 12 12 14 5 17 10 2 15 17 2 15 6
split_gain=6.85395e-05 0.000159621 0.000240571 0.000576328 0.000608088 0.000156645 0.00013264 0.000146196 0.000150892 0.000130569 9.93963e-05 8.18061e-05 6.93827e-05 6.56235e-05 0.000280426
threshold=32.319174866334805 37.277385225047432 0.63534996305751334 16.551351537815325 24.242068013381765 9.0995407933239338 -0.01429622431684485 0.31017689612900573 -0.2500000000000222 -0.004151028394057287 10.006091079898086 0.45070324102087467 -0.0071562898951480483 35.326387885794176 -0.023858539429105537
decision_type=2 2 2 2 2 2 2 2 2 2 2 2 2 2 2
left_child=1 2 6 -4 -5 -3 10 12 9 11 -1 -9 -8 14 -2
right_child=13 5 3 4 -6 -7 7 8 -10 -11 -12 -13 -14 -15 -16
leaf_value=-6.0457832544595175e-05 6.5146073133761216e-05 7.866679554966383e-06 0.00011784064390054101 -6.1864851617377694e-05 6.7809593815119283e-05 -6.8745805746721738e-05 -3.2756109935168434e-05 3.5927339620953007e-05 -3.7904198733634878e-07 4.7968640927734643e-06 -4.9855564328938642e-06 7.9607996004731421e-05 2.1439056474840189e-06 5.1819190190564246e-07 -2.2431062813153105e-06
leaf_weight=528 620 505 645 710 737 566 593 1443 2093 997 832 610 14460 339904 153157
leaf_count=528 620 505 645 710 737 566 593 1443 2093 997 832 610 14460 339904 153157
internal_value=-4.53993e-14 5.13861e-06 6.84873e-06 3.92251e-05 4.18219e-06 -3.26213e-05 3.70662e-06 5.74221e-06 2.02981e-05 3.44874e-05 -2.65219e-05 4.8906e-05 7.6905e-07 -2.57294e-07 -1.97141e-06
internal_weight=518400 24719 23648 2092 1447 1071 21556 20196 5143 3050 1360 2053 15053 493681 153777
internal_count=518400 24719 23648 2092 1447 1071 21556 20196 5143 3050 1360 2053 15053 493681 153777
is_linear=0
shrinkage=0.1


Tree=32
num_leaves=16
num_cat=0
split_feature=15 17 0 4 10 3 14 0 16 12 10 8 10 0 10
split_gain=6.60561e-05 0.000244385 8.07846e-05 0.000491302 0.000221851 0.000183276 0.000299676 0.000435748 0.000274929 0.000655928 0.000150906 0.000242698 0.000196399 0.000150983 0.000135594
threshold=6.3274603889478245 0.56826022444370039 -0.0041408708024774912 0.0084962824352481387 -0.44444444444446268 -0.013795519747346939 59.616151983874751 -0.0090990999034886149 19.946713340782704 38.897841294830663 -0.61702127659573802 -0.0091847783149853739 -0.8181818181818169 -0.0052805936306394288 -0.85714285714287164
decision_type=2 2 2 2 2 2 2 2 2 2 2 2 2 2 2
left_child=1 -1 3 4 5 8 7 -7 -2 -10 11 14 -13 -12 -9
right_child=2 -3 -4 -5 -6 6 -8 10 9 -11 13 12 -14 -15 -16
leaf_value=4.3091260241508976e-06 6.7948935112818268e-05 7.3707892491459322e-05 6.3016368676670135e-08 6.7254361888128205e-05 -7.1151626814302337e-05 -0.00010244032443601109 3.4008337482109326e-05 -2.2446110749532956e-05 -9.0149009209502173e-05 6.5074977749957218e-05 -8.5739455875777205e-05 -1.6577515835586172e-06 -4.1802033144936689e-05 -1.6993896579708704e-05 3.2514108437063718e-05
leaf_weight=7745 714 543 496686 819 617 611 1117 615 540 549 556 2420 2455 751 1662
leaf_count=7745 714 543 496686 819 617 611 1117 615 540 549 556 2420 2455 751 1662
internal_value=-3.52165e-14 8.85588e-06 -1.43885e-07 -7.79807e-06 -1.26738e-05 -9.66453e-06 -1.48659e-05 -2.08849e-05 1.97234e-05 -1.18956e-05 -1.49941e-05 -9.28435e-06 -2.1874e-05 -4.62384e-05 1.76698e-05
internal_weight=518400 8288 510112 13426 12607 11990 10187 9070 1803 1089 8459 7152 4875 1307 2277
internal_count=518400 8288 510112 13426 12607 11990 10187 9070 1803 1089 8459 7152 4875 1307 2277
is_linear=0
shrinkage=0.1


Tree=33
num_leaves=16
num_cat=0
split_feature=8 0 15 2 0 15 7 5 15 1 8 1 9 16 4
split_gain=6.58586e-05 0.000279926 0.000226978 0.000369196 0.000179995 0.000544783 0.000751736 0.000670282 0.000517894 0.000194988 0.000166505 0.000111221 0.000130067 0.000151618 0.000120414
threshold=-0.00042566777112884585 0.0098182916044591301 59.770114942531912 -0.006315925157053536 -0.0059262063995227368 27.763945401244161 -0.019760521047214815 -0.010663046731769375 14.150168358694355 0.010830295756758314 -0.015559244328667119 0.0015163524848280654 -0.016267123287671156 39.927850951700094 0.0010726530928908409
decision_type=2 2 2 2 2 2 2 2 2 2 2 2 2 2 2
left_child=1 2 4 -4 5 6 8 -7 -1 11 -8 14 -13 -14 -6
right_child=-2 -3 3 -5 9 7 10 -9 -10 -11 -12 12 13 -15 -16
leaf_value=8.8993715152184227e-06 -1.0128099447779514e-06 7.4261333542075699e-05 9.3469278557158889e-05 1.0017925365146311e-05 9.7973214151643507e-07 -0.00015740092044653082 -8.4972049627021594e-05 -1.6631760370803126e-05 0.00013872560253126625 -6.1200498109292674e-05 -1.5793326713819718e-05 -4.0113850325572616e-05 -7.1188455012259665e-06 1.7179326854585565e-05 1.12405817266101e-05
leaf_weight=749 286815 524 551 14003 175553 546 575 889 521 508 881 1043 20063 2945 12234
leaf_count=749 286815 524 551 14003 175553 546 575 889 521 508 881 1043 20063 2945 12234
internal_value=6.16649e-14 1.25435e-06 1.08879e-06 1.31773e-05 2.76174e-07 -2.03215e-05 5.93133e-06 -7.01927e-05 6.21588e-05 6.79793e-07 -4.31132e-05 8.28186e-07 -5.57445e-06 -4.0087e-06 1.64821e-06
internal_weight=518400 231585 231061 14554 216507 4161 2726 1435 1270 212346 1456 211838 24051 23008 187787
internal_count=518400 231585 231061 14554 216507 4161 2726 1435 1270 212346 1456 211838 24051 23008 187787
is_linear=0
shrinkage=0.1


Tree=34
num_leaves=16
num_cat=0
split_feature=0 1 2 10 4 16 17 15 15 14 17 10 2 14 17
split_gain=6.90622e-05 0.000369183 0.00032028 0.000327072 0.000362543 0.000131545 0.000251788 0.000283299 0.000168593 0.000210357 0.000214092 0.00048275 0.000164684 0.000423336 0.000231073
threshold=0.002647311876688319 0.010830295756758314 -0.0090819591489915679 0.42857142857132663 0.0027840702204666727 87.261580534098059 0.49311289498929678 91.782125425540173 40.342841052395734 97.791876416132268 0.65312674015891636 0.66666666666666796 0.0063143428462321136 69.19058589882323 0.89982275099088349
decision_type=2 2 2 2 2 2 2 2 2 2 2 2 2 2 2
left_child=1 -1 -2 4 -4 8 -7 -8 12 10 -10 -12 14 -14 -5
right_child=2 -3 3 5 -6 6 7 -9 9 -11 11 -13 13 -15 -16
leaf_value=-4.0421069879300133e-07 -6.9072339545559033e-05 8.0765070898562957e-05 0.00010183164743813489 -4.4716625956240497e-06 8.0130391794961471e-06 5.7872772950643152e-06 7.6964450295803449e-06 -8.3733572390326888e-05 1.4392387660715893e-05 2.3401576656191389e-06 2.8415795670130089e-06 0.0001042465049203476 -0.00010848983907580383 1.3445548523597225e-05 6.4430939181274666e-05
leaf_weight=482953 585 561 726 8060 952 2361 561 856 5960 11275 947 931 511 643 518
leaf_count=482953 585 561 726 8060 952 2361 561 856 5960 11275 947 931 511 643 518
internal_value=4.09539e-14 -3.10034e-07 4.29701e-06 5.54832e-06 4.86044e-05 3.33368e-06 -1.42124e-05 -4.75358e-05 5.6318e-06 1.10871e-05 2.36697e-05 5.31121e-05 -5.08212e-06 -4.05484e-05 -3.10839e-07
internal_weight=518400 483514 34886 34301 1678 32623 3778 1417 28845 19113 7838 1878 9732 1154 8578
internal_count=518400 483514 34886 34301 1678 32623 3778 1417 28845 19113 7838 1878 9732 1154 8578
is_linear=0
shrinkage=0.1


end of trees

feature_importances:
ret1min=61
natr=49
ret2min=44
bop=37
rsi=36
slowk=35
ret3min=31
slowd=30
ret10min=28
mfi=27
ret4min=26
ret8min=26
ret5min=24
ret9min=18
stochrsi=16
ret6min=13
cci=13
ret7min=11

parameters:
[boosting: gbdt]
[objective: regression]
[metric: rmse]
[tree_learner: serial]
[device_type: cpu]
[data_sample_strategy: bagging]
[data: ]
[valid: ]
[num_iterations: 50]
[learning_rate: 0.1]
[num_leaves: 16]
[num_threads: 0]
[seed: 42]
[deterministic: 0]
[force_col_wise: 0]
[force_row_wise: 0]
[histogram_pool_size: -1]
[max_depth: -1]
[min_data_in_leaf: 500]
[min_sum_hessian_in_leaf: 0.001]
[bagging_fraction: 1]
[pos_bagging_fraction: 1]
[neg_bagging_fraction: 1]
[bagging_freq: 0]
[bagging_seed: 400]
[bagging_by_query: 0]
[feature_fraction: 0.8]
[feature_fraction_bynode: 1]
[feature_fraction_seed: 30056]
[extra_trees: 0]
[extra_seed: 12879]
[early_stopping_round: 0]
[early_stopping_min_delta: 0]
[first_metric_only: 0]
[max_delta_step: 0]
[lambda_l1: 0]
[lambda_l2: 0]
[linear_lambda: 0]
[min_gain_to_split: 0]
[drop_rate: 0.1]
[max_drop: 50]
[skip_drop: 0.5]
[xgboost_dart_mode: 0]
[uniform_drop: 0]
[drop_seed: 17869]
[top_rate: 0.2]
[other_rate: 0.1]
[min_data_per_group: 100]
[max_cat_threshold: 32]
[cat_l2: 10]
[cat_smooth: 10]
[max_cat_to_onehot: 4]
[top_k: 20]
[monotone_constraints: ]
[monotone_constraints_method: basic]
[monotone_penalty: 0]
[feature_contri: ]
[forcedsplits_filename: ]
[refit_decay_rate: 0.9]
[cegb_tradeoff: 1]
[cegb_penalty_split: 0]
[cegb_penalty_feature_lazy: ]
[cegb_penalty_feature_coupled: ]
[path_smooth: 0]
[interaction_constraints: ]
[verbosity: -1]
[saved_feature_importance_type: 0]
[use_quantized_grad: 0]
[num_grad_quant_bins: 4]
[quant_train_renew_leaf: 0]
[stochastic_rounding: 1]
[linear_tree: 0]
[max_bin: 255]
[max_bin_by_feature: ]
[min_data_in_bin: 3]
[bin_construct_sample_cnt: 200000]
[data_random_seed: 175]
[is_enable_sparse: 1]
[enable_bundle: 1]
[use_missing: 1]
[zero_as_missing: 0]
[feature_pre_filter: 1]
[pre_partition: 0]
[two_round: 0]
[header: 0]
[label_column: ]
[weight_column: ]
[group_column: ]
[ignore_column: ]
[categorical_feature: ]
[forcedbins_filename: ]
[precise_float_parser: 0]
[parser_config_file: ]
[objective_seed: 16083]
[num_class: 1]
[is_unbalance: 0]
[scale_pos_weight: 1]
[sigmoid: 1]
[boost_from_average: 1]
[reg_sqrt: 0]
[alpha: 0.9]
[fair_c: 1]
[poisson_max_delta_step: 0.7]
[tweedie_variance_power: 1.5]
[lambdarank_truncation_level: 30]
[lambdarank_norm: 1]
[label_gain: ]
[lambdarank_position_bias_regularization: 0]
[eval_at: ]
[multi_error_top_k: 1]
[auc_mu_weights: ]
[num_machines: 1]
[local_listen_port: 12400]
[time_out: 120]
[machine_list_filename: ]
[machines: ]
[gpu_platform_id: -1]
[gpu_device_id: -1]
[gpu_use_dp: 0]
[num_gpu: 1]

end of parameters

pandas_categorical:[]
