tree
version=v4
num_class=1
num_tree_per_iteration=1
label_index=0
max_feature_idx=17
objective=regression
feature_names=ret1min ret2min ret3min ret4min ret5min ret6min ret7min ret8min ret9min ret10min bop cci mfi rsi stochrsi slowk slowd natr
feature_infos=[-0.1206600206256444:0.054586038961039085] [-0.14548187740103546:0.063765182186234837] [-0.14690678672669666:0.047925082629452831] [-0.15283987415134948:0.076923076923077094] [-0.15535743767541677:0.079848628192999094] [-0.15563624360455508:0.10182186234817814] [-0.15827574860151361:0.078216512374834624] [-0.15415084997524353:0.092248803827751136] [-0.16921078272166279:0.091259640102827833] [-0.17337211181127798:0.11208832335329344] [-1:1] [-612.50542232136638:749.2354740061246] [0:100] [3.0401328585668779:96.253574244882529] [0:100] [0:100] [0:100] [0.021611203107851147:2.9407930466258758]
tree_sizes=1707 1726 1729 1722 1719 1720 1738 1708 1733 1745 1708 1724

Tree=0
num_leaves=16
num_cat=0
split_feature=7 12 10 0 17 3 14 17 13 13 3 13 2 12 17
split_gain=0.000159206 0.000200089 0.000175144 0.000202426 0.000147731 0.00013856 0.000168651 0.000121164 5.41388e-05 5.21235e-05 4.36806e-05 7.24556e-05 5.19395e-05 4.55699e-05 3.49113e-05
threshold=-0.0092332926134780485 14.817024897165682 0.20000000000000281 -0.0029289423828321999 0.43537046049591205 0.0088401315266158926 96.199336070083106 0.68945417093423178 31.619138672904636 71.810408910711161 -0.0049652434329341402 41.386074993630196 -0.0038998695879107199 30.609265361559668 0.24418636997989801
decision_type=2 2 2 2 2 2 2 2 2 2 2 2 2 2 2
left_child=1 -1 3 8 -5 7 -7 10 -3 -8 11 13 -13 -2 -15
right_child=5 2 -4 4 -6 6 9 -9 -10 -11 -12 12 -14 14 -16
leaf_value=6.4339825685391175e-05 1.244009815429888e-05 5.241231065402409e-05 5.4218085722690016e-05 -1.5767150234003811e-06 -7.1110298211068173e-05 7.5617902554226307e-05 2.6929999330700974e-05 -3.2957331799980648e-05 6.6482241065870389e-06 -1.5072969061658574e-05 1.8823149774727992e-06 4.571850434014747e-05 5.7686503210091573e-06 8.7313207267704643e-06 -2.5038314095907385e-05
leaf_weight=878 2181 518 690 745 518 555 693 995 516 515 506937 867 521 514 757
leaf_count=878 2181 518 690 745 518 555 693 995 516 515 506937 867 521 514 757
internal_value=2.15291e-06 2.23729e-05 1.00371e-05 -3.23453e-06 -3.00948e-05 2.00103e-06 2.99874e-05 1.90481e-06 2.95745e-05 9.0231e-06 1.97259e-06 1.14275e-05 3.07229e-05 3.6691e-06 -1.13817e-05
internal_weight=518400 3865 2987 2297 1263 514535 1763 512772 1034 1208 511777 4840 1388 3452 1271
internal_count=518400 3865 2987 2297 1263 514535 1763 512772 1034 1208 511777 4840 1388 3452 1271
is_linear=0
shrinkage=1


Tree=1
num_leaves=16
num_cat=0
split_feature=7 12 0 0 4 12 13 17 17 13 2 13 17 15 4
split_gain=0.000128957 0.000162072 0.00014498 0.000161018 0.000104457 0.000190945 0.000100333 9.24928e-05 7.91645e-05 4.38524e-05 3.65531e-05 2.73409e-05 5.08083e-05 2.57136e-05 2.65668e-05
threshold=-0.0092332926134780485 14.817024897165682 0.00085656773466469282 -0.0029289423828321999 0.0097429523258050228 79.041375604154027 64.577361251874734 0.40330520684937093 0.68945417093423178 31.619138672904636 -0.0057106955485409774 40.236992047171313 0.24418636997989801 9.3299747685750489 -0.0072911738281922758
decision_type=2 2 2 2 2 2 2 2 2 2 2 2 2 2 2
left_child=1 -1 3 9 8 6 -6 -5 10 -3 11 12 -2 -12 -15
right_child=4 2 -4 7 5 -7 -8 -9 -10 -11 13 -13 -14 14 -16
leaf_value=5.5968223714361452e-05 2.8410559275606655e-05 4.523345663119647e-05 4.8223669035395182e-05 -3.4172134160400859e-06 2.2410291652956245e-05 -1.7927661873516731e-05 8.1935455170923353e-05 -5.7179904182010665e-05 -2.854439531211259e-05 4.0457815319229647e-06 2.9852861952234461e-06 2.918071071376468e-05 -1.3525010366145398e-05 -2.1423345601525613e-05 -3.5044180832520967e-07
leaf_weight=878 504 518 666 691 643 690 506 596 985 516 23871 712 677 599 485348
leaf_count=878 504 518 666 691 643 690 506 596 985 516 23871 712 677 599 485348
internal_value=9.6575e-14 1.8198e-05 7.09575e-06 -4.70571e-06 -1.36696e-07 2.36537e-05 4.86242e-05 -2.83143e-05 -2.2203e-07 2.46795e-05 -1.67512e-07 1.37027e-05 4.37129e-06 -2.19014e-07 -3.76417e-07
internal_weight=518400 3865 2987 2321 514535 1839 1149 1287 512696 1034 511711 1893 1181 509818 485947
internal_count=518400 3865 2987 2321 514535 1839 1149 1287 512696 1034 511711 1893 1181 509818 485947
is_linear=0
shrinkage=0.1


Tree=2
num_leaves=16
num_cat=0
split_feature=5 10 11 16 13 3 14 5 4 15 3 10 9 2 1
split_gain=0.000102838 0.000182031 0.000234001 0.000217766 0.000134796 9.36565e-05 0.000147293 8.85446e-05 6.81051e-05 6.22034e-05 5.19711e-05 4.7493e-05 4.31585e-05 2.73122e-05 9.53378e-05
threshold=-0.0080155468924020239 0.3333333333333402 -189.51928480203739 31.124890602019637 32.457274105866759 0.0088401315266158926 96.199336070083106 -0.010373751283467901 -0.0072911738281922758 18.421034799557642 -0.0049652434329341402 0.66666666666667085 -0.0086739185341943009 0.0076929486013859192 0.0064566676702800816
decision_type=2 2 2 2 2 2 2 2 2 2 2 2 2 2 2
left_child=1 2 -1 4 7 8 -7 -4 9 -2 12 -8 -10 14 -12
right_child=5 -3 3 -5 -6 6 11 -9 10 -11 13 -13 -14 -15 -16
leaf_value=5.7555687404076728e-05 -9.0604856495253352e-07 6.8669667346202024e-05 5.8718853693583241e-05 -5.4429005608209464e-05 -2.506536904959773e-05 6.440646293466393e-05 -1.5492034231259225e-05 4.0930044662085966e-06 3.6590241528726707e-05 -5.0038321857025513e-05 -2.5546220550744467e-07 2.4049577238167648e-05 6.9748222604373709e-06 -2.1161966449334138e-05 4.2219328824514191e-05
leaf_weight=721 507 566 589 701 664 575 649 598 581 524 506787 571 3215 623 529
leaf_count=721 507 566 589 701 664 575 649 598 581 524 506787 571 3215 623 529
internal_value=-1.51343e-14 1.63062e-05 7.251e-06 -6.96125e-06 1.10155e-05 -1.21656e-07 2.26806e-05 3.11988e-05 -2.01478e-07 -2.58773e-05 -1.49749e-07 3.01474e-06 1.15076e-05 -2.36869e-07 -2.11172e-07
internal_weight=518400 3839 3273 2552 1851 514561 1795 1187 512766 1031 511735 1220 3796 507939 507316
internal_count=518400 3839 3273 2552 1851 514561 1795 1187 512766 1031 511735 1220 3796 507939 507316
is_linear=0
shrinkage=0.1


Tree=3
num_leaves=16
num_cat=0
split_feature=3 0 11 4 15 17 10 15 11 1 17 2 2 1 6
split_gain=8.4104e-05 0.000104993 0.000109168 0.000101077 9.72211e-05 0.000114887 9.30884e-05 6.55027e-05 5.29859e-05 0.000190236 8.93668e-05 7.19804e-05 2.27918e-05 5.57376e-05 2.44712e-05
threshold=-0.005605976700953307 0.0011066318937216215 -35.268811738900659 0.0097429523258050228 92.108953389972484 0.5486235651915321 -0.85714285714287686 6.2023669541030531 -189.51928480203739 -0.0061487827455057866 0.40330520684937093 -0.0057106955485409774 0.0076929486013859192 0.0064566676702800816 0.011497212258958169
decision_type=2 2 2 2 2 2 2 2 2 2 2 2 2 2 2
left_child=1 2 6 12 5 -5 -1 -8 -9 -10 11 -11 13 14 -2
right_child=3 -3 -4 4 -6 -7 7 8 9 10 -12 -13 -14 -15 -16
leaf_value=5.0451638580559506e-05 -2.0485083220329583e-07 5.0907452655777775e-05 -3.6903522418623642e-05 1.2474507351705964e-05 -1.0153088688033071e-05 7.3070699816529328e-05 -2.6471623967044596e-05 3.3393697782325014e-05 -4.4059079686364481e-05 3.701349853415165e-05 5.3112117354308972e-05 -9.2080258267920877e-06 -1.6919033922303082e-05 3.1537377404349132e-05 -2.1445065093595409e-05
leaf_weight=558 508880 620 503 724 600 551 514 856 614 511 568 989 816 553 543
leaf_count=558 508880 620 503 724 600 551 514 856 614 511 568 989 816 553 543
internal_value=8.41318e-14 1.20449e-05 7.33243e-06 -1.34694e-07 2.30409e-05 3.86616e-05 1.2159e-05 6.88577e-06 1.17319e-05 4.81826e-06 1.93302e-05 6.53811e-06 -2.19766e-07 -1.93046e-07 -2.27491e-07
internal_weight=518400 5733 5113 512667 1875 1275 4610 4052 3538 2682 2068 1500 510792 509976 509423
internal_count=518400 5733 5113 512667 1875 1275 4610 4052 3538 2682 2068 1500 510792 509976 509423
is_linear=0
shrinkage=0.1


Tree=4
num_leaves=16
num_cat=0
split_feature=17 12 10 15 17 0 5 2 5 15 4 10 1 0 13
split_gain=7.22874e-05 0.000232639 0.000199185 0.000174114 0.000149102 9.04351e-05 8.20001e-05 7.49446e-05 7.73432e-05 9.92056e-05 7.34695e-05 7.25935e-05 6.94473e-05 6.74608e-05 6.39938e-05
threshold=0.33952319317085083 19.472201695151551 0.099999999999994468 48.062015503880382 0.5486235651915321 -0.0015866719655593939 -0.0026036637269488123 -0.0038998695879107199 0.00029810708002764313 41.666666666672597 0.0045334999501006621 0.28571428571433111 -0.0032317199978135198 -0.00073325878560315239 32.847849237941311
decision_type=2 2 2 2 2 2 2 2 2 2 2 2 2 2 2
left_child=-1 -2 3 4 14 6 -5 -4 9 -9 13 -10 -8 -7 -3
right_child=1 2 7 5 -6 10 12 8 11 -11 -12 -13 -14 -15 -16
leaf_value=-2.1238624588890459e-07 5.458243590379952e-05 2.0197244446944752e-05 5.0921082316602905e-05 -1.4379193788925498e-05 -5.9496417266901052e-05 -1.8170851345484023e-05 6.027982796574233e-05 1.3323282293920628e-05 4.897854218006116e-05 -3.0866684088707074e-05 -3.5401278398462881e-05 1.4544813117426487e-05 1.6844785096629174e-05 2.3217225430043832e-05 -1.9482799324749555e-05
leaf_weight=502156 950 500 553 516 881 743 551 1392 729 800 687 3823 1109 838 2172
leaf_count=502156 950 500 553 516 881 743 551 1392 729 800 687 3823 1109 838 2172
internal_value=-1.44901e-13 6.56556e-06 3.58295e-06 -7.31831e-06 -2.38205e-05 5.87529e-06 2.04391e-05 1.553e-05 1.26279e-05 -2.80444e-06 -8.0977e-06 2.00594e-05 3.12621e-05 3.76666e-06 -1.20576e-05
internal_weight=518400 16244 15294 7997 3553 4444 2176 7297 6744 2192 2268 4552 1660 1581 2672
internal_count=518400 16244 15294 7997 3553 4444 2176 7297 6744 2192 2268 4552 1660 1581 2672
is_linear=0
shrinkage=0.1


Tree=5
num_leaves=16
num_cat=0
split_feature=7 11 11 10 12 3 3 1 10 17 3 13 2 12 10
split_gain=6.9198e-05 0.000178046 0.000188842 0.00013674 0.000102379 0.000115844 6.69418e-05 9.45146e-05 0.000142121 8.83794e-05 2.39428e-05 6.75552e-05 3.97129e-05 3.15858e-05 2.77092e-05
threshold=-0.0092332926134780485 -189.51928480203739 -147.48653641375844 0.33333333333327614 37.917927157506938 -0.005605976700953307 0.0088401315266158926 0.0040879529422855896 0.7147009966777631 0.68945417093423178 -0.0049652434329341402 41.386074993630196 -0.0038998695879107199 30.609265361559668 -0.55217785843921541
decision_type=2 2 2 2 2 2 2 2 2 2 2 2 2 2 2
left_child=1 -1 -3 4 5 -4 9 -8 -9 10 11 13 -13 14 -2
right_child=6 2 3 -5 -6 -7 7 8 -10 -11 -12 12 -14 -15 -16
leaf_value=6.2527511457187237e-05 1.8595062868921245e-05 -4.2758893690956633e-05 4.651667181302478e-05 6.1122928704401564e-05 -3.1700285848409238e-05 -9.8202963033865956e-06 5.2676536069583236e-05 -2.628872582117421e-05 4.3709959306191109e-05 -2.9941359527821356e-05 -1.7596023950569234e-07 3.863475453134313e-05 3.7020727992815421e-06 -1.3130949881731531e-05 -3.980571747322106e-06
leaf_weight=618 1032 683 733 540 564 727 574 687 502 995 506937 867 521 1271 1149
leaf_count=618 1032 683 733 540 564 727 574 687 502 995 506937 867 521 1271 1149
internal_value=1.02955e-12 1.33305e-05 3.96688e-06 1.64137e-05 4.48538e-06 1.84639e-05 -1.00133e-07 1.93525e-05 3.26497e-06 -1.67014e-07 -1.09127e-07 6.89093e-06 2.55224e-05 -6.00524e-07 6.70171e-06
internal_weight=518400 3865 3247 2564 2024 1460 514535 1763 1189 512772 511777 4840 1388 3452 2181
internal_count=518400 3865 3247 2564 2024 1460 514535 1763 1189 512772 511777 4840 1388 3452 2181
is_linear=0
shrinkage=0.1


Tree=6
num_leaves=16
num_cat=0
split_feature=5 0 14 0 10 4 11 11 3 14 7 3 9 6 11
split_gain=5.72765e-05 0.000157924 0.000158127 0.000141347 0.000139654 6.45148e-05 5.39557e-05 5.14648e-05 5.07619e-05 0.000105842 3.38342e-05 3.25935e-05 3.33607e-05 2.72631e-05 0.000100035
threshold=-0.0080155468924020239 0.0011873546756415723 1.0000000180025095e-35 -0.0044425459529724978 -0.39811320754712137 -0.0072911738281922758 -110.90667870704185 -131.36467246514334 0.0088401315266158926 96.199336070083106 0.012323304868541831 -0.0049652434329341402 -0.0086739185341943009 -0.0058221273518111452 -65.603844511458433
decision_type=2 2 2 2 2 2 2 2 2 2 2 2 2 2 2
left_child=1 2 3 -1 -4 6 -2 -5 11 -10 -11 12 -7 14 -13
right_child=5 -3 4 7 -6 8 -8 -9 9 10 -12 13 -14 -15 -16
leaf_value=5.7568371178304572e-05 -1.7326936496987324e-06 5.9669436438404372e-05 -6.5403751644901265e-05 -1.2109620074258955e-05 4.7803025897508182e-06 3.1184798617781116e-05 -4.7450797955857865e-05 2.762845246165583e-05 5.216262332797457e-05 1.7061153666338783e-05 -1.6264882449822046e-05 -5.7688015272339084e-07 5.147136988026414e-06 -1.0310305859543498e-07 -4.0369828573043834e-05
leaf_weight=674 506 592 509 919 640 581 527 505 574 598 621 3219 3215 503934 786
leaf_count=674 506 592 509 919 640 581 527 505 574 598 621 3219 3215 503934 786
internal_value=-7.24063e-13 1.21693e-05 3.50896e-06 1.98402e-05 -2.63108e-05 -9.07925e-08 -2.50565e-05 1.98288e-06 -4.05722e-08 1.6756e-05 8.3739e-08 -9.94233e-08 9.13235e-06 -1.68415e-07 -8.38643e-06
internal_weight=518400 3839 3247 2098 1149 514561 1033 1424 513528 1793 1219 511735 3796 507939 4005
internal_count=518400 3839 3247 2098 1149 514561 1033 1424 513528 1793 1219 511735 3796 507939 4005
is_linear=0
shrinkage=0.1


Tree=7
num_leaves=16
num_cat=0
split_feature=17 6 16 13 13 15 10 6 14 10 13 15 14 16 10
split_gain=4.90739e-05 0.000128433 0.000230171 0.000421566 0.000347788 0.000235203 8.57914e-05 6.32723e-05 8.84683e-05 0.000237167 5.6565e-05 7.78906e-05 6.91074e-05 7.21411e-05 5.88753e-05
threshold=0.33952319317085083 -0.00039956048745509726 30.767882828474153 32.047236634024564 37.587758778752381 12.96296296296622 0.33333333333330428 -0.0023656107793739718 37.296616771921101 -0.27272727272722452 54.121104184021242 79.522253345785444 82.948723744379777 89.662153960406116 0.099999999999994468
decision_type=2 2 2 2 2 2 2 2 2 2 2 2 2 2 2
left_child=-1 2 3 5 -4 -2 -5 8 9 -6 14 -12 -13 -14 -3
right_child=1 10 4 6 7 -7 -8 -9 -10 -11 11 12 13 -15 -16
leaf_value=-1.7499230926665981e-07 2.0769391369107854e-05 1.0283539582915332e-05 -9.1877603927522142e-05 -2.0260838393522727e-05 -1.6040054178112404e-05 0.00011370482884310086 1.5724678365009531e-05 -2.7677313648090186e-05 -3.0322256279583156e-05 6.53865127648189e-05 -8.525560695578097e-06 3.8554211086839398e-05 2.2493143652715164e-05 -1.7445649378282988e-05 3.5785555585960908e-05
leaf_weight=502156 559 1761 590 1807 952 531 1046 1123 617 573 1956 1001 1094 771 1863
leaf_count=502156 559 1761 590 1807 952 531 1046 1123 617 573 1956 1001 1094 771 1863
internal_value=3.247e-13 5.4096e-06 -3.8443e-06 1.31433e-05 -2.12197e-05 6.60434e-05 -7.06741e-06 -8.45149e-06 1.62816e-06 1.4555e-05 1.39535e-05 6.85891e-06 1.73586e-05 5.98225e-06 2.33934e-05
internal_weight=518400 16244 7798 3943 3855 1090 2853 3265 2142 1525 8446 4822 2866 1865 3624
internal_count=518400 16244 7798 3943 3855 1090 2853 3265 2142 1525 8446 4822 2866 1865 3624
is_linear=0
shrinkage=0.1


Tree=8
num_leaves=16
num_cat=0
split_feature=7 17 15 2 10 3 3 14 17 1 14 2 13 13 17
split_gain=4.44998e-05 9.68121e-05 7.95917e-05 9.8761e-05 7.23866e-05 5.74158e-05 4.08679e-05 8.16537e-05 7.47365e-05 3.91484e-05 2.0692e-05 3.33554e-05 0.000101545 7.27004e-05 8.67636e-05
threshold=-0.0092332926134780485 0.68945417093423178 16.90099659129606 -0.0074142581931874721 -0.40000000000000441 -0.005605976700953307 0.0088401315266158926 96.199336070083106 0.68945417093423178 0.0064566676702800816 1.0407642888663247 -0.0025272315273066055 43.243625154944489 30.172274754136442 0.26397785249373718
decision_type=2 2 2 2 2 2 2 2 2 2 2 2 2 2 2
left_child=1 2 3 -1 -4 -5 8 -8 10 -9 -2 12 13 -12 -15
right_child=6 -3 4 5 -6 -7 7 9 -10 -11 11 -13 -14 14 -16
leaf_value=-4.1108197714394512e-05 1.4171439580219559e-06 4.7285194179123626e-05 5.1584749977465438e-05 2.4220512559668125e-05 1.898293979451138e-06 -1.5867675055166645e-05 4.6869239566821074e-05 1.9704237289673238e-05 -2.7512528687344714e-05 -1.6371440673750694e-05 5.3927312911535181e-06 -2.2771589817098842e-07 6.9372047595951002e-06 -1.0714229307357524e-05 -4.2266619865689815e-05
leaf_weight=627 78268 609 539 804 643 643 555 566 995 642 1220 425310 3287 2282 1410
leaf_count=627 78268 609 539 804 643 643 555 566 995 642 1220 425310 3287 2282 1410
internal_value=-5.93197e-13 1.069e-05 3.84531e-06 -7.95779e-06 2.45557e-05 6.40662e-06 -8.03003e-08 1.51189e-05 -1.32558e-07 5.31567e-07 -7.93254e-08 -3.49506e-07 -6.66716e-06 -1.57709e-05 -2.27643e-05
internal_weight=518400 3865 3256 2074 1182 1447 514535 1763 512772 1208 511777 433509 8199 4912 3692
internal_count=518400 3865 3256 2074 1182 1447 514535 1763 512772 1208 511777 433509 8199 4912 3692
is_linear=0
shrinkage=0.1


Tree=9
num_leaves=16
num_cat=0
split_feature=5 0 10 10 12 4 15 4 12 13 2 1 10 0 17
split_gain=3.90354e-05 0.000115228 0.000118213 0.000125448 0.000150805 5.047e-05 4.31584e-05 3.59297e-05 0.000138739 7.73161e-05 2.80843e-05 7.09961e-05 2.22007e-05 8.23933e-05 7.50406e-05
threshold=-0.0080155468924020239 0.0011873546756415723 -0.71428571428575194 -0.50000000000008082 21.79675150941279 -0.0072911738281922758 18.421034799557642 0.0097429523258050228 79.041375604154027 64.577361251874734 0.0076929486013859192 0.0064566676702800816 -0.43750000000000211 -0.00064573412318358326 0.48548902166793334
decision_type=2 2 2 2 2 2 2 2 2 2 2 2 2 2 2
left_child=1 2 -1 -4 -5 6 -2 10 9 -9 11 12 -7 14 -14
right_child=5 -3 3 4 -6 7 -8 8 -10 -11 -12 -13 13 -15 -16
leaf_value=3.4187620709396482e-05 -1.3369856119685208e-06 5.0620505345400982e-05 -3.9239958442736284e-05 4.5053796890303376e-05 -1.8804345953259077e-05 9.3432733453995549e-07 -4.2224048185827318e-05 1.2400258255916103e-05 -2.1749356695352987e-05 6.4237963222159181e-05 -1.905382778718219e-05 3.677302093327754e-05 -8.6244310035598234e-06 -3.1379303605457048e-07 -4.8613468423037978e-05
leaf_weight=870 507 592 866 646 865 149614 526 667 690 506 779 523 5745 354493 511
leaf_count=870 507 592 866 646 865 149614 526 667 690 506 779 523 5745 354493 511
internal_value=-1.58352e-13 1.00463e-05 2.64873e-06 -8.89475e-06 8.49702e-06 -7.49529e-08 -2.21565e-05 -3.05341e-08 1.38316e-05 3.47616e-05 -8.1007e-08 -5.20772e-08 -8.98142e-08 -5.14558e-07 -1.18908e-05
internal_weight=518400 3839 3247 2377 1511 514561 1033 513528 1863 1173 511665 510886 510363 360749 6256
internal_count=518400 3839 3247 2377 1511 514561 1033 513528 1863 1173 511665 510886 510363 360749 6256
is_linear=0
shrinkage=0.1


Tree=10
num_leaves=16
num_cat=0
split_feature=3 16 17 16 1 15 10 10 4 14 10 2 13 3 9
split_gain=4.13159e-05 9.65792e-05 0.000266454 0.000191837 0.000174354 8.85719e-05 5.32496e-05 4.52969e-05 4.43716e-05 0.000117111 7.0397e-05 3.8191e-05 4.3811e-05 3.47953e-05 2.27787e-05
threshold=-0.0049652434329341402 31.851851851858623 0.5486235651915321 45.979962160308979 -0.0040319329348543756 16.66666666667015 -0.68181818181819664 -0.33333333333343612 0.0097429523258050228 95.680555519658682 0.65517241379310909 -0.0074142581931874721 26.285554387934436 -0.0066177064429081547 -0.013522413464956915
decision_type=2 2 2 2 2 2 2 2 2 2 2 2 2 2 2
left_child=1 2 5 4 -3 11 -5 -8 14 -10 -11 -1 -13 -14 -2
right_child=8 3 -4 6 -6 -7 7 -9 9 10 -12 12 13 -15 -16
leaf_value=-2.1369266912475681e-05 -1.9853243222157368e-05 -8.1334300228739999e-05 8.2830809846337565e-05 -8.7318360976224989e-06 -2.9616352580558622e-06 3.6328964797345905e-05 4.8144299132588835e-05 6.5238603686642209e-06 4.9636222170220999e-05 -2.5668722500572481e-05 2.22999967247977e-05 2.2481763070123853e-05 -2.2667777266596079e-05 6.6274348262914846e-06 -1.4280570716382455e-07
leaf_weight=652 587 525 530 634 618 859 540 507 648 645 582 982 632 1131 508328
leaf_count=652 587 525 530 634 618 859 540 507 648 645 582 982 632 1131 508328
internal_value=2.3158e-13 7.314e-06 1.59676e-05 -7.35172e-06 -3.89596e-05 7.6411e-06 1.41401e-05 2.799e-05 -1.08967e-07 1.52462e-05 -2.91583e-06 3.86789e-07 5.55435e-06 -3.87431e-06 -1.6554e-07
internal_weight=518400 7610 4786 2824 1143 4256 1681 1047 510790 1875 1227 3397 2745 1763 508915
internal_count=518400 7610 4786 2824 1143 4256 1681 1047 510790 1875 1227 3397 2745 1763 508915
is_linear=0
shrinkage=0.1


Tree=11
num_leaves=16
num_cat=0
split_feature=17 6 13 0 0 3 0 6 9 13 15 1 9 7 15
split_gain=3.39555e-05 0.000105704 0.000149622 8.25621e-05 6.77301e-05 6.80404e-05 6.13256e-05 5.99204e-05 8.83892e-05 5.34461e-05 6.07302e-05 7.41746e-05 6.96718e-05 4.98198e-05 4.43684e-05
threshold=0.33952319317085083 -0.00039956048745509726 31.174688228335615 -0.0044425459529724978 0.0035622843589623314 0.0031844598561833197 -0.0023300026360053012 -0.0023656107793739718 0.00039980010394402582 54.121104184021242 77.678571428577314 0.00068133428018013486 0.0040093435330726965 -0.00083295156531132386 92.108953389972484
decision_type=2 2 2 2 2 2 2 2 2 2 2 2 2 2 2
left_child=-1 2 6 -4 5 7 -2 8 -5 13 11 -11 -13 -3 -12
right_child=1 9 3 4 -6 -7 -8 -9 -10 10 14 12 -14 -15 -16
leaf_value=-1.4556251832177026e-07 5.2547169094993436e-05 4.6889237752708279e-05 -4.4668950991249534e-05 -5.7089152092601366e-06 2.6452695745570839e-05 -4.3289510160771306e-05 5.7206229986837586e-06 -2.5404450535494311e-05 3.9027662152409256e-05 1.789305454073198e-05 2.120333639454922e-05 2.3453925081016096e-06 -4.7928325397948759e-05 1.602788900530272e-05 -5.6241996114461558e-06
leaf_weight=502156 579 634 609 3254 580 537 541 1187 511 628 2230 505 607 2990 852
leaf_count=502156 579 634 609 3254 580 537 541 1187 511 628 2230 505 607 2990 852
internal_value=1.5202e-13 4.49983e-06 -3.89541e-06 -9.56814e-06 -6.04592e-06 -9.47991e-06 2.99283e-05 -5.81356e-06 3.62902e-07 1.2251e-05 5.35471e-06 -9.58117e-06 -2.50972e-05 2.14269e-05 1.3787e-05
internal_weight=518400 16244 7798 6678 6069 5489 1120 4952 3765 8446 4822 1740 1112 3624 3082
internal_count=518400 16244 7798 6678 6069 5489 1120 4952 3765 8446 4822 1740 1112 3624 3082
is_linear=0
shrinkage=0.1


end of trees

feature_importances:
bop=20
rsi=18
natr=18
ret4min=15
ret1min=13
slowk=13
ret3min=11
ret2min=9
ret5min=9
mfi=9
stochrsi=9
cci=8
ret6min=6
ret7min=6
ret8min=6
ret10min=5
slowd=5

parameters:
[boosting: gbdt]
[objective: regression]
[metric: rmse]
[tree_learner: serial]
[device_type: cpu]
[data_sample_strategy: bagging]
[data: ]
[valid: ]
[num_iterations: 50]
[learning_rate: 0.1]
[num_leaves: 16]
[num_threads: 0]
[seed: 42]
[deterministic: 0]
[force_col_wise: 0]
[force_row_wise: 0]
[histogram_pool_size: -1]
[max_depth: -1]
[min_data_in_leaf: 500]
[min_sum_hessian_in_leaf: 0.001]
[bagging_fraction: 1]
[pos_bagging_fraction: 1]
[neg_bagging_fraction: 1]
[bagging_freq: 0]
[bagging_seed: 400]
[bagging_by_query: 0]
[feature_fraction: 0.8]
[feature_fraction_bynode: 1]
[feature_fraction_seed: 30056]
[extra_trees: 0]
[extra_seed: 12879]
[early_stopping_round: 0]
[early_stopping_min_delta: 0]
[first_metric_only: 0]
[max_delta_step: 0]
[lambda_l1: 0]
[lambda_l2: 0]
[linear_lambda: 0]
[min_gain_to_split: 0]
[drop_rate: 0.1]
[max_drop: 50]
[skip_drop: 0.5]
[xgboost_dart_mode: 0]
[uniform_drop: 0]
[drop_seed: 17869]
[top_rate: 0.2]
[other_rate: 0.1]
[min_data_per_group: 100]
[max_cat_threshold: 32]
[cat_l2: 10]
[cat_smooth: 10]
[max_cat_to_onehot: 4]
[top_k: 20]
[monotone_constraints: ]
[monotone_constraints_method: basic]
[monotone_penalty: 0]
[feature_contri: ]
[forcedsplits_filename: ]
[refit_decay_rate: 0.9]
[cegb_tradeoff: 1]
[cegb_penalty_split: 0]
[cegb_penalty_feature_lazy: ]
[cegb_penalty_feature_coupled: ]
[path_smooth: 0]
[interaction_constraints: ]
[verbosity: -1]
[saved_feature_importance_type: 0]
[use_quantized_grad: 0]
[num_grad_quant_bins: 4]
[quant_train_renew_leaf: 0]
[stochastic_rounding: 1]
[linear_tree: 0]
[max_bin: 255]
[max_bin_by_feature: ]
[min_data_in_bin: 3]
[bin_construct_sample_cnt: 200000]
[data_random_seed: 175]
[is_enable_sparse: 1]
[enable_bundle: 1]
[use_missing: 1]
[zero_as_missing: 0]
[feature_pre_filter: 1]
[pre_partition: 0]
[two_round: 0]
[header: 0]
[label_column: ]
[weight_column: ]
[group_column: ]
[ignore_column: ]
[categorical_feature: ]
[forcedbins_filename: ]
[precise_float_parser: 0]
[parser_config_file: ]
[objective_seed: 16083]
[num_class: 1]
[is_unbalance: 0]
[scale_pos_weight: 1]
[sigmoid: 1]
[boost_from_average: 1]
[reg_sqrt: 0]
[alpha: 0.9]
[fair_c: 1]
[poisson_max_delta_step: 0.7]
[tweedie_variance_power: 1.5]
[lambdarank_truncation_level: 30]
[lambdarank_norm: 1]
[label_gain: ]
[lambdarank_position_bias_regularization: 0]
[eval_at: ]
[multi_error_top_k: 1]
[auc_mu_weights: ]
[num_machines: 1]
[local_listen_port: 12400]
[time_out: 120]
[machine_list_filename: ]
[machines: ]
[gpu_platform_id: -1]
[gpu_device_id: -1]
[gpu_use_dp: 0]
[num_gpu: 1]

end of parameters

pandas_categorical:[]
