tree
version=v4
num_class=1
num_tree_per_iteration=1
label_index=0
max_feature_idx=17
objective=regression
feature_names=ret1min ret2min ret3min ret4min ret5min ret6min ret7min ret8min ret9min ret10min bop cci mfi rsi stochrsi slowk slowd natr
feature_infos=[-0.080715410990640279:0.067018611309949794] [-0.11460478377950267:0.12788592123132636] [-0.13229007633587786:0.16194473592165104] [-0.19869447540200613:0.13175516363293394] [-0.18053004460771449:0.19130348456269219] [-0.18181818181818188:0.17670131398313393] [-0.21856778425655965:0.20088609070770658] [-0.24980320125951194:0.16466789667896675] [-0.25098244694786476:0.18807656826568264] [-0.22845166361016511:0.20264582080577265] [-1:1] [-685.60006662779824:539.9279134961979] [0:100] [4.0524555193850631:96.492464334232224] [0:100] [0:100] [0:100] [0.042857873095009047:8.473167763746261]
tree_sizes=1717 1732 1715 1735 1745 1729 1733 1754 1743 1743 1743 1708 1754 1743 1735 1752 1755 1748 1742 1738 1752 1761 1744 1754 1736 1727 1744 1747 1732 1728 1717 1720 1724 1757 1744 1726 1740 1743 1744 1735 1740 1732 1727 1729 1720 1717 1728 1748 1728 1736 1725 1756 1737 1758 1753 1753 1744 1738 1761 1723 1723 1724 1733 1721 1742 1748 1743 1734 1732 1708 1762 1736 1703 1767 1744 1739 1732 1762 1724 1704 1702 1737 1741 1735 1727 1724 1740 1729 1731 1722 1748 1774 1725 1744 1733 1717 1730 1760 1745 1719 1742 1722 1742 1737 1720 1726 1709 1748 1704 1752 1727 1737 1725 1738 1749 1727 1749 1731 1732 1732 1744 1735 1743 1745 1759 1734 1765 1713 1724 1731 1735

Tree=0
num_leaves=16
num_cat=0
split_feature=0 17 1 16 10 3 1 12 15 13 17 7 17 16 17
split_gain=0.00124783 0.00121118 0.00196114 0.000989533 0.00068413 0.000667022 0.000564144 0.000516677 0.000673982 0.000510806 0.000550411 0.000433301 0.000476037 0.000857089 0.000373737
threshold=0.0063448988554882799 1.6416111159074076 -0.0039510446753762132 89.22973257859725 0.54723355430902598 0.021262117856664101 -9.7599063978659459e-05 55.805032314006127 79.674796747969296 44.158559436792224 1.0793630421482694 0.017584512868109584 1.1814172762493758 41.473708947395274 0.67716328368106249
decision_type=2 2 2 2 2 2 2 2 2 2 2 2 2 2 2
left_child=1 5 -3 4 -2 6 11 9 14 -6 -11 12 -1 -14 -9
right_child=3 2 -4 -5 7 -7 -8 8 -10 10 -12 -13 13 -15 -16
leaf_value=8.531047402072273e-06 0.00015910586735886015 0.00021270157973963047 -3.0217157126002356e-05 -5.9037840906706861e-05 8.2041252260404239e-05 9.8360027856769883e-05 1.8067835038057962e-06 7.9908420957345663e-05 3.0596141784611602e-05 2.2770854886711965e-05 -9.3009243867637106e-05 6.6030477465129625e-05 -0.00011980132544842246 2.5475159611342473e-05 0.00018308997655011621
leaf_weight=238673 616 719 618 799 1010 766 267113 735 1367 1859 527 1301 797 828 672
leaf_count=238673 616 719 618 799 1010 766 267113 735 1367 1859 527 1301 797 828 672
internal_value=5.96156e-06 5.36371e-06 0.000100418 4.6224e-05 5.86178e-05 5.11427e-06 4.97386e-06 4.85852e-05 8.06035e-05 2.24313e-05 -2.8017e-06 8.4754e-06 8.16379e-06 -4.57774e-05 0.000129189
internal_weight=518400 510815 1337 7585 6786 509478 508712 6170 2774 3396 2386 241599 240298 1625 1407
internal_count=518400 510815 1337 7585 6786 509478 508712 6170 2774 3396 2386 241599 240298 1625 1407
is_linear=0
shrinkage=1


Tree=1
num_leaves=16
num_cat=0
split_feature=4 15 12 0 7 6 17 0 7 10 6 12 0 15 7
split_gain=0.00117924 0.0028961 0.00111187 0.000925109 0.000756385 0.000738949 0.000820934 0.000525473 0.000525168 0.000489983 0.000579415 0.000488698 0.000486737 0.000633637 0.000528542
threshold=-0.023360668748285126 11.111111111114527 31.779517399959968 0.0063448988554882799 0.029868709742489345 0.021745282853034568 1.0111956827793389 0.010753835530006197 -0.029114832535885201 -0.46874999999999917 0.016454692461579715 72.374532130339404 -0.0079659665234474413 35.351715035868715 -0.01655600216126207
decision_type=2 2 2 2 2 2 2 2 2 2 2 2 2 2 2
left_child=1 -1 -3 4 8 7 -7 -5 -2 10 12 -6 13 14 -10
right_child=3 2 -4 5 11 6 -8 -9 9 -11 -12 -13 -14 -15 -16
leaf_value=0.00025192642775415667 -9.4483941508694151e-05 -8.4398466754732386e-05 0.00010536688962797024 3.6701265793316162e-05 0.00015031213380832119 3.7542987086888627e-05 -0.00011473115241239577 0.0001147493394913742 -2.9251552366057382e-05 -2.7580137393018487e-06 0.0001042459889652411 1.9102432905672106e-05 4.6026826676502002e-06 1.2318575034422014e-05 -0.0001641668805359996
leaf_weight=640 600 771 515 4877 534 805 632 1048 609 370820 577 606 133713 1098 555
leaf_count=640 600 771 515 4877 534 805 632 1048 609 370820 577 606 133713 1098 555
internal_value=3.85701e-13 7.81026e-05 -8.40379e-06 -2.91255e-07 -8.00191e-07 3.49037e-05 -2.9428e-05 5.05062e-05 -9.8279e-07 -8.72218e-07 4.24884e-06 8.05638e-05 3.82451e-06 -4.21755e-05 -9.35797e-05
internal_weight=518400 1926 1286 516474 509112 7362 1437 5925 507972 507372 136552 1140 135975 2262 1164
internal_count=518400 1926 1286 516474 509112 7362 1437 5925 507972 507372 136552 1140 135975 2262 1164
is_linear=0
shrinkage=0.1


Tree=2
num_leaves=16
num_cat=0
split_feature=4 15 14 3 10 3 2 13 15 1 17 14 17 16 14
split_gain=0.000955188 0.00234584 0.00131802 0.00036766 0.00116853 0.000411363 0.000394207 0.000392812 0.000420652 0.000364434 0.000448036 0.00038528 0.000344101 0.000307706 0.000395064
threshold=-0.023360668748285126 11.111111111114527 4.642627369618828 0.01253816832252719 -0.16666666666665012 0.016653747260921285 -0.018131629589801575 80.133519116916105 92.706239080637133 -0.00067272115708044689 1.3406330542579947 69.803641423629912 0.67716328368106249 42.5664337214778 83.977332898852765
decision_type=2 2 2 2 2 2 2 2 2 2 2 2 2 2 2
left_child=1 -1 -3 6 5 -5 -2 8 13 -8 -11 -12 -10 -6 -15
right_child=3 2 -4 4 7 -7 9 -9 12 10 11 -13 -14 14 -16
leaf_value=0.00022673378499689533 -7.4843254738569406e-05 9.2421935287613337e-05 -0.00011006806776180827 5.9337339381569286e-05 -4.4345458423995321e-05 0.00018034325131589045 3.1727299476437747e-06 7.0310449879409221e-05 -6.4411092973004047e-06 -2.6514746584860971e-06 3.2949204103788606e-06 0.00012641199126195489 -0.00011921711502861523 9.9669380335575382e-05 8.1656358593954636e-06
leaf_weight=640 714 651 635 607 877 523 177197 815 570 329804 517 500 515 551 3284
leaf_count=640 714 651 635 607 877 523 177197 815 570 329804 517 500 515 551 3284
internal_value=1.17738e-12 7.02924e-05 -7.56341e-06 -2.62128e-07 2.13659e-05 0.000115343 -5.91269e-07 5.30514e-06 -3.83395e-06 -4.8691e-07 -2.44712e-06 6.38245e-05 -5.99707e-05 9.09228e-06 2.13126e-05
internal_weight=518400 1926 1286 516474 7742 1130 508732 6612 5797 508018 330821 1017 1085 4712 3835
internal_count=518400 1926 1286 516474 7742 1130 508732 6612 5797 508018 330821 1017 1085 4712 3835
is_linear=0
shrinkage=0.1


Tree=3
num_leaves=16
num_cat=0
split_feature=0 17 10 4 13 3 1 1 3 17 15 11 2 15 6
split_gain=0.000825782 0.00114466 0.00132757 0.000700743 0.00069643 0.000646988 0.000627605 0.000451569 0.000455969 0.000446699 0.000453872 0.000778631 0.000489633 0.000374366 0.000550952
threshold=0.0049553532394227559 1.6416111159074076 -0.46153846153845984 0.024136236822431382 70.933078524349654 0.021262117856664101 0.0017345611316543776 0.0011445482713997592 0.01253816832252719 0.90516054257514866 11.111111111114527 -116.42801678191334 -0.013635927270918112 31.432135170995956 -0.01110382964550982
decision_type=2 2 2 2 2 2 2 2 2 2 2 2 2 2 2
left_child=1 5 -3 6 -5 7 -2 8 9 -1 -11 -12 -13 14 -8
right_child=3 2 -4 4 -6 -7 13 -9 -10 10 11 12 -14 -15 -16
leaf_value=9.7610455065253666e-07 8.8768444547362925e-05 0.00022111849719076419 1.1090297673598841e-05 -0.00013596160153158863 2.3624317111114321e-05 9.8820105344692339e-05 -0.00010766383924793607 -6.3167019279765705e-06 8.98954371642993e-05 5.5868932574863566e-05 -0.00013614457237408673 5.585255652435221e-05 -3.4978698710000667e-05 3.1399389529536267e-05 1.4685280098830029e-05
leaf_weight=375067 1657 500 756 519 578 650 501 121687 572 599 677 698 3963 8589 1387
leaf_count=375067 1657 500 756 519 578 650 501 121687 572 599 677 698 3963 8589 1387
internal_value=-1.27285e-12 -6.45921e-07 9.47002e-05 2.46617e-05 -5.18771e-05 -8.8357e-07 3.15813e-05 -1.01234e-06 6.79248e-07 5.45309e-07 -2.667e-05 -3.59321e-05 -2.13764e-05 2.25368e-05 -1.77813e-05
internal_weight=518400 505169 1256 13231 1097 503913 12134 503263 381576 381004 5937 5338 4661 10477 1888
internal_count=518400 505169 1256 13231 1097 503913 12134 503263 381576 381004 5937 5338 4661 10477 1888
is_linear=0
shrinkage=0.1


Tree=4
num_leaves=16
num_cat=0
split_feature=9 14 10 0 4 17 5 14 17 1 0 0 15 12 10
split_gain=0.00073704 0.00230923 0.00147668 0.000594037 0.000704505 0.000614722 0.000601168 0.000462317 0.000865983 0.000362209 0.000523459 0.000366244 0.000633658 0.000506153 0.000452172
threshold=-0.032441407948188332 0.49486473516440266 0.10000000000000239 0.0053272969418506353 0.024136236822431382 1.0111956827793389 0.026319524565993294 61.494586022680039 1.1814172762493758 0.0019507403954664995 0.0024322402819072502 -0.0060010287526858211 57.100351053000743 27.836732032659665 -0.66666666666660046
decision_type=2 2 2 2 2 2 2 2 2 2 2 2 2 2 2
left_child=1 -1 -3 6 7 -6 9 -5 -9 10 11 12 13 -2 -13
right_child=3 2 -4 4 5 -7 -8 8 -10 -11 -12 14 -14 -15 -16
leaf_value=0.00019273379451419857 1.1102912027474816e-06 -0.00013072947696171513 8.92921309809701e-05 -8.8010414670548952e-06 2.3996078424269349e-05 -0.00012978032944334147 8.0559644369501725e-05 3.1579263290054605e-05 0.00014423804135361144 -7.2622226048355141e-06 2.2921775255418733e-05 7.1854191566145346e-06 2.4755147624111187e-05 -7.0139991925878065e-05 -1.471174361771588e-06
leaf_weight=797 1537 641 582 2256 503 538 908 6915 757 75635 9942 73392 1846 2838 339313
leaf_count=797 1537 641 582 2256 503 538 908 6915 757 75635 9942 73392 1846 2838 339313
internal_value=5.45588e-13 6.02868e-05 -2.60258e-05 -2.35832e-07 2.27871e-05 -5.54772e-05 -7.35502e-07 3.09935e-05 4.26954e-05 -8.81816e-07 2.4343e-07 -2.94775e-07 -2.43776e-05 -4.51087e-05 6.82417e-08
internal_weight=518400 2020 1223 516380 10969 1041 505411 9928 7672 504503 428868 418926 6221 4375 412705
internal_count=518400 2020 1223 516380 10969 1041 505411 9928 7672 504503 428868 418926 6221 4375 412705
is_linear=0
shrinkage=0.1


Tree=5
num_leaves=16
num_cat=0
split_feature=0 16 17 1 10 12 9 0 3 3 10 1 3 0 16
split_gain=0.000608067 0.000729712 0.000630136 0.00146257 0.000591877 0.000414868 0.000467459 0.00045203 0.000417147 0.000326342 0.000312264 0.000846974 0.000431584 0.00053967 0.000303283
threshold=0.0063448988554882799 89.22973257859725 1.6416111159074076 -0.0026398086140239081 0.54723355430902598 57.525976489624284 0.013066279616390732 0.010753835530006197 0.0063075661760008126 0.021262117856664101 -0.66666666666660046 -0.014475296504691813 -0.015867836213968919 -0.0079659665234474413 47.095066508574142
decision_type=2 2 2 2 2 2 2 2 2 2 2 2 2 2 2
left_child=2 4 9 -4 -2 6 14 8 -7 10 12 -12 -1 -14 -6
right_child=1 -3 3 -5 5 7 -8 -9 -10 -11 11 -13 13 -15 -16
leaf_value=6.9476352589167387e-05 0.00013221646420215739 -6.228641256036847e-05 0.00015817039719271027 -5.3366710557086765e-05 6.279086841326907e-06 0.00011120156800102442 -7.9293693537063636e-05 0.00013032820220333101 6.0647008649007724e-06 6.4624929966398685e-05 -0.00010488126471924574 -1.5685193492719548e-06 -5.4000944075759881e-05 5.411312910732945e-06 8.3372398658013408e-05
leaf_weight=1027 616 799 768 569 2429 521 529 676 1369 766 795 428667 1560 76663 646
leaf_count=1027 616 799 768 569 2429 521 529 676 1369 766 795 428667 1560 76663 646
internal_value=1.92469e-13 2.81059e-05 -4.17339e-07 6.81445e-05 3.87489e-05 2.94173e-05 7.53721e-06 6.01483e-05 3.50469e-05 -5.97263e-07 -6.95472e-07 -1.75977e-06 5.07203e-06 4.22646e-06 2.2475e-05
internal_weight=518400 7585 510815 1337 6786 6170 3604 2566 1890 509478 508712 429462 79250 78223 3075
internal_count=518400 7585 510815 1337 6786 6170 3604 2566 1890 509478 508712 429462 79250 78223 3075
is_linear=0
shrinkage=0.1


Tree=6
num_leaves=16
num_cat=0
split_feature=4 16 14 0 16 8 7 10 8 9 0 7 14 6 10
split_gain=0.000567989 0.00189341 0.00170202 0.000435729 0.000573756 0.000457345 0.00041498 0.000351487 0.000281778 0.000335278 0.000398547 0.000274564 0.00026679 0.00062354 0.000334291
threshold=-0.023360668748285126 13.060999180955729 0.49486473516440266 0.0063448988554882799 89.22973257859725 -0.031056555708942554 0.029868709742489345 -0.06222345132743607 0.0024292392097395869 0.008350979756302614 -0.0079659665234474413 -0.014893803429159356 61.494586022680039 -0.0020276435425812252 0.65399074609601937
decision_type=2 2 2 2 2 2 2 2 2 2 2 2 2 2 2
left_child=1 -1 -3 5 12 -2 8 -8 9 10 11 -7 -5 -14 -15
right_child=3 2 -4 4 -6 6 7 -9 -10 -11 -12 -13 13 14 -16
leaf_value=0.00019377144122072058 -8.2810099968844077e-05 9.1575377086916532e-05 -0.00013957270567239123 -5.2026541179199198e-06 -5.6057774433403177e-05 -4.2858086424536839e-06 0.00012264532946064722 1.0744810650358261e-05 -4.6830926653115515e-06 7.6422291421116305e-05 8.849130424310256e-07 -8.159178619496392e-05 0.00013654226757836343 8.9983709103018907e-05 1.8574856626520239e-05
leaf_weight=646 675 683 597 1390 799 858 500 640 125742 585 379123 989 640 795 3738
leaf_count=646 675 683 597 1390 799 858 500 640 125742 585 379123 989 640 795 3738
internal_value=1.35112e-14 5.42043e-05 -1.62335e-05 -2.02135e-07 2.39521e-05 -5.51416e-07 -4.42209e-07 5.9824e-05 -5.7764e-07 7.75318e-07 6.59158e-07 -4.56803e-05 3.36927e-05 4.4144e-05 3.10986e-05
internal_weight=518400 1926 1280 516474 7362 509112 508437 1140 507297 381555 380970 1847 6563 5173 4533
internal_count=518400 1926 1280 516474 7362 509112 508437 1140 507297 381555 380970 1847 6563 5173 4533
is_linear=0
shrinkage=0.1


Tree=7
num_leaves=16
num_cat=0
split_feature=9 15 13 13 1 9 8 15 17 10 1 10 4 9 1
split_gain=0.000501075 0.00191411 0.000679729 0.000284979 0.000250671 0.000423606 0.000270584 0.000307018 0.000251976 0.000641987 0.00061609 0.000248126 0.000237832 0.000310173 0.000204488
threshold=-0.032441407948188332 11.111111111114527 32.405306424234475 80.133519116916105 -0.00065634742853470918 0.021950962166724878 0.032192099090111566 89.827199143093296 1.1814172762493758 0.18181818181822543 0.011951981719699469 -0.33333333333326132 -0.0060378033372016074 -0.015214091662589467 -0.014475296504691813
decision_type=2 2 2 2 2 2 2 2 2 2 2 2 2 2 2
left_child=1 -1 -3 4 5 14 8 -8 12 -10 -11 -7 -6 -14 -2
right_child=3 2 -4 -5 6 11 7 -9 9 10 -12 -13 13 -15 -16
leaf_value=0.0001924860709902437 -4.0854832504902972e-05 -7.4104994953480099e-05 6.9145910182625059e-05 3.6853141601723309e-05 -2.1793096010235572e-05 0.00010842052536788187 -2.6484322337040841e-06 -0.00010617552412105292 -3.9050824390058924e-05 0.00012511943984208073 -8.6067214624166541e-06 1.6513796130981014e-05 -5.3124142090793235e-05 -1.4766704447332719e-06 2.5313962083331201e-06
leaf_weight=641 1093 826 553 2068 5977 588 622 531 821 864 573 587 1167 323276 178213
leaf_count=641 1093 826 553 2068 5977 588 622 531 821 864 573 587 1167 323276 178213
internal_value=8.66291e-14 4.97082e-05 -1.66592e-05 -1.94451e-07 -3.43416e-07 2.65911e-06 -1.96669e-06 -5.03266e-05 -1.79908e-06 3.14928e-05 7.17965e-05 6.25063e-05 -2.02659e-06 -1.66244e-06 2.26693e-06
internal_weight=518400 2020 1379 516380 514312 180481 333831 1153 332678 2258 1437 1175 330420 324443 179306
internal_count=518400 2020 1379 516380 514312 180481 333831 1153 332678 2258 1437 1175 330420 324443 179306
is_linear=0
shrinkage=0.1


Tree=8
num_leaves=16
num_cat=0
split_feature=6 15 16 0 7 12 4 17 4 1 16 1 0 4 17
split_gain=0.000440982 0.0014294 0.000497851 0.000294935 0.000479639 0.000633294 0.000461686 0.000443543 0.000348542 0.000318381 0.000344519 0.000276732 0.000388302 0.000307181 0.00043453
threshold=-0.027231243255762257 11.111111111114527 20.63492063492539 0.0053272969418506353 0.029868709742489345 72.744330078834665 0.024136236822431382 1.0111956827793389 -0.010116119049045856 0.003075803036615921 32.300719681287148 0.0020898121669857832 0.0024322402819072502 0.015937926147758023 0.69348361934065295
decision_type=2 2 2 2 2 2 2 2 2 2 2 2 2 2 2
left_child=1 -1 -3 4 11 -6 8 -8 -5 -10 -11 12 13 14 -2
right_child=3 2 -4 6 5 -7 7 -9 9 10 -12 -13 -14 -15 -16
leaf_value=0.00016806436511637428 2.7860122267497324e-07 4.4586407325143026e-05 -7.8580321311840331e-05 -5.5392167467729707e-05 0.00014776243238399066 -8.7361012050705664e-06 2.1260838174037683e-05 -0.00010833596702305062 7.137222909391221e-05 -1.7884009331733879e-05 3.0967365381683511e-05 -6.5104990315069553e-06 1.9242409557305089e-05 7.277380916185116e-05 -1.7942963999502516e-05
leaf_weight=654 409801 705 614 541 504 531 503 556 1388 1886 6155 69944 10523 576 13519
leaf_count=654 409801 705 614 541 504 531 503 556 1388 1886 6155 69944 10523 576 13519
internal_value=-4.75649e-13 4.71866e-05 -1.27482e-05 -1.80276e-07 -5.33305e-07 6.74719e-05 1.59971e-05 -4.67805e-05 2.26652e-05 2.71439e-05 1.95094e-05 -6.72858e-07 2.67036e-07 -2.04017e-07 -3.03316e-07
internal_weight=518400 1973 1319 516427 505398 1035 11029 1059 9970 9429 8041 504363 434419 423896 423320
internal_count=518400 1973 1319 516427 505398 1035 11029 1059 9970 9429 8041 504363 434419 423896 423320
is_linear=0
shrinkage=0.1


Tree=9
num_leaves=16
num_cat=0
split_feature=0 13 13 17 0 10 1 2 0 2 0 8 7 0 1
split_gain=0.000406437 0.000699709 0.0010919 0.000348496 0.00135904 0.000217257 0.000782148 0.000291343 0.000341081 0.000313157 0.000264034 0.000268906 0.000206414 0.000202763 0.000397042
threshold=0.010753835530006197 48.258540256587324 63.333296011221762 1.6416111159074076 -0.0067858664168022878 -0.66666666666660046 -0.014475296504691813 -0.018131629589801575 -0.0079659665234474413 -0.0049093466407926769 -0.0041449955358203719 0.0074084689687907721 -0.013602644815137508 0.0049553532394227559 0.0017345611316543776
decision_type=2 2 2 2 2 2 2 2 2 2 2 2 2 2 2
left_child=3 -2 -3 5 -5 7 -7 -1 -9 12 11 -11 -10 -8 -15
right_child=1 2 -4 4 -6 6 13 8 9 10 -12 -13 -14 14 -16
leaf_value=7.6834733885380624e-05 0.00014398964732012702 -0.00010556585092312754 8.1145009593757886e-05 0.00016298673411816378 -2.759236976904154e-05 -9.966611626663032e-05 -1.3531375391147102e-06 -3.8387221863586154e-05 6.8142434485434243e-05 -3.1721775131850379e-05 4.451603907554011e-06 3.433866498608594e-05 1.7874225966051699e-05 6.2525883308299512e-05 5.2044035543237627e-06
leaf_weight=553 529 516 797 614 958 805 423858 1854 921 3708 64275 739 7225 1381 9667
leaf_count=553 529 516 797 614 958 805 423858 1854 921 3708 64275 739 7225 1381 9667
internal_value=4.56279e-13 4.68899e-05 7.76892e-06 -1.67205e-07 4.6845e-05 -3.1071e-07 -1.18682e-06 4.50456e-06 3.99646e-06 5.01872e-06 2.8212e-06 -2.07439e-05 2.35576e-05 -1.00454e-06 1.23696e-05
internal_weight=518400 1842 1313 516558 1572 514986 435711 79275 78722 76868 68722 4447 8146 434906 11048
internal_count=518400 1842 1313 516558 1572 514986 435711 79275 78722 76868 68722 4447 8146 434906 11048
is_linear=0
shrinkage=0.1


Tree=10
num_leaves=16
num_cat=0
split_feature=0 6 1 7 15 3 7 3 0 1 0 16 16 1 11
split_gain=0.000329214 0.000670988 0.000267818 0.000988074 0.000424118 0.00125035 0.00071283 0.000348978 0.000325717 0.000600008 0.000290151 0.000511155 0.000548603 0.00037887 0.000302731
threshold=0.010753835530006197 0.021745282853034568 -0.001751824817518288 0.023135180136437897 11.111111111114527 -0.020685800196603706 -0.029114832535885201 0.007592058837762484 -0.002674844047283131 0.004784265121278942 -0.0060010287526858211 56.790123456791974 35.147946040898418 -0.0070384407972006726 -89.675793639788893
decision_type=2 2 2 2 2 2 2 2 2 2 2 2 2 2 2
left_child=2 -2 3 4 5 -1 -6 10 9 -4 11 12 14 -13 -8
right_child=1 -3 8 -5 6 -7 7 -9 -10 -11 -12 13 -14 -15 -16
leaf_value=0.00016263860305086079 8.7460637978461326e-05 -3.8283687722928592e-05 -2.8878401877283784e-05 0.00014102366553536493 -8.8710766258655956e-05 1.4210477473838648e-05 1.2396931060211013e-05 6.2420137190595231e-05 -8.426106669499459e-07 6.5853033202062161e-05 3.1649410394459386e-06 5.3671752130613604e-05 -9.8904083405972369e-05 -4.1466227720199386e-05 -7.8669327157480579e-05
leaf_weight=600 1179 663 7720 528 868 10492 1338 957 411641 732 78131 1179 1221 649 502
leaf_count=600 1179 663 7720 528 868 10492 1338 957 411641 732 78131 1179 1221 649 502
internal_value=-3.69304e-13 4.22009e-05 -1.50485e-07 4.60121e-06 3.85039e-06 2.22394e-05 1.44635e-06 2.37823e-06 -1.24161e-06 -2.0674e-05 1.68611e-06 -2.19471e-05 -4.69346e-05 1.98946e-05 -1.24483e-05
internal_weight=518400 1842 516558 96465 95937 11092 84845 83977 420093 8452 83020 4889 3061 1828 1840
internal_count=518400 1842 516558 96465 95937 11092 84845 83977 420093 8452 83020 4889 3061 1828 1840
is_linear=0
shrinkage=0.1


Tree=11
num_leaves=16
num_cat=0
split_feature=13 17 15 2 13 0 16 13 13 2 0 11 10 3 0
split_gain=0.000334066 0.000566431 0.00110202 0.000262911 0.000351045 0.00033629 0.000429689 0.00031805 0.000585194 0.000700872 0.000436347 0.000402708 0.000345804 0.000301839 0.000565092
threshold=27.072515005151384 0.63549952725707726 11.111111111114527 -0.018131629589801575 35.952041203950714 0.0071520839746695994 89.938874353880365 44.158559436792224 63.333296011221762 0.014437345143172521 0.010753835530006197 3.8920680825959906 0.80000000000002391 0.021262117856664101 0.0023656964879785751
decision_type=2 2 2 2 2 2 2 2 2 2 2 2 2 2 2
left_child=1 -1 -3 4 -2 13 7 -7 9 11 -10 -9 -13 -5 -15
right_child=3 2 -4 5 -6 6 -8 8 10 -11 -12 12 -14 14 -16
leaf_value=8.6710954679146377e-06 -0.00010534288365497346 0.00018821848346973696 1.3356226965472181e-06 -5.9640110213845187e-07 7.6423639218522979e-06 8.880782864299403e-05 -5.8895893718160971e-05 -4.74398410059901e-05 2.8682710452628752e-05 -0.00011023243346328175 0.00013268921363379687 0.00011222459914644321 5.2703113771344041e-06 0.00012917216243052825 -2.0798612605308718e-05
leaf_weight=6940 553 549 742 502508 547 862 559 607 1131 542 627 538 690 503 502
leaf_count=6940 553 549 742 502508 547 862 559 607 1131 542 627 538 690 503 502
internal_value=-5.35313e-13 1.99855e-05 8.08079e-05 -3.22443e-07 -4.91584e-05 -2.16918e-07 2.42508e-05 3.35521e-05 2.20333e-05 -1.03191e-05 6.57772e-05 1.9192e-05 5.21281e-05 -4.86906e-07 5.42614e-05
internal_weight=518400 8231 1291 510169 1100 509069 5556 4997 4135 2377 1758 1835 1228 503513 1005
internal_count=518400 8231 1291 510169 1100 509069 5556 4997 4135 2377 1758 1835 1228 503513 1005
is_linear=0
shrinkage=0.1


Tree=12
num_leaves=16
num_cat=0
split_feature=13 17 15 13 2 8 0 0 6 0 3 8 8 0 8
split_gain=0.000270593 0.000459907 0.00103734 0.000219421 0.00021168 0.000375177 0.000207283 0.000194988 0.000607992 0.000266998 0.000224529 0.000272982 0.00022754 0.000297749 0.000407583
threshold=27.072515005151384 0.66298358853670869 11.111111111114527 80.133519116916105 -0.018131629589801575 -0.023333996114462404 0.0046499913404812751 0.0071520839746695994 0.021745282853034568 0.010753835530006197 0.021262117856664101 -0.031056555708942554 0.0069590651957807123 -0.0041449955358203719 -0.0093202567348900072
decision_type=2 2 2 2 2 2 2 2 2 2 2 2 2 2 2
left_child=1 -1 -3 4 5 -2 -5 10 9 -9 11 -6 13 14 -13
right_child=3 2 -4 6 7 -7 -8 8 -10 -11 -12 12 -14 -15 -16
leaf_value=8.2739581026765893e-06 1.4478061460265553e-05 0.00018236861555353634 -6.1345770643347672e-06 1.0565398608863427e-05 -7.0834306061434246e-05 -0.00010232607087880483 7.8510579392121417e-05 2.0560209297941012e-05 -5.2732050416770052e-05 7.8175128332764245e-05 5.079543114186743e-05 8.3957807601777827e-06 -7.7725633505392637e-06 5.002407608962725e-07 -3.0361423575343589e-05
leaf_weight=7042 547 515 674 1409 553 553 659 3126 962 1083 851 4354 39980 448891 7201
leaf_count=7042 547 515 674 1409 553 553 659 3126 962 1083 851 4354 39980 448891 7201
internal_value=-1.09535e-13 1.79869e-05 7.55131e-05 -2.90199e-07 -4.22506e-07 -4.42426e-05 3.22172e-05 -3.27433e-07 1.89918e-05 3.53849e-05 -5.26504e-07 -6.13683e-07 -5.36085e-07 9.22501e-08 -1.57575e-05
internal_weight=518400 8231 1189 510169 508101 1100 2068 507001 5171 4209 501830 500979 500426 460446 11555
internal_count=518400 8231 1189 510169 508101 1100 2068 507001 5171 4209 501830 500979 500426 460446 11555
is_linear=0
shrinkage=0.1


Tree=13
num_leaves=16
num_cat=0
split_feature=10 9 2 14 4 13 7 2 17 9 14 14 6 17 16
split_gain=0.000243118 0.00143996 0.000260251 0.00202325 0.00022873 0.000184008 0.000189995 0.000271561 0.000280331 0.000286982 0.000202049 0.000182394 0.000238949 0.000188629 0.000176455
threshold=-0.81481481481483564 -0.020704832940554748 -0.018131629589801575 2.3023342540898808 0.0056658931367578056 80.133519116916105 0.0073359613093414442 0.0083934960262980213 1.3406330542579947 0.0041386706033308416 59.217302572070487 28.660436387651274 0.0021599286332074645 1.6416111159074076 88.620332739317959
decision_type=2 2 2 2 2 2 2 2 2 2 2 2 2 2 2
left_child=1 -1 3 -2 -3 6 7 -4 9 10 -9 -8 -13 -14 -7
right_child=2 4 5 -5 -6 14 11 8 -10 -11 -12 12 13 -15 -16
leaf_value=0.00016676930517082279 4.884642051141715e-05 4.4013376876440878e-06 -2.7092671387761104e-07 -0.00018571608322309903 7.1196399297045543e-05 8.0021580115234196e-05 -5.5469897603883657e-05 -6.1156807332916308e-05 9.3303150600498839e-05 5.3589123982471884e-05 1.0015525616907305e-05 4.6337388900496991e-05 -6.7585791350910461e-06 -6.1679943940558818e-05 1.246958152152504e-05
leaf_weight=561 955 36352 436675 598 520 515 777 505 529 1286 1898 836 34204 637 1552
leaf_count=561 955 36352 436675 598 520 515 777 505 529 1286 1898 836 34204 637 1552
internal_value=-2.46029e-13 7.76259e-06 -6.04152e-07 -4.14745e-05 5.34334e-06 -4.71758e-07 -6.00677e-07 -2.70103e-08 2.52248e-05 1.54624e-05 -4.94162e-06 -7.53889e-06 -6.49501e-06 -7.76271e-06 2.93004e-05
internal_weight=518400 37433 480967 1553 36872 479414 477347 440893 4218 3689 2403 36454 35677 34841 2067
internal_count=518400 37433 480967 1553 36872 479414 477347 440893 4218 3689 2403 36454 35677 34841 2067
is_linear=0
shrinkage=0.1


Tree=14
num_leaves=16
num_cat=0
split_feature=4 16 12 8 8 3 3 0 15 0 14 16 12 11 0
split_gain=0.000216472 0.000902503 0.00134083 0.000300692 0.000200275 0.000583014 0.000375333 0.000363609 0.000550091 0.000331736 0.000266048 0.000256869 0.000242806 0.000209968 0.000200416
threshold=-0.023360668748285126 20.63492063492539 19.261234328631442 -0.031056555708942554 -0.017484047133777932 -0.00093237678444352257 -0.010617250576089974 0.00016163575409267053 57.100351053000743 -0.0079659665234474413 36.317174452840923 19.725744753242484 26.91377807632507 -120.83255486035111 0.0043960938419768123
decision_type=2 2 2 2 2 2 2 2 2 2 2 2 2 2 2
left_child=1 2 -1 -2 5 10 7 8 9 -6 12 -11 13 -5 -8
right_child=3 -3 -4 4 6 -7 14 -9 -10 11 -12 -13 -14 -15 -16
leaf_value=0.00019327174934360823 -6.0817895606372637e-05 -5.5822730048064558e-05 -1.7047164244652768e-05 2.2659668054760926e-05 -9.9227617145937019e-05 -6.0067195535984498e-05 -3.0614621849157109e-07 -8.1327264264088167e-05 7.9188667053582673e-05 2.9579369030345188e-05 0.00010123727782053107 -3.2765502866393378e-05 -1.2262653670134838e-06 8.6954085102186048e-05 1.1219830815103467e-05
leaf_weight=594 815 713 619 1309 553 792 489315 987 552 913 506 2393 1943 830 15566
leaf_count=594 815 713 619 1309 553 792 489315 987 552 913 506 2393 1943 830 15566
internal_value=-6.47037e-14 3.34629e-05 8.5945e-05 -1.24788e-07 -2.88622e-08 1.91642e-05 -2.3122e-07 -2.64603e-05 -1.41833e-05 -2.75395e-05 3.28415e-05 -1.55481e-05 2.43632e-05 4.76079e-05 4.92115e-08
internal_weight=518400 1926 1213 516474 515659 5380 510279 5398 4411 3859 4588 3306 4082 2139 504881
internal_count=518400 1926 1213 516474 515659 5380 510279 5398 4411 3859 4588 3306 4082 2139 504881
is_linear=0
shrinkage=0.1


Tree=15
num_leaves=16
num_cat=0
split_feature=1 2 7 0 0 11 10 15 9 7 2 7 4 11 0
split_gain=0.000235547 0.000579428 0.000573599 0.000555033 0.00027582 0.000320808 0.000343621 0.000251102 0.000714047 0.00056995 0.000239073 0.000322682 0.000214673 0.000331983 0.00029242
threshold=-0.001751824817518288 -0.0092471887719193773 0.023135180136437897 0.0046499913404812751 -0.002674844047283131 109.57464632710696 -0.45454545454544104 13.280348968553787 -0.032441407948188332 -0.029114832535885201 -0.013635927270918112 -0.013602644815137508 0.0053221175088076231 17.948717948722571 -0.0060010287526858211
decision_type=2 2 2 2 2 2 2 2 2 2 2 2 2 2 2
left_child=2 -2 3 7 5 6 -3 8 -1 -9 -10 -12 14 -14 -11
right_child=1 4 -4 -5 -6 -7 -8 9 10 12 11 -13 13 -15 -16
leaf_value=0.00011296607955252585 -0.00010081598475153442 -1.8851789298250995e-05 0.00010713409157247692 9.0264393629498234e-05 -5.1975655224450763e-07 3.2416733032180694e-05 -8.8844983450894375e-05 -9.3999787025842289e-05 -4.5260611873492551e-05 -2.4254931401161819e-05 4.706645174308749e-05 6.2582271492255053e-06 9.8330533145773354e-05 1.2480557063861557e-05 2.197653345586042e-06
leaf_weight=709 581 6449 541 738 412914 1061 787 627 738 4437 2332 11459 544 2619 71864
leaf_count=709 581 6449 541 738 412914 1061 787 627 738 4437 2332 11459 544 2619 71864
internal_value=-1.04945e-13 -1.02015e-06 4.45399e-06 3.87575e-06 -8.82495e-07 -1.89348e-05 -2.64644e-05 3.20696e-06 1.49733e-05 9.68318e-07 1.01913e-05 1.31587e-05 1.71765e-06 2.72458e-05 6.59402e-07
internal_weight=518400 421792 96608 96067 421211 8297 7236 95329 15238 80091 14529 13791 79464 3163 76301
internal_count=518400 421792 96608 96067 421211 8297 7236 95329 15238 80091 14529 13791 79464 3163 76301
is_linear=0
shrinkage=0.1


Tree=16
num_leaves=16
num_cat=0
split_feature=10 8 2 1 5 14 14 17 8 5 8 0 16 17 2
split_gain=0.000215724 0.000847511 0.000416556 0.000433119 0.000343831 0.00032639 0.000469399 0.000679652 0.000411168 0.000261468 0.000257595 0.000255241 0.000413885 0.000337407 0.000336058
threshold=-0.55555555555560476 -0.031056555708942554 -0.0085309676600491807 -0.0020850527818326854 0.012635781204313192 27.890523437767545 0.49486473516440266 0.90516054257514866 -0.0046750031222362867 -0.019203330870363407 -0.017484047133777932 -0.0067858664168022878 60.883027524456459 0.48765190109345952 -0.0050932123205553173
decision_type=2 2 2 2 2 2 2 2 2 2 2 2 2 2 2
left_child=1 -1 3 5 11 6 10 -8 -7 -4 -2 12 13 -3 -13
right_child=2 4 9 -5 -6 8 7 -9 -10 -11 -12 14 -14 -15 -16
leaf_value=0.00011407820666240795 3.1625138459552867e-05 2.8037990522392585e-05 5.463587229877036e-05 -9.9834928271126151e-05 7.2013075021617868e-05 9.6121923104506811e-05 -2.3687043098703712e-05 -0.00015793964387358935 -2.9451520567695883e-05 -7.5500895975026924e-07 -2.8508620977595881e-05 2.1245461787707019e-05 2.7470181382701261e-05 -6.184252843302517e-05 1.872773438308982e-06
leaf_weight=695 1173 519 854 713 723 522 1061 585 521 404612 1814 9927 1152 2139 91390
leaf_count=695 1173 519 854 713 723 522 1061 585 521 404612 1814 9927 1152 2139 91390
internal_value=-1.53637e-13 4.01072e-06 -1.03756e-06 -2.63728e-05 3.28803e-06 -1.71447e-05 -2.85226e-05 -7.14014e-05 3.33954e-05 -6.38344e-07 -4.89399e-06 2.81538e-06 -2.25942e-05 -4.42925e-05 3.7709e-06
internal_weight=518400 106545 411855 6389 105850 5676 4633 1646 1043 405466 2987 105127 3810 2658 101317
internal_count=518400 106545 411855 6389 105850 5676 4633 1646 1043 405466 2987 105127 3810 2658 101317
is_linear=0
shrinkage=0.1


Tree=17
num_leaves=16
num_cat=0
split_feature=17 15 2 13 10 2 3 17 2 3 8 7 14 3 10
split_gain=0.00018915 0.00278624 0.000976186 0.000145202 0.000146307 0.000469309 0.000174397 0.000223235 0.000267925 0.00026251 0.000142431 0.000137268 0.000179107 0.000131116 0.000120271
threshold=1.6416111159074076 27.160493827162806 0.0011872120313638492 80.133519116916105 -0.66666666666660046 -0.018131629589801575 -0.015867836213968919 0.77514764991736096 -0.0074624162387367235 -0.0023908668894350167 0.011794837244641145 0.0068720872622188853 34.387116013090868 0.011347109160108617 -0.59999999999998821
decision_type=2 2 2 2 2 2 2 2 2 2 2 2 2 2 2
left_child=3 -2 -3 4 6 -6 -1 10 -9 -10 -8 -7 -13 -5 -14
right_child=1 2 -4 13 5 11 7 8 9 -11 -12 12 14 -15 -16
leaf_value=4.4666475202275176e-05 0.00021804544725749451 -0.00014087634434362429 2.5882603061554704e-05 2.8861248620823904e-06 -7.3857496764120597e-05 -2.4783635425734903e-07 3.6592988420265889e-06 1.9563263563004191e-05 -0.00010984024598807246 -1.9967298590575683e-05 4.8975981179734972e-05 -4.8246436894210695e-05 3.4881285991839071e-05 5.3630972438675252e-05 -6.2275505751173347e-06
leaf_weight=1027 569 599 848 1096 881 396356 75445 738 535 828 700 1003 726 951 36098
leaf_count=1027 569 599 848 1096 881 396356 75445 738 535 828 700 1003 726 951 36098
internal_value=-9.2559e-14 3.05711e-05 -4.31489e-05 -1.19352e-07 -2.2514e-07 -9.45078e-07 3.72601e-06 3.18865e-06 -2.8967e-05 -5.52439e-05 4.07589e-06 -7.97131e-07 -6.55271e-06 2.64613e-05 -5.41707e-06
internal_weight=518400 2016 1447 516384 514337 435064 79273 78246 2101 1363 76145 434183 37827 2047 36824
internal_count=518400 2016 1447 516384 514337 435064 79273 78246 2101 1363 76145 434183 37827 2047 36824
is_linear=0
shrinkage=0.1


Tree=18
num_leaves=16
num_cat=0
split_feature=1 17 2 1 10 16 0 3 17 15 6 0 6 2 16
split_gain=0.000171355 0.000991041 0.000389842 0.000312221 0.00062078 0.000256284 0.000242174 0.000451001 0.000228592 0.000278185 0.000300042 0.000218112 0.000262979 0.000262122 0.00017973
threshold=-0.001751824817518288 1.6416111159074076 -0.0092471887719193773 -0.014475296504691813 -0.62962962962963032 89.58509160084472 -0.002674844047283131 0.01253816832252719 0.55913794164813668 26.159874090296295 -0.0013554936002352911 -0.0054658317918583324 -0.0094475647583183702 -0.0039301133387146794 54.853371173034652
decision_type=2 2 2 2 2 2 2 2 2 2 2 2 2 2 2
left_child=1 3 -2 4 -1 11 7 8 -4 -10 -11 13 14 -5 -13
right_child=2 -3 6 5 -6 -7 -8 -9 9 10 -12 12 -14 -15 -16
leaf_value=2.0144476056654491e-05 -8.2727344944923383e-05 0.00010669814350248637 -9.6774821104450843e-06 -4.3689363582767424e-06 -0.00010670637776222708 3.7279099211192362e-05 -4.1730217803421968e-07 6.8822167633950435e-05 -0.0001127606408000426 1.525936339069988e-05 -5.5783971882848631e-05 1.5989884579801541e-05 1.9995540424571342e-06 -5.34300296551549e-05 7.6539589883398902e-05
leaf_weight=790 581 927 4577 4952 754 2198 412914 562 504 899 1755 9815 75260 1396 516
leaf_count=790 581 927 4577 4952 754 2198 412914 562 504 899 1755 9815 75260 1396 516
internal_value=2.17156e-13 3.7989e-06 -8.70107e-07 2.80197e-06 -4.18021e-05 3.53355e-06 -7.57197e-07 -1.76726e-05 -2.39571e-05 -4.4653e-05 -3.17192e-05 2.72679e-06 4.05325e-06 -1.5158e-05 1.90141e-05
internal_weight=518400 96608 421792 95681 1544 94137 421211 8297 7735 3158 2654 91939 85591 6348 10331
internal_count=518400 96608 421792 95681 1544 94137 421211 8297 7735 3158 2654 91939 85591 6348 10331
is_linear=0
shrinkage=0.1


Tree=19
num_leaves=16
num_cat=0
split_feature=10 3 0 17 0 3 8 12 15 10 1 10 16 4 17
split_gain=0.000167491 0.0011183 0.000272526 0.000464871 0.000167827 0.000549451 0.000508228 0.00105834 0.000589977 0.000505214 0.000379071 0.000374917 0.000331949 0.000319031 0.000448295
threshold=-0.81481481481483564 -0.015867836213968919 -0.010283088686780793 1.1814172762493758 0.0024322402819072502 0.014185221837374253 0.02083815809788481 60.624474767811733 94.554594013539585 0.40000000000001751 0.015387702664731663 -0.27777777777775198 19.444444444443786 -0.010116119049045856 1.3406330542579947
decision_type=2 2 2 2 2 2 2 2 2 2 2 2 2 2 2
left_child=1 -1 3 -2 5 -4 9 -8 10 -6 -9 -7 -11 -14 -15
right_child=2 -3 4 -5 6 11 7 8 -10 12 -12 -13 13 14 -16
leaf_value=0.00015150480418268334 1.6346234880987668e-05 4.3836291995689084e-06 -1.2167772942691747e-06 -0.00011075777692112721 5.822467868527528e-05 0.00012549307920558386 -0.00014131088519945447 -2.3412769060883352e-06 -9.0108122278337587e-05 -1.660407128534437e-05 9.7585796599970295e-05 2.5017049587303418e-05 -6.7535941958595539e-05 9.4419585389996993e-06 0.00010364246030481104
leaf_weight=524 559 36909 432938 593 1941 522 702 1485 597 5595 510 1287 527 33198 513
leaf_count=524 559 36909 432938 593 1941 522 702 1485 597 5595 510 1287 527 33198 513
internal_value=8.77305e-14 6.44308e-06 -5.01456e-07 -4.90814e-05 -3.84819e-07 -9.86976e-07 5.42387e-06 -3.23931e-05 -2.89452e-06 8.40584e-06 2.3204e-05 5.40101e-05 5.97825e-06 9.66853e-06 1.08755e-05
internal_weight=518400 37433 480967 1152 479815 434747 45068 3294 2592 41774 1995 1809 39833 34238 33711
internal_count=518400 37433 480967 1152 479815 434747 45068 3294 2592 41774 1995 1809 39833 34238 33711
is_linear=0
shrinkage=0.1


Tree=20
num_leaves=16
num_cat=0
split_feature=1 3 0 2 16 0 2 16 2 0 0 4 1 16 12
split_gain=0.000156799 0.000396504 0.000564098 0.00027033 0.00032997 0.000240195 0.000504916 0.000261789 0.000248734 0.00018134 0.000176933 0.000537132 0.000430641 0.000293993 0.000248175
threshold=0.00074328028176740013 0.014185221837374253 0.0063448988554882799 -0.0052943847229812149 23.066404762039259 0.010753835530006197 0.018609744141482868 23.396105960550912 0.0026227915827354846 0.0057687983260097395 0.0037799640907578706 0.024136236822431382 0.010216357182368909 83.760403294006792 81.224086641167432
decision_type=2 2 2 2 2 2 2 2 2 2 2 2 2 2 2
left_child=1 2 -1 4 -2 7 -7 8 -5 -10 12 13 -9 -12 -15
right_child=3 -3 -4 5 -6 6 -8 10 9 -11 11 -13 -14 14 -16
leaf_value=9.2024673348132658e-07 4.6049270829185305e-06 8.8308582554380219e-05 9.7565049264097283e-05 -6.7156095712617025e-06 -0.00010863750352223652 8.442766373555691e-05 -2.9717005909442163e-05 -2.61442794745085e-06 -2.4146691812645309e-05 -8.1068921510849389e-05 2.0498472781000458e-05 -7.8365133962749015e-05 6.0801350970717959e-05 -3.4599636126103187e-05 2.7546813130033799e-05
leaf_weight=346343 501 522 605 20388 529 923 668 126121 4831 633 11628 668 1080 2017 943
leaf_count=346343 501 522 605 20388 529 923 668 126121 4831 633 11628 668 1080 2017 943
internal_value=2.14717e-13 1.2198e-06 1.08877e-06 -2.47964e-06 -5.35555e-05 -2.17e-06 3.65027e-05 -2.53557e-06 -1.17936e-05 -3.07411e-05 -8.55495e-07 9.32076e-06 -2.076e-06 1.3336e-05 -1.4801e-05
internal_weight=518400 347470 346948 170930 1030 169900 1591 168309 25852 5464 142457 15256 127201 14588 2960
internal_count=518400 347470 346948 170930 1030 169900 1591 168309 25852 5464 142457 15256 127201 14588 2960
is_linear=0
shrinkage=0.1


Tree=21
num_leaves=16
num_cat=0
split_feature=10 6 0 3 10 9 1 2 1 5 10 10 6 0 2
split_gain=0.000143906 0.000410033 0.000312697 0.000308717 0.000664509 0.000450182 0.000340444 0.000251067 0.000600748 0.000577066 0.000488062 0.000404985 0.00026329 0.000199883 0.00025486
threshold=-0.46874999999999917 0.018602059486106607 -0.0054658317918583324 -0.015867836213968919 -0.81481481481483564 -0.024506245483775221 -0.011173336205218874 -0.0092471887719193773 -0.0020413742830074906 -0.016201397528272984 -0.049896265560165048 -0.071428571428565041 -0.020726508769254411 -0.0016069830767171387 0.0083934960262980213
decision_type=2 2 2 2 2 2 2 2 2 2 2 2 2 2 2
left_child=1 3 -2 4 -1 -5 -6 8 9 10 -4 -11 -9 14 -14
right_child=2 -3 7 5 6 -7 -8 12 -10 11 -12 -13 13 -15 -16
leaf_value=0.00013851077425828574 -7.0196850695543743e-05 8.9413458621332689e-05 -1.5684519736222349e-05 -8.066896141710769e-05 -2.8908861040029409e-05 2.2471997535176414e-06 6.9745082688299367e-05 5.2291435730285333e-05 -0.00012848112979154395 -7.3408831467528538e-06 0.00011364834875775218 -9.5132019292073903e-05 -1.9381573405328617e-05 -3.8114624453579697e-07 4.570431411699501e-05
leaf_weight=521 652 544 614 658 949 134734 554 938 500 1371 556 852 8947 365365 645
leaf_count=521 652 544 614 658 949 134734 554 938 500 1371 556 852 8947 365365 645
internal_value=-9.68746e-15 2.76677e-06 -1.00332e-06 2.42375e-06 4.11899e-05 1.84423e-06 7.4546e-06 -8.84533e-07 -2.61493e-05 -1.10695e-05 4.57762e-05 -4.09882e-05 -6.22875e-07 -7.55247e-07 -1.5005e-05
internal_weight=518400 137960 380440 137416 2024 135392 1503 379788 3893 3393 1170 2223 375895 374957 9592
internal_count=518400 137960 380440 137416 2024 135392 1503 379788 3893 3393 1170 2223 375895 374957 9592
is_linear=0
shrinkage=0.1


Tree=22
num_leaves=16
num_cat=0
split_feature=8 0 1 10 15 15 17 0 15 4 7 10 9 3 8
split_gain=0.000135363 0.000431279 0.000239843 0.00035569 0.000234208 0.000209879 0.000485536 0.000297598 0.000551924 0.000771228 0.000535344 0.000633379 0.000972263 0.000362054 0.000221771
threshold=0.00038972680210414007 0.010753835530006197 -0.0076960845980378325 -0.44444444444438042 70.333814333817159 59.803921568629349 0.9533161970138434 -0.0054658317918583324 27.160493827162806 -0.013034691288105691 -0.018633009502574679 -0.55555555555560476 -0.032441407948188332 0.011347109160108617 -0.014508431669926046
decision_type=2 2 2 2 2 2 2 2 2 2 2 2 2 2 2
left_child=1 5 3 4 -2 7 -7 8 10 -10 11 12 -1 -9 -12
right_child=2 -3 -4 -5 -6 6 -8 13 9 -11 14 -13 -14 -15 -16
leaf_value=0.00017356638809658902 1.9152353819390028e-05 8.9310494450242872e-05 -2.0329121513400153e-06 -2.7165059377280573e-05 0.00011064626159193728 7.3566196489593734e-06 0.00010469167861704167 1.1078885219243473e-06 -0.00016073992328383743 -2.7680103405807377e-05 -7.2736531844997773e-05 -5.725138352611529e-05 6.5603730429372319e-06 -6.9713916280769169e-05 -6.0530829856874148e-06
leaf_weight=579 519 558 235263 594 607 31365 521 241743 563 1925 846 502 876 724 1215
leaf_count=579 519 558 235263 594 607 31365 521 241743 563 1925 846 502 876 724 1215
internal_value=-6.87918e-14 1.48286e-06 -1.7609e-06 3.54455e-05 6.84746e-05 1.30837e-06 8.94702e-06 3.30087e-07 -2.0776e-05 -5.77897e-05 2.14336e-06 3.96023e-05 7.30184e-05 8.96417e-07 -3.34253e-05
internal_weight=518400 281417 236983 1720 1126 280859 31886 248973 6506 2488 4018 1957 1455 242467 2061
internal_count=518400 281417 236983 1720 1126 280859 31886 248973 6506 2488 4018 1957 1455 242467 2061
is_linear=0
shrinkage=0.1


Tree=23
num_leaves=16
num_cat=0
split_feature=14 5 17 0 3 1 4 10 12 17 2 14 8 0 13
split_gain=0.000133039 0.000962717 0.000913271 0.000143446 0.000570604 0.000394579 0.000354469 0.000442786 0.000368873 0.00028324 0.000391446 0.000424446 0.00033154 0.000275579 0.000535716
threshold=0.49486473516440266 -0.025144712063690285 1.3406330542579947 0.0024322402819072502 0.021262117856664101 0.010216357182368909 0.024136236822431382 0.44000000000000294 67.054466049523668 0.64888682613599813 -0.013635927270918112 33.981739014297979 0.02083815809788481 -0.0067858664168022878 35.656559225929577
decision_type=2 2 2 2 2 2 2 2 2 2 2 2 2 2 2
left_child=2 -2 -1 4 5 9 7 -5 -8 12 -11 13 -3 -12 -15
right_child=1 3 -4 6 -6 -7 8 -9 -10 10 11 -13 -14 14 -16
leaf_value=2.9629050341317173e-06 -0.00010101052792710817 -8.5433268266006841e-07 0.00013658436457165594 4.3867961527411089e-05 0.00010507365094657541 7.8786021231915166e-05 -0.00011009539630980103 3.7716289673856399e-06 -3.5748529415058965e-06 5.7966316913957479e-05 -0.00010564118318697775 -5.930284029352703e-06 7.1068943296372943e-05 6.294816934638275e-05 -4.3763412518079586e-05
leaf_weight=75301 954 377537 515 2956 506 616 534 40329 831 731 570 11534 642 528 4316
leaf_count=75301 954 377537 515 2956 506 616 534 40329 831 731 570 11534 642 528 4316
internal_value=-7.16734e-14 -6.6304e-07 3.87056e-06 -4.46271e-07 -1.05069e-06 -1.18614e-06 4.92762e-06 6.50987e-06 -4.52466e-05 -1.31058e-06 -1.36822e-05 -1.67726e-05 -7.32235e-07 -3.9871e-05 -3.21318e-05
internal_weight=518400 442584 75816 441630 396980 396474 44650 43285 1365 395858 17679 16948 378179 5414 4844
internal_count=518400 442584 75816 441630 396980 396474 44650 43285 1365 395858 17679 16948 378179 5414 4844
is_linear=0
shrinkage=0.1


Tree=24
num_leaves=16
num_cat=0
split_feature=13 16 17 17 17 4 17 1 0 3 17 3 6 6 15
split_gain=0.000123451 0.000248125 0.000566364 0.000439605 0.000396547 0.000147267 0.000189585 0.00010895 0.000350529 0.000381189 0.00027519 0.000380617 0.000446886 0.000267819 0.000257523
threshold=27.072515005151384 8.4175256526630466 0.36561280513191446 0.90516054257514866 0.63549952725707726 -0.014770650433280351 0.37282889841914674 0.0020898121669857832 0.0022345408489544698 0.01253816832252719 0.50178169209612633 -0.0076221202996541995 -0.012725580571908144 0.0082616499917901338 41.530054644812083
decision_type=2 2 2 2 2 2 2 2 2 2 2 2 2 2 2
left_child=1 2 -1 4 5 -3 -7 8 9 -2 -10 12 -12 -13 -9
right_child=7 3 -4 -5 -6 6 -8 14 10 -11 11 13 -14 -15 -16
leaf_value=7.626772037271533e-06 -2.3230002621813036e-07 -4.6757657809111279e-05 0.00013559187592470848 -8.3697479175024727e-05 9.2485858183050576e-05 -1.6362720951170919e-06 4.5920916822359914e-05 -1.3241925220914142e-05 4.4604915642168152e-06 6.9562477839686299e-05 3.8550450494626346e-05 5.8772359861576145e-05 -8.424705967647113e-05 2.5465825280424309e-06 -2.6158972376762806e-07
leaf_weight=1117 414325 534 501 531 546 3937 1065 20522 8800 784 644 3547 549 1113 59885
leaf_count=1117 414325 534 501 531 546 3937 1065 20522 8800 784 644 3547 549 1113 59885
internal_value=1.23712e-14 1.21492e-05 4.72501e-05 3.56103e-06 1.11793e-05 3.16026e-06 8.48936e-06 -1.96013e-07 4.36093e-07 -1.00481e-07 1.56369e-05 3.24406e-05 -1.7959e-05 4.53433e-05 -3.57452e-06
internal_weight=518400 8231 1618 6613 6082 5536 5002 510169 429762 415109 14653 5853 1193 4660 80407
internal_count=518400 8231 1618 6613 6082 5536 5002 510169 429762 415109 14653 5853 1193 4660 80407
is_linear=0
shrinkage=0.1


Tree=25
num_leaves=16
num_cat=0
split_feature=0 9 10 2 3 17 17 0 17 0 15 11 7 17 7
split_gain=0.000121463 0.000391519 0.000342398 0.000405249 0.000533719 0.00028406 0.000219647 0.000941259 0.000241998 0.000435846 0.000317701 0.000469434 0.000315157 0.000212675 0.000226503
threshold=0.0071520839746695994 0.033592333927775726 0.85714285714286931 0.0066466992275349144 0.0023533425314068439 0.9533161970138434 1.6416111159074076 -0.0067858664168022878 0.86691105280392 -0.010283088686780793 84.946236559142179 79.5651192559245 0.023135180136437897 1.3406330542579947 0.014548057584134912
decision_type=2 2 2 2 2 2 2 2 2 2 2 2 2 2 2
left_child=6 2 3 4 -2 -5 8 -8 12 -10 11 13 -1 14 -11
right_child=1 -3 -4 5 -6 -7 7 -9 9 10 -12 -13 -14 -15 -16
leaf_value=-5.6954515096562719e-08 3.6980643582329636e-05 -5.3620286356376699e-05 -1.1402178196645806e-05 4.6516358025964371e-05 0.00016779530354054943 -3.2024879512317207e-05 0.00013191368735898006 -3.4321102940380801e-05 -8.0599711719212908e-05 -8.6426474697643805e-06 -5.0642888024962152e-05 8.2237995737021176e-05 4.8650060154687272e-05 3.4035039180797592e-05 -7.2926852335328441e-05
leaf_weight=497691 829 734 1720 1120 500 782 614 765 913 7552 1565 618 1332 1074 591
leaf_count=497691 829 734 1720 1120 500 782 614 765 913 7552 1565 618 1332 1074 591
internal_value=-1.1934e-13 1.45366e-05 2.4641e-05 4.38284e-05 8.61961e-05 1.42244e-05 -1.61182e-07 3.9695e-05 -2.68668e-07 -1.41181e-05 -8.79372e-06 -2.13445e-06 7.3055e-08 -7.79163e-06 -1.33082e-05
internal_weight=518400 5685 4951 3231 1329 1902 512715 1379 511336 12313 11400 9835 499023 9217 8143
internal_count=518400 5685 4951 3231 1329 1902 512715 1379 511336 12313 11400 9835 499023 9217 8143
is_linear=0
shrinkage=0.1


Tree=26
num_leaves=16
num_cat=0
split_feature=8 9 17 15 1 12 4 3 11 0 5 9 15 11 17
split_gain=0.000130129 0.000382899 0.000289458 0.00203192 0.000303296 0.000452776 0.000204733 0.000194497 0.000181383 0.000410409 0.000231545 0.000291498 0.000431383 0.000500371 0.00023673
threshold=0.0024292392097395869 0.008350979756302614 1.6416111159074076 24.84848484848747 -0.014475296504691813 29.299662158704084 -0.010852941109641466 0.014185221837374253 90.873144601186468 -0.0039450020437934987 0.012635781204313192 0.0096951438371188931 75.833333333337393 68.565769347660947 1.3406330542579947
decision_type=2 2 2 2 2 2 2 2 2 2 2 2 2 2 2
left_child=1 2 4 -4 5 -1 -2 -6 10 -10 14 -12 -13 -14 -8
right_child=6 -3 3 -5 7 -7 8 -9 9 -11 11 12 13 -15 -16
leaf_value=-9.1144430090897053e-05 5.7952540685336798e-05 7.7436032599151048e-05 0.00019844975643610737 -7.9530616945875185e-05 9.0949949453797138e-07 2.4576655944470713e-05 -5.5970712793812824e-06 -5.8385182123709042e-05 6.8881563277560655e-05 1.7894673477797637e-07 8.7949296505617193e-06 -0.00013432532934046058 5.3424073730243633e-05 -6.6905984637341724e-05 5.7021537182672417e-05
leaf_weight=858 554 653 503 551 382722 558 69850 554 883 56879 1119 511 506 1090 609
leaf_count=858 554 653 503 551 382722 558 69850 554 883 56879 1119 511 506 1090 609
internal_value=-3.46297e-14 9.26029e-07 7.96511e-07 5.31298e-05 6.53125e-07 -4.55425e-05 -2.71071e-06 8.23793e-07 -2.96638e-06 1.22919e-06 -6.25532e-06 -3.24531e-05 -5.43594e-05 -2.87562e-05 -5.05584e-06
internal_weight=518400 386399 385746 1054 384692 1416 132001 383276 131447 57762 73685 3226 2107 1596 70459
internal_count=518400 386399 385746 1054 384692 1416 132001 383276 131447 57762 73685 3226 2107 1596 70459
is_linear=0
shrinkage=0.1


Tree=27
num_leaves=16
num_cat=0
split_feature=10 3 2 14 10 3 0 2 9 7 0 7 2 9 3
split_gain=0.000113757 0.000609396 0.000257486 0.00137749 0.000162844 0.000152908 0.000158289 0.000478805 0.000127024 0.000114107 0.000230595 0.000325717 0.000229216 0.00036756 0.000305696
threshold=-0.84615384615385703 -0.013350044038917595 -0.018131629589801575 2.3023342540898808 -0.56521739130435023 -0.020685800196603706 0.010753835530006197 0.018609744141482868 0.010570539845809581 0.0073359613093414442 -0.0034512147648472209 0.01979827374581589 0.010889336613204017 -0.032441407948188332 0.0080133303515131944
decision_type=2 2 2 2 2 2 2 2 2 2 2 2 2 2 2
left_child=1 -1 3 4 -2 -4 9 8 -8 12 11 -11 13 -7 -14
right_child=2 -3 5 -5 -6 6 7 -9 -10 10 -12 -13 14 -15 -16
leaf_value=0.00010660841313972411 -7.980842419133947e-06 3.9165690306775616e-06 -5.1734472274726308e-05 -0.00015747817624316951 7.2526370866420571e-05 -7.8007362512262098e-05 0.00010753562873031951 -3.5965567363468895e-05 3.7901754322036761e-05 1.9506283517067864e-06 -7.7388087804575685e-06 8.3129517987060562e-05 9.4373274464297195e-05 1.1953788916389123e-07 6.1102215005323806e-06
leaf_weight=589 504 30572 576 619 501 603 518 669 530 1861 34659 673 597 443784 1145
leaf_count=589 504 30572 576 619 501 603 518 669 530 1861 34659 673 597 443784 1145
internal_value=-6.23435e-14 5.85763e-06 -3.74621e-07 -4.01266e-05 3.21526e-05 -2.41681e-07 -1.80532e-07 3.01284e-05 7.232e-05 -2.88204e-07 -5.60974e-06 2.35108e-05 1.55443e-07 1.35255e-08 3.63588e-05
internal_weight=518400 31161 487239 1624 1005 485615 485039 1717 1048 483322 37193 2534 446129 444387 1742
internal_count=518400 31161 487239 1624 1005 485615 485039 1717 1048 483322 37193 2534 446129 444387 1742
is_linear=0
shrinkage=0.1


Tree=28
num_leaves=16
num_cat=0
split_feature=13 17 15 2 17 2 13 1 8 0 4 4 12 1 2
split_gain=0.000109329 0.00023963 0.000554691 0.000157553 0.000161415 0.000136258 0.000304671 0.00016701 0.00019341 0.000121504 0.000384368 0.000281712 0.000367368 0.000276533 0.00035079
threshold=27.072515005151384 0.66298358853670869 11.111111111114527 -0.011586507571807512 0.417211415606 -0.018131629589801575 35.952041203950714 -0.014475296504691813 -0.031056555708942554 0.0026785702480159883 0.024136236822431382 0.024136236822431382 67.054466049523668 0.0017345611316543776 -0.0057581573896353091
decision_type=2 2 2 2 2 2 2 2 2 2 2 2 2 2 2
left_child=1 3 -3 -1 -5 6 -2 -7 -9 10 -10 13 -13 14 -11
right_child=5 2 -4 4 -6 7 -8 8 9 11 -12 12 -14 -15 -16
leaf_value=-4.1255333271260765e-05 -8.7683864306765068e-05 0.00013109515283379119 -6.7473128210325375e-06 2.7312988475202338e-06 4.7839148615416306e-05 5.2184728293304645e-05 1.7574342756538092e-05 -5.4025191679506359e-05 -6.4002781583003968e-07 -3.4422840807553319e-05 8.4891090170621455e-05 -0.00010767199491965585 1.1577993679444795e-06 2.3976241718531361e-06 3.0971118611829145e-05
leaf_weight=682 553 515 674 5431 929 610 547 666 468688 928 526 500 817 29266 7068
leaf_count=682 553 515 674 5431 929 610 547 666 468688 928 526 500 817 29266 7068
internal_value=-1.0415e-13 1.14332e-05 5.29574e-05 4.42206e-06 9.32017e-06 -1.84461e-07 -3.53418e-05 -1.08493e-07 -1.71229e-07 -1.00597e-07 -5.44145e-07 5.29403e-06 -4.01595e-05 6.90055e-06 2.33816e-05
internal_weight=518400 8231 1189 7042 6360 510169 1100 509069 508459 507793 469214 38579 1317 37262 7996
internal_count=518400 8231 1189 7042 6360 510169 1100 509069 508459 507793 469214 38579 1317 37262 7996
is_linear=0
shrinkage=0.1


Tree=29
num_leaves=16
num_cat=0
split_feature=15 17 5 14 15 7 2 9 13 13 16 10 5 13 12
split_gain=0.000106013 0.000602157 0.000169687 0.00146705 0.000615725 0.00026533 0.000225252 0.000662966 0.000501146 0.00010426 0.000134847 0.000114853 0.000145693 0.00016557 0.000300139
threshold=6.5836655037787919 0.63549952725707726 -0.025144712063690285 13.380090866226086 13.888888888893996 -0.029114832535885201 -0.013635927270918112 -0.020704832940554748 41.078943644570948 80.133519116916105 88.620332739317959 0.79999999999998639 0.011699194182882457 62.23070523597918 72.374532130339404
decision_type=2 2 2 2 2 2 2 2 2 2 2 2 2 2 2
left_child=1 -1 3 4 -2 -4 7 -7 -9 11 -11 -8 -13 -14 -15
right_child=2 -3 5 -5 -6 6 9 8 -10 10 -12 12 13 14 -16
leaf_value=4.2822689372251777e-06 -3.1067987390367337e-05 0.00011417357287359235 -6.9690072967045578e-05 -0.00014625796641135652 0.00011778396347714343 0.00012165020993377094 2.3572007896376945e-07 -5.6684064083807794e-05 5.6948760087122688e-05 6.6607107851930926e-05 7.5589109157616203e-06 -3.8718152870850853e-06 -7.2297036451339047e-05 3.3499073126343799e-05 -6.5462831567581332e-05
leaf_weight=8426 583 530 547 683 531 599 458278 809 746 515 1553 42692 667 689 552
leaf_count=8426 583 530 547 683 531 599 458278 809 746 515 1553 42692 667 689 552
internal_value=-1.65976e-13 1.07854e-05 -1.89608e-07 -3.08645e-05 3.98839e-05 -8.10227e-08 -5.93663e-09 3.22632e-05 -2.16954e-06 -1.4359e-07 2.22639e-05 -2.35737e-07 -5.0801e-06 -3.21157e-05 -1.05194e-05
internal_weight=518400 8956 509444 1797 1114 507647 507100 2154 1555 504946 2068 502878 44600 1908 1241
internal_count=518400 8956 509444 1797 1114 507647 507100 2154 1555 504946 2068 502878 44600 1908 1241
is_linear=0
shrinkage=0.1


Tree=30
num_leaves=16
num_cat=0
split_feature=12 17 2 10 13 17 10 14 6 15 13 17 17 16 14
split_gain=0.000101252 0.000674277 0.000103065 0.000655108 0.000783878 0.000910651 0.000727215 0.000517988 0.000319024 0.000173087 0.000116724 0.000322332 0.000100839 0.0004555 0.000451526
threshold=8.9964658316620802 0.41292062022955323 -0.011586507571807512 -0.82352941176472649 33.672038329203495 1.0793630421482694 -0.16666666666665012 11.336075895891879 -0.027231243255762257 29.960317460319789 29.633011202617386 0.63549952725707726 0.80120543573000347 91.825170714062281 56.928516731236492
decision_type=2 2 2 2 2 2 2 2 2 2 2 2 2 2 2
left_child=1 -1 3 -2 5 10 7 9 -4 -6 11 -5 -10 14 -14
right_child=2 -3 8 4 6 -7 -8 -9 12 -11 -12 -13 13 -15 -16
leaf_value=4.177665212555312e-07 7.0182978334460211e-05 0.00012447314485825701 7.5124809966603941e-05 -7.2802728695690186e-05 3.8575052990193616e-05 -0.00018136205795029735 -8.39372002066967e-05 0.00012426547065568172 1.9941234713814104e-07 -3.2962865088044304e-05 -7.3095034380848487e-05 3.4797582197932427e-05 -2.2692029874457352e-05 -8.4191669781918588e-05 1.1170667791455888e-05
leaf_weight=3541 797 500 565 524 798 562 622 533 491619 587 517 594 7186 744 8711
leaf_count=3541 797 500 565 524 798 562 622 533 491619 587 517 594 7186 744 8711
internal_value=1.24083e-13 1.57674e-05 -1.23874e-07 -1.36972e-05 -2.78101e-05 -7.15496e-05 1.00229e-05 4.04938e-05 2.375e-08 8.25537e-06 -3.38037e-05 -1.5634e-05 -5.97351e-08 -7.71563e-06 -4.13646e-06
internal_weight=518400 4041 514359 5534 4737 2197 2540 1918 508825 1385 1635 1118 508260 16641 15897
internal_count=518400 4041 514359 5534 4737 2197 2540 1918 508825 1385 1635 1118 508260 16641 15897
is_linear=0
shrinkage=0.1


Tree=31
num_leaves=16
num_cat=0
split_feature=0 17 12 15 12 14 10 4 0 17 6 12 15 17 6
split_gain=0.000124116 0.000293898 0.000728425 0.000268724 0.000329633 0.000249842 0.000337978 0.000209035 0.000226385 0.000323061 0.000195437 0.0002162 0.000174819 0.000501092 0.00030024
threshold=0.0049553532394227559 1.6416111159074076 44.301890301424024 94.554594013539585 84.590611614941352 26.718361590848478 0.47887323943661836 0.024136236822431382 -0.010283088686780793 0.90516054257514866 0.021745282853034568 67.349610082081043 44.4723933880232 1.0793630421482694 0.0060428334337448994
decision_type=2 2 2 2 2 2 2 2 2 2 2 2 2 2 2
left_child=1 7 -3 4 5 -2 -7 8 9 -1 12 -12 -8 14 -14
right_child=3 2 -4 -5 -6 6 10 -9 -10 -11 11 -13 13 -15 -16
leaf_value=1.5073060775596867e-05 -5.8363463801117436e-05 0.00012832996436227712 -2.4190473211578176e-05 -5.4175587074352072e-05 9.0317709366596926e-05 8.7370866005276955e-05 -4.3632126979752278e-06 5.67432476822205e-05 -3.2949762313379027e-07 -8.0460471441631514e-05 -7.929306154450162e-05 1.3104113381291066e-05 4.9010550597849906e-05 0.00011103348270519377 -1.2188467924693422e-06
leaf_weight=615 521 595 661 630 525 572 3726 640 501824 834 509 504 1702 586 3956
leaf_count=615 521 595 661 630 525 572 3726 640 501824 834 509 504 1702 586 3956
internal_value=-1.32842e-13 -2.50415e-07 4.80624e-05 9.56101e-06 1.27476e-05 9.37525e-06 1.24295e-05 -3.70834e-07 -4.43465e-07 -3.99131e-05 8.52652e-06 -3.33225e-05 1.27786e-05 2.30077e-05 1.38908e-05
internal_weight=518400 505169 1256 13231 12601 12076 11555 503913 503273 1449 10983 1013 9970 6244 5658
internal_count=518400 505169 1256 13231 12601 12076 11555 503913 503273 1449 10983 1013 9970 6244 5658
is_linear=0
shrinkage=0.1


Tree=32
num_leaves=16
num_cat=0
split_feature=0 13 17 16 4 17 17 1 3 0 0 17 7 12 16
split_gain=0.000109162 0.000342755 0.000388226 0.000257255 0.000251449 0.000271163 0.000186219 0.000140707 0.000296029 0.000289496 0.000248222 0.00024638 0.00030773 0.000409129 0.000349785
threshold=0.0071520839746695994 38.898498612010691 1.6416111159074076 31.603740632231375 0.010727512683864628 0.69348361934065295 1.0111956827793389 0.0052543248866689938 0.016653747260921285 -0.0031890520415168151 0.0028623443891850901 0.53296838427628257 -0.0091548864941978208 34.476689650452393 81.677668843336988
decision_type=2 2 2 2 2 2 2 2 2 2 2 2 2 2 2
left_child=7 -2 3 -3 5 -5 -6 8 10 -9 -1 -12 13 -13 -14
right_child=1 2 -4 4 6 -7 -8 9 -10 -11 11 12 14 -15 -16
leaf_value=-3.7856761740487081e-07 9.2250863727557243e-05 -3.3252401480332194e-05 -7.701422786684542e-05 1.3616478672977821e-05 2.23375200622072e-05 9.9866527206547077e-05 -4.3209109013061523e-05 6.5857350965477224e-05 6.3197855194542689e-05 -1.084279053453554e-05 3.2926558908321511e-06 3.2039344804892499e-05 5.1651183549773495e-05 -8.1847279162859147e-05 -1.5176363458447392e-05
leaf_weight=474410 507 890 507 693 1742 769 577 506 744 17910 12847 747 4033 546 972
leaf_count=474410 507 890 507 693 1742 769 577 506 744 17910 12847 747 4033 546 972
internal_value=-1.41568e-13 1.37809e-05 6.09753e-06 1.51187e-05 2.65046e-05 5.89833e-05 6.02859e-06 -1.52803e-07 1.66956e-07 -8.73537e-06 7.19414e-08 1.12355e-05 2.74377e-05 -1.6052e-05 3.86729e-05
internal_weight=518400 5685 5178 4671 3781 1462 2319 512715 494299 18416 493555 19145 6298 1293 5005
internal_count=518400 5685 5178 4671 3781 1462 2319 512715 494299 18416 493555 19145 6298 1293 5005
is_linear=0
shrinkage=0.1


Tree=33
num_leaves=16
num_cat=0
split_feature=8 9 17 1 1 10 16 4 3 0 4 13 16 6 6
split_gain=0.000105544 0.000301403 0.000236242 0.000385117 0.00025423 0.000367368 0.000218091 0.000193195 0.000181008 0.000187837 0.000305216 0.000245378 0.00018814 0.000203973 0.000175082
threshold=0.0024292392097395869 0.008350979756302614 1.6416111159074076 -0.0034629412092229135 -0.014475296504691813 -0.62962962962963032 30.226500611362834 -0.010852941109641466 0.011347109160108617 -0.0060010287526858211 -0.0054762846501750775 37.880683885393516 28.861929588920709 -0.015380132948725254 -0.027231243255762257
decision_type=2 2 2 2 2 2 2 2 2 2 2 2 2 2 2
left_child=1 2 4 -4 5 -1 -2 -8 9 10 11 12 13 -6 -11
right_child=6 -3 3 -5 8 -7 7 -9 -10 14 -12 -13 -14 -15 -16
leaf_value=7.4627583777293522e-06 -4.0444322400890755e-05 6.8715287005028476e-05 0.00010586184512596282 -1.5147865497056046e-05 -3.8476130965168637e-05 -9.4471432017641615e-05 5.7627889351429939e-05 -2.2547437734212389e-06 -4.0040850009076014e-05 5.7530263585930372e-05 -6.679621826036249e-05 3.2554073972384811e-05 -7.5351839969125224e-05 3.3690550771284399e-05 1.0170309936454396e-06
leaf_weight=733 1493 653 550 504 911 683 541 129967 1085 549 1049 1144 548 687 377303
leaf_count=733 1493 653 550 504 911 683 541 129967 1085 549 1049 1144 548 687 377303
internal_value=-1.39812e-13 8.3398e-07 7.19069e-07 4.79976e-05 5.89532e-07 -4.17047e-05 -2.44126e-06 -2.00651e-06 7.45787e-07 8.61576e-07 -1.98263e-05 -4.85024e-06 -2.47899e-05 -7.45078e-06 1.09914e-06
internal_weight=518400 386399 385746 1054 384692 1416 132001 130508 383276 382191 4339 3290 2146 1598 377852
internal_count=518400 386399 385746 1054 384692 1416 132001 130508 383276 382191 4339 3290 2146 1598 377852
is_linear=0
shrinkage=0.1


Tree=34
num_leaves=16
num_cat=0
split_feature=1 17 16 0 3 1 17 13 1 12 1 0 12 8 10
split_gain=0.000102241 0.000424346 0.000236184 0.000223158 0.000370199 0.000303727 0.000224036 0.00029774 0.000207242 0.000371813 0.000181781 0.000179698 0.000231707 0.000198813 0.00032428
threshold=-0.001751824817518288 1.6416111159074076 89.58509160084472 -0.002674844047283131 -0.013350044038917595 0.004784265121278942 0.60014821913430694 47.192446881691275 -0.014475296504691813 29.299662158704084 -0.0040925111729758204 -0.0079659665234474413 28.435252544292357 -0.0093202567348900072 -0.59999999999998821
decision_type=2 2 2 2 2 2 2 2 2 2 2 2 2 2 2
left_child=1 2 8 5 -5 6 -2 -8 9 -1 -4 12 -10 14 -13
right_child=3 -3 10 4 -6 -7 7 -9 11 -11 -12 13 -14 -15 -16
leaf_value=-7.8604899292761225e-05 -9.8691795122733118e-06 7.0267207710278485e-05 8.1189915305300206e-05 -8.4102967149370168e-05 -2.3626233754480257e-07 4.4804825513202053e-05 -8.6890288053872194e-05 -1.9446335051878647e-05 2.2281834557325711e-05 2.0766393580148138e-05 1.695100143831666e-05 3.5071503232502114e-05 -5.2567778124661412e-05 7.0340220529549397e-07 3.1481041064757164e-06
leaf_weight=858 4955 927 607 527 412813 732 1064 1701 611 671 1606 4703 1280 75506 9839
leaf_count=858 4955 927 607 527 412813 732 1064 1701 611 671 1606 4703 1280 75506 9839
internal_value=-3.8341e-14 2.93442e-06 2.28207e-06 -6.72105e-07 -3.43191e-07 -1.67575e-05 -2.25947e-05 -4.53995e-05 1.51758e-06 -3.49959e-05 3.4571e-05 2.12482e-06 -2.83832e-05 2.76549e-06 1.34724e-05
internal_weight=518400 96608 95681 421792 413340 8452 7720 2765 93468 1529 2213 91939 1891 90048 14542
internal_count=518400 96608 95681 421792 413340 8452 7720 2765 93468 1529 2213 91939 1891 90048 14542
is_linear=0
shrinkage=0.1


Tree=35
num_leaves=16
num_cat=0
split_feature=4 16 10 8 8 4 2 13 10 11 0 2 11 0 6
split_gain=0.000101897 0.000601706 0.000553051 0.00025028 0.000139782 0.000412707 0.000215515 0.000391124 0.000800836 0.00020982 0.000177893 0.000154644 0.000122412 0.00011377 0.000269519
threshold=-0.023360668748285126 20.63492063492539 -0.54545454545454053 -0.031056555708942554 -0.017484047133777932 -0.0045846714179992856 -0.011586507571807512 38.70434834813625 -0.49264546831063777 -79.376462151820235 -0.0054658317918583324 -0.0022312890566266726 -118.54174412764392 0.0053272969418506353 0.027954807270073826
decision_type=2 2 2 2 2 2 2 2 2 2 2 2 2 2 2
left_child=1 2 -1 -2 5 9 7 10 -9 11 -6 12 -5 -8 -15
right_child=3 -3 -4 4 6 -7 13 8 -10 -11 -12 -13 -14 14 -16
leaf_value=0.00014535662798704197 -5.545778045829127e-05 -4.9945162497452475e-05 8.4934282954204304e-06 1.3179513385716328e-05 -0.00011295113018205028 -4.54299337042706e-05 -2.3519595082536641e-07 7.368759752090278e-05 -7.217861465956775e-05 7.9184971656142786e-05 -3.380231958583179e-05 -3.2253037296348536e-05 5.3853868836493515e-05 1.5540214536308318e-05 -3.9514682138658745e-05
leaf_weight=508 815 713 705 2147 562 908 497242 796 714 691 574 505 1129 9409 982
leaf_count=508 815 713 705 2147 562 908 497242 796 714 691 574 505 1129 9409 982
internal_value=2.4788e-14 2.29585e-05 6.58112e-05 -8.56154e-08 1.90042e-09 1.60364e-05 -1.67156e-07 -2.86324e-05 4.7151e-06 2.85167e-05 -7.29587e-05 1.92567e-05 2.7197e-05 -1.87829e-08 1.03373e-05
internal_weight=518400 1926 1213 516474 515659 5380 510279 2646 1510 4472 1136 3781 3276 507633 10391
internal_count=518400 1926 1213 516474 515659 5380 510279 2646 1510 4472 1136 3781 3276 507633 10391
is_linear=0
shrinkage=0.1


Tree=36
num_leaves=16
num_cat=0
split_feature=0 1 12 1 7 3 0 10 12 16 1 15 10 12 14
split_gain=9.88367e-05 0.000371062 0.000242751 0.000104472 0.000460972 0.000251777 0.000193632 0.000603364 0.000329482 0.000330122 0.000348599 0.000336757 0.000475328 0.000341882 0.000216609
threshold=0.010753835530006197 0.015387702664731663 52.493323375560159 0.00074328028176740013 0.023135180136437897 0.01253816832252719 -0.0041449955358203719 -0.46153846153845984 12.117191931362465 69.542780562521301 -0.0070384407972006726 13.280348968553787 -0.70212765957448431 26.91377807632507 0.49486473516440266
decision_type=2 2 2 2 2 2 2 2 2 2 2 2 2 2 2
left_child=3 2 -2 4 5 6 7 8 -1 11 -11 12 13 -10 -13
right_child=1 -3 -4 -5 -6 -7 -8 -9 9 10 -12 14 -14 -15 -16
leaf_value=6.7584925820128496e-05 1.5475331564834785e-05 -2.665490386058196e-05 0.0001132479291096388 -2.1195055452079304e-06 7.6121639398343122e-05 7.0065108595640104e-05 1.1428626664374851e-06 -8.7275888856682641e-05 0.00010191264431201629 6.1194658293167763e-05 -5.1111981559650988e-06 -1.0393548742985405e-05 -4.0245204646772461e-05 -2.7119206498509832e-06 -4.2392300263905194e-05
leaf_weight=596 516 826 500 169266 813 523 330375 955 728 1231 2228 4337 829 547 4130
leaf_count=596 516 826 500 169266 813 523 330375 955 728 1231 2228 4337 829 547 4130
internal_value=-7.11608e-14 2.31228e-05 6.35918e-05 -8.24541e-08 9.10381e-07 7.339e-07 6.29089e-07 -1.02648e-05 -5.23642e-06 -8.3299e-06 1.84859e-05 -1.71045e-05 1.87004e-05 5.70267e-05 -2.60018e-05
internal_weight=518400 1842 1016 516558 347292 346479 345956 15581 14626 14030 3459 10571 2104 1275 8467
internal_count=518400 1842 1016 516558 347292 346479 345956 15581 14626 14030 3459 10571 2104 1275 8467
is_linear=0
shrinkage=0.1


Tree=37
num_leaves=16
num_cat=0
split_feature=10 0 12 9 17 8 8 4 17 13 0 11 7 12 4
split_gain=9.40046e-05 0.000231192 0.000258971 0.000128475 0.000226335 0.000111999 9.88098e-05 0.00036521 0.00022279 0.000353118 0.000362215 0.000425466 0.000291877 0.000241468 0.000199266
threshold=0.86385701676964233 0.010753835530006197 62.703166227061097 0.013897573350362459 0.54993164768293401 0.010617424028153468 0.0022261273883712467 -0.010852941109641466 0.86691105280392 57.84350134777133 -0.0054658317918583324 16.090220349853002 0.023135180136437897 59.047031407484198 0.0021150082141212505
decision_type=2 2 2 2 2 2 2 2 2 2 2 2 2 2 2
left_child=1 6 -3 5 -5 -2 14 -8 12 10 -10 -12 -9 -13 -1
right_child=3 2 -4 4 -6 -7 7 8 9 -11 11 13 -14 -15 -16
leaf_value=3.384621386518737e-07 -5.0319312038013379e-06 4.8636613152560903e-06 9.8652206791277695e-05 8.252100753165959e-06 -7.7024090861469281e-05 3.5430680216352982e-05 7.930802273066893e-05 -2.1239628719335332e-06 7.4554593855297407e-05 -4.9600319835043893e-05 -8.6147727406428183e-05 -1.7551525537887376e-05 4.2130948308136659e-05 5.1190766399867563e-05 8.580643738993632e-06
leaf_weight=326270 28338 706 505 589 660 701 548 120339 542 2543 645 1500 1509 775 32230
leaf_count=326270 28338 706 505 589 660 701 548 120339 542 2543 645 1500 1509 775 32230
internal_value=8.04401e-15 3.35442e-07 4.39745e-05 -5.40588e-06 -3.68098e-05 -4.05517e-06 2.26905e-07 -2.15344e-06 -2.5026e-06 -2.13064e-05 -5.23148e-07 -1.44588e-05 -1.5759e-06 5.86618e-06 1.07945e-06
internal_weight=518400 488112 1211 30288 1249 29039 486901 128401 127853 6005 3462 2920 121848 2275 358500
internal_count=518400 488112 1211 30288 1249 29039 486901 128401 127853 6005 3462 2920 121848 2275 358500
is_linear=0
shrinkage=0.1


Tree=38
num_leaves=16
num_cat=0
split_feature=10 3 2 14 10 3 8 3 3 16 10 2 17 3 10
split_gain=8.45575e-05 0.000391415 0.00018406 0.00101616 0.000177422 0.000127583 0.000168326 0.000753225 0.000239119 0.000275053 0.000238732 0.00021467 0.000217145 0.000171213 0.000196659
threshold=-0.84615384615385703 -0.013350044038917595 -0.018131629589801575 2.3023342540898808 -0.56521739130435023 -0.020685800196603706 -0.017484047133777932 -0.00093237678444352257 -0.013350044038917595 13.060999180955729 0.057142857142850355 -0.0074624162387367235 0.66298358853670869 -0.010617250576089974 1.0000000180025095e-35
decision_type=2 2 2 2 2 2 2 2 2 2 2 2 2 2 2
left_child=1 -1 3 4 -2 -4 7 8 9 -7 11 -10 -13 14 -8
right_child=2 -3 5 -5 -6 6 13 -9 10 -11 -12 12 -14 -15 -16
leaf_value=8.5795537703814607e-05 -1.3743918110558225e-05 3.4945653382330033e-06 -4.7246263195511854e-05 -0.00013472455573540091 7.028953459521581e-05 1.2744261796540005e-05 -8.9339049029017787e-06 -6.2274964367640493e-05 3.3572583457095487e-05 0.00010383432290284441 5.7261733224140528e-05 1.7536741796142848e-05 -6.9951748676136435e-05 -1.7033110077283078e-07 -5.9824386892178473e-05
leaf_weight=589 504 30572 576 619 501 541 3633 986 997 856 1084 523 620 474839 960
leaf_count=589 504 30572 576 619 501 541 3633 986 997 856 1084 523 620 474839 960
internal_value=-2.36975e-14 5.0502e-06 -3.22982e-07 -3.39325e-05 2.81474e-05 -2.10585e-07 -1.54728e-07 1.70713e-05 3.40017e-05 6.85589e-05 1.90277e-05 -3.39487e-07 -2.99198e-05 -3.56188e-07 -1.95707e-05
internal_weight=518400 31161 487239 1624 1005 485615 485039 5607 4621 1397 3224 2140 1143 479432 4593
internal_count=518400 31161 487239 1624 1005 485615 485039 5607 4621 1397 3224 2140 1143 479432 4593
is_linear=0
shrinkage=0.1


Tree=39
num_leaves=16
num_cat=0
split_feature=4 16 12 5 8 8 0 0 4 12 3 13 16 11 15
split_gain=8.9921e-05 0.000527927 0.00100566 0.000234373 0.000129525 0.000179027 0.000207358 0.000113715 0.000352884 0.000199136 0.000163499 0.00028424 0.000150559 0.000294998 0.000223575
threshold=-0.023360668748285126 13.060999180955729 31.779517399959968 -0.025144712063690285 -0.031056555708942554 -0.023333996114462404 -0.0044055855635998778 -0.0041449955358203719 0.0047152970993233909 23.014543538852575 0.00096673065521357693 52.692390113731165 63.809220344310845 28.192086927213399 68.098838830547606
decision_type=2 2 2 2 2 2 2 2 2 2 2 2 2 2 2
left_child=1 -1 -3 -2 -5 6 -6 8 9 -7 12 -12 -11 14 -14
right_child=3 2 -4 4 5 7 -8 -9 -10 10 11 -13 13 -15 -16
leaf_value=9.5263851078182293e-05 -6.7771034517744984e-05 -9.2687269527771238e-05 8.6328547257556496e-05 -4.7614699873450211e-05 8.3288586930325975e-05 1.559421564881039e-05 6.4562461494694118e-06 1.9453998291341792e-07 3.2416409480638819e-05 -3.2272177542005781e-05 6.0338514870458081e-05 -3.9996387493673299e-05 -1.0096137555559531e-05 -4.7579892577610286e-05 5.5961588355870115e-05
leaf_weight=646 511 729 551 571 551 1884 969 499029 1831 6696 642 504 1321 1128 837
leaf_count=646 511 729 551 571 551 1884 969 499029 1831 6696 642 504 1321 1128 837
internal_value=3.7996e-17 2.15672e-05 -1.56266e-05 -8.0427e-08 -1.33875e-08 3.93497e-08 3.4308e-05 -6.20146e-08 -8.68751e-06 -1.44715e-05 -1.95617e-05 1.62122e-05 -2.36688e-05 -6.13733e-06 1.5525e-05
internal_weight=518400 1926 1280 516474 515963 515392 1520 513872 14843 13012 11128 1146 9982 3286 2158
internal_count=518400 1926 1280 516474 515963 515392 1520 513872 14843 13012 11128 1146 9982 3286 2158
is_linear=0
shrinkage=0.1


Tree=40
num_leaves=16
num_cat=0
split_feature=8 0 15 2 1 0 12 5 3 8 15 8 11 8 10
split_gain=8.36975e-05 0.000430419 0.000193164 0.000278276 0.000201312 0.000205289 0.00033497 0.000331039 0.000282102 0.000188584 0.000619104 0.00023344 0.000193557 0.000174826 0.00016116
threshold=-1.0000000180025095e-35 0.010753835530006197 59.803921568629349 -0.0066645251430078037 0.0082644628099174406 -0.0054658317918583324 13.26153065646154 -0.025144712063690285 -0.020685800196603706 -0.0093202567348900072 31.432135170995956 -0.012579526218328195 -92.495094326647546 -0.017484047133777932 0.49999999999993272
decision_type=2 2 2 2 2 2 2 2 2 2 2 2 2 2 2
left_child=1 2 4 -4 5 6 -1 -8 -7 10 11 12 13 -9 -6
right_child=-2 -3 3 -5 14 8 7 9 -10 -11 -12 -13 -14 -15 -16
leaf_value=5.5017866806564736e-05 -1.2276720509799612e-06 8.976200924718601e-05 7.5579567166510374e-05 8.3697057892770579e-06 1.521272731056174e-06 7.2975107348415745e-05 -8.1702884450635544e-05 4.709450674584202e-06 8.7466155339515532e-07 -4.2654599102856688e-05 7.4780772339730391e-05 3.2747170415441493e-05 -9.4744434268894648e-05 -6.441212397630747e-05 -6.3179678787886738e-05
leaf_weight=586 268114 549 636 19631 675 544 857 910 220918 1606 817 548 501 612 896
leaf_count=586 268114 549 636 19631 675 544 857 910 220918 1606 817 548 501 612 896
internal_value=-8.6625e-14 1.31512e-06 1.12069e-06 1.04788e-05 2.94166e-07 5.40084e-07 -1.70642e-05 -2.42835e-05 1.05177e-06 -1.443e-05 -1.05084e-06 -2.51482e-05 -4.08312e-05 -2.30845e-05 -3.53801e-05
internal_weight=518400 250286 249737 20267 229470 227899 6437 5851 221462 4994 3388 2571 2023 1522 1571
internal_count=518400 250286 249737 20267 229470 227899 6437 5851 221462 4994 3388 2571 2023 1522 1571
is_linear=0
shrinkage=0.1


Tree=41
num_leaves=16
num_cat=0
split_feature=6 11 2 7 11 12 7 15 14 0 6 15 6 1 11
split_gain=8.37214e-05 0.000730264 0.000604872 0.000123279 0.000435278 0.000193395 9.82721e-05 0.000455612 0.000285138 0.000348395 0.000320976 0.000187645 0.000137733 0.000289895 0.000238206
threshold=-0.027231243255762257 -155.98553898497897 -0.011586507571807512 -0.022097068325267141 -78.15894608124384 20.289639339053249 -0.014893803429159356 33.333333333335112 11.336075895891879 0.0022345408489544698 -0.015380132948725254 16.203703703706193 -0.012725580571908144 0.00078125000000006672 -114.33353590852155
decision_type=2 2 2 2 2 2 2 2 2 2 2 2 2 2 2
left_child=1 -1 -3 4 5 -2 7 8 10 -10 11 -5 13 14 -8
right_child=3 2 -4 6 -6 -7 12 -9 9 -11 -12 -13 -14 -15 -16
leaf_value=9.5323842654975225e-05 -4.6499535112941103e-05 -9.2083981363831702e-05 5.1763167024521986e-05 1.4027288972424074e-05 -0.00010569773350725881 2.6714843366607614e-05 -3.5993246267100353e-05 9.0126832883362712e-05 -6.9427817034715137e-05 1.8928972826926043e-05 5.5949005585050369e-05 -5.4270178046759621e-05 1.4197021612681253e-08 -8.2801174475573131e-05 1.9084308513192107e-05
leaf_weight=786 553 666 521 1318 500 1038 1495 676 982 818 1428 579 504784 602 1654
leaf_count=786 553 666 521 1318 500 1038 1495 676 982 818 1428 579 504784 602 1654
internal_value=3.50351e-14 2.05602e-05 -2.89464e-05 -7.85497e-08 -2.43104e-05 1.26698e-06 1.99634e-08 1.29619e-05 2.78371e-06 -2.92746e-05 2.01386e-05 -6.81838e-06 -1.27669e-07 -1.92191e-05 -7.06397e-06
internal_weight=518400 1973 1187 516427 2091 1591 514336 5801 5125 1800 3325 1897 508535 3751 3149
internal_count=518400 1973 1187 516427 2091 1591 514336 5801 5125 1800 3325 1897 508535 3751 3149
is_linear=0
shrinkage=0.1


Tree=42
num_leaves=16
num_cat=0
split_feature=10 3 2 10 10 5 12 12 17 6 3 10 10 15 7
split_gain=7.78493e-05 0.000237166 0.000207814 0.000316455 0.00036987 0.000282434 0.000317382 0.000376021 0.0004645 0.000261509 0.000157738 0.000344102 0.000408062 0.000329293 0.00032023
threshold=-0.46874999999999917 0.011347109160108617 -0.0085309676600491807 -0.27777777777775198 -0.38888888888886519 -0.0045844769469037252 41.982851083567716 19.261234328631442 0.80120543573000347 -0.020726508769254411 -0.013350044038917595 -0.82352941176472649 -0.72727272727266068 11.111111111114527 -0.018633009502574679
decision_type=2 2 2 2 2 2 2 2 2 2 2 2 2 2 2
left_child=1 10 3 4 -2 6 7 -5 -9 -4 11 -1 -13 -14 -15
right_child=2 -3 9 5 -6 -7 -8 8 -10 -11 -12 12 13 14 -16
leaf_value=8.4039498543850286e-05 -3.4686562329079195e-05 6.7630496453881288e-05 5.2990887019731652e-05 1.8037042191618065e-05 5.4516254994549813e-05 -0.000100879747466881 3.4066538481355021e-05 -2.0517790260034505e-05 -0.0001359787609097531 -5.933289719281542e-07 1.2633830419691161e-06 -6.6726622076156494e-05 -3.7234670521267541e-05 0.00011537249003074301 1.1869375529611826e-05
leaf_weight=732 881 549 913 648 984 605 676 751 650 374332 134372 586 513 543 665
leaf_count=732 881 549 913 648 984 605 676 751 650 374332 134372 586 513 543 665
internal_value=8.79514e-14 2.03499e-06 -7.37952e-07 -2.06016e-05 1.23781e-05 -3.90722e-05 -2.53498e-05 -4.49522e-05 -7.40864e-05 -4.62954e-07 1.77291e-06 2.43021e-05 5.34773e-06 2.9889e-05 5.83944e-05
internal_weight=518400 137960 380440 5195 1865 3330 2725 2049 1401 375245 137411 3039 2307 1721 1208
internal_count=518400 137960 380440 5195 1865 3330 2725 2049 1401 375245 137411 3039 2307 1721 1208
is_linear=0
shrinkage=0.1


Tree=43
num_leaves=16
num_cat=0
split_feature=0 16 12 8 10 1 7 13 10 3 10 8 16 5 13
split_gain=7.9928e-05 0.000260823 0.000397064 0.000341327 0.000353728 0.00025791 0.000344286 0.000233867 0.000214091 0.000184455 0.000137989 0.00013246 0.00020396 0.000282576 0.000168689
threshold=0.0049553532394227559 87.342842914125455 78.01529982514694 0.02083815809788481 0.54723355430902598 0.00090260854603041462 -0.0070356938717843756 70.933078524349654 0.75000000000000111 0.021262117856664101 0.77777777777777901 0.0082182095554874674 91.042834609005624 0.020313810944684322 61.433030912793733
decision_type=2 2 2 2 2 2 2 2 2 2 2 2 2 2 2
left_child=9 2 3 4 -2 -6 8 -3 -7 11 -9 -1 13 14 -13
right_child=1 7 -4 -5 5 6 -8 10 -10 -11 -12 12 -14 -15 -16
leaf_value=1.2160600153165533e-07 7.1210705481347851e-05 -7.9105482199945279e-05 8.8535792583999725e-05 -4.7469215012652325e-05 5.9226460026903545e-05 -9.849419499150826e-05 1.0251137273131107e-05 3.4551821224875431e-05 -8.3144576554499007e-06 4.7929472744475126e-05 -3.6741488205588328e-05 3.333789026211845e-07 9.236150249014032e-06 -6.58011415970649e-05 -1.7341209158592192e-05
leaf_weight=475625 977 601 657 991 880 500 6983 539 556 795 547 10250 6175 912 11412
leaf_count=475625 977 601 657 991 880 500 6983 539 556 795 547 10250 6175 912 11412
internal_value=-1.36183e-14 7.67254e-06 1.30398e-05 8.48387e-06 1.40871e-05 7.82969e-06 2.20348e-06 -2.90555e-05 -5.10132e-05 -2.00953e-07 -1.35742e-06 -2.76817e-07 -6.86835e-06 -1.12737e-05 -8.97797e-06
internal_weight=518400 13231 11544 10887 9896 8919 8039 1687 1056 505169 1086 504374 28749 22574 21662
internal_count=518400 13231 11544 10887 9896 8919 8039 1687 1056 505169 1086 504374 28749 22574 21662
is_linear=0
shrinkage=0.1


Tree=44
num_leaves=16
num_cat=0
split_feature=0 10 4 8 13 14 4 9 12 5 1 5 10 13 13
split_gain=7.45765e-05 0.000369218 0.000261001 0.000249482 0.000327865 0.00021411 0.000441008 0.000260621 0.000196805 0.000314635 0.00023452 0.0001943 0.000189758 0.000188595 0.0001748
threshold=0.0022345408489544698 0.42857142857136749 0.024136236822431382 0.02083815809788481 62.445128671012746 25.227483642747583 0.0028061288735942162 -0.0066739062414628006 41.342376681840769 -0.0087305975234143168 0.003075803036615921 -0.01293041846201781 0.84210526315791101 67.502594011088249 55.193418345912541
decision_type=2 2 2 2 2 2 2 2 2 2 2 2 2 2 2
left_child=2 5 -1 8 -5 -2 7 -7 10 -10 11 -3 -6 14 -8
right_child=1 3 -4 4 12 6 13 -9 9 -11 -12 -13 -14 -15 -16
leaf_value=-4.7205338559300495e-07 -1.6511483267580415e-05 6.3237945662216195e-05 7.1315994419681491e-05 -8.9058619652871156e-05 -2.5515273177070603e-05 0.0001420180777306866 2.9238498653954344e-05 4.9299322950438802e-05 -6.6381828886878148e-05 8.9457059079145009e-06 -2.0590780721981555e-05 9.0275231295402155e-07 4.489646553606285e-05 6.0125826824554811e-05 -4.6466859778279007e-05
leaf_weight=467342 686 541 507 666 1581 560 613 661 565 29829 6534 6605 505 598 607
leaf_count=467342 686 541 507 666 1581 560 613 661 565 29829 6534 6605 505 598 607
internal_value=-6.43843e-15 3.64885e-06 -3.94258e-07 1.23841e-06 -2.79724e-05 3.39498e-05 4.53406e-05 9.18239e-05 3.06235e-06 7.54543e-06 -6.89808e-06 5.62194e-06 -8.46929e-06 1.41216e-05 -8.42802e-06
internal_weight=518400 50551 467849 46826 2752 3725 3039 1221 44074 30394 13680 7146 2086 1818 1220
internal_count=518400 50551 467849 46826 2752 3725 3039 1221 44074 30394 13680 7146 2086 1818 1220
is_linear=0
shrinkage=0.1


Tree=45
num_leaves=16
num_cat=0
split_feature=10 2 4 11 9 10 15 14 15 9 5 9 16 14 16
split_gain=7.74006e-05 0.000114403 0.000428819 0.00024191 0.000715088 0.000325985 0.000268241 0.000209755 0.000196206 0.000119038 0.000710077 0.000235798 0.00016865 0.000349005 0.000227544
threshold=0.86385701676964233 0.010889336613204017 0.0060594102281005266 90.873144601186468 0.013066279616390732 0.28571428571426538 55.782312925173009 96.838521595940207 91.588151050076107 0.021950962166724878 0.004379976239562767 0.017642230026443498 88.902476833301975 98.338072611435095 84.338981198031362
decision_type=2 2 2 2 2 2 2 2 2 2 2 2 2 2 2
left_child=1 9 -3 4 6 7 -4 -5 -7 11 -11 -1 14 -14 -12
right_child=-2 2 3 5 -6 8 -8 -9 -10 10 12 -13 13 -15 -16
leaf_value=1.6240018528371364e-07 -4.9052839718955415e-06 7.4428418832029618e-05 -3.1689213182217912e-05 2.2983872862786841e-05 -0.00011264359576668418 2.0067341847664894e-05 5.8475951284590751e-05 0.00011060915540394318 -3.5336812735256396e-05 0.00012844141972834567 1.3840282671988474e-05 -2.8758351149992836e-05 5.9085801583889347e-05 -4.2690911114610014e-05 -6.6745219182969367e-05
leaf_weight=475144 30288 979 621 591 638 1674 704 508 1034 503 724 2836 957 520 679
leaf_count=475144 30288 979 621 591 638 1674 704 508 1034 503 724 2836 957 520 679
internal_value=8.50127e-14 3.04379e-07 1.32337e-05 2.85075e-06 -2.56641e-05 1.75538e-05 1.62174e-05 6.34876e-05 -1.08772e-06 1.23103e-07 1.88153e-05 -9.19539e-09 -3.31181e-07 2.32538e-05 -2.51601e-05
internal_weight=518400 488112 6749 5770 1963 3807 1325 1099 2708 481363 3383 477980 2880 1477 1403
internal_count=518400 488112 6749 5770 1963 3807 1325 1099 2708 481363 3383 477980 2880 1477 1403
is_linear=0
shrinkage=0.1


Tree=46
num_leaves=16
num_cat=0
split_feature=0 9 10 1 14 0 10 1 11 11 9 0 11 10 12
split_gain=8.0566e-05 0.000227395 0.000275796 0.000243806 0.000305692 0.000193454 0.000191955 0.000105695 0.000219983 0.000220053 0.000535692 0.000193456 0.000214241 0.000195967 0.000194423
threshold=0.0071520839746695994 0.033592333927775726 0.85714285714286931 0.0025360819888015089 62.243158673653944 0.010753835530006197 0.93750000000000488 0.0052543248866689938 147.6340888780563 -57.119313949413971 -0.012475750343426904 0.0036157207894743641 -44.1637863799127 0.5000000000000745 36.786622200235811
decision_type=2 2 2 2 2 2 2 2 2 2 2 2 2 2 2
left_child=7 2 3 -2 -5 -6 -4 11 9 -9 -11 -1 14 -14 -13
right_child=1 -3 6 4 5 -7 -8 8 -10 10 -12 12 13 -15 -16
leaf_value=-1.4274830692242433e-07 9.849394150614729e-05 -4.0103516107034848e-05 -3.6668126832085465e-05 -4.6034985034566494e-05 2.2534392280229023e-05 8.9344816075234994e-05 3.3965822851890511e-05 3.435531425960411e-05 1.2565791458064409e-05 -0.00011693599901531713 -1.2722452099641155e-05 8.4102140197096701e-06 7.7670425654789675e-05 1.7353109596172091e-05 -5.0411219184701621e-05
leaf_weight=483998 534 734 1139 500 1603 594 581 900 4191 513 12812 1632 582 7230 857
leaf_count=483998 534 734 1139 500 1603 594 581 900 4191 513 12812 1632 582 7230 857
internal_value=1.95774e-14 1.1839e-05 1.95397e-05 3.67601e-05 2.45369e-05 4.05978e-05 -1.28086e-05 -1.31272e-07 -7.56979e-06 -1.35022e-05 -1.67346e-05 1.45864e-07 1.37065e-05 2.18468e-05 -1.18429e-05
internal_weight=518400 5685 4951 3231 2697 2197 1720 512715 18416 14225 13325 494299 10301 7812 2489
internal_count=518400 5685 4951 3231 2697 2197 1720 512715 18416 14225 13325 494299 10301 7812 2489
is_linear=0
shrinkage=0.1


Tree=47
num_leaves=16
num_cat=0
split_feature=7 14 1 4 0 10 3 10 10 12 14 1 5 7 16
split_gain=7.43823e-05 0.000332178 0.000512384 0.000198631 0.000172328 0.000432629 0.00023696 0.000265578 0.000469391 0.000271265 0.000259746 0.000247038 0.000218028 0.000182039 0.000197955
threshold=0.0066490389835136563 17.327717624226874 -0.0076960845980378325 -0.004453212353510704 -0.0041449955358203719 -0.46153846153845984 -0.013350044038917595 -0.82352941176472649 -0.72727272727266068 35.187229866458125 64.517548723545829 -0.0034629412092229135 -0.025144712063690285 -0.022097068325267141 16.009592982012382
decision_type=2 2 2 2 2 2 2 2 2 2 2 2 2 2 2
left_child=4 -2 -3 -4 5 6 7 -1 -9 -10 11 -8 -6 14 -14
right_child=1 2 3 -5 12 -7 10 8 9 -11 -12 -13 13 -15 -16
leaf_value=7.3087735683206954e-05 -7.6396947949388275e-05 8.4924496519282261e-05 -6.0798120906989962e-05 -3.3789884078549258e-06 5.3367622070596368e-05 -7.6140981961029592e-05 -7.7014849294302086e-06 -7.6335269433977442e-05 -2.3992478422983914e-07 8.9244357337953432e-05 4.6835779921951953e-05 -4.3988769818428614e-05 3.790543632185589e-06 7.2623244581872393e-07 -7.5318145771918272e-05
leaf_weight=711 623 655 611 43138 785 934 7904 555 955 525 695 2460 610 456582 657
leaf_count=711 623 655 611 43138 785 934 7904 555 955 525 695 2460 610 456582 657
internal_value=-1.38732e-14 -3.8839e-06 -2.86652e-06 -4.18091e-06 3.69434e-07 -1.02738e-05 -5.8175e-06 2.04747e-05 2.09243e-06 3.15028e-05 -1.2346e-05 -1.63146e-05 7.11475e-07 6.21194e-07 -3.72311e-05
internal_weight=518400 45027 44404 43749 473373 14739 13805 2746 2035 1480 11059 10364 458634 457849 1267
internal_count=518400 45027 44404 43749 473373 14739 13805 2746 2035 1480 11059 10364 458634 457849 1267
is_linear=0
shrinkage=0.1


Tree=48
num_leaves=16
num_cat=0
split_feature=13 0 6 17 15 17 1 15 0 12 12 12 11 2 12
split_gain=7.38636e-05 0.000173209 0.000110627 0.000429118 0.00103841 0.000324501 0.000224839 0.000388249 0.000168701 0.00018692 0.000149833 0.000146803 0.000242901 0.00029 0.000240894
threshold=80.133519116916105 0.0046499913404812751 0.0082616499917901338 1.6416111159074076 27.160493827162806 1.6416111159074076 -0.014475296504691813 13.888888888893996 -0.0079659665234474413 25.580990934444802 37.458292402713113 63.93554062485476 90.873144601186468 0.0022788560175682764 71.335982925786226
decision_type=2 2 2 2 2 2 2 2 2 2 2 2 2 2 2
left_child=2 -2 3 6 -5 11 7 -1 9 -8 -11 -4 13 14 -13
right_child=1 -3 5 4 -6 -7 8 -9 -10 10 -12 12 -14 -15 -16
leaf_value=-0.00010587870369117618 -9.3100910058060904e-07 6.117903761624335e-05 3.5099835630770784e-06 0.00015978735974450891 -2.459155071438177e-05 -7.0523906078591336e-05 2.1488373483475309e-05 2.8993536257736648e-07 3.6029055832157666e-07 -9.202876900712101e-05 -2.3708557708323575e-05 3.6626129929554316e-05 -3.6941463248625026e-06 -6.1718192062434283e-05 -3.6321480950095444e-05
leaf_weight=545 1409 659 12572 560 672 763 523 936 483897 506 878 782 10796 1827 1075
leaf_count=545 1409 659 12572 560 672 763 523 936 483897 506 878 782 10796 1827 1075
internal_value=4.27406e-14 1.88613e-05 -7.55428e-08 2.73731e-07 5.9217e-05 -6.20986e-06 1.24705e-07 -3.87796e-05 2.43306e-07 -2.94411e-05 -4.86869e-05 -4.39589e-06 -1.126e-05 -3.34319e-05 -5.60256e-06
internal_weight=518400 2068 516332 488517 1232 27815 487285 1481 485804 1907 1384 27052 14480 3684 1857
internal_count=518400 2068 516332 488517 1232 27815 487285 1481 485804 1907 1384 27052 14480 3684 1857
is_linear=0
shrinkage=0.1


Tree=49
num_leaves=16
num_cat=0
split_feature=1 4 11 16 10 2 11 5 5 14 5 16 4 7 6
split_gain=7.21743e-05 0.000352356 0.000322252 0.000466964 0.000301887 0.000202086 0.000416334 0.000217076 0.000197114 0.000190036 0.000166716 0.000141908 0.000398359 0.000388888 0.000293829
threshold=-0.001751824817518288 0.0053221175088076231 21.712864360988647 87.037037037040662 -0.37499999999999961 -0.0052943847229812149 -7.8938121259170329 -0.014236252215295007 0.0083916219606403625 17.701783734361555 0.010933514236353361 17.882016653467112 -0.023360668748285126 -0.029114832535885201 -0.020726508769254411
decision_type=2 2 2 2 2 2 2 2 2 2 2 2 2 2 2
left_child=1 8 -3 4 -4 6 7 -2 11 -9 -5 12 -1 -13 -15
right_child=5 2 3 10 -6 -7 -8 9 -10 -11 -12 13 -14 14 -16
leaf_value=7.4927368779891928e-05 -5.8576864430563455e-05 9.6713038683321202e-05 3.1133710249403895e-05 3.3413354085465721e-05 -4.9306834184645952e-05 -3.7280538662813116e-07 -9.8648358113403957e-05 -1.9457092505581219e-05 -5.0136783508384504e-05 4.3243651517755719e-05 0.00011040422584678986 -8.2939219928884606e-05 6.3739519212748426e-06 -5.9236574359300639e-05 1.1346368307406667e-06
leaf_weight=897 636 651 880 593 993 418575 627 1077 740 877 535 563 15407 815 74534
leaf_count=897 636 651 880 593 993 418575 627 1077 740 877 535 563 15407 815 74534
internal_value=1.14308e-13 2.46548e-06 3.29344e-05 1.90991e-05 -1.15131e-05 -5.64698e-07 -2.55325e-05 -7.83224e-06 1.26843e-06 8.68444e-06 6.99294e-05 1.68094e-06 1.01456e-05 -1.37048e-07 4.81642e-07
internal_weight=518400 96608 3652 3001 1873 421792 3217 2590 92956 1954 1128 92216 16304 75912 75349
internal_count=518400 96608 3652 3001 1873 421792 3217 2590 92956 1954 1128 92216 16304 75912 75349
is_linear=0
shrinkage=0.1


Tree=50
num_leaves=16
num_cat=0
split_feature=0 9 10 14 1 13 10 11 14 9 11 1 0 3 2
split_gain=6.82069e-05 0.000181882 0.000327637 0.000250229 0.000305335 0.000224357 0.00018877 0.000231742 0.000195619 0.000101589 0.00016968 8.20101e-05 0.000174744 0.000206327 0.000171568
threshold=0.0063448988554882799 0.033592333927775726 0.54723355430902598 61.494586022680039 0.0044075715302561722 48.461536808500306 0.76288659793813729 96.463700243316708 96.362481687149781 0.013066279616390732 147.6340888780563 0.0020898121669857832 0.002004775010234106 0.01253816832252719 -0.0057581573896353091
decision_type=2 2 2 2 2 2 2 2 2 2 2 2 2 2 2
left_child=11 2 -2 4 -4 -5 7 -7 -8 -10 -11 12 13 -1 -14
right_child=1 -3 3 5 -6 6 8 -9 9 10 -12 -13 14 -15 -16
leaf_value=-1.2652945803410292e-07 9.0503042025181902e-05 -3.5217384554736245e-05 2.4218224996117343e-05 6.1589789619020461e-05 -7.2903866586897947e-05 -6.1336440481059356e-06 3.8671112517343454e-05 8.2036792392141796e-05 8.9062195991552067e-08 -8.6033243099063836e-05 -4.1329435308323784e-06 -3.2223354786929795e-06 -2.4186973787625224e-05 5.1786676087817826e-05 1.2880086467524598e-05
leaf_weight=418374 527 815 576 979 739 555 715 644 1023 500 512 73832 1351 767 16491
leaf_count=418374 527 815 576 979 739 555 715 644 1023 500 512 73832 1351 767 16491
internal_value=8.60821e-14 9.41317e-06 1.4786e-05 8.39435e-06 -3.03622e-05 1.87362e-05 8.11238e-06 4.1224e-05 -6.32427e-06 -2.21335e-05 -4.45975e-05 -1.39774e-07 3.81051e-07 -3.15318e-08 1.00734e-05
internal_weight=518400 7585 6770 6243 1315 4928 3949 1199 2750 2035 1012 510815 436983 419141 17842
internal_count=518400 7585 6770 6243 1315 4928 3949 1199 2750 2035 1012 510815 436983 419141 17842
is_linear=0
shrinkage=0.1


Tree=51
num_leaves=16
num_cat=0
split_feature=10 2 0 0 15 2 17 15 7 0 3 1 11 5 12
split_gain=6.83972e-05 0.00030506 0.000207527 0.000175779 0.000236389 0.000195152 0.000165559 0.000157434 0.000172166 0.000138438 0.000541055 0.000237137 0.000320224 0.000519601 0.000363923
threshold=-0.66666666666660046 -0.018131629589801575 -0.010283088686780793 -0.0079659665234474413 35.351715035868715 -0.0039301133387146794 0.77514764991736096 69.586744334633025 -0.013602644815137508 -0.0027593317060758955 0.01253816832252719 -0.004241578678215562 -67.788755879697192 -0.0087305975234143168 34.247569506776742
decision_type=2 2 2 2 2 2 2 2 2 2 2 2 2 2 2
left_child=1 -1 -2 4 -3 7 -7 8 -5 10 11 12 14 -14 -4
right_child=2 3 9 5 -6 6 -8 -9 -10 -11 -12 -13 13 -15 -16
leaf_value=6.9638992496308039e-05 -6.2101759487545466e-05 -6.2118237556340014e-05 3.6846793652145497e-07 5.0340281750111708e-05 7.1275977687707734e-06 1.2407060052114799e-06 -4.7046681394607239e-05 5.1587601024087845e-05 7.0623525821684626e-06 -9.8926323733534823e-08 9.1332016232677948e-05 -2.9466775541645595e-05 0.00011288568036521486 3.2177223853627612e-06 -6.3723407987860943e-05
leaf_weight=675 546 982 2800 1012 990 64077 718 1048 10025 425116 502 5782 532 2299 1296
leaf_count=675 546 982 2800 1012 990 64077 718 1048 10025 425116 502 5782 532 2299 1296
internal_value=-1.13859e-13 2.69835e-06 -4.88962e-07 2.12532e-06 -2.73549e-05 2.8815e-06 7.05629e-07 1.45476e-05 1.10306e-05 -4.12214e-07 -1.04935e-05 -1.45155e-05 -2.03567e-06 2.38265e-05 -1.99106e-05
internal_weight=518400 79527 438873 78852 1972 76880 64795 12085 11037 438327 13211 12709 6927 2831 4096
internal_count=518400 79527 438873 78852 1972 76880 64795 12085 11037 438327 13211 12709 6927 2831 4096
is_linear=0
shrinkage=0.1


Tree=52
num_leaves=16
num_cat=0
split_feature=10 0 9 2 16 8 10 8 17 0 16 0 0 0 7
split_gain=6.64683e-05 0.000132372 0.000372181 0.000275208 0.000347891 0.000142767 0.000102305 9.0259e-05 0.000244512 0.000289511 0.000307183 0.000258308 0.000247137 0.000288201 0.000235129
threshold=0.79999999999998639 0.0063448988554882799 0.033592333927775726 0.0023847969211089341 33.010283769713425 0.018415804008333096 0.69999999999998008 0.0088880696860241821 0.80120543573000347 -0.0024469820554648409 76.795705734794936 -0.0054658317918583324 0.00054440286063606191 0.0041787878311636559 0.023135180136437897
decision_type=2 2 2 2 2 2 2 2 2 2 2 2 2 2 2
left_child=1 7 3 -3 -5 6 -6 -1 14 10 -10 -12 -11 -14 -9
right_child=-2 2 -4 4 5 -7 -8 8 9 12 11 -13 13 -15 -16
leaf_value=5.3011213259039602e-07 -3.6622581457805423e-06 7.7546577436545959e-05 -5.8227158967125315e-05 -4.9593819134067153e-05 8.7660796703972784e-05 -3.0197258157881805e-06 2.8733787147740161e-05 -3.3153634397944488e-06 7.1522583822754434e-05 -8.4324193668905431e-05 -6.5527626175055327e-05 2.7814029938418621e-05 1.3839120899494999e-06 -7.8423294800576628e-05 4.5584552456093313e-05
leaf_weight=443731 45234 924 542 644 555 615 628 19689 517 1024 619 569 1407 667 1035
leaf_count=443731 45234 924 542 644 555 615 628 19689 517 1024 619 569 1407 667 1035
internal_value=-7.64113e-14 3.50107e-07 1.86783e-05 3.10618e-05 1.3473e-05 3.6062e-05 5.63792e-05 1.97468e-07 -5.58481e-06 -2.59145e-05 7.17992e-06 -2.08211e-05 -4.41282e-05 -2.42821e-05 -8.73199e-07
internal_weight=518400 473166 3908 3366 2442 1798 1183 469258 25527 4803 1705 1188 3098 2074 20724
internal_count=518400 473166 3908 3366 2442 1798 1183 469258 25527 4803 1705 1188 3098 2074 20724
is_linear=0
shrinkage=0.1


Tree=53
num_leaves=16
num_cat=0
split_feature=4 1 9 0 2 17 15 1 10 7 3 0 1 0 17
split_gain=6.58219e-05 0.000385477 0.000465027 0.000361226 0.000189358 0.000216008 0.00147943 0.000167692 0.000666132 0.000210212 0.000264189 0.000261211 0.000149755 0.000230532 0.000223667
threshold=-0.00045317563030877745 -0.0065359477124182211 -0.016586755346114476 -0.005034925513921317 0.0083934960262980213 1.3406330542579947 27.160493827162806 -0.014475296504691813 -0.60000000000004183 -0.013602644815137508 -0.0012238083174932466 -0.0079659665234474413 -0.0047619047619047996 -0.002674844047283131 0.90516054257514866
decision_type=2 2 2 2 2 2 2 2 2 2 2 2 2 2 2
left_child=4 3 -3 -2 5 7 -7 8 -1 10 12 -11 14 -14 -9
right_child=1 2 -4 -5 -6 6 -8 9 -10 11 -12 -13 13 -15 -16
leaf_value=2.4197065350218227e-05 0.00010438418407687571 -7.2956490495224065e-05 8.9805310006340597e-07 1.0652589672160985e-05 5.0901366468962929e-05 5.3764290402462598e-05 -0.00012931381679287125 2.0350831846348446e-05 -0.00012403817379265877 -5.9218757604907832e-05 -4.933789797057607e-05 -1.4232357041719107e-06 -3.7008483176756257e-05 1.8867401684392834e-05 7.7428865681931851e-05
leaf_weight=725 687 855 298430 1024 692 897 869 3518 521 785 611 204075 995 2863 853
leaf_count=725 687 855 298430 1024 692 897 869 3518 521 785 611 204075 995 2863 853
internal_value=-1.21323e-13 9.57649e-07 6.87065e-07 4.82877e-05 -1.32587e-06 -1.49264e-06 -3.63234e-05 -1.20647e-06 -3.77857e-05 -9.93187e-07 1.41051e-05 -1.6447e-06 1.88158e-05 4.4567e-06 3.14896e-05
internal_weight=518400 300996 299285 1711 217404 216712 1766 214946 1246 213700 8840 204860 8229 3858 4371
internal_count=518400 300996 299285 1711 217404 216712 1766 214946 1246 213700 8840 204860 8229 3858 4371
is_linear=0
shrinkage=0.1


Tree=54
num_leaves=16
num_cat=0
split_feature=8 0 0 2 14 7 17 0 14 5 8 3 8 0 0
split_gain=5.89784e-05 0.000227661 0.000156517 0.000243151 0.00023389 0.000149717 0.000594225 0.000236163 0.000636525 0.00103821 0.000505679 0.000239027 0.000205156 0.000161188 0.000136365
threshold=-0.00038950922495090129 0.010753835530006197 0.0057687983260097395 0.010889336613204017 61.866454625984133 0.0019707130163936219 0.67716328368106249 -0.0060010287526858211 0.49486473516440266 -0.011036407974467031 -0.031056555708942554 0.0090336010718055099 -0.0093202567348900072 0.0049553532394227559 -0.010283088686780793
decision_type=2 2 2 2 2 2 2 2 2 2 2 2 2 2 2
left_child=1 2 3 5 -4 7 -7 8 10 -10 -1 13 -11 -9 -12
right_child=-2 -3 4 -5 -6 6 -8 11 9 12 14 -13 -14 -15 -16
leaf_value=8.7428498611552644e-05 -9.7014730567974903e-07 6.590815964116237e-05 -5.6803247087940506e-05 6.0586079266601969e-05 1.0240855749923446e-05 -3.3004142098125678e-07 0.00010151695862413212 1.2918502058884867e-06 -0.0001459977363116526 4.2816435315482708e-05 -5.555200218448004e-05 -6.0023854919704336e-05 -4.3477705315468198e-05 4.3350306824655604e-05 -9.8807783817639925e-07
leaf_weight=625 283702 542 1139 689 958 2597 735 220996 880 551 571 634 551 915 2315
leaf_count=625 283702 542 1139 689 958 2597 735 220996 880 551 571 634 551 915 2315
internal_value=-5.03295e-14 1.17271e-06 1.02287e-06 1.26864e-06 -2.61746e-05 1.09199e-06 2.21362e-05 7.84505e-07 -1.96991e-05 -6.50062e-05 5.87731e-06 1.29009e-06 -3.30635e-07 1.46527e-06 -1.17836e-05
internal_weight=518400 234698 234156 232059 2097 231370 3332 228038 5493 1982 3511 222545 1102 221911 2886
internal_count=518400 234698 234156 232059 2097 231370 3332 228038 5493 1982 3511 222545 1102 221911 2886
is_linear=0
shrinkage=0.1


Tree=55
num_leaves=16
num_cat=0
split_feature=10 0 17 11 6 1 0 1 1 17 10 9 0 17 3
split_gain=6.28322e-05 0.000186579 0.000162778 0.000683528 0.00011932 0.000256285 0.000138868 0.000164636 0.000229902 0.000128333 0.000118862 0.000104116 0.000155118 0.0001801 0.000116144
threshold=-0.46874999999999917 -0.0054658317918583324 1.1814172762493758 -28.186970166555671 -0.027231243255762257 -0.011173336205218874 -0.0016069830767171387 0.0038240140738723398 -0.00013266998400002225 0.64888682613599813 -0.28571428571425356 0.011080332409972306 -0.0035973126059516409 0.80120543573000347 -0.0080319832150598774
decision_type=2 2 2 2 2 2 2 2 2 2 2 2 2 2 2
left_child=2 -2 -1 -4 -3 -6 7 8 10 -10 11 12 -7 14 -14
right_child=1 4 3 -5 5 6 -8 -9 9 -11 -12 -13 13 -15 -16
leaf_value=1.4723443367017968e-06 -5.411146409200747e-05 3.6420054739889678e-05 -2.9821445104558776e-05 0.00010697979250625805 -6.5000920890520396e-05 -5.3059810551993405e-05 -2.235818770929418e-07 2.9028333880363644e-05 -2.5280226290485755e-05 -7.7220057615560349e-05 -4.011973604405623e-05 3.7790437057545912e-05 2.280421080213238e-05 5.5788372519009497e-05 -1.4665460257332674e-05
leaf_weight=136495 652 870 771 694 618 651 367564 906 1198 789 995 570 1037 500 4090
leaf_count=136495 652 870 771 694 618 651 367564 906 1198 789 995 570 1037 500 4090
internal_value=1.27999e-13 -6.62967e-07 1.82821e-06 3.49841e-05 -5.7121e-07 -6.56142e-07 -5.51027e-07 -1.17616e-05 -1.55211e-05 -4.59045e-05 -7.82355e-06 -3.13098e-06 -6.84637e-06 -1.49984e-06 -7.08675e-06
internal_weight=518400 380440 137960 1465 379788 378918 378300 10736 9830 1987 7843 6848 6278 5627 5127
internal_count=518400 380440 137960 1465 379788 378918 378300 10736 9830 1987 7843 6848 6278 5627 5127
is_linear=0
shrinkage=0.1


Tree=56
num_leaves=16
num_cat=0
split_feature=13 0 6 9 17 0 10 13 10 5 17 8 5 8 16
split_gain=6.32037e-05 0.000155811 8.60427e-05 0.000774474 0.000260306 0.000130355 0.000291528 0.000302229 0.000175025 0.000245508 0.000262885 0.000304526 0.000233241 0.000225333 0.000224569
threshold=80.133519116916105 0.0046499913404812751 0.0082616499917901338 0.021950962166724878 1.6416111159074076 -0.0041449955358203719 -0.44444444444438042 21.323553442100515 -0.81481481481483564 -0.025144712063690285 1.1814172762493758 -0.0093202567348900072 -0.014236252215295007 -0.017484047133777932 70.26389252543153
decision_type=2 2 2 2 2 2 2 2 2 2 2 2 2 2 2
left_child=2 -2 3 5 -4 6 7 -1 13 -10 11 12 -11 -9 -13
right_child=1 -3 4 -5 -6 -7 -8 8 9 10 -12 14 -14 -15 -16
leaf_value=5.812340622358389e-05 -1.3247242736999064e-06 5.7583525584144072e-05 -3.8551548720224995e-06 0.00011008539847272075 -6.3082118156981259e-05 3.8802156682696337e-07 -6.8545635929531746e-05 6.168940857138778e-05 -8.34864078939772e-05 -3.124750696184547e-05 5.1578028145866422e-05 -5.2431117366371884e-05 2.3894392017345135e-05 -2.1947833963325007e-06 -4.4647733548318716e-06
